<?xml version="1.0"?>
<opencv_storage>
<stage12>
  <maxWeakCount>7</maxWeakCount>
  <stageThreshold>-8.1376487016677856e-01</stageThreshold>
  <weakClassifiers>
    <_>
      <internalNodes>
        1 2 293501 9.5683529973030090e-02 0 -1 238458
        1.1437736451625824e-01 -2 -3 437195 1.3026092201471329e-02</internalNodes>
      <leafValues>
        -3.6316695809364319e-01 6.8695652484893799e-01
        -5.6756758689880371e-01 7.5031524896621704e-01</leafValues></_>
    <_>
      <internalNodes>
        1 2 500571 -3.3708680421113968e-03 0 -1 173922
        -5.9574700891971588e-02 -2 -3 123335 6.1352085322141647e-03</internalNodes>
      <leafValues>
        -7.0128995180130005e-01 5.7803684473037720e-01
        -5.3868836164474487e-01 4.7528374195098877e-01</leafValues></_>
    <_>
      <internalNodes>
        1 2 281256 4.9532144330441952e-03 0 -1 430208
        -6.5404945053160191e-04 -2 -3 253096 7.2599353734403849e-04</internalNodes>
      <leafValues>
        7.7512405812740326e-02 -7.9456621408462524e-01
        -9.8755687475204468e-01 6.1994385719299316e-01</leafValues></_>
    <_>
      <internalNodes>
        1 2 80228 1.4141508936882019e-01 0 -1 159026
        1.2355733662843704e-01 -2 -3 395169 3.9425995200872421e-03</internalNodes>
      <leafValues>
        -2.7079808712005615e-01 4.6960261464118958e-01
        -9.8488783836364746e-01 1.</leafValues></_>
    <_>
      <internalNodes>
        1 2 19303 -1.7605606699362397e-03 0 -1 304074
        -6.8585580447688699e-04 -2 -3 19283 -9.7388908034190536e-04</internalNodes>
      <leafValues>
        -7.3969697952270508e-01 7.3655062913894653e-01
        4.2682749032974243e-01 -4.7168773412704468e-01</leafValues></_>
    <_>
      <internalNodes>
        1 2 384042 1.4841512776911259e-02 0 -1 172500
        5.9827089309692383e-02 -2 -3 129257 5.5514570325613022e-02</internalNodes>
      <leafValues>
        2.7598455548286438e-01 -9.3675231933593750e-01
        -9.5520853996276855e-01 6.0758692026138306e-01</leafValues></_>
    <_>
      <internalNodes>
        1 2 211528 1.0986414551734924e-01 0 -1 35965
        5.6225463747978210e-02 -2 -3 409662 1.0161949694156647e-01</internalNodes>
      <leafValues>
        -4.3524527549743652e-01 3.4281799197196960e-01
        9.3481475114822388e-01 -1.</leafValues></_></weakClassifiers></stage12>
</opencv_storage>
