<?xml version="1.0"?>
<opencv_storage>
<stage5>
  <maxWeakCount>4</maxWeakCount>
  <stageThreshold>-1.3458169698715210e+00</stageThreshold>
  <weakClassifiers>
    <_>
      <internalNodes>
        1 2 183642 2.3308911919593811e-01 0 -1 239064
        -2.5687772780656815e-02 -2 -3 229043 -5.4882161319255829e-02</internalNodes>
      <leafValues>
        3.5616439580917358e-01 -6.9197398424148560e-01
        -8.6842107772827148e-01 7.9934567213058472e-01</leafValues></_>
    <_>
      <internalNodes>
        1 2 254181 8.3857830613851547e-03 0 -1 234444
        -5.0749266520142555e-03 -2 -3 278104 5.5758664384484291e-03</internalNodes>
      <leafValues>
        5.1876306533813477e-01 -6.9204717874526978e-01
        6.9068419933319092e-01 -7.6096731424331665e-01</leafValues></_>
    <_>
      <internalNodes>
        1 2 9874 2.2502045333385468e-01 0 -1 81084
        -4.6688634902238846e-02 -2 -3 199156 2.3176807910203934e-02</internalNodes>
      <leafValues>
        4.7829627990722656e-01 -5.7550466060638428e-01
        -8.6510300636291504e-01 7.0625311136245728e-01</leafValues></_>
    <_>
      <internalNodes>
        1 2 435729 -5.2994834259152412e-03 0 -1 302383
        -2.4888575077056885e-02 -2 -3 125115 1.1892700567841530e-03</internalNodes>
      <leafValues>
        -6.7413693666458130e-01 6.1370879411697388e-01
        -6.6721910238265991e-01 7.5801873207092285e-01</leafValues></_></weakClassifiers></stage5>
</opencv_storage>
