<?xml version="1.0"?>
<opencv_storage>
<stage10>
  <maxWeakCount>5</maxWeakCount>
  <stageThreshold>-8.8088506460189819e-01</stageThreshold>
  <weakClassifiers>
    <_>
      <internalNodes>
        1 2 106818 3.6281518638134003e-02 0 -1 31443
        -2.1081648766994476e-02 -2 -3 281284 1.3762938324362040e-03</internalNodes>
      <leafValues>
        4.4444444775581360e-01 -5.7512950897216797e-01
        -9.2592589557170868e-02 7.6499998569488525e-01</leafValues></_>
    <_>
      <internalNodes>
        1 2 496794 -6.6414019092917442e-03 0 -1 183024
        4.4372074306011200e-02 -2 -3 141198 3.8893684744834900e-02</internalNodes>
      <leafValues>
        8.2803362607955933e-01 -7.6671785116195679e-01
        -3.4250709414482117e-01 5.1770770549774170e-01</leafValues></_>
    <_>
      <internalNodes>
        1 2 498025 2.7130232192575932e-03 0 -1 52218
        3.7403912283480167e-03 -2 -3 365255 -4.9759540706872940e-02</internalNodes>
      <leafValues>
        -5.3590303659439087e-01 2.5114411115646362e-01
        -9.4255381822586060e-01 6.0950350761413574e-01</leafValues></_>
    <_>
      <internalNodes>
        1 2 248666 8.1220467109233141e-04 0 -1 256566
        -1.8899002671241760e-01 -2 -3 276157 -2.7192428708076477e-02</internalNodes>
      <leafValues>
        7.9200220108032227e-01 -8.4927242994308472e-01
        -9.4907134771347046e-01 2.8264683485031128e-01</leafValues></_>
    <_>
      <internalNodes>
        1 2 291057 -2.8608136344701052e-03 0 -1 456632
        -7.4682815466076136e-04 -2 -3 483740 -2.3137535899877548e-03</internalNodes>
      <leafValues>
        -8.5539877414703369e-01 5.9721893072128296e-01
        5.8249717950820923e-01 -4.6752789616584778e-01</leafValues></_></weakClassifiers></stage10>
</opencv_storage>
