<?xml version="1.0"?>
<opencv_storage>
<stage4>
  <maxWeakCount>6</maxWeakCount>
  <stageThreshold>-1.6974141597747803e+00</stageThreshold>
  <weakClassifiers>
    <_>
      <internalNodes>
        1 2 158140 1.7053425312042236e-01 0 -1 93965
        -8.6922291666269302e-03 -2 -3 72713 1.7439581453800201e-01</internalNodes>
      <leafValues>
        3.3500000834465027e-01 -7.3554384708404541e-01
        -6.4853554964065552e-01 8.5932457447052002e-01</leafValues></_>
    <_>
      <internalNodes>
        1 2 437482 -3.4989535808563232e-02 0 -1 393331
        -1.4229439198970795e-02 -2 -3 126890 -7.6732011511921883e-03</internalNodes>
      <leafValues>
        -7.3274844884872437e-01 7.6772952079772949e-01
        5.4263353347778320e-01 -5.0676453113555908e-01</leafValues></_>
    <_>
      <internalNodes>
        1 2 242786 3.4428969025611877e-02 0 -1 16849
        1.4682497829198837e-02 -2 -3 226903 4.9084397032856941e-03</internalNodes>
      <leafValues>
        -5.9873300790786743e-01 3.7824946641921997e-01
        -8.1025880575180054e-01 6.8270009756088257e-01</leafValues></_>
    <_>
      <internalNodes>
        1 2 181218 2.1908157505095005e-03 0 -1 329775
        -2.3541515693068504e-03 -2 -3 261621 -1.4009680598974228e-02</internalNodes>
      <leafValues>
        2.7439061552286148e-02 -7.6369643211364746e-01
        -7.9521316289901733e-01 5.2700066566467285e-01</leafValues></_>
    <_>
      <internalNodes>
        1 2 142316 -3.1909652054309845e-02 0 -1 266293
        -2.6044152677059174e-02 -2 -3 200038 2.0369945093989372e-02</internalNodes>
      <leafValues>
        -8.1147640943527222e-01 8.4195232391357422e-01
        -5.1385200023651123e-01 4.6224346756935120e-01</leafValues></_>
    <_>
      <internalNodes>
        1 2 490288 -1.2798516545444727e-03 0 -1 173368
        -1.0496816597878933e-02 -2 -3 7724 2.7090150862932205e-02</internalNodes>
      <leafValues>
        -9.3388634920120239e-01 5.5741095542907715e-01
        -4.1935786604881287e-01 5.3870683908462524e-01</leafValues></_></weakClassifiers></stage4>
</opencv_storage>
