<?xml version="1.0"?>
<opencv_storage>
<stage16>
  <maxWeakCount>13</maxWeakCount>
  <stageThreshold>-1.3694316148757935e+00</stageThreshold>
  <weakClassifiers>
    <_>
      <internalNodes>
        1 2 436858 -1.1158638447523117e-01 0 -1 212761
        4.4003553688526154e-02 -2 -3 445028 1.1039855889976025e-03</internalNodes>
      <leafValues>
        6.4684927463531494e-01 -6.0898876190185547e-01
        -3.3096647262573242e-01 3.8752362132072449e-01</leafValues></_>
    <_>
      <internalNodes>
        1 2 496652 -1.4255276182666421e-03 0 -1 305449
        8.7843723595142365e-03 -2 -3 483726 -6.6197547130286694e-04</internalNodes>
      <leafValues>
        -4.1247713565826416e-01 7.3000103235244751e-01
        3.4403702616691589e-01 -3.1294479966163635e-01</leafValues></_>
    <_>
      <internalNodes>
        1 2 281249 1.6131636220961809e-03 0 -1 227692
        2.3174310103058815e-02 -2 -3 436639 -3.8134053349494934e-02</internalNodes>
      <leafValues>
        -5.9333920478820801e-01 2.8739130496978760e-01
        4.9661931395530701e-01 -2.2146496176719666e-01</leafValues></_>
    <_>
      <internalNodes>
        1 2 474689 1.3631694018840790e-03 0 -1 492217
        5.0585558637976646e-03 -2 -3 455413 3.1987251713871956e-03</internalNodes>
      <leafValues>
        -3.1513139605522156e-01 2.8943309187889099e-01
        7.0232850313186646e-01 -7.2630828619003296e-01</leafValues></_>
    <_>
      <internalNodes>
        1 2 382984 -1.5986531972885132e-02 0 -1 311817
        5.5605873465538025e-02 -2 -3 332949 -1.4169616624712944e-03</internalNodes>
      <leafValues>
        -8.7589806318283081e-01 5.7225084304809570e-01
        -8.2780194282531738e-01 1.9529739022254944e-01</leafValues></_>
    <_>
      <internalNodes>
        1 2 355442 1.2767119333148003e-03 0 -1 353085
        1.6904126387089491e-03 -2 -3 111196 1.6925650835037231e-01</internalNodes>
      <leafValues>
        -1.4070421457290649e-01 4.3116617202758789e-01
        -9.2642003297805786e-01 8.6421066522598267e-01</leafValues></_>
    <_>
      <internalNodes>
        1 2 272816 -1.6260157572105527e-03 0 -1 182233
        8.4492089226841927e-03 -2 -3 123060 -3.3416736405342817e-03</internalNodes>
      <leafValues>
        -8.1601679325103760e-01 5.7607084512710571e-01
        4.5723608136177063e-01 -1.1293525248765945e-01</leafValues></_>
    <_>
      <internalNodes>
        1 2 129216 7.0429090410470963e-03 0 -1 15496
        1.8138039857149124e-02 -2 -3 497633 -1.1114967986941338e-02</internalNodes>
      <leafValues>
        -7.8467689454555511e-02 5.2184021472930908e-01
        6.3466572761535645e-01 -7.7243244647979736e-01</leafValues></_>
    <_>
      <internalNodes>
        1 2 333716 -7.6499802526086569e-04 0 -1 129713
        8.4819376468658447e-02 -2 -3 430794 5.5078422883525491e-04</internalNodes>
      <leafValues>
        -8.1109082698822021e-01 1. -1.4212147891521454e-01
        4.0239733457565308e-01</leafValues></_>
    <_>
      <internalNodes>
        1 2 413106 1.6078283078968525e-03 0 -1 412543
        -5.5880253203213215e-03 -2 -3 486034 6.5930448472499847e-02</internalNodes>
      <leafValues>
        3.5326057672500610e-01 -3.1633600592613220e-01
        -3.0315890908241272e-01 7.9725927114486694e-01</leafValues></_>
    <_>
      <internalNodes>
        1 2 28547 -1.3742332812398672e-03 0 -1 211951
        4.2185978963971138e-03 -2 -3 418662 -2.2427642252296209e-03</internalNodes>
      <leafValues>
        6.7317914962768555e-01 -4.9321651458740234e-01
        2.0593291521072388e-01 -3.4932878613471985e-01</leafValues></_>
    <_>
      <internalNodes>
        1 2 488869 -2.9768277890980244e-03 0 -1 364144
        4.0199816226959229e-02 -2 -3 159004 8.1261143088340759e-02</internalNodes>
      <leafValues>
        4.5810809731483459e-01 -6.8431109189987183e-01
        -4.6954864263534546e-01 1.1630751937627792e-01</leafValues></_>
    <_>
      <internalNodes>
        1 2 151876 -1.8787799403071404e-02 0 -1 413104
        -3.7987553514540195e-03 -2 -3 19183 -3.6437734961509705e-02</internalNodes>
      <leafValues>
        5.4292082786560059e-01 -8.4836339950561523e-01
        -7.6377582550048828e-01 1.6414470970630646e-01</leafValues></_></weakClassifiers></stage16>
</opencv_storage>
