<?xml version="1.0"?>
<opencv_storage>
<stage8>
  <maxWeakCount>9</maxWeakCount>
  <stageThreshold>-1.6399847269058228e+00</stageThreshold>
  <weakClassifiers>
    <_>
      <internalNodes>
        1 2 186907 1.2080331146717072e-01 0 -1 265077
        -1.0067431256175041e-02 -2 -3 131066 8.4356717765331268e-02</internalNodes>
      <leafValues>
        2.2760646045207977e-01 -5.7603269815444946e-01
        -4.4024205207824707e-01 7.6430976390838623e-01</leafValues></_>
    <_>
      <internalNodes>
        1 2 457830 -2.1137814968824387e-02 0 -1 329128
        -5.9208236634731293e-03 -2 -3 27186 1.9911280833184719e-03</internalNodes>
      <leafValues>
        6.4062213897705078e-01 -3.1450873613357544e-01
        -5.3369212150573730e-01 5.2637588977813721e-01</leafValues></_>
    <_>
      <internalNodes>
        1 2 4322 4.4253591448068619e-02 0 -1 18009
        1.2133689597249031e-03 -2 -3 229042 1.3871786184608936e-02</internalNodes>
      <leafValues>
        -4.4734808802604675e-01 6.2703794240951538e-01
        -5.1025235652923584e-01 6.6708916425704956e-01</leafValues></_>
    <_>
      <internalNodes>
        1 2 491465 -7.4040256440639496e-03 0 -1 379626
        1.1822460219264030e-02 -2 -3 491171 8.5981264710426331e-03</internalNodes>
      <leafValues>
        6.5263718366622925e-01 -7.4998080730438232e-01
        -3.6391520500183105e-01 5.3011131286621094e-01</leafValues></_>
    <_>
      <internalNodes>
        1 2 229975 7.6084717875346541e-04 0 -1 304377
        -8.8748838752508163e-03 -2 -3 271630 -3.0429963953793049e-03</internalNodes>
      <leafValues>
        4.6238359808921814e-01 -7.2232520580291748e-01
        -8.9167642593383789e-01 2.6023378968238831e-01</leafValues></_>
    <_>
      <internalNodes>
        1 2 475681 7.3790843598544598e-03 0 -1 181829
        4.5277569442987442e-03 -2 -3 229769 1.0507002472877502e-02</internalNodes>
      <leafValues>
        -3.5743269324302673e-01 5.7155525684356689e-01
        6.2676614522933960e-01 -4.3077540397644043e-01</leafValues></_>
    <_>
      <internalNodes>
        1 2 334916 -1.2134825810790062e-02 0 -1 464728
        -1.0446229577064514e-01 -2 -3 288188 9.5778552349656820e-04</internalNodes>
      <leafValues>
        9.6917599439620972e-01 -8.6486798524856567e-01
        -1.7024040222167969e-01 4.8128265142440796e-01</leafValues></_>
    <_>
      <internalNodes>
        1 2 303573 -1.1797687038779259e-03 0 -1 275402
        -8.3086086669936776e-04 -2 -3 210605 -1.7285842448472977e-02</internalNodes>
      <leafValues>
        -5.8791744709014893e-01 3.8257765769958496e-01
        8.4189765155315399e-02 -7.6456290483474731e-01</leafValues></_>
    <_>
      <internalNodes>
        1 2 16856 -1.3541765511035919e-02 0 -1 394231
        -2.0438276231288910e-02 -2 -3 20741 3.1983524560928345e-02</internalNodes>
      <leafValues>
        -8.5970056056976318e-01 4.9827712774276733e-01
        -4.8565798997879028e-01 3.6041319370269775e-01</leafValues></_></weakClassifiers></stage8>
</opencv_storage>
