<?xml version="1.0"?>
<opencv_storage>
<stage12>
  <maxWeakCount>12</maxWeakCount>
  <stageThreshold>-1.6700147390365601e+00</stageThreshold>
  <weakClassifiers>
    <_>
      <internalNodes>
        1 2 241335 1.3929924368858337e-01 0 -1 81084
        -4.4703610241413116e-02 -2 -3 47731 9.2015355825424194e-02</internalNodes>
      <leafValues>
        3.1849792599678040e-01 -4.6946752071380615e-01
        -7.2169810533523560e-01 6.3160085678100586e-01</leafValues></_>
    <_>
      <internalNodes>
        1 2 33954 2.8489811345934868e-02 0 -1 43962
        -2.5610588490962982e-03 -2 -3 255072 2.3891744203865528e-03</internalNodes>
      <leafValues>
        4.7896942496299744e-01 -3.3813577890396118e-01
        -1.7646387219429016e-01 7.1988928318023682e-01</leafValues></_>
    <_>
      <internalNodes>
        1 2 461514 1.8117176368832588e-02 0 -1 491674
        1.1705590877681971e-03 -2 -3 382399 -6.7302300594747066e-03</internalNodes>
      <leafValues>
        -3.9566284418106079e-01 3.8244447112083435e-01
        6.2874519824981689e-01 -1.7667675018310547e-01</leafValues></_>
    <_>
      <internalNodes>
        1 2 171293 4.8772372305393219e-02 0 -1 353868
        -4.4535315828397870e-04 -2 -3 110674 -1.9966565072536469e-02</internalNodes>
      <leafValues>
        3.8817626237869263e-01 -1.8141941726207733e-01
        7.6008421182632446e-01 -8.8939100503921509e-01</leafValues></_>
    <_>
      <internalNodes>
        1 2 336823 6.5519264899194241e-04 0 -1 83348
        3.0151300132274628e-02 -2 -3 237419 -1.8723049433901906e-03</internalNodes>
      <leafValues>
        -4.4487029314041138e-01 3.2170736789703369e-01
        -4.4482013583183289e-01 4.5554921030998230e-01</leafValues></_>
    <_>
      <internalNodes>
        1 2 172606 6.2285577878355980e-03 0 -1 356136
        -2.7157913427799940e-04 -2 -3 225441 9.8193243145942688e-02</internalNodes>
      <leafValues>
        1.3685813546180725e-01 -6.0944437980651855e-01
        -2.6141166687011719e-01 6.2178313732147217e-01</leafValues></_>
    <_>
      <internalNodes>
        1 2 223657 -2.5200175587087870e-03 0 -1 415567
        6.4025931060314178e-02 -2 -3 485953 -1.8868917322834022e-05</internalNodes>
      <leafValues>
        -7.4692285060882568e-01 6.1164671182632446e-01
        3.6134004592895508e-01 -2.5398099422454834e-01</leafValues></_>
    <_>
      <internalNodes>
        1 2 393048 -5.5242227390408516e-03 0 -1 351176
        -1.9237319007515907e-02 -2 -3 123983 -4.9100224860012531e-03</internalNodes>
      <leafValues>
        4.9343952536582947e-01 -8.0145210027694702e-01
        5.6813806295394897e-01 -6.2260463833808899e-02</leafValues></_>
    <_>
      <internalNodes>
        1 2 301436 -1.3756719417870045e-03 0 -1 12641
        4.2444821447134018e-02 -2 -3 303135 -1.8397367093712091e-03</internalNodes>
      <leafValues>
        -8.2822358608245850e-01 2.6348245143890381e-01
        -5.0626295804977417e-01 2.2410072386264801e-01</leafValues></_>
    <_>
      <internalNodes>
        1 2 462859 -1.3608655426651239e-03 0 -1 374217
        4.3892236426472664e-03 -2 -3 496709 -1.3653697445988655e-02</internalNodes>
      <leafValues>
        7.6073545217514038e-01 -9.0583795309066772e-01
        4.9211913347244263e-01 -2.5488081574440002e-01</leafValues></_>
    <_>
      <internalNodes>
        1 2 363903 -8.4399394690990448e-03 0 -1 499446
        -1.0599734261631966e-02 -2 -3 498307 2.9456871561706066e-03</internalNodes>
      <leafValues>
        9.0673619508743286e-01 -7.6798021793365479e-01
        -5.5148150771856308e-02 5.3802096843719482e-01</leafValues></_>
    <_>
      <internalNodes>
        1 2 434161 3.0055986717343330e-03 0 -1 235450
        2.5104044470936060e-04 -2 -3 112291 3.3142182976007462e-02</internalNodes>
      <leafValues>
        -1.8859159946441650e-01 3.5308882594108582e-01
        -8.7754702568054199e-01 2.0192515850067139e-01</leafValues></_></weakClassifiers></stage12>
</opencv_storage>
