<?xml version="1.0"?>
<opencv_storage>
<stage5>
  <maxWeakCount>6</maxWeakCount>
  <stageThreshold>-1.8736133575439453e+00</stageThreshold>
  <weakClassifiers>
    <_>
      <internalNodes>
        1 2 452374 -7.9697921872138977e-02 0 -1 227980
        -3.9480872452259064e-02 -2 -3 493173 -3.7930416874587536e-03</internalNodes>
      <leafValues>
        -8.4406781196594238e-01 7.9181385040283203e-01
        2.3113207519054413e-01 -6.7260938882827759e-01</leafValues></_>
    <_>
      <internalNodes>
        1 2 316416 8.7386056780815125e-02 0 -1 4559
        -2.0499449223279953e-02 -2 -3 258082 4.9646468833088875e-03</internalNodes>
      <leafValues>
        3.4189760684967041e-01 -5.4421049356460571e-01
        -6.1859065294265747e-01 7.9284256696701050e-01</leafValues></_>
    <_>
      <internalNodes>
        1 2 255217 9.0514477342367172e-03 0 -1 208346
        4.1597126983106136e-03 -2 -3 172500 5.8976881206035614e-02</internalNodes>
      <leafValues>
        -6.1198848485946655e-01 2.3253434896469116e-01
        5.2577453851699829e-01 -8.5812735557556152e-01</leafValues></_>
    <_>
      <internalNodes>
        1 2 459742 -1.4214737340807915e-02 0 -1 57413
        3.8794381543993950e-04 -2 -3 47582 -6.8643026053905487e-02</internalNodes>
      <leafValues>
        -6.4363133907318115e-01 5.6332951784133911e-01
        4.8954522609710693e-01 -5.5810940265655518e-01</leafValues></_>
    <_>
      <internalNodes>
        1 2 170445 -3.1928047537803650e-02 0 -1 459354
        5.6181354448199272e-03 -2 -3 171713 2.4723798036575317e-02</internalNodes>
      <leafValues>
        -8.4187251329421997e-01 7.6300996541976929e-01
        -4.8718544840812683e-01 4.5443734526634216e-01</leafValues></_>
    <_>
      <internalNodes>
        1 2 474773 2.3630610667169094e-03 0 -1 128780
        -2.5478767231106758e-02 -2 -3 153457 -2.9388166964054108e-02</internalNodes>
      <leafValues>
        6.9125872850418091e-01 -4.9135342240333557e-01
        7.0779597759246826e-01 -4.7164723277091980e-02</leafValues></_></weakClassifiers></stage5>
</opencv_storage>
