<?xml version="1.0"?>
<opencv_storage>
<stage0>
  <maxWeakCount>3</maxWeakCount>
  <stageThreshold>-1.4583336114883423e+00</stageThreshold>
  <weakClassifiers>
    <_>
      <internalNodes>
        1 2 292618 4.1140433400869370e-02 0 -1 475230
        -4.7213047742843628e-02 -2 -3 160662 3.3490531146526337e-02</internalNodes>
      <leafValues>
        6.1256545782089233e-01 -8.4677964448928833e-01
        -6.6507178544998169e-01 9.7204303741455078e-01</leafValues></_>
    <_>
      <internalNodes>
        1 2 13027 1.7605027556419373e-01 0 -1 794
        -1.3771041296422482e-02 -2 -3 158207 2.1610505878925323e-02</internalNodes>
      <leafValues>
        5.6494665145874023e-01 -7.0964568853378296e-01
        -6.8028146028518677e-01 9.6541339159011841e-01</leafValues></_>
    <_>
      <internalNodes>
        1 2 300433 4.3800286948680878e-03 0 -1 436639
        -2.8339140117168427e-02 -2 -3 203196 -8.7902601808309555e-03</internalNodes>
      <leafValues>
        9.8091773688793182e-02 -8.9380449056625366e-01
        -9.7107934951782227e-01 7.3860484361648560e-01</leafValues></_></weakClassifiers></stage0>
</opencv_storage>
