<?xml version="1.0"?>
<opencv_storage>
<stage8>
  <maxWeakCount>5</maxWeakCount>
  <stageThreshold>-1.1086999177932739e+00</stageThreshold>
  <weakClassifiers>
    <_>
      <internalNodes>
        1 2 476212 8.8675260543823242e-02 0 -1 265178
        1.3017777353525162e-02 -2 -3 115651 8.9517794549465179e-03</internalNodes>
      <leafValues>
        -6.4537656307220459e-01 3.5042735934257507e-01
        -6.2686568498611450e-01 7.1988564729690552e-01</leafValues></_>
    <_>
      <internalNodes>
        1 2 182457 -3.9959058165550232e-02 0 -1 315743
        -7.2417175397276878e-03 -2 -3 141137 -3.9902985095977783e-02</internalNodes>
      <leafValues>
        7.7734351158142090e-01 -6.5436905622482300e-01
        5.1666229963302612e-01 -4.2793712019920349e-01</leafValues></_>
    <_>
      <internalNodes>
        1 2 329007 3.1909192912280560e-03 0 -1 180247
        3.4198719076812267e-03 -2 -3 457830 -1.7536226660013199e-02</internalNodes>
      <leafValues>
        -6.4611095190048218e-01 2.2136770188808441e-01
        6.2319809198379517e-01 -1.9666311144828796e-01</leafValues></_>
    <_>
      <internalNodes>
        1 2 114462 1.5690747648477554e-02 0 -1 172505
        8.4165679290890694e-03 -2 -3 396825 8.9758541435003281e-03</internalNodes>
      <leafValues>
        -5.3355622291564941e-01 2.4007993936538696e-01
        8.0918002128601074e-01 -9.5097970962524414e-01</leafValues></_>
    <_>
      <internalNodes>
        1 2 194702 7.6835840940475464e-02 0 -1 243166
        3.1586788594722748e-02 -2 -3 492255 -7.4359983205795288e-02</internalNodes>
      <leafValues>
        3.1469547748565674e-01 -7.5782662630081177e-01
        5.3784561157226562e-01 -8.9866429567337036e-01</leafValues></_></weakClassifiers></stage8>
</opencv_storage>
