<?xml version="1.0"?>
<opencv_storage>
<stage2>
  <maxWeakCount>4</maxWeakCount>
  <stageThreshold>-1.4099295139312744e+00</stageThreshold>
  <weakClassifiers>
    <_>
      <internalNodes>
        1 2 105401 4.7745607793331146e-02 0 -1 123506
        2.4503193795681000e-02 -2 -3 268396 9.6070863306522369e-02</internalNodes>
      <leafValues>
        -8.0206793546676636e-01 5.4639172554016113e-01
        -5.2558141946792603e-01 9.3562805652618408e-01</leafValues></_>
    <_>
      <internalNodes>
        1 2 435783 -4.5123986899852753e-02 0 -1 498419
        1.6235439106822014e-02 -2 -3 124154 -4.3032355606555939e-03</internalNodes>
      <leafValues>
        8.6939102411270142e-01 -7.6164972782135010e-01
        5.0498539209365845e-01 -5.6159502267837524e-01</leafValues></_>
    <_>
      <internalNodes>
        1 2 204072 2.8532454743981361e-03 0 -1 446542
        -3.4846398979425430e-02 -2 -3 229018 -4.5846216380596161e-02</internalNodes>
      <leafValues>
        3.0968558788299561e-01 -8.3872437477111816e-01
        -8.7630212306976318e-01 5.3681582212448120e-01</leafValues></_>
    <_>
      <internalNodes>
        1 2 8362 3.3672323822975159e-01 0 -1 51627
        -5.5051982402801514e-02 -2 -3 253727 1.6722565516829491e-02</internalNodes>
      <leafValues>
        4.5526954531669617e-01 -5.8308237791061401e-01
        -5.4789412021636963e-01 9.2719978094100952e-01</leafValues></_></weakClassifiers></stage2>
</opencv_storage>
