<?xml version="1.0"?>
<opencv_storage>
<stage0>
  <maxWeakCount>3</maxWeakCount>
  <stageThreshold>-1.1336439847946167e+00</stageThreshold>
  <weakClassifiers>
    <_>
      <internalNodes>
        1 2 294127 4.6695135533809662e-02 0 -1 264636
        -7.9208947718143463e-03 -2 -3 190870 8.9187445119023323e-03</internalNodes>
      <leafValues>
        4.4285714626312256e-01 -8.5898303985595703e-01
        -8.6666667461395264e-01 9.7075271606445312e-01</leafValues></_>
    <_>
      <internalNodes>
        1 2 43119 1.9733446836471558e-01 0 -1 303745
        -1.9110687077045441e-02 -2 -3 292787 3.2916180789470673e-02</internalNodes>
      <leafValues>
        3.4496849775314331e-01 -8.3953917026519775e-01
        -9.4572663307189941e-01 9.9427723884582520e-01</leafValues></_>
    <_>
      <internalNodes>
        1 2 211557 -2.2367641329765320e-02 0 -1 255653
        -1.7917498946189880e-02 -2 -3 9761 1.5645837783813477e-01</internalNodes>
      <leafValues>
        -9.7891575098037720e-01 8.8807266950607300e-01
        -6.1962938308715820e-01 7.8174299001693726e-01</leafValues></_></weakClassifiers></stage0>
</opencv_storage>
