<?xml version="1.0"?>
<opencv_storage>
<stage5>
  <maxWeakCount>6</maxWeakCount>
  <stageThreshold>-1.4261000156402588e+00</stageThreshold>
  <weakClassifiers>
    <_>
      <internalNodes>
        1 2 44662 2.0103627443313599e-01 0 -1 4559
        -2.6144331321120262e-02 -2 -3 158176 1.5252336859703064e-01</internalNodes>
      <leafValues>
        3.4222221374511719e-01 -7.5633686780929565e-01
        -6.1417323350906372e-01 8.7206268310546875e-01</leafValues></_>
    <_>
      <internalNodes>
        1 2 227978 -2.0953867584466934e-02 0 -1 280347
        -9.1083534061908722e-03 -2 -3 74177 1.0734256356954575e-01</internalNodes>
      <leafValues>
        5.8198553323745728e-01 -9.5207744836807251e-01
        -2.0543226599693298e-01 7.0493298768997192e-01</leafValues></_>
    <_>
      <internalNodes>
        1 2 382349 -7.2677647694945335e-03 0 -1 7827
        -1.3006965164095163e-03 -2 -3 153131 -8.1165635492652655e-04</internalNodes>
      <leafValues>
        7.5356072187423706e-01 -6.0745187103748322e-02
        6.0485148429870605e-01 -4.8702806234359741e-01</leafValues></_>
    <_>
      <internalNodes>
        1 2 256966 1.6277406830340624e-03 0 -1 130042
        2.2094047069549561e-01 -2 -3 202683 2.8485443443059921e-02</internalNodes>
      <leafValues>
        -6.9967216253280640e-01 2.0740233361721039e-01
        5.1885563135147095e-01 -8.0594366788864136e-01</leafValues></_>
    <_>
      <internalNodes>
        1 2 438650 2.7363657136447728e-04 0 -1 285982
        -6.7430168390274048e-02 -2 -3 224539 -6.1692237854003906e-02</internalNodes>
      <leafValues>
        3.5380538552999496e-02 -8.0723547935485840e-01
        -9.6128183603286743e-01 3.6372062563896179e-01</leafValues></_>
    <_>
      <internalNodes>
        1 2 179785 3.1201499514281750e-03 0 -1 290063
        -1.7140256240963936e-03 -2 -3 286623 -2.9768925160169601e-02</internalNodes>
      <leafValues>
        1.5471453964710236e-01 -6.2675607204437256e-01
        -9.9135345220565796e-01 5.2438092231750488e-01</leafValues></_></weakClassifiers></stage5>
</opencv_storage>
