<?xml version="1.0"?>
<opencv_storage>
<stage1>
  <maxWeakCount>3</maxWeakCount>
  <stageThreshold>-1.2626789808273315e+00</stageThreshold>
  <weakClassifiers>
    <_>
      <internalNodes>
        1 2 43110 1.6403740644454956e-01 0 -1 475229
        2.8972635045647621e-02 -2 -3 185349 7.0199042558670044e-02</internalNodes>
      <leafValues>
        -8.5594403743743896e-01 4.7169810533523560e-01
        -9.4736844301223755e-01 9.6231377124786377e-01</leafValues></_>
    <_>
      <internalNodes>
        1 2 299220 -1.1260549724102020e-01 0 -1 203178
        3.4621874801814556e-03 -2 -3 330516 2.2791083902120590e-03</internalNodes>
      <leafValues>
        -7.9659640789031982e-01 9.0843635797500610e-01
        -7.3645830154418945e-01 4.6718060970306396e-01</leafValues></_>
    <_>
      <internalNodes>
        1 2 275155 4.2300829663872719e-03 0 -1 472472
        -1.4463229104876518e-02 -2 -3 307332 -4.9328943714499474e-04</internalNodes>
      <leafValues>
        5.9039258956909180e-01 -8.7391549348831177e-01
        7.2002750635147095e-01 -4.6998974680900574e-01</leafValues></_></weakClassifiers></stage1>
</opencv_storage>
