<?xml version="1.0"?>
<opencv_storage>
<stage6>
  <maxWeakCount>5</maxWeakCount>
  <stageThreshold>-1.3607606887817383e+00</stageThreshold>
  <weakClassifiers>
    <_>
      <internalNodes>
        1 2 186912 1.7361399531364441e-01 0 -1 264826
        -8.5754506289958954e-03 -2 -3 231774 8.0516311572864652e-04</internalNodes>
      <leafValues>
        5.3036439418792725e-01 -6.7441862821578979e-01
        -6.8907564878463745e-01 7.9835569858551025e-01</leafValues></_>
    <_>
      <internalNodes>
        1 2 362052 -5.2698940038681030e-02 0 -1 348765
        -5.8440403081476688e-03 -2 -3 98497 -7.1917641907930374e-03</internalNodes>
      <leafValues>
        7.1198678016662598e-01 -4.2181128263473511e-01
        5.5226379632949829e-01 -5.6588363647460938e-01</leafValues></_>
    <_>
      <internalNodes>
        1 2 210428 -4.3055359274148941e-02 0 -1 96157
        -5.3566530346870422e-02 -2 -3 230918 4.4580847024917603e-03</internalNodes>
      <leafValues>
        -9.0937423706054688e-01 7.6752597093582153e-01
        -6.7651420831680298e-01 1.1166726797819138e-01</leafValues></_>
    <_>
      <internalNodes>
        1 2 43119 2.3989591002464294e-01 0 -1 41710
        -1.3641953468322754e-01 -2 -3 200874 6.1210080981254578e-02</internalNodes>
      <leafValues>
        3.5375183820724487e-01 -6.0801655054092407e-01
        6.3114434480667114e-01 -6.2569463253021240e-01</leafValues></_>
    <_>
      <internalNodes>
        1 2 249457 1.3237085659056902e-03 0 -1 15596
        3.0989753082394600e-02 -2 -3 379658 1.1805273592472076e-02</internalNodes>
      <leafValues>
        -8.0041933059692383e-01 4.8738119006156921e-01
        3.7589085102081299e-01 -6.3561689853668213e-01</leafValues></_></weakClassifiers></stage6>
</opencv_storage>
