<?xml version="1.0"?>
<opencv_storage>
<cascade>
  <stageType>BOOST</stageType>
  <featureType>HAAR</featureType>
  <height>64</height>
  <width>50</width>
  <stageParams>
    <boostType>GAB</boostType>
    <minHitRate>9.9900001287460327e-01</minHitRate>
    <maxFalseAlarm>5.0000000000000000e-01</maxFalseAlarm>
    <weightTrimRate>9.4999999999999996e-01</weightTrimRate>
    <maxDepth>2</maxDepth>
    <maxWeakCount>100</maxWeakCount></stageParams>
  <featureParams>
    <maxCatCount>0</maxCatCount>
    <featSize>1</featSize>
    <mode>ALL</mode></featureParams>
  <stageNum>14</stageNum>
  <stages>
    <!-- stage 0 -->
    <_>
      <maxWeakCount>2</maxWeakCount>
      <stageThreshold>-7.6936143636703491e-01</stageThreshold>
      <weakClassifiers>
        <_>
          <internalNodes>
            1 2 17 3.1941428780555725e-02 0 -1 108
            -9.6897259354591370e-03 -2 -3 62 7.6235169544816017e-03</internalNodes>
          <leafValues>
            1.5789473056793213e-01 -9.9630993604660034e-01
            -7.3684209585189819e-01 9.6403598785400391e-01</leafValues></_>
        <_>
          <internalNodes>
            1 2 77 5.8818593621253967e-02 0 -1 143
            -4.0029315277934074e-03 -2 -3 14 4.5760929584503174e-02</internalNodes>
          <leafValues>
            5.8114057779312134e-01 -9.2725622653961182e-01
            -9.4918453693389893e-01 9.5806318521499634e-01</leafValues></_></weakClassifiers></_>
    <!-- stage 1 -->
    <_>
      <maxWeakCount>3</maxWeakCount>
      <stageThreshold>-1.1008710861206055e+00</stageThreshold>
      <weakClassifiers>
        <_>
          <internalNodes>
            1 2 48 8.1322915852069855e-02 0 -1 135
            -1.4247254002839327e-03 -2 -3 67 4.2234240099787712e-03</internalNodes>
          <leafValues>
            1.5217390656471252e-01 -9.5642703771591187e-01
            -9.7468352317810059e-01 9.2989689111709595e-01</leafValues></_>
        <_>
          <internalNodes>
            1 2 8 1.1535878479480743e-01 0 -1 102 7.7060470357537270e-03
            -2 -3 35 4.2899895459413528e-02</internalNodes>
          <leafValues>
            -8.6654156446456909e-01 5.3882658481597900e-01 -1.
            9.3400806188583374e-01</leafValues></_>
        <_>
          <internalNodes>
            1 2 61 1.8827309831976891e-02 0 -1 47 3.2901428639888763e-03
            -2 -3 7 5.4617423564195633e-02</internalNodes>
          <leafValues>
            -9.3321180343627930e-01 8.4735208749771118e-01
            -8.0006086826324463e-01 7.2209745645523071e-01</leafValues></_></weakClassifiers></_>
    <!-- stage 2 -->
    <_>
      <maxWeakCount>2</maxWeakCount>
      <stageThreshold>-2.8079867362976074e-01</stageThreshold>
      <weakClassifiers>
        <_>
          <internalNodes>
            1 2 78 3.1253363937139511e-02 0 -1 134
            2.7813361957669258e-03 -2 -3 54 1.1091329157352448e-02</internalNodes>
          <leafValues>
            -8.6206895112991333e-01 5.9375000000000000e-01
            -7.9381442070007324e-01 8.6051279306411743e-01</leafValues></_>
        <_>
          <internalNodes>
            1 2 129 -9.8683554679155350e-03 0 -1 13
            2.7512937784194946e-02 -2 -3 51 1.0243536904454231e-02</internalNodes>
          <leafValues>
            -8.1778478622436523e-01 8.4766268730163574e-01
            -8.7454867362976074e-01 7.3892313241958618e-01</leafValues></_></weakClassifiers></_>
    <!-- stage 3 -->
    <_>
      <maxWeakCount>3</maxWeakCount>
      <stageThreshold>-6.0348361730575562e-01</stageThreshold>
      <weakClassifiers>
        <_>
          <internalNodes>
            1 2 114 -4.7816157341003418e-02 0 -1 84
            6.0542635619640350e-02 -2 -3 6 -1.5583538450300694e-02</internalNodes>
          <leafValues>
            -3.6904761195182800e-01 9.2198580503463745e-01
            5.4838711023330688e-01 -8.3549785614013672e-01</leafValues></_>
        <_>
          <internalNodes>
            1 2 39 -2.7007402852177620e-02 0 -1 69
            3.4867161884903908e-03 -2 -3 104 2.0020599476993084e-03</internalNodes>
          <leafValues>
            -7.7174413204193115e-01 7.9910314083099365e-01
            -9.1272050142288208e-01 1.5220831334590912e-01</leafValues></_>
        <_>
          <internalNodes>
            1 2 52 -2.1772336913272738e-04 0 -1 60
            1.7102908343076706e-02 -2 -3 82 7.5762886554002762e-03</internalNodes>
          <leafValues>
            -9.0018337965011597e-01 6.7828452587127686e-01
            -7.9268562793731689e-01 7.3451167345046997e-01</leafValues></_></weakClassifiers></_>
    <!-- stage 4 -->
    <_>
      <maxWeakCount>3</maxWeakCount>
      <stageThreshold>-1.0045757293701172e+00</stageThreshold>
      <weakClassifiers>
        <_>
          <internalNodes>
            1 2 24 -1.2255832552909851e-02 0 -1 107
            4.1585702449083328e-02 -2 -3 117 -1.0134378448128700e-02</internalNodes>
          <leafValues>
            -5.1048952341079712e-01 8.1958198547363281e-01
            4.7517731785774231e-01 -8.3292382955551147e-01</leafValues></_>
        <_>
          <internalNodes>
            1 2 58 -2.6697244495153427e-02 0 -1 100
            -9.9619198590517044e-03 -2 -3 94 7.2141503915190697e-04</internalNodes>
          <leafValues>
            -9.6662789583206177e-01 8.3124428987503052e-01
            -7.8654050827026367e-01 1.5502068400382996e-01</leafValues></_>
        <_>
          <internalNodes>
            1 2 73 -2.9092342592775822e-03 0 -1 38
            -3.4785907715559006e-02 -2 -3 91 -4.6440344303846359e-03</internalNodes>
          <leafValues>
            -9.0967231988906860e-01 6.1488860845565796e-01
            6.1485445499420166e-01 -9.1210317611694336e-01</leafValues></_></weakClassifiers></_>
    <!-- stage 5 -->
    <_>
      <maxWeakCount>4</maxWeakCount>
      <stageThreshold>-1.3984313011169434e+00</stageThreshold>
      <weakClassifiers>
        <_>
          <internalNodes>
            1 2 49 4.0150742977857590e-02 0 -1 21 1.5808799862861633e-01
            -2 -3 141 -1.3679081574082375e-02</internalNodes>
          <leafValues>
            -4.5387452840805054e-01 7.0841121673583984e-01 1.
            -9.8393571376800537e-01</leafValues></_>
        <_>
          <internalNodes>
            1 2 63 -3.3006293233484030e-03 0 -1 15
            5.6017271708697081e-04 -2 -3 9 -3.4534547477960587e-02</internalNodes>
          <leafValues>
            -6.6218394041061401e-01 7.9893100261688232e-01
            5.9520322084426880e-01 -7.4800288677215576e-01</leafValues></_>
        <_>
          <internalNodes>
            1 2 80 -1.2335283681750298e-03 0 -1 88
            4.0918411687016487e-03 -2 -3 136 -1.7440058290958405e-02</internalNodes>
          <leafValues>
            -5.6968259811401367e-01 7.8313875198364258e-01
            8.0101627111434937e-01 -7.4702060222625732e-01</leafValues></_>
        <_>
          <internalNodes>
            1 2 36 -3.6895744502544403e-02 0 -1 65
            -5.7112306356430054e-02 -2 -3 87 -3.9268568158149719e-02</internalNodes>
          <leafValues>
            -1. 7.9560172557830811e-01 9.0058797597885132e-01
            -6.1181908845901489e-01</leafValues></_></weakClassifiers></_>
    <!-- stage 6 -->
    <_>
      <maxWeakCount>3</maxWeakCount>
      <stageThreshold>-8.6912840604782104e-01</stageThreshold>
      <weakClassifiers>
        <_>
          <internalNodes>
            1 2 30 1.7416231334209442e-01 0 -1 44
            -1.5391462482511997e-02 -2 -3 72 -8.9317962527275085e-02</internalNodes>
          <leafValues>
            8.4415584802627563e-01 -7.6530611515045166e-01
            -8.5321098566055298e-01 7.1232879161834717e-01</leafValues></_>
        <_>
          <internalNodes>
            1 2 86 1.0113359894603491e-03 0 -1 131
            6.7662075161933899e-03 -2 -3 27 -1.7055138945579529e-02</internalNodes>
          <leafValues>
            -7.5986099243164062e-01 5.4316115379333496e-01
            -8.5545706748962402e-01 6.7900484800338745e-01</leafValues></_>
        <_>
          <internalNodes>
            1 2 59 -1.9207872450351715e-02 0 -1 119
            -1.6870853141881526e-04 -2 -3 81 5.2231743931770325e-02</internalNodes>
          <leafValues>
            7.4571651220321655e-01 -6.0222291946411133e-01
            -7.2600013017654419e-01 6.8336737155914307e-01</leafValues></_></weakClassifiers></_>
    <!-- stage 7 -->
    <_>
      <maxWeakCount>3</maxWeakCount>
      <stageThreshold>-7.7837097644805908e-01</stageThreshold>
      <weakClassifiers>
        <_>
          <internalNodes>
            1 2 132 -9.3521056696772575e-03 0 -1 68
            1.4162270352244377e-02 -2 -3 25 2.8003845363855362e-02</internalNodes>
          <leafValues>
            -7.3469388484954834e-01 7.7408635616302490e-01
            -6.7391306161880493e-01 5.9712231159210205e-01</leafValues></_>
        <_>
          <internalNodes>
            1 2 53 -5.0495127215981483e-03 0 -1 41
            3.1871084123849869e-02 -2 -3 122 5.6280590593814850e-02</internalNodes>
          <leafValues>
            -6.8751883506774902e-01 7.4090778827667236e-01
            -6.9476211071014404e-01 8.1107759475708008e-01</leafValues></_>
        <_>
          <internalNodes>
            1 2 105 -2.5793409440666437e-03 0 -1 71
            -2.5224999990314245e-04 -2 -3 121 2.1127309650182724e-02</internalNodes>
          <leafValues>
            -7.2069889307022095e-01 6.5024846792221069e-01
            -8.4536576271057129e-01 9.7183448076248169e-01</leafValues></_></weakClassifiers></_>
    <!-- stage 8 -->
    <_>
      <maxWeakCount>4</maxWeakCount>
      <stageThreshold>-1.2410789728164673e+00</stageThreshold>
      <weakClassifiers>
        <_>
          <internalNodes>
            1 2 123 -1.9586235284805298e-02 0 -1 40
            2.6114364154636860e-03 -2 -3 33 2.5339379906654358e-02</internalNodes>
          <leafValues>
            -5.0980395078659058e-01 8.0000001192092896e-01
            -7.3593074083328247e-01 6.0215055942535400e-01</leafValues></_>
        <_>
          <internalNodes>
            1 2 20 3.5410798154771328e-03 0 -1 0 3.3094432204961777e-02
            -2 -3 76 5.6339646689593792e-03</internalNodes>
          <leafValues>
            -6.3739001750946045e-01 7.0971465110778809e-01
            -4.4918736815452576e-01 7.5405704975128174e-01</leafValues></_>
        <_>
          <internalNodes>
            1 2 95 1.3825094792991877e-03 0 -1 23 1.7575535923242569e-02
            -2 -3 90 -1.7004000023007393e-02</internalNodes>
          <leafValues>
            -8.0411428213119507e-01 9.2914797365665436e-02
            -9.7781383991241455e-01 6.4949405193328857e-01</leafValues></_>
        <_>
          <internalNodes>
            1 2 109 -1.6832150518894196e-02 0 -1 126
            1.2171871960163116e-02 -2 -3 112 8.5952952504158020e-03</internalNodes>
          <leafValues>
            5.8460110425949097e-01 -7.1747815608978271e-01
            -7.4337899684906006e-01 6.0515451431274414e-01</leafValues></_></weakClassifiers></_>
    <!-- stage 9 -->
    <_>
      <maxWeakCount>4</maxWeakCount>
      <stageThreshold>-1.2702025175094604e+00</stageThreshold>
      <weakClassifiers>
        <_>
          <internalNodes>
            1 2 16 4.2774542234838009e-03 0 -1 10
            -1.8059144495055079e-03 -2 -3 50 1.0923985391855240e-02</internalNodes>
          <leafValues>
            1. -8.5384613275527954e-01 -8.4931504726409912e-01
            6.1610966920852661e-01</leafValues></_>
        <_>
          <internalNodes>
            1 2 89 6.9661675952374935e-03 0 -1 64 1.0297013819217682e-01
            -2 -3 31 -4.1186206042766571e-02</internalNodes>
          <leafValues>
            -5.2073073387145996e-01 6.0055059194564819e-01
            6.6201597452163696e-01 -8.7486749887466431e-01</leafValues></_>
        <_>
          <internalNodes>
            1 2 115 1.5724387485533953e-03 0 -1 2
            -3.5468511283397675e-02 -2 -3 74 4.8129004426300526e-03</internalNodes>
          <leafValues>
            6.9653916358947754e-01 -6.9495022296905518e-01
            -4.1940811276435852e-01 7.1401035785675049e-01</leafValues></_>
        <_>
          <internalNodes>
            1 2 128 -1.5470067039132118e-02 0 -1 11
            2.6619322597980499e-02 -2 -3 22 -1.1869762092828751e-03</internalNodes>
          <leafValues>
            6.8273180723190308e-01 -8.1808263063430786e-01
            4.7781440615653992e-01 -5.9203660488128662e-01</leafValues></_></weakClassifiers></_>
    <!-- stage 10 -->
    <_>
      <maxWeakCount>5</maxWeakCount>
      <stageThreshold>-9.0005737543106079e-01</stageThreshold>
      <weakClassifiers>
        <_>
          <internalNodes>
            1 2 137 7.2220833972096443e-03 0 -1 34
            -4.0782163850963116e-03 -2 -3 106 -3.4603150561451912e-03</internalNodes>
          <leafValues>
            6.2318837642669678e-01 -8.7323945760726929e-01
            6.2566846609115601e-01 -7.7600002288818359e-01</leafValues></_>
        <_>
          <internalNodes>
            1 2 96 -4.4975634664297104e-03 0 -1 70
            4.6785955782979727e-04 -2 -3 142 1.3623254373669624e-02</internalNodes>
          <leafValues>
            -5.1712876558303833e-01 8.6514282226562500e-01
            -4.8598667979240417e-01 6.4735418558120728e-01</leafValues></_>
        <_>
          <internalNodes>
            1 2 57 1.6250264598056674e-03 0 -1 125
            -3.0003707855939865e-02 -2 -3 85 9.6473447047173977e-04</internalNodes>
          <leafValues>
            9.3450570106506348e-01 -6.1763304471969604e-01
            -4.7563818097114563e-01 6.6016525030136108e-01</leafValues></_>
        <_>
          <internalNodes>
            1 2 37 1.5738365054130554e-01 0 -1 4 -4.9823038280010223e-03
            -2 -3 116 9.5980679616332054e-03</internalNodes>
          <leafValues>
            7.2570925951004028e-01 -7.1095287799835205e-01
            5.7331156730651855e-01 -6.7503988742828369e-01</leafValues></_>
        <_>
          <internalNodes>
            1 2 140 5.9944647364318371e-03 0 -1 124
            1.0096382349729538e-02 -2 -3 19 -1.2100897729396820e-02</internalNodes>
          <leafValues>
            -7.3541563749313354e-01 1.1093896627426147e-01
            -9.0629094839096069e-01 7.8476792573928833e-01</leafValues></_></weakClassifiers></_>
    <!-- stage 11 -->
    <_>
      <maxWeakCount>4</maxWeakCount>
      <stageThreshold>-1.2051547765731812e+00</stageThreshold>
      <weakClassifiers>
        <_>
          <internalNodes>
            1 2 5 1.1395986378192902e-01 0 -1 79 9.5527684316039085e-03
            -2 -3 113 -2.5519477203488350e-03</internalNodes>
          <leafValues>
            -5.6611567735671997e-01 6.0606062412261963e-01
            7.4944072961807251e-01 -8.4444445371627808e-01</leafValues></_>
        <_>
          <internalNodes>
            1 2 55 7.2869809810072184e-04 0 -1 83
            -2.9025506228208542e-03 -2 -3 120 -2.4993715807795525e-02</internalNodes>
          <leafValues>
            3.5935187339782715e-01 -7.9100352525711060e-01 -1.
            5.5352383852005005e-01</leafValues></_>
        <_>
          <internalNodes>
            1 2 45 -2.4849271401762962e-02 0 -1 127
            7.4026547372341156e-04 -2 -3 1 5.0973985344171524e-03</internalNodes>
          <leafValues>
            8.5229474306106567e-01 -9.0250575542449951e-01
            -5.1312285661697388e-01 6.7172282934188843e-01</leafValues></_>
        <_>
          <internalNodes>
            1 2 28 3.8017923943698406e-03 0 -1 92
            -2.7632422745227814e-02 -2 -3 93 1.7950832843780518e-02</internalNodes>
          <leafValues>
            8.8440114259719849e-01 -8.3850139379501343e-01
            -5.1975840330123901e-01 5.0824904441833496e-01</leafValues></_></weakClassifiers></_>
    <!-- stage 12 -->
    <_>
      <maxWeakCount>5</maxWeakCount>
      <stageThreshold>-1.0744243860244751e+00</stageThreshold>
      <weakClassifiers>
        <_>
          <internalNodes>
            1 2 29 4.8148981295526028e-04 0 -1 32
            -3.0307132750749588e-02 -2 -3 110 -4.7472254664171487e-05</internalNodes>
          <leafValues>
            5.7541900873184204e-01 -5.5289423465728760e-01
            -6.1363637447357178e-01 7.5480771064758301e-01</leafValues></_>
        <_>
          <internalNodes>
            1 2 98 1.5415702946484089e-03 0 -1 12 2.8347933664917946e-02
            -2 -3 43 -7.3440512642264366e-03</internalNodes>
          <leafValues>
            -7.2898435592651367e-01 3.4103494882583618e-01
            -9.4781327247619629e-01 6.4289605617523193e-01</leafValues></_>
        <_>
          <internalNodes>
            1 2 133 -1.3438496738672256e-02 0 -1 99
            -5.2644405514001846e-04 -2 -3 26 1.0131640359759331e-02</internalNodes>
          <leafValues>
            7.4055057764053345e-01 -6.1479562520980835e-01
            -6.9968450069427490e-01 4.1993263363838196e-01</leafValues></_>
        <_>
          <internalNodes>
            1 2 118 -3.2713174005039036e-04 0 -1 42
            5.1193364924984053e-06 -2 -3 75 -5.2420385181903839e-03</internalNodes>
          <leafValues>
            -7.1390682458877563e-01 5.7808154821395874e-01
            5.7034766674041748e-01 -7.6550865173339844e-01</leafValues></_>
        <_>
          <internalNodes>
            1 2 3 -1.9138584611937404e-03 0 -1 111
            -5.1684514619410038e-04 -2 -3 138 -3.3563035540282726e-03</internalNodes>
          <leafValues>
            -5.4438251256942749e-01 8.9281874895095825e-01
            6.0803711414337158e-01 -5.7728701829910278e-01</leafValues></_></weakClassifiers></_>
    <!-- stage 13 -->
    <_>
      <maxWeakCount>3</maxWeakCount>
      <stageThreshold>-8.0105030536651611e-01</stageThreshold>
      <weakClassifiers>
        <_>
          <internalNodes>
            1 2 103 1.0937449405901134e-04 0 -1 139
            -1.2295199558138847e-03 -2 -3 101 -1.2776984658557922e-04</internalNodes>
          <leafValues>
            9.4117647409439087e-01 -7.2352939844131470e-01
            -7.9661017656326294e-01 6.3898915052413940e-01</leafValues></_>
        <_>
          <internalNodes>
            1 2 46 -1.6521705314517021e-02 0 -1 66
            5.5329687893390656e-03 -2 -3 56 -2.6728508993983269e-02</internalNodes>
          <leafValues>
            -7.9087322950363159e-01 7.5673425197601318e-01
            8.2625299692153931e-01 -6.2707412242889404e-01</leafValues></_>
        <_>
          <internalNodes>
            1 2 18 1.8939848523586988e-03 0 -1 130
            4.6868883073329926e-03 -2 -3 97 -1.4256606809794903e-03</internalNodes>
          <leafValues>
            -5.2759993076324463e-01 4.9509185552597046e-01
            7.8816533088684082e-01 -7.6117438077926636e-01</leafValues></_></weakClassifiers></_></stages>
  <features>
    <_>
      <rects>
        <_>
          0 4 14 24 -1.</_>
        <_>
          0 4 7 12 2.</_>
        <_>
          7 16 7 12 2.</_></rects>
      <tilted>0</tilted></_>
    <_>
      <rects>
        <_>
          0 13 10 6 -1.</_>
        <_>
          5 13 5 6 2.</_></rects>
      <tilted>0</tilted></_>
    <_>
      <rects>
        <_>
          0 18 16 19 -1.</_>
        <_>
          4 18 8 19 2.</_></rects>
      <tilted>0</tilted></_>
    <_>
      <rects>
        <_>
          0 19 4 18 -1.</_>
        <_>
          0 19 2 9 2.</_>
        <_>
          2 28 2 9 2.</_></rects>
      <tilted>0</tilted></_>
    <_>
      <rects>
        <_>
          0 47 8 10 -1.</_>
        <_>
          2 47 4 10 2.</_></rects>
      <tilted>0</tilted></_>
    <_>
      <rects>
        <_>
          1 15 48 14 -1.</_>
        <_>
          13 15 24 14 2.</_></rects>
      <tilted>0</tilted></_>
    <_>
      <rects>
        <_>
          1 20 12 20 -1.</_>
        <_>
          4 20 6 20 2.</_></rects>
      <tilted>0</tilted></_>
    <_>
      <rects>
        <_>
          1 33 48 15 -1.</_>
        <_>
          17 38 16 5 9.</_></rects>
      <tilted>0</tilted></_>
    <_>
      <rects>
        <_>
          2 16 48 17 -1.</_>
        <_>
          14 16 24 17 2.</_></rects>
      <tilted>0</tilted></_>
    <_>
      <rects>
        <_>
          2 26 44 12 -1.</_>
        <_>
          2 26 22 6 2.</_>
        <_>
          24 32 22 6 2.</_></rects>
      <tilted>0</tilted></_>
    <_>
      <rects>
        <_>
          2 38 4 4 -1.</_>
        <_>
          4 38 2 4 2.</_></rects>
      <tilted>0</tilted></_>
    <_>
      <rects>
        <_>
          2 38 37 20 -1.</_>
        <_>
          2 43 37 10 2.</_></rects>
      <tilted>0</tilted></_>
    <_>
      <rects>
        <_>
          3 11 14 28 -1.</_>
        <_>
          3 11 7 14 2.</_>
        <_>
          10 25 7 14 2.</_></rects>
      <tilted>0</tilted></_>
    <_>
      <rects>
        <_>
          3 17 24 24 -1.</_>
        <_>
          15 17 12 24 2.</_></rects>
      <tilted>0</tilted></_>
    <_>
      <rects>
        <_>
          3 18 45 9 -1.</_>
        <_>
          18 21 15 3 9.</_></rects>
      <tilted>0</tilted></_>
    <_>
      <rects>
        <_>
          3 30 10 10 -1.</_>
        <_>
          8 30 5 10 2.</_></rects>
      <tilted>0</tilted></_>
    <_>
      <rects>
        <_>
          3 32 32 10 -1.</_>
        <_>
          11 32 16 10 2.</_></rects>
      <tilted>0</tilted></_>
    <_>
      <rects>
        <_>
          4 19 45 5 -1.</_>
        <_>
          19 19 15 5 3.</_></rects>
      <tilted>0</tilted></_>
    <_>
      <rects>
        <_>
          5 23 9 11 -1.</_>
        <_>
          8 23 3 11 3.</_></rects>
      <tilted>0</tilted></_>
    <_>
      <rects>
        <_>
          5 31 29 14 -1.</_>
        <_>
          5 38 29 7 2.</_></rects>
      <tilted>0</tilted></_>
    <_>
      <rects>
        <_>
          5 32 15 7 -1.</_>
        <_>
          10 32 5 7 3.</_></rects>
      <tilted>0</tilted></_>
    <_>
      <rects>
        <_>
          6 9 39 51 -1.</_>
        <_>
          19 9 13 51 3.</_></rects>
      <tilted>0</tilted></_>
    <_>
      <rects>
        <_>
          6 48 5 4 -1.</_>
        <_>
          5 49 5 2 2.</_></rects>
      <tilted>1</tilted></_>
    <_>
      <rects>
        <_>
          7 16 38 16 -1.</_>
        <_>
          7 20 38 8 2.</_></rects>
      <tilted>0</tilted></_>
    <_>
      <rects>
        <_>
          7 20 12 7 -1.</_>
        <_>
          7 20 6 7 2.</_></rects>
      <tilted>1</tilted></_>
    <_>
      <rects>
        <_>
          7 26 38 12 -1.</_>
        <_>
          7 26 19 6 2.</_>
        <_>
          26 32 19 6 2.</_></rects>
      <tilted>0</tilted></_>
    <_>
      <rects>
        <_>
          8 2 6 7 -1.</_>
        <_>
          8 2 3 7 2.</_></rects>
      <tilted>1</tilted></_>
    <_>
      <rects>
        <_>
          8 13 15 24 -1.</_>
        <_>
          13 13 5 24 3.</_></rects>
      <tilted>0</tilted></_>
    <_>
      <rects>
        <_>
          8 16 10 11 -1.</_>
        <_>
          13 16 5 11 2.</_></rects>
      <tilted>0</tilted></_>
    <_>
      <rects>
        <_>
          9 4 18 4 -1.</_>
        <_>
          9 4 9 2 2.</_>
        <_>
          18 6 9 2 2.</_></rects>
      <tilted>0</tilted></_>
    <_>
      <rects>
        <_>
          9 4 29 60 -1.</_>
        <_>
          9 19 29 30 2.</_></rects>
      <tilted>0</tilted></_>
    <_>
      <rects>
        <_>
          9 22 32 18 -1.</_>
        <_>
          9 22 16 9 2.</_>
        <_>
          25 31 16 9 2.</_></rects>
      <tilted>0</tilted></_>
    <_>
      <rects>
        <_>
          9 23 34 16 -1.</_>
        <_>
          9 23 17 8 2.</_>
        <_>
          26 31 17 8 2.</_></rects>
      <tilted>0</tilted></_>
    <_>
      <rects>
        <_>
          9 25 36 12 -1.</_>
        <_>
          9 25 18 6 2.</_>
        <_>
          27 31 18 6 2.</_></rects>
      <tilted>0</tilted></_>
    <_>
      <rects>
        <_>
          10 0 16 4 -1.</_>
        <_>
          10 0 8 2 2.</_>
        <_>
          18 2 8 2 2.</_></rects>
      <tilted>0</tilted></_>
    <_>
      <rects>
        <_>
          10 1 23 32 -1.</_>
        <_>
          10 17 23 16 2.</_></rects>
      <tilted>0</tilted></_>
    <_>
      <rects>
        <_>
          10 3 15 9 -1.</_>
        <_>
          15 8 5 9 3.</_></rects>
      <tilted>1</tilted></_>
    <_>
      <rects>
        <_>
          10 4 23 60 -1.</_>
        <_>
          10 19 23 30 2.</_></rects>
      <tilted>0</tilted></_>
    <_>
      <rects>
        <_>
          10 17 27 30 -1.</_>
        <_>
          19 27 9 10 9.</_></rects>
      <tilted>0</tilted></_>
    <_>
      <rects>
        <_>
          11 0 28 15 -1.</_>
        <_>
          11 5 28 5 3.</_></rects>
      <tilted>0</tilted></_>
    <_>
      <rects>
        <_>
          11 12 8 14 -1.</_>
        <_>
          15 12 4 14 2.</_></rects>
      <tilted>0</tilted></_>
    <_>
      <rects>
        <_>
          11 12 32 14 -1.</_>
        <_>
          19 12 16 14 2.</_></rects>
      <tilted>0</tilted></_>
    <_>
      <rects>
        <_>
          11 16 10 2 -1.</_>
        <_>
          11 17 10 1 2.</_></rects>
      <tilted>0</tilted></_>
    <_>
      <rects>
        <_>
          11 30 33 11 -1.</_>
        <_>
          22 30 11 11 3.</_></rects>
      <tilted>0</tilted></_>
    <_>
      <rects>
        <_>
          12 0 8 11 -1.</_>
        <_>
          14 2 4 11 2.</_></rects>
      <tilted>1</tilted></_>
    <_>
      <rects>
        <_>
          12 0 12 9 -1.</_>
        <_>
          15 3 6 9 2.</_></rects>
      <tilted>1</tilted></_>
    <_>
      <rects>
        <_>
          12 0 26 12 -1.</_>
        <_>
          12 3 26 6 2.</_></rects>
      <tilted>0</tilted></_>
    <_>
      <rects>
        <_>
          12 2 4 6 -1.</_>
        <_>
          13 3 2 6 2.</_></rects>
      <tilted>1</tilted></_>
    <_>
      <rects>
        <_>
          12 4 27 24 -1.</_>
        <_>
          12 16 27 12 2.</_></rects>
      <tilted>0</tilted></_>
    <_>
      <rects>
        <_>
          12 25 27 18 -1.</_>
        <_>
          21 31 9 6 9.</_></rects>
      <tilted>0</tilted></_>
    <_>
      <rects>
        <_>
          12 30 36 12 -1.</_>
        <_>
          21 30 18 12 2.</_></rects>
      <tilted>0</tilted></_>
    <_>
      <rects>
        <_>
          12 44 9 9 -1.</_>
        <_>
          9 47 9 3 3.</_></rects>
      <tilted>1</tilted></_>
    <_>
      <rects>
        <_>
          12 58 21 2 -1.</_>
        <_>
          12 59 21 1 2.</_></rects>
      <tilted>0</tilted></_>
    <_>
      <rects>
        <_>
          13 0 33 6 -1.</_>
        <_>
          13 3 33 3 2.</_></rects>
      <tilted>0</tilted></_>
    <_>
      <rects>
        <_>
          13 28 23 33 -1.</_>
        <_>
          13 39 23 11 3.</_></rects>
      <tilted>0</tilted></_>
    <_>
      <rects>
        <_>
          13 34 22 8 -1.</_>
        <_>
          13 38 22 4 2.</_></rects>
      <tilted>0</tilted></_>
    <_>
      <rects>
        <_>
          13 43 26 16 -1.</_>
        <_>
          13 43 13 8 2.</_>
        <_>
          26 51 13 8 2.</_></rects>
      <tilted>0</tilted></_>
    <_>
      <rects>
        <_>
          13 49 33 12 -1.</_>
        <_>
          13 52 33 6 2.</_></rects>
      <tilted>0</tilted></_>
    <_>
      <rects>
        <_>
          14 0 12 12 -1.</_>
        <_>
          18 4 4 12 3.</_></rects>
      <tilted>1</tilted></_>
    <_>
      <rects>
        <_>
          14 2 12 14 -1.</_>
        <_>
          17 5 6 14 2.</_></rects>
      <tilted>1</tilted></_>
    <_>
      <rects>
        <_>
          14 9 24 33 -1.</_>
        <_>
          20 9 12 33 2.</_></rects>
      <tilted>0</tilted></_>
    <_>
      <rects>
        <_>
          14 12 28 14 -1.</_>
        <_>
          21 12 14 14 2.</_></rects>
      <tilted>0</tilted></_>
    <_>
      <rects>
        <_>
          14 27 24 33 -1.</_>
        <_>
          14 38 24 11 3.</_></rects>
      <tilted>0</tilted></_>
    <_>
      <rects>
        <_>
          15 1 22 8 -1.</_>
        <_>
          15 3 22 4 2.</_></rects>
      <tilted>0</tilted></_>
    <_>
      <rects>
        <_>
          15 2 20 52 -1.</_>
        <_>
          15 15 20 26 2.</_></rects>
      <tilted>0</tilted></_>
    <_>
      <rects>
        <_>
          15 23 20 34 -1.</_>
        <_>
          15 40 20 17 2.</_></rects>
      <tilted>0</tilted></_>
    <_>
      <rects>
        <_>
          15 27 18 36 -1.</_>
        <_>
          15 36 18 18 2.</_></rects>
      <tilted>0</tilted></_>
    <_>
      <rects>
        <_>
          15 27 22 33 -1.</_>
        <_>
          15 38 22 11 3.</_></rects>
      <tilted>0</tilted></_>
    <_>
      <rects>
        <_>
          15 28 20 36 -1.</_>
        <_>
          15 37 20 18 2.</_></rects>
      <tilted>0</tilted></_>
    <_>
      <rects>
        <_>
          15 33 32 11 -1.</_>
        <_>
          23 33 16 11 2.</_></rects>
      <tilted>0</tilted></_>
    <_>
      <rects>
        <_>
          16 13 6 16 -1.</_>
        <_>
          16 17 6 8 2.</_></rects>
      <tilted>0</tilted></_>
    <_>
      <rects>
        <_>
          16 15 9 12 -1.</_>
        <_>
          19 19 3 4 9.</_></rects>
      <tilted>0</tilted></_>
    <_>
      <rects>
        <_>
          16 21 20 38 -1.</_>
        <_>
          16 40 20 19 2.</_></rects>
      <tilted>0</tilted></_>
    <_>
      <rects>
        <_>
          16 22 19 20 -1.</_>
        <_>
          16 27 19 10 2.</_></rects>
      <tilted>0</tilted></_>
    <_>
      <rects>
        <_>
          16 25 20 12 -1.</_>
        <_>
          21 25 10 12 2.</_></rects>
      <tilted>0</tilted></_>
    <_>
      <rects>
        <_>
          16 28 24 6 -1.</_>
        <_>
          16 28 12 3 2.</_>
        <_>
          28 31 12 3 2.</_></rects>
      <tilted>0</tilted></_>
    <_>
      <rects>
        <_>
          16 33 21 20 -1.</_>
        <_>
          16 38 21 10 2.</_></rects>
      <tilted>0</tilted></_>
    <_>
      <rects>
        <_>
          17 4 19 22 -1.</_>
        <_>
          17 15 19 11 2.</_></rects>
      <tilted>0</tilted></_>
    <_>
      <rects>
        <_>
          17 7 18 14 -1.</_>
        <_>
          17 14 18 7 2.</_></rects>
      <tilted>0</tilted></_>
    <_>
      <rects>
        <_>
          17 27 32 2 -1.</_>
        <_>
          25 27 16 2 2.</_></rects>
      <tilted>0</tilted></_>
    <_>
      <rects>
        <_>
          17 30 8 16 -1.</_>
        <_>
          17 30 4 8 2.</_>
        <_>
          21 38 4 8 2.</_></rects>
      <tilted>0</tilted></_>
    <_>
      <rects>
        <_>
          18 0 20 13 -1.</_>
        <_>
          23 5 10 13 2.</_></rects>
      <tilted>1</tilted></_>
    <_>
      <rects>
        <_>
          18 0 28 4 -1.</_>
        <_>
          18 0 14 2 2.</_>
        <_>
          32 2 14 2 2.</_></rects>
      <tilted>0</tilted></_>
    <_>
      <rects>
        <_>
          18 40 12 6 -1.</_>
        <_>
          22 40 4 6 3.</_></rects>
      <tilted>0</tilted></_>
    <_>
      <rects>
        <_>
          19 4 24 19 -1.</_>
        <_>
          25 10 12 19 2.</_></rects>
      <tilted>1</tilted></_>
    <_>
      <rects>
        <_>
          19 19 12 11 -1.</_>
        <_>
          23 19 4 11 3.</_></rects>
      <tilted>0</tilted></_>
    <_>
      <rects>
        <_>
          19 26 6 11 -1.</_>
        <_>
          22 26 3 11 2.</_></rects>
      <tilted>0</tilted></_>
    <_>
      <rects>
        <_>
          20 0 8 16 -1.</_>
        <_>
          20 0 4 16 2.</_></rects>
      <tilted>1</tilted></_>
    <_>
      <rects>
        <_>
          20 9 3 24 -1.</_>
        <_>
          20 17 3 8 3.</_></rects>
      <tilted>0</tilted></_>
    <_>
      <rects>
        <_>
          20 19 12 36 -1.</_>
        <_>
          20 28 12 18 2.</_></rects>
      <tilted>0</tilted></_>
    <_>
      <rects>
        <_>
          20 23 9 32 -1.</_>
        <_>
          20 31 9 16 2.</_></rects>
      <tilted>0</tilted></_>
    <_>
      <rects>
        <_>
          20 27 8 8 -1.</_>
        <_>
          20 27 8 4 2.</_></rects>
      <tilted>1</tilted></_>
    <_>
      <rects>
        <_>
          20 33 20 24 -1.</_>
        <_>
          20 41 20 8 3.</_></rects>
      <tilted>0</tilted></_>
    <_>
      <rects>
        <_>
          21 3 5 36 -1.</_>
        <_>
          21 21 5 18 2.</_></rects>
      <tilted>0</tilted></_>
    <_>
      <rects>
        <_>
          21 50 5 9 -1.</_>
        <_>
          21 53 5 3 3.</_></rects>
      <tilted>0</tilted></_>
    <_>
      <rects>
        <_>
          21 50 7 9 -1.</_>
        <_>
          21 53 7 3 3.</_></rects>
      <tilted>0</tilted></_>
    <_>
      <rects>
        <_>
          22 0 17 4 -1.</_>
        <_>
          22 2 17 2 2.</_></rects>
      <tilted>0</tilted></_>
    <_>
      <rects>
        <_>
          22 20 6 16 -1.</_>
        <_>
          22 28 6 8 2.</_></rects>
      <tilted>0</tilted></_>
    <_>
      <rects>
        <_>
          22 26 10 22 -1.</_>
        <_>
          22 26 5 11 2.</_>
        <_>
          27 37 5 11 2.</_></rects>
      <tilted>0</tilted></_>
    <_>
      <rects>
        <_>
          23 9 26 4 -1.</_>
        <_>
          23 9 13 2 2.</_>
        <_>
          36 11 13 2 2.</_></rects>
      <tilted>0</tilted></_>
    <_>
      <rects>
        <_>
          23 12 20 40 -1.</_>
        <_>
          23 22 20 20 2.</_></rects>
      <tilted>0</tilted></_>
    <_>
      <rects>
        <_>
          23 19 8 2 -1.</_>
        <_>
          23 20 8 1 2.</_></rects>
      <tilted>0</tilted></_>
    <_>
      <rects>
        <_>
          24 0 26 6 -1.</_>
        <_>
          24 0 13 3 2.</_>
        <_>
          37 3 13 3 2.</_></rects>
      <tilted>0</tilted></_>
    <_>
      <rects>
        <_>
          24 14 12 2 -1.</_>
        <_>
          24 15 12 1 2.</_></rects>
      <tilted>0</tilted></_>
    <_>
      <rects>
        <_>
          24 21 9 4 -1.</_>
        <_>
          27 24 3 4 3.</_></rects>
      <tilted>1</tilted></_>
    <_>
      <rects>
        <_>
          24 23 10 14 -1.</_>
        <_>
          29 23 5 14 2.</_></rects>
      <tilted>0</tilted></_>
    <_>
      <rects>
        <_>
          25 4 12 34 -1.</_>
        <_>
          31 4 6 34 2.</_></rects>
      <tilted>0</tilted></_>
    <_>
      <rects>
        <_>
          26 5 14 24 -1.</_>
        <_>
          26 17 14 12 2.</_></rects>
      <tilted>0</tilted></_>
    <_>
      <rects>
        <_>
          27 4 17 4 -1.</_>
        <_>
          27 4 17 2 2.</_></rects>
      <tilted>1</tilted></_>
    <_>
      <rects>
        <_>
          27 5 22 14 -1.</_>
        <_>
          27 5 11 7 2.</_>
        <_>
          38 12 11 7 2.</_></rects>
      <tilted>0</tilted></_>
    <_>
      <rects>
        <_>
          27 17 5 2 -1.</_>
        <_>
          27 18 5 1 2.</_></rects>
      <tilted>0</tilted></_>
    <_>
      <rects>
        <_>
          27 18 6 6 -1.</_>
        <_>
          29 18 2 6 3.</_></rects>
      <tilted>0</tilted></_>
    <_>
      <rects>
        <_>
          28 28 12 12 -1.</_>
        <_>
          31 28 6 12 2.</_></rects>
      <tilted>0</tilted></_>
    <_>
      <rects>
        <_>
          30 1 8 12 -1.</_>
        <_>
          30 1 4 12 2.</_></rects>
      <tilted>1</tilted></_>
    <_>
      <rects>
        <_>
          30 3 20 10 -1.</_>
        <_>
          30 3 20 5 2.</_></rects>
      <tilted>1</tilted></_>
    <_>
      <rects>
        <_>
          31 30 18 2 -1.</_>
        <_>
          37 30 6 2 3.</_></rects>
      <tilted>0</tilted></_>
    <_>
      <rects>
        <_>
          31 43 9 10 -1.</_>
        <_>
          31 43 9 5 2.</_></rects>
      <tilted>1</tilted></_>
    <_>
      <rects>
        <_>
          32 23 12 7 -1.</_>
        <_>
          32 23 6 7 2.</_></rects>
      <tilted>1</tilted></_>
    <_>
      <rects>
        <_>
          33 22 6 2 -1.</_>
        <_>
          36 22 3 2 2.</_></rects>
      <tilted>0</tilted></_>
    <_>
      <rects>
        <_>
          33 24 10 1 -1.</_>
        <_>
          38 24 5 1 2.</_></rects>
      <tilted>0</tilted></_>
    <_>
      <rects>
        <_>
          33 27 6 18 -1.</_>
        <_>
          33 27 6 9 2.</_></rects>
      <tilted>1</tilted></_>
    <_>
      <rects>
        <_>
          33 47 6 9 -1.</_>
        <_>
          33 47 3 9 2.</_></rects>
      <tilted>1</tilted></_>
    <_>
      <rects>
        <_>
          34 38 12 11 -1.</_>
        <_>
          34 38 6 11 2.</_></rects>
      <tilted>1</tilted></_>
    <_>
      <rects>
        <_>
          36 5 14 26 -1.</_>
        <_>
          36 5 7 13 2.</_>
        <_>
          43 18 7 13 2.</_></rects>
      <tilted>0</tilted></_>
    <_>
      <rects>
        <_>
          36 26 12 12 -1.</_>
        <_>
          39 29 6 12 2.</_></rects>
      <tilted>1</tilted></_>
    <_>
      <rects>
        <_>
          36 43 12 7 -1.</_>
        <_>
          40 47 4 7 3.</_></rects>
      <tilted>1</tilted></_>
    <_>
      <rects>
        <_>
          37 1 12 9 -1.</_>
        <_>
          40 4 6 9 2.</_></rects>
      <tilted>1</tilted></_>
    <_>
      <rects>
        <_>
          37 36 6 4 -1.</_>
        <_>
          37 37 6 2 2.</_></rects>
      <tilted>0</tilted></_>
    <_>
      <rects>
        <_>
          38 0 12 9 -1.</_>
        <_>
          35 3 12 3 3.</_></rects>
      <tilted>1</tilted></_>
    <_>
      <rects>
        <_>
          38 24 10 20 -1.</_>
        <_>
          43 24 5 20 2.</_></rects>
      <tilted>0</tilted></_>
    <_>
      <rects>
        <_>
          38 44 6 14 -1.</_>
        <_>
          40 46 2 14 3.</_></rects>
      <tilted>1</tilted></_>
    <_>
      <rects>
        <_>
          38 44 10 12 -1.</_>
        <_>
          38 44 5 6 2.</_>
        <_>
          43 50 5 6 2.</_></rects>
      <tilted>0</tilted></_>
    <_>
      <rects>
        <_>
          39 14 6 36 -1.</_>
        <_>
          42 14 3 36 2.</_></rects>
      <tilted>0</tilted></_>
    <_>
      <rects>
        <_>
          39 29 8 21 -1.</_>
        <_>
          43 29 4 21 2.</_></rects>
      <tilted>0</tilted></_>
    <_>
      <rects>
        <_>
          40 3 9 2 -1.</_>
        <_>
          40 3 9 1 2.</_></rects>
      <tilted>1</tilted></_>
    <_>
      <rects>
        <_>
          41 30 4 4 -1.</_>
        <_>
          43 30 2 4 2.</_></rects>
      <tilted>0</tilted></_>
    <_>
      <rects>
        <_>
          41 42 9 13 -1.</_>
        <_>
          44 45 3 13 3.</_></rects>
      <tilted>1</tilted></_>
    <_>
      <rects>
        <_>
          42 31 8 16 -1.</_>
        <_>
          42 31 4 16 2.</_></rects>
      <tilted>1</tilted></_>
    <_>
      <rects>
        <_>
          42 45 6 4 -1.</_>
        <_>
          44 47 2 4 3.</_></rects>
      <tilted>1</tilted></_>
    <_>
      <rects>
        <_>
          42 58 4 2 -1.</_>
        <_>
          43 59 2 2 2.</_></rects>
      <tilted>1</tilted></_>
    <_>
      <rects>
        <_>
          45 4 5 6 -1.</_>
        <_>
          45 4 5 3 2.</_></rects>
      <tilted>1</tilted></_>
    <_>
      <rects>
        <_>
          45 18 5 8 -1.</_>
        <_>
          43 20 5 4 2.</_></rects>
      <tilted>1</tilted></_>
    <_>
      <rects>
        <_>
          45 40 4 19 -1.</_>
        <_>
          45 40 2 19 2.</_></rects>
      <tilted>1</tilted></_>
    <_>
      <rects>
        <_>
          46 33 4 12 -1.</_>
        <_>
          47 34 2 12 2.</_></rects>
      <tilted>1</tilted></_></features></cascade>
</opencv_storage>
