<?xml version="1.0"?>
<opencv_storage>
<cascade>
  <stageType>BOOST</stageType>
  <featureType>HAAR</featureType>
  <height>64</height>
  <width>50</width>
  <stageParams>
    <boostType>GAB</boostType>
    <minHitRate>9.9900001287460327e-01</minHitRate>
    <maxFalseAlarm>5.0000000000000000e-01</maxFalseAlarm>
    <weightTrimRate>9.4999999999999996e-01</weightTrimRate>
    <maxDepth>2</maxDepth>
    <maxWeakCount>100</maxWeakCount></stageParams>
  <featureParams>
    <maxCatCount>0</maxCatCount>
    <featSize>1</featSize>
    <mode>ALL</mode></featureParams>
  <stageNum>11</stageNum>
  <stages>
    <!-- stage 0 -->
    <_>
      <maxWeakCount>2</maxWeakCount>
      <stageThreshold>-1.4080876111984253e-01</stageThreshold>
      <weakClassifiers>
        <_>
          <internalNodes>
            1 2 18 1.3039699196815491e-01 0 -1 15
            -2.3090768605470657e-02 -2 -3 67 1.3400003314018250e-01</internalNodes>
          <leafValues>
            7.7142858505249023e-01 -8.7728029489517212e-01
            -8.9999997615814209e-01 9.8456448316574097e-01</leafValues></_>
        <_>
          <internalNodes>
            1 2 71 2.3252964019775391e-03 0 -1 104
            -3.0475065112113953e-02 -2 -3 69 1.8815066432580352e-03</internalNodes>
          <leafValues>
            8.8287323713302612e-01 -9.1223734617233276e-01
            -8.2859516143798828e-01 9.2077797651290894e-01</leafValues></_></weakClassifiers></_>
    <!-- stage 1 -->
    <_>
      <maxWeakCount>3</maxWeakCount>
      <stageThreshold>-1.3306123018264771e+00</stageThreshold>
      <weakClassifiers>
        <_>
          <internalNodes>
            1 2 17 1.8731734156608582e-01 0 -1 41
            -8.9653339236974716e-03 -2 -3 31 6.6433519124984741e-02</internalNodes>
          <leafValues>
            3.3898305892944336e-01 -8.7295824289321899e-01
            -8.8571429252624512e-01 9.7321426868438721e-01</leafValues></_>
        <_>
          <internalNodes>
            1 2 27 2.9153326526284218e-02 0 -1 116
            -2.9450492002069950e-03 -2 -3 117 -4.8341322690248489e-03</internalNodes>
          <leafValues>
            2.8851741552352905e-01 -8.9973813295364380e-01 -1.
            9.1030734777450562e-01</leafValues></_>
        <_>
          <internalNodes>
            1 2 92 -1.9274137914180756e-02 0 -1 84
            -1.3886971864849329e-03 -2 -3 24 9.5222570002079010e-02</internalNodes>
          <leafValues>
            8.8011556863784790e-01 -7.8453981876373291e-01
            -7.4617147445678711e-01 5.0879728794097900e-01</leafValues></_></weakClassifiers></_>
    <!-- stage 2 -->
    <_>
      <maxWeakCount>3</maxWeakCount>
      <stageThreshold>-1.2591644525527954e+00</stageThreshold>
      <weakClassifiers>
        <_>
          <internalNodes>
            1 2 106 -5.9809453785419464e-02 0 -1 57
            2.5523025542497635e-03 -2 -3 50 -7.7806012704968452e-03</internalNodes>
          <leafValues>
            -8.7301588058471680e-01 9.0849673748016357e-01
            2.3437500000000000e-01 -8.3299386501312256e-01</leafValues></_>
        <_>
          <internalNodes>
            1 2 19 1.9512897729873657e-01 0 -1 10
            -5.2450606599450111e-03 -2 -3 54 3.8947045803070068e-02</internalNodes>
          <leafValues>
            4.8529559373855591e-01 -7.3506373167037964e-01
            8.5551083087921143e-01 -9.5316040515899658e-01</leafValues></_>
        <_>
          <internalNodes>
            1 2 38 3.0837433878332376e-03 0 -1 45
            -3.0467350035905838e-02 -2 -3 87 -3.6966856569051743e-03</internalNodes>
          <leafValues>
            4.6906217932701111e-01 -9.1146618127822876e-01
            6.7977368831634521e-01 -5.4202449321746826e-01</leafValues></_></weakClassifiers></_>
    <!-- stage 3 -->
    <_>
      <maxWeakCount>3</maxWeakCount>
      <stageThreshold>-1.0029252767562866e+00</stageThreshold>
      <weakClassifiers>
        <_>
          <internalNodes>
            1 2 102 -6.0749888420104980e-02 0 -1 16
            1.5524530783295631e-02 -2 -3 35 -9.9426042288541794e-03</internalNodes>
          <leafValues>
            -8.7692308425903320e-01 8.8222700357437134e-01
            6.2500000000000000e-01 -7.5791436433792114e-01</leafValues></_>
        <_>
          <internalNodes>
            1 2 99 -3.5579267889261246e-02 0 -1 62
            -3.1297829002141953e-02 -2 -3 83 6.2342938035726547e-03</internalNodes>
          <leafValues>
            -1. 8.0926674604415894e-01 -7.5128078460693359e-01
            4.8011806607246399e-01</leafValues></_>
        <_>
          <internalNodes>
            1 2 61 -2.6122713461518288e-03 0 -1 100
            3.9841118268668652e-04 -2 -3 9 1.9074311852455139e-01</internalNodes>
          <leafValues>
            -4.7382193803787231e-01 8.3842849731445312e-01
            -7.2512900829315186e-01 2.9813799262046814e-01</leafValues></_></weakClassifiers></_>
    <!-- stage 4 -->
    <_>
      <maxWeakCount>3</maxWeakCount>
      <stageThreshold>-8.9837384223937988e-01</stageThreshold>
      <weakClassifiers>
        <_>
          <internalNodes>
            1 2 51 1.7240035533905029e-01 0 -1 79
            -2.0570937544107437e-02 -2 -3 56 -4.5146495103836060e-02</internalNodes>
          <leafValues>
            6.0526317358016968e-01 -7.5697213411331177e-01 -1.
            8.3682006597518921e-01</leafValues></_>
        <_>
          <internalNodes>
            1 2 20 1.6022276878356934e-01 0 -1 25
            -3.3821996301412582e-02 -2 -3 48 1.3384060002863407e-02</internalNodes>
          <leafValues>
            5.6976592540740967e-01 -7.3654913902282715e-01
            -5.5328571796417236e-01 8.7573564052581787e-01</leafValues></_>
        <_>
          <internalNodes>
            1 2 115 -1.3521350920200348e-03 0 -1 55
            1.6729818657040596e-02 -2 -3 6 5.9115840122103691e-03</internalNodes>
          <leafValues>
            -7.1078735589981079e-01 7.2566103935241699e-01
            -7.1116763353347778e-01 4.4603496789932251e-01</leafValues></_></weakClassifiers></_>
    <!-- stage 5 -->
    <_>
      <maxWeakCount>4</maxWeakCount>
      <stageThreshold>-1.4715442657470703e+00</stageThreshold>
      <weakClassifiers>
        <_>
          <internalNodes>
            1 2 82 -5.5609963834285736e-02 0 -1 73
            1.0066712275147438e-02 -2 -3 64 -1.4395593665540218e-02</internalNodes>
          <leafValues>
            -8.0487805604934692e-01 8.4292036294937134e-01
            7.1428573131561279e-01 -6.7169809341430664e-01</leafValues></_>
        <_>
          <internalNodes>
            1 2 40 -3.5849143750965595e-03 0 -1 93
            -1.1061696335673332e-02 -2 -3 63 4.5208707451820374e-03</internalNodes>
          <leafValues>
            7.6933759450912476e-01 -5.3145468235015869e-01
            -8.4883677959442139e-01 1.1465183645486832e-01</leafValues></_>
        <_>
          <internalNodes>
            1 2 88 -3.0721407383680344e-03 0 -1 109
            1.1381736112525687e-04 -2 -3 14 -2.8064759681001306e-04</internalNodes>
          <leafValues>
            5.6065011024475098e-01 -4.7222325205802917e-01
            6.9291251897811890e-01 -8.6720645427703857e-01</leafValues></_>
        <_>
          <internalNodes>
            1 2 112 -1.3553116470575333e-02 0 -1 2
            1.6300505027174950e-02 -2 -3 36 -1.5680924989283085e-03</internalNodes>
          <leafValues>
            -4.4227471947669983e-01 8.1973636150360107e-01
            2.7795261144638062e-01 -6.4678615331649780e-01</leafValues></_></weakClassifiers></_>
    <!-- stage 6 -->
    <_>
      <maxWeakCount>4</maxWeakCount>
      <stageThreshold>-1.1799137592315674e+00</stageThreshold>
      <weakClassifiers>
        <_>
          <internalNodes>
            1 2 11 1.9039225578308105e-01 0 -1 4 -1.4160465449094772e-02
            -2 -3 53 4.4219866394996643e-02</internalNodes>
          <leafValues>
            4.1935482621192932e-01 -7.2549021244049072e-01
            7.9012346267700195e-01 -9.7368419170379639e-01</leafValues></_>
        <_>
          <internalNodes>
            1 2 46 -1.5789665281772614e-02 0 -1 80
            1.7855144105851650e-03 -2 -3 58 -4.1145333671011031e-04</internalNodes>
          <leafValues>
            -5.6693720817565918e-01 8.6121559143066406e-01
            1.0196311026811600e-01 -7.8894555568695068e-01</leafValues></_>
        <_>
          <internalNodes>
            1 2 110 -1.5859660925343633e-03 0 -1 103
            6.3422182574868202e-04 -2 -3 52 6.2862224876880646e-02</internalNodes>
          <leafValues>
            6.9343328475952148e-01 -6.5032011270523071e-01
            -5.6687867641448975e-01 8.5270601511001587e-01</leafValues></_>
        <_>
          <internalNodes>
            1 2 101 -1.2580085545778275e-02 0 -1 89
            -1.1374411405995488e-03 -2 -3 13 -6.2228570459410548e-04</internalNodes>
          <leafValues>
            7.2449487447738647e-01 -6.3385617733001709e-01
            7.2012972831726074e-01 -6.1421304941177368e-01</leafValues></_></weakClassifiers></_>
    <!-- stage 7 -->
    <_>
      <maxWeakCount>4</maxWeakCount>
      <stageThreshold>-7.9494637250900269e-01</stageThreshold>
      <weakClassifiers>
        <_>
          <internalNodes>
            1 2 68 1.5510344505310059e-01 0 -1 85
            -3.7134683225303888e-04 -2 -3 98 -1.2328129261732101e-02</internalNodes>
          <leafValues>
            -6.0498218983411789e-02 -9.4964027404785156e-01
            7.9091870784759521e-01 -7.2340422868728638e-01</leafValues></_>
        <_>
          <internalNodes>
            1 2 3 4.5459575951099396e-02 0 -1 29 5.9498101472854614e-03
            -2 -3 59 -4.5493138022720814e-03</internalNodes>
          <leafValues>
            -5.6575685739517212e-01 6.0223430395126343e-01
            -7.0886117219924927e-01 7.5509220361709595e-01</leafValues></_>
        <_>
          <internalNodes>
            1 2 90 4.3960727634839714e-04 0 -1 118
            3.0877441167831421e-03 -2 -3 95 -5.2481284365057945e-03</internalNodes>
          <leafValues>
            -6.9525903463363647e-01 4.8867899179458618e-01
            -7.5813275575637817e-01 6.7435920238494873e-01</leafValues></_>
        <_>
          <internalNodes>
            1 2 114 3.2985871657729149e-03 0 -1 8 4.5049048960208893e-02
            -2 -3 75 4.5794120524078608e-04</internalNodes>
          <leafValues>
            -6.5737026929855347e-01 5.4519397020339966e-01
            7.0147401094436646e-01 -8.3281701803207397e-01</leafValues></_></weakClassifiers></_>
    <!-- stage 8 -->
    <_>
      <maxWeakCount>4</maxWeakCount>
      <stageThreshold>-1.1425943374633789e+00</stageThreshold>
      <weakClassifiers>
        <_>
          <internalNodes>
            1 2 42 2.1323850750923157e-01 0 -1 21
            -5.1811296725645661e-04 -2 -3 72 2.9186793835833669e-04</internalNodes>
          <leafValues>
            5.4901963472366333e-01 -5.3284668922424316e-01
            -6.2616825103759766e-01 8.3392643928527832e-01</leafValues></_>
        <_>
          <internalNodes>
            1 2 81 -6.0732365818694234e-04 0 -1 70
            -2.8125587850809097e-02 -2 -3 26 6.0450121760368347e-02</internalNodes>
          <leafValues>
            -8.9532947540283203e-01 5.6616342067718506e-01
            -7.9259312152862549e-01 4.8542749881744385e-01</leafValues></_>
        <_>
          <internalNodes>
            1 2 107 -3.2733790576457977e-02 0 -1 108
            1.4973676297813654e-03 -2 -3 5 -1.0157696902751923e-01</internalNodes>
          <leafValues>
            7.0473390817642212e-01 -4.3659391999244690e-01
            3.5827460885047913e-01 -7.7911627292633057e-01</leafValues></_>
        <_>
          <internalNodes>
            1 2 113 -2.8281854465603828e-02 0 -1 49
            -3.2256555277854204e-03 -2 -3 28 4.2989533394575119e-03</internalNodes>
          <leafValues>
            7.2068780660629272e-01 -3.0331096053123474e-01
            -7.3931705951690674e-01 5.5921524763107300e-01</leafValues></_></weakClassifiers></_>
    <!-- stage 9 -->
    <_>
      <maxWeakCount>5</maxWeakCount>
      <stageThreshold>-9.9461829662322998e-01</stageThreshold>
      <weakClassifiers>
        <_>
          <internalNodes>
            1 2 30 8.3390742540359497e-02 0 -1 32 4.7408910468220711e-03
            -2 -3 23 4.3628737330436707e-03</internalNodes>
          <leafValues>
            -6.5807962417602539e-01 5.2688169479370117e-01
            -8.1999999284744263e-01 7.2857141494750977e-01</leafValues></_>
        <_>
          <internalNodes>
            1 2 45 -3.2361321151256561e-02 0 -1 39
            4.7375094145536423e-03 -2 -3 105 1.8591062398627400e-03</internalNodes>
          <leafValues>
            8.8876575231552124e-01 -8.9309912919998169e-01
            -5.0206816196441650e-01 4.0609070658683777e-01</leafValues></_>
        <_>
          <internalNodes>
            1 2 97 1.1008437722921371e-02 0 -1 78 1.2507232604548335e-03
            -2 -3 111 -2.8633788228034973e-02</internalNodes>
          <leafValues>
            -4.5985350012779236e-01 5.0757795572280884e-01
            4.1916874051094055e-01 -9.2697060108184814e-01</leafValues></_>
        <_>
          <internalNodes>
            1 2 66 -1.2861827388405800e-02 0 -1 76
            -1.4390939846634865e-02 -2 -3 22 -3.6773920059204102e-02</internalNodes>
          <leafValues>
            -8.6725139617919922e-01 6.1908555030822754e-01
            5.1785331964492798e-01 -6.1512845754623413e-01</leafValues></_>
        <_>
          <internalNodes>
            1 2 47 9.1204438358545303e-03 0 -1 96
            -2.1658160258084536e-03 -2 -3 33 -7.2247686330229044e-04</internalNodes>
          <leafValues>
            2.7307996153831482e-01 -7.5159913301467896e-01
            -6.8743532896041870e-01 8.9542943239212036e-01</leafValues></_></weakClassifiers></_>
    <!-- stage 10 -->
    <_>
      <maxWeakCount>5</maxWeakCount>
      <stageThreshold>-7.5888425111770630e-01</stageThreshold>
      <weakClassifiers>
        <_>
          <internalNodes>
            1 2 1 4.8932217061519623e-02 0 -1 44 1.1241220869123936e-02
            -2 -3 65 9.1721937060356140e-03</internalNodes>
          <leafValues>
            -4.1915228962898254e-01 7.4324321746826172e-01
            -5.4545456171035767e-01 8.3218705654144287e-01</leafValues></_>
        <_>
          <internalNodes>
            1 2 77 -3.5850628046318889e-04 0 -1 0
            -3.3998823165893555e-01 -2 -3 86 2.3563482682220638e-04</internalNodes>
          <leafValues>
            1. -9.8187738656997681e-01 -1.9467537105083466e-01
            6.0768759250640869e-01</leafValues></_>
        <_>
          <internalNodes>
            1 2 91 -4.0074691059999168e-04 0 -1 94
            -1.1822298984043300e-04 -2 -3 34 2.1467390470206738e-03</internalNodes>
          <leafValues>
            -7.6442980766296387e-01 5.0693356990814209e-01
            -8.3511960506439209e-01 2.4856466054916382e-01</leafValues></_>
        <_>
          <internalNodes>
            1 2 74 -4.4531002640724182e-03 0 -1 43
            -4.1411416605114937e-03 -2 -3 60 -3.0070492997765541e-02</internalNodes>
          <leafValues>
            -8.4778034687042236e-01 6.5684497356414795e-01
            8.1440252065658569e-01 -5.4317104816436768e-01</leafValues></_>
        <_>
          <internalNodes>
            1 2 12 -5.4556378163397312e-03 0 -1 37
            7.7744428999722004e-03 -2 -3 7 3.2278255093842745e-03</internalNodes>
          <leafValues>
            6.8024343252182007e-01 -6.3376349210739136e-01
            -6.0657280683517456e-01 5.4918056726455688e-01</leafValues></_></weakClassifiers></_></stages>
  <features>
    <_>
      <rects>
        <_>
          0 0 40 58 -1.</_>
        <_>
          20 0 20 58 2.</_></rects>
      <tilted>0</tilted></_>
    <_>
      <rects>
        <_>
          0 2 24 22 -1.</_>
        <_>
          0 2 12 11 2.</_>
        <_>
          12 13 12 11 2.</_></rects>
      <tilted>0</tilted></_>
    <_>
      <rects>
        <_>
          0 3 34 18 -1.</_>
        <_>
          0 3 17 9 2.</_>
        <_>
          17 12 17 9 2.</_></rects>
      <tilted>0</tilted></_>
    <_>
      <rects>
        <_>
          0 4 26 20 -1.</_>
        <_>
          0 4 13 10 2.</_>
        <_>
          13 14 13 10 2.</_></rects>
      <tilted>0</tilted></_>
    <_>
      <rects>
        <_>
          0 9 6 29 -1.</_>
        <_>
          3 9 3 29 2.</_></rects>
      <tilted>0</tilted></_>
    <_>
      <rects>
        <_>
          0 12 48 42 -1.</_>
        <_>
          16 26 16 14 9.</_></rects>
      <tilted>0</tilted></_>
    <_>
      <rects>
        <_>
          0 16 6 24 -1.</_>
        <_>
          0 16 3 12 2.</_>
        <_>
          3 28 3 12 2.</_></rects>
      <tilted>0</tilted></_>
    <_>
      <rects>
        <_>
          0 19 4 14 -1.</_>
        <_>
          2 19 2 14 2.</_></rects>
      <tilted>0</tilted></_>
    <_>
      <rects>
        <_>
          0 20 12 39 -1.</_>
        <_>
          6 20 6 39 2.</_></rects>
      <tilted>0</tilted></_>
    <_>
      <rects>
        <_>
          0 21 44 42 -1.</_>
        <_>
          11 21 22 42 2.</_></rects>
      <tilted>0</tilted></_>
    <_>
      <rects>
        <_>
          0 22 9 17 -1.</_>
        <_>
          3 22 3 17 3.</_></rects>
      <tilted>0</tilted></_>
    <_>
      <rects>
        <_>
          1 15 48 39 -1.</_>
        <_>
          13 15 24 39 2.</_></rects>
      <tilted>0</tilted></_>
    <_>
      <rects>
        <_>
          1 17 8 26 -1.</_>
        <_>
          3 17 4 26 2.</_></rects>
      <tilted>0</tilted></_>
    <_>
      <rects>
        <_>
          1 40 2 6 -1.</_>
        <_>
          1 40 1 3 2.</_>
        <_>
          2 43 1 3 2.</_></rects>
      <tilted>0</tilted></_>
    <_>
      <rects>
        <_>
          1 43 3 1 -1.</_>
        <_>
          2 43 1 1 3.</_></rects>
      <tilted>0</tilted></_>
    <_>
      <rects>
        <_>
          2 5 48 3 -1.</_>
        <_>
          14 5 24 3 2.</_></rects>
      <tilted>0</tilted></_>
    <_>
      <rects>
        <_>
          2 12 28 15 -1.</_>
        <_>
          16 12 14 15 2.</_></rects>
      <tilted>0</tilted></_>
    <_>
      <rects>
        <_>
          2 13 48 41 -1.</_>
        <_>
          14 13 24 41 2.</_></rects>
      <tilted>0</tilted></_>
    <_>
      <rects>
        <_>
          2 14 48 32 -1.</_>
        <_>
          14 14 24 32 2.</_></rects>
      <tilted>0</tilted></_>
    <_>
      <rects>
        <_>
          2 14 48 35 -1.</_>
        <_>
          14 14 24 35 2.</_></rects>
      <tilted>0</tilted></_>
    <_>
      <rects>
        <_>
          2 15 48 25 -1.</_>
        <_>
          14 15 24 25 2.</_></rects>
      <tilted>0</tilted></_>
    <_>
      <rects>
        <_>
          2 20 2 6 -1.</_>
        <_>
          2 20 1 3 2.</_>
        <_>
          3 23 1 3 2.</_></rects>
      <tilted>0</tilted></_>
    <_>
      <rects>
        <_>
          2 24 46 14 -1.</_>
        <_>
          2 24 23 7 2.</_>
        <_>
          25 31 23 7 2.</_></rects>
      <tilted>0</tilted></_>
    <_>
      <rects>
        <_>
          2 29 32 12 -1.</_>
        <_>
          10 29 16 12 2.</_></rects>
      <tilted>0</tilted></_>
    <_>
      <rects>
        <_>
          3 37 44 27 -1.</_>
        <_>
          14 37 22 27 2.</_></rects>
      <tilted>0</tilted></_>
    <_>
      <rects>
        <_>
          4 18 44 32 -1.</_>
        <_>
          15 18 22 32 2.</_></rects>
      <tilted>0</tilted></_>
    <_>
      <rects>
        <_>
          4 24 16 21 -1.</_>
        <_>
          12 24 8 21 2.</_></rects>
      <tilted>0</tilted></_>
    <_>
      <rects>
        <_>
          5 14 40 8 -1.</_>
        <_>
          15 14 20 8 2.</_></rects>
      <tilted>0</tilted></_>
    <_>
      <rects>
        <_>
          6 62 36 1 -1.</_>
        <_>
          15 62 18 1 2.</_></rects>
      <tilted>0</tilted></_>
    <_>
      <rects>
        <_>
          7 8 8 7 -1.</_>
        <_>
          9 10 4 7 2.</_></rects>
      <tilted>1</tilted></_>
    <_>
      <rects>
        <_>
          8 8 36 22 -1.</_>
        <_>
          20 8 12 22 3.</_></rects>
      <tilted>0</tilted></_>
    <_>
      <rects>
        <_>
          9 0 34 36 -1.</_>
        <_>
          9 18 34 18 2.</_></rects>
      <tilted>0</tilted></_>
    <_>
      <rects>
        <_>
          9 12 4 8 -1.</_>
        <_>
          9 12 2 8 2.</_></rects>
      <tilted>1</tilted></_>
    <_>
      <rects>
        <_>
          9 33 30 2 -1.</_>
        <_>
          19 33 10 2 3.</_></rects>
      <tilted>0</tilted></_>
    <_>
      <rects>
        <_>
          9 36 12 4 -1.</_>
        <_>
          13 36 4 4 3.</_></rects>
      <tilted>0</tilted></_>
    <_>
      <rects>
        <_>
          10 3 6 7 -1.</_>
        <_>
          12 5 2 7 3.</_></rects>
      <tilted>1</tilted></_>
    <_>
      <rects>
        <_>
          10 4 4 8 -1.</_>
        <_>
          11 5 2 8 2.</_></rects>
      <tilted>1</tilted></_>
    <_>
      <rects>
        <_>
          10 7 9 8 -1.</_>
        <_>
          10 7 9 4 2.</_></rects>
      <tilted>1</tilted></_>
    <_>
      <rects>
        <_>
          10 32 30 18 -1.</_>
        <_>
          10 38 30 6 3.</_></rects>
      <tilted>0</tilted></_>
    <_>
      <rects>
        <_>
          10 39 31 10 -1.</_>
        <_>
          10 44 31 5 2.</_></rects>
      <tilted>0</tilted></_>
    <_>
      <rects>
        <_>
          11 1 32 4 -1.</_>
        <_>
          11 3 32 2 2.</_></rects>
      <tilted>0</tilted></_>
    <_>
      <rects>
        <_>
          11 2 29 4 -1.</_>
        <_>
          11 4 29 2 2.</_></rects>
      <tilted>0</tilted></_>
    <_>
      <rects>
        <_>
          11 3 30 60 -1.</_>
        <_>
          11 18 30 30 2.</_></rects>
      <tilted>0</tilted></_>
    <_>
      <rects>
        <_>
          11 14 24 9 -1.</_>
        <_>
          11 17 24 3 3.</_></rects>
      <tilted>0</tilted></_>
    <_>
      <rects>
        <_>
          12 0 8 12 -1.</_>
        <_>
          14 2 4 12 2.</_></rects>
      <tilted>1</tilted></_>
    <_>
      <rects>
        <_>
          12 0 12 12 -1.</_>
        <_>
          15 3 6 12 2.</_></rects>
      <tilted>1</tilted></_>
    <_>
      <rects>
        <_>
          12 1 12 8 -1.</_>
        <_>
          16 5 4 8 3.</_></rects>
      <tilted>1</tilted></_>
    <_>
      <rects>
        <_>
          12 27 28 8 -1.</_>
        <_>
          12 27 14 4 2.</_>
        <_>
          26 31 14 4 2.</_></rects>
      <tilted>0</tilted></_>
    <_>
      <rects>
        <_>
          12 28 19 36 -1.</_>
        <_>
          12 37 19 18 2.</_></rects>
      <tilted>0</tilted></_>
    <_>
      <rects>
        <_>
          13 0 15 6 -1.</_>
        <_>
          13 3 15 3 2.</_></rects>
      <tilted>0</tilted></_>
    <_>
      <rects>
        <_>
          13 0 19 8 -1.</_>
        <_>
          13 2 19 4 2.</_></rects>
      <tilted>0</tilted></_>
    <_>
      <rects>
        <_>
          13 3 28 60 -1.</_>
        <_>
          13 18 28 30 2.</_></rects>
      <tilted>0</tilted></_>
    <_>
      <rects>
        <_>
          13 4 20 13 -1.</_>
        <_>
          18 9 10 13 2.</_></rects>
      <tilted>1</tilted></_>
    <_>
      <rects>
        <_>
          13 25 27 18 -1.</_>
        <_>
          22 31 9 6 9.</_></rects>
      <tilted>0</tilted></_>
    <_>
      <rects>
        <_>
          13 27 27 15 -1.</_>
        <_>
          22 32 9 5 9.</_></rects>
      <tilted>0</tilted></_>
    <_>
      <rects>
        <_>
          14 9 24 34 -1.</_>
        <_>
          20 9 12 34 2.</_></rects>
      <tilted>0</tilted></_>
    <_>
      <rects>
        <_>
          14 26 22 28 -1.</_>
        <_>
          14 40 22 14 2.</_></rects>
      <tilted>0</tilted></_>
    <_>
      <rects>
        <_>
          14 27 23 36 -1.</_>
        <_>
          14 39 23 12 3.</_></rects>
      <tilted>0</tilted></_>
    <_>
      <rects>
        <_>
          14 28 9 6 -1.</_>
        <_>
          17 28 3 6 3.</_></rects>
      <tilted>0</tilted></_>
    <_>
      <rects>
        <_>
          14 30 22 14 -1.</_>
        <_>
          14 37 22 7 2.</_></rects>
      <tilted>0</tilted></_>
    <_>
      <rects>
        <_>
          14 43 24 18 -1.</_>
        <_>
          14 43 12 9 2.</_>
        <_>
          26 52 12 9 2.</_></rects>
      <tilted>0</tilted></_>
    <_>
      <rects>
        <_>
          15 0 21 4 -1.</_>
        <_>
          15 2 21 2 2.</_></rects>
      <tilted>0</tilted></_>
    <_>
      <rects>
        <_>
          15 25 22 26 -1.</_>
        <_>
          15 38 22 13 2.</_></rects>
      <tilted>0</tilted></_>
    <_>
      <rects>
        <_>
          15 27 9 12 -1.</_>
        <_>
          12 30 9 6 2.</_></rects>
      <tilted>1</tilted></_>
    <_>
      <rects>
        <_>
          16 26 20 10 -1.</_>
        <_>
          16 26 10 5 2.</_>
        <_>
          26 31 10 5 2.</_></rects>
      <tilted>0</tilted></_>
    <_>
      <rects>
        <_>
          16 32 32 11 -1.</_>
        <_>
          24 32 16 11 2.</_></rects>
      <tilted>0</tilted></_>
    <_>
      <rects>
        <_>
          17 0 23 12 -1.</_>
        <_>
          17 3 23 6 2.</_></rects>
      <tilted>0</tilted></_>
    <_>
      <rects>
        <_>
          17 0 25 64 -1.</_>
        <_>
          17 16 25 32 2.</_></rects>
      <tilted>0</tilted></_>
    <_>
      <rects>
        <_>
          17 3 23 60 -1.</_>
        <_>
          17 18 23 30 2.</_></rects>
      <tilted>0</tilted></_>
    <_>
      <rects>
        <_>
          17 11 23 20 -1.</_>
        <_>
          17 16 23 10 2.</_></rects>
      <tilted>0</tilted></_>
    <_>
      <rects>
        <_>
          17 15 13 48 -1.</_>
        <_>
          17 31 13 16 3.</_></rects>
      <tilted>0</tilted></_>
    <_>
      <rects>
        <_>
          17 26 16 9 -1.</_>
        <_>
          21 26 8 9 2.</_></rects>
      <tilted>0</tilted></_>
    <_>
      <rects>
        <_>
          17 26 8 12 -1.</_>
        <_>
          21 26 4 12 2.</_></rects>
      <tilted>0</tilted></_>
    <_>
      <rects>
        <_>
          17 30 32 15 -1.</_>
        <_>
          25 30 16 15 2.</_></rects>
      <tilted>0</tilted></_>
    <_>
      <rects>
        <_>
          18 0 13 8 -1.</_>
        <_>
          18 2 13 4 2.</_></rects>
      <tilted>0</tilted></_>
    <_>
      <rects>
        <_>
          18 7 9 2 -1.</_>
        <_>
          18 7 9 1 2.</_></rects>
      <tilted>1</tilted></_>
    <_>
      <rects>
        <_>
          18 14 11 36 -1.</_>
        <_>
          18 23 11 18 2.</_></rects>
      <tilted>0</tilted></_>
    <_>
      <rects>
        <_>
          18 18 23 2 -1.</_>
        <_>
          18 19 23 1 2.</_></rects>
      <tilted>0</tilted></_>
    <_>
      <rects>
        <_>
          18 28 12 7 -1.</_>
        <_>
          21 28 6 7 2.</_></rects>
      <tilted>0</tilted></_>
    <_>
      <rects>
        <_>
          19 0 15 9 -1.</_>
        <_>
          19 3 15 3 3.</_></rects>
      <tilted>0</tilted></_>
    <_>
      <rects>
        <_>
          19 11 12 29 -1.</_>
        <_>
          22 11 6 29 2.</_></rects>
      <tilted>0</tilted></_>
    <_>
      <rects>
        <_>
          19 21 11 12 -1.</_>
        <_>
          19 27 11 6 2.</_></rects>
      <tilted>0</tilted></_>
    <_>
      <rects>
        <_>
          20 1 16 13 -1.</_>
        <_>
          20 1 8 13 2.</_></rects>
      <tilted>1</tilted></_>
    <_>
      <rects>
        <_>
          21 24 9 10 -1.</_>
        <_>
          24 24 3 10 3.</_></rects>
      <tilted>0</tilted></_>
    <_>
      <rects>
        <_>
          21 24 16 17 -1.</_>
        <_>
          29 24 8 17 2.</_></rects>
      <tilted>0</tilted></_>
    <_>
      <rects>
        <_>
          21 24 9 8 -1.</_>
        <_>
          21 26 9 4 2.</_></rects>
      <tilted>0</tilted></_>
    <_>
      <rects>
        <_>
          21 52 10 6 -1.</_>
        <_>
          21 54 10 2 3.</_></rects>
      <tilted>0</tilted></_>
    <_>
      <rects>
        <_>
          22 22 14 17 -1.</_>
        <_>
          29 22 7 17 2.</_></rects>
      <tilted>0</tilted></_>
    <_>
      <rects>
        <_>
          22 26 14 12 -1.</_>
        <_>
          29 26 7 12 2.</_></rects>
      <tilted>0</tilted></_>
    <_>
      <rects>
        <_>
          22 28 12 11 -1.</_>
        <_>
          28 28 6 11 2.</_></rects>
      <tilted>0</tilted></_>
    <_>
      <rects>
        <_>
          22 49 5 12 -1.</_>
        <_>
          22 52 5 6 2.</_></rects>
      <tilted>0</tilted></_>
    <_>
      <rects>
        <_>
          23 30 6 4 -1.</_>
        <_>
          26 30 3 4 2.</_></rects>
      <tilted>0</tilted></_>
    <_>
      <rects>
        <_>
          24 0 22 18 -1.</_>
        <_>
          24 0 11 9 2.</_>
        <_>
          35 9 11 9 2.</_></rects>
      <tilted>0</tilted></_>
    <_>
      <rects>
        <_>
          24 1 22 18 -1.</_>
        <_>
          24 1 11 9 2.</_>
        <_>
          35 10 11 9 2.</_></rects>
      <tilted>0</tilted></_>
    <_>
      <rects>
        <_>
          24 21 2 3 -1.</_>
        <_>
          24 22 2 1 3.</_></rects>
      <tilted>0</tilted></_>
    <_>
      <rects>
        <_>
          25 25 9 24 -1.</_>
        <_>
          25 37 9 12 2.</_></rects>
      <tilted>0</tilted></_>
    <_>
      <rects>
        <_>
          25 27 9 8 -1.</_>
        <_>
          25 31 9 4 2.</_></rects>
      <tilted>0</tilted></_>
    <_>
      <rects>
        <_>
          26 32 16 12 -1.</_>
        <_>
          23 35 16 6 2.</_></rects>
      <tilted>1</tilted></_>
    <_>
      <rects>
        <_>
          29 17 16 10 -1.</_>
        <_>
          37 17 8 10 2.</_></rects>
      <tilted>0</tilted></_>
    <_>
      <rects>
        <_>
          30 4 20 24 -1.</_>
        <_>
          30 4 10 12 2.</_>
        <_>
          40 16 10 12 2.</_></rects>
      <tilted>0</tilted></_>
    <_>
      <rects>
        <_>
          30 18 10 16 -1.</_>
        <_>
          30 18 5 8 2.</_>
        <_>
          35 26 5 8 2.</_></rects>
      <tilted>0</tilted></_>
    <_>
      <rects>
        <_>
          30 38 20 5 -1.</_>
        <_>
          40 38 10 5 2.</_></rects>
      <tilted>0</tilted></_>
    <_>
      <rects>
        <_>
          32 3 18 14 -1.</_>
        <_>
          32 3 18 7 2.</_></rects>
      <tilted>1</tilted></_>
    <_>
      <rects>
        <_>
          32 4 2 6 -1.</_>
        <_>
          32 4 1 6 2.</_></rects>
      <tilted>1</tilted></_>
    <_>
      <rects>
        <_>
          33 0 16 12 -1.</_>
        <_>
          30 3 16 6 2.</_></rects>
      <tilted>1</tilted></_>
    <_>
      <rects>
        <_>
          33 39 6 8 -1.</_>
        <_>
          35 41 2 8 3.</_></rects>
      <tilted>1</tilted></_>
    <_>
      <rects>
        <_>
          34 4 16 14 -1.</_>
        <_>
          34 4 16 7 2.</_></rects>
      <tilted>1</tilted></_>
    <_>
      <rects>
        <_>
          34 24 16 20 -1.</_>
        <_>
          42 24 8 20 2.</_></rects>
      <tilted>0</tilted></_>
    <_>
      <rects>
        <_>
          35 19 9 18 -1.</_>
        <_>
          38 22 3 18 3.</_></rects>
      <tilted>1</tilted></_>
    <_>
      <rects>
        <_>
          35 31 4 28 -1.</_>
        <_>
          35 45 4 14 2.</_></rects>
      <tilted>0</tilted></_>
    <_>
      <rects>
        <_>
          36 4 8 6 -1.</_>
        <_>
          36 7 8 3 2.</_></rects>
      <tilted>0</tilted></_>
    <_>
      <rects>
        <_>
          38 16 9 8 -1.</_>
        <_>
          38 16 9 4 2.</_></rects>
      <tilted>1</tilted></_>
    <_>
      <rects>
        <_>
          39 5 10 24 -1.</_>
        <_>
          39 5 5 12 2.</_>
        <_>
          44 17 5 12 2.</_></rects>
      <tilted>0</tilted></_>
    <_>
      <rects>
        <_>
          41 1 9 15 -1.</_>
        <_>
          36 6 9 5 3.</_></rects>
      <tilted>1</tilted></_>
    <_>
      <rects>
        <_>
          41 2 9 4 -1.</_>
        <_>
          41 2 9 2 2.</_></rects>
      <tilted>1</tilted></_>
    <_>
      <rects>
        <_>
          41 26 4 15 -1.</_>
        <_>
          43 26 2 15 2.</_></rects>
      <tilted>0</tilted></_>
    <_>
      <rects>
        <_>
          41 26 9 10 -1.</_>
        <_>
          44 26 3 10 3.</_></rects>
      <tilted>0</tilted></_>
    <_>
      <rects>
        <_>
          43 28 7 20 -1.</_>
        <_>
          38 33 7 10 2.</_></rects>
      <tilted>1</tilted></_>
    <_>
      <rects>
        <_>
          44 34 6 9 -1.</_>
        <_>
          47 34 3 9 2.</_></rects>
      <tilted>0</tilted></_></features></cascade>
</opencv_storage>
