<?xml version="1.0"?>
<opencv_storage>
<stage7>
  <maxWeakCount>4</maxWeakCount>
  <stageThreshold>-7.9494637250900269e-01</stageThreshold>
  <weakClassifiers>
    <_>
      <internalNodes>
        1 2 4094294 1.5510344505310059e-01 0 -1 5022047
        -3.7134683225303888e-04 -2 -3 6409106 -1.2328129261732101e-02</internalNodes>
      <leafValues>
        -6.0498218983411789e-02 -9.4964027404785156e-01
        7.9091870784759521e-01 -7.2340422868728638e-01</leafValues></_>
    <_>
      <internalNodes>
        1 2 34620 4.5459575951099396e-02 0 -1 1813142
        5.9498101472854614e-03 -2 -3 3574001 -4.5493138022720814e-03</internalNodes>
      <leafValues>
        -5.6575685739517212e-01 6.0223430395126343e-01
        -7.0886117219924927e-01 7.5509220361709595e-01</leafValues></_>
    <_>
      <internalNodes>
        1 2 5281669 4.3960727634839714e-04 0 -1 8006872
        3.0877441167831421e-03 -2 -3 5772541 -5.2481284365057945e-03</internalNodes>
      <leafValues>
        -6.9525903463363647e-01 4.8867899179458618e-01
        -7.5813275575637817e-01 6.7435920238494873e-01</leafValues></_>
    <_>
      <internalNodes>
        1 2 7777953 3.2985871657729149e-03 0 -1 136354
        4.5049048960208893e-02 -2 -3 4328871 4.5794120524078608e-04</internalNodes>
      <leafValues>
        -6.5737026929855347e-01 5.4519397020339966e-01
        7.0147401094436646e-01 -8.3281701803207397e-01</leafValues></_></weakClassifiers></stage7>
</opencv_storage>
