<?xml version="1.0"?>
<opencv_storage>
<stage1>
  <maxWeakCount>3</maxWeakCount>
  <stageThreshold>-1.3306123018264771e+00</stageThreshold>
  <weakClassifiers>
    <_>
      <internalNodes>
        1 2 604889 1.8731734156608582e-01 0 -1 2737015
        -8.9653339236974716e-03 -2 -3 2247880 6.6433519124984741e-02</internalNodes>
      <leafValues>
        3.3898305892944336e-01 -8.7295824289321899e-01
        -8.8571429252624512e-01 9.7321426868438721e-01</leafValues></_>
    <_>
      <internalNodes>
        1 2 1360867 2.9153326526284218e-02 0 -1 7820380
        -2.9450492002069950e-03 -2 -3 7950074 -4.8341322690248489e-03</internalNodes>
      <leafValues>
        2.8851741552352905e-01 -8.9973813295364380e-01 -1.
        9.1030734777450562e-01</leafValues></_>
    <_>
      <internalNodes>
        1 2 5479670 -1.9274137914180756e-02 0 -1 5021970
        -1.3886971864849329e-03 -2 -3 969003 9.5222570002079010e-02</internalNodes>
      <leafValues>
        8.8011556863784790e-01 -7.8453981876373291e-01
        -7.4617147445678711e-01 5.0879728794097900e-01</leafValues></_></weakClassifiers></stage1>
</opencv_storage>
