<?xml version="1.0"?>
<opencv_storage>
<stage5>
  <maxWeakCount>4</maxWeakCount>
  <stageThreshold>-1.4715442657470703e+00</stageThreshold>
  <weakClassifiers>
    <_>
      <internalNodes>
        1 2 4706417 -5.5609963834285736e-02 0 -1 4226273
        1.0066712275147438e-02 -2 -3 3995897 -1.4395593665540218e-02</internalNodes>
      <leafValues>
        -8.0487805604934692e-01 8.4292036294937134e-01
        7.1428573131561279e-01 -6.7169809341430664e-01</leafValues></_>
    <_>
      <internalNodes>
        1 2 2730429 -3.5849143750965595e-03 0 -1 5485046
        -1.1061696335673332e-02 -2 -3 3781231 4.5208707451820374e-03</internalNodes>
      <leafValues>
        7.6933759450912476e-01 -5.3145468235015869e-01
        -8.4883677959442139e-01 1.1465183645486832e-01</leafValues></_>
    <_>
      <internalNodes>
        1 2 5224250 -3.0721407383680344e-03 0 -1 7264448
        1.1381736112525687e-04 -2 -3 481848 -2.8064759681001306e-04</internalNodes>
      <leafValues>
        5.6065011024475098e-01 -4.7222325205802917e-01
        6.9291251897811890e-01 -8.6720645427703857e-01</leafValues></_>
    <_>
      <internalNodes>
        1 2 7618890 -1.3553116470575333e-02 0 -1 28027
        1.6300505027174950e-02 -2 -3 2507305 -1.5680924989283085e-03</internalNodes>
      <leafValues>
        -4.4227471947669983e-01 8.1973636150360107e-01
        2.7795261144638062e-01 -6.4678615331649780e-01</leafValues></_></weakClassifiers></stage5>
</opencv_storage>
