<?xml version="1.0"?>
<opencv_storage>
<stage1>
  <maxWeakCount>3</maxWeakCount>
  <stageThreshold>-1.1008710861206055e+00</stageThreshold>
  <weakClassifiers>
    <_>
      <internalNodes>
        1 2 2981865 8.1322915852069855e-02 0 -1 7825395
        -1.4247254002839327e-03 -2 -3 3782699 4.2234240099787712e-03</internalNodes>
      <leafValues>
        1.5217390656471252e-01 -9.5642703771591187e-01
        -9.7468352317810059e-01 9.2989689111709595e-01</leafValues></_>
    <_>
      <internalNodes>
        1 2 623097 1.1535878479480743e-01 0 -1 5480048
        7.7060470357537270e-03 -2 -3 2491948 4.2899895459413528e-02</internalNodes>
      <leafValues>
        -8.6654156446456909e-01 5.3882658481597900e-01 -1.
        9.3400806188583374e-01</leafValues></_>
    <_>
      <internalNodes>
        1 2 3484981 1.8827309831976891e-02 0 -1 2962694
        3.2901428639888763e-03 -2 -3 451969 5.4617423564195633e-02</internalNodes>
      <leafValues>
        -9.3321180343627930e-01 8.4735208749771118e-01
        -8.0006086826324463e-01 7.2209745645523071e-01</leafValues></_></weakClassifiers></stage1>
</opencv_storage>
