<?xml version="1.0"?>
<opencv_storage>
<stage4>
  <maxWeakCount>3</maxWeakCount>
  <stageThreshold>-8.9837384223937988e-01</stageThreshold>
  <weakClassifiers>
    <_>
      <internalNodes>
        1 2 3206190 1.7240035533905029e-01 0 -1 4498876
        -2.0570937544107437e-02 -2 -3 3557960 -4.5146495103836060e-02</internalNodes>
      <leafValues>
        6.0526317358016968e-01 -7.5697213411331177e-01 -1.
        8.3682006597518921e-01</leafValues></_>
    <_>
      <internalNodes>
        1 2 617146 1.6022276878356934e-01 0 -1 1135190
        -3.3821996301412582e-02 -2 -3 3110764 1.3384060002863407e-02</internalNodes>
      <leafValues>
        5.6976592540740967e-01 -7.3654913902282715e-01
        -5.5328571796417236e-01 8.7573564052581787e-01</leafValues></_>
    <_>
      <internalNodes>
        1 2 7820131 -1.3521350920200348e-03 0 -1 3467098
        1.6729818657040596e-02 -2 -3 112614 5.9115840122103691e-03</internalNodes>
      <leafValues>
        -7.1078735589981079e-01 7.2566103935241699e-01
        -7.1116763353347778e-01 4.4603496789932251e-01</leafValues></_></weakClassifiers></stage4>
</opencv_storage>
