<?xml version="1.0"?>
<opencv_storage>
<stage10>
  <maxWeakCount>5</maxWeakCount>
  <stageThreshold>-9.0005737543106079e-01</stageThreshold>
  <weakClassifiers>
    <_>
      <internalNodes>
        1 2 7895363 7.2220833972096443e-03 0 -1 2481410
        -4.0782163850963116e-03 -2 -3 5681510 -3.4603150561451912e-03</internalNodes>
      <leafValues>
        6.2318837642669678e-01 -8.7323945760726929e-01
        6.2566846609115601e-01 -7.7600002288818359e-01</leafValues></_>
    <_>
      <internalNodes>
        1 2 5100619 -4.4975634664297104e-03 0 -1 3931771
        4.6785955782979727e-04 -2 -3 8050622 1.3623254373669624e-02</internalNodes>
      <leafValues>
        -5.1712876558303833e-01 8.6514282226562500e-01
        -4.8598667979240417e-01 6.4735418558120728e-01</leafValues></_>
    <_>
      <internalNodes>
        1 2 3397080 1.6250264598056674e-03 0 -1 7393466
        -3.0003707855939865e-02 -2 -3 4597291 9.6473447047173977e-04</internalNodes>
      <leafValues>
        9.3450570106506348e-01 -6.1763304471969604e-01
        -4.7563818097114563e-01 6.6016525030136108e-01</leafValues></_>
    <_>
      <internalNodes>
        1 2 2512782 1.5738365054130554e-01 0 -1 238253
        -4.9823038280010223e-03 -2 -3 6771131 9.5980679616332054e-03</internalNodes>
      <leafValues>
        7.2570925951004028e-01 -7.1095287799835205e-01
        5.7331156730651855e-01 -6.7503988742828369e-01</leafValues></_>
    <_>
      <internalNodes>
        1 2 8022575 5.9944647364318371e-03 0 -1 7365797
        1.0096382349729538e-02 -2 -3 1447492 -1.2100897729396820e-02</internalNodes>
      <leafValues>
        -7.3541563749313354e-01 1.1093896627426147e-01
        -9.0629094839096069e-01 7.8476792573928833e-01</leafValues></_></weakClassifiers></stage10>
</opencv_storage>
