<?xml version="1.0"?>
<opencv_storage>
<stage9>
  <maxWeakCount>5</maxWeakCount>
  <stageThreshold>-9.9461829662322998e-01</stageThreshold>
  <weakClassifiers>
    <_>
      <internalNodes>
        1 2 2057711 8.3390742540359497e-02 0 -1 2321497
        4.7408910468220711e-03 -2 -3 688814 4.3628737330436707e-03</internalNodes>
      <leafValues>
        -6.5807962417602539e-01 5.2688169479370117e-01
        -8.1999999284744263e-01 7.2857141494750977e-01</leafValues></_>
    <_>
      <internalNodes>
        1 2 2949589 -3.2361321151256561e-02 0 -1 2684238
        4.7375094145536423e-03 -2 -3 7033607 1.8591062398627400e-03</internalNodes>
      <leafValues>
        8.8876575231552124e-01 -8.9309912919998169e-01
        -5.0206816196441650e-01 4.0609070658683777e-01</leafValues></_>
    <_>
      <internalNodes>
        1 2 5971295 1.1008437722921371e-02 0 -1 4429346
        1.2507232604548335e-03 -2 -3 7550581 -2.8633788228034973e-02</internalNodes>
      <leafValues>
        -4.5985350012779236e-01 5.0757795572280884e-01
        4.1916874051094055e-01 -9.2697060108184814e-01</leafValues></_>
    <_>
      <internalNodes>
        1 2 4075548 -1.2861827388405800e-02 0 -1 4367670
        -1.4390939846634865e-02 -2 -3 667830 -3.6773920059204102e-02</internalNodes>
      <leafValues>
        -8.6725139617919922e-01 6.1908555030822754e-01
        5.1785331964492798e-01 -6.1512845754623413e-01</leafValues></_>
    <_>
      <internalNodes>
        1 2 3106013 9.1204438358545303e-03 0 -1 5779362
        -2.1658160258084536e-03 -2 -3 2425358 -7.2247686330229044e-04</internalNodes>
      <leafValues>
        2.7307996153831482e-01 -7.5159913301467896e-01
        -6.8743532896041870e-01 8.9542943239212036e-01</leafValues></_></weakClassifiers></stage9>
</opencv_storage>
