<?xml version="1.0"?>
<opencv_storage>
<stage2>
  <maxWeakCount>3</maxWeakCount>
  <stageThreshold>-1.2591644525527954e+00</stageThreshold>
  <weakClassifiers>
    <_>
      <internalNodes>
        1 2 7069048 -5.9809453785419464e-02 0 -1 3562197
        2.5523025542497635e-03 -2 -3 3185431 -7.7806012704968452e-03</internalNodes>
      <leafValues>
        -8.7301588058471680e-01 9.0849673748016357e-01
        2.3437500000000000e-01 -8.3299386501312256e-01</leafValues></_>
    <_>
      <internalNodes>
        1 2 611082 1.9512897729873657e-01 0 -1 146348
        -5.2450606599450111e-03 -2 -3 3333554 3.8947045803070068e-02</internalNodes>
      <leafValues>
        4.8529559373855591e-01 -7.3506373167037964e-01
        8.5551083087921143e-01 -9.5316040515899658e-01</leafValues></_>
    <_>
      <internalNodes>
        1 2 2661581 3.0837433878332376e-03 0 -1 2949589
        -3.0467350035905838e-02 -2 -3 5208410 -3.6966856569051743e-03</internalNodes>
      <leafValues>
        4.6906217932701111e-01 -9.1146618127822876e-01
        6.7977368831634521e-01 -5.4202449321746826e-01</leafValues></_></weakClassifiers></stage2>
</opencv_storage>
