<?xml version="1.0"?>
<opencv_storage>
<stage5>
  <maxWeakCount>4</maxWeakCount>
  <stageThreshold>-1.3984313011169434e+00</stageThreshold>
  <weakClassifiers>
    <_>
      <internalNodes>
        1 2 3096490 4.0150742977857590e-02 0 -1 1577522
        1.5808799862861633e-01 -2 -3 8036250 -1.3679081574082375e-02</internalNodes>
      <leafValues>
        -4.5387452840805054e-01 7.0841121673583984e-01 1.
        -9.8393571376800537e-01</leafValues></_>
    <_>
      <internalNodes>
        1 2 3645658 -3.3006293233484030e-03 0 -1 942311
        5.6017271708697081e-04 -2 -3 677247 -3.4534547477960587e-02</internalNodes>
      <leafValues>
        -6.6218394041061401e-01 7.9893100261688232e-01
        5.9520322084426880e-01 -7.4800288677215576e-01</leafValues></_>
    <_>
      <internalNodes>
        1 2 4225316 -1.2335283681750298e-03 0 -1 4750086
        4.0918411687016487e-03 -2 -3 7837967 -1.7440058290958405e-02</internalNodes>
      <leafValues>
        -5.6968259811401367e-01 7.8313875198364258e-01
        8.0101627111434937e-01 -7.4702060222625732e-01</leafValues></_>
    <_>
      <internalNodes>
        1 2 2501754 -3.6895744502544403e-02 0 -1 3765706
        -5.7112306356430054e-02 -2 -3 4698859 -3.9268568158149719e-02</internalNodes>
      <leafValues>
        -1. 7.9560172557830811e-01 9.0058797597885132e-01
        -6.1181908845901489e-01</leafValues></_></weakClassifiers></stage5>
</opencv_storage>
