<?xml version="1.0"?>
<opencv_storage>
<stage10>
  <maxWeakCount>5</maxWeakCount>
  <stageThreshold>-7.5888425111770630e-01</stageThreshold>
  <weakClassifiers>
    <_>
      <internalNodes>
        1 2 19197 4.8932217061519623e-02 0 -1 2949226
        1.1241220869123936e-02 -2 -3 4018549 9.1721937060356140e-03</internalNodes>
      <leafValues>
        -4.1915228962898254e-01 7.4324321746826172e-01
        -5.4545456171035767e-01 8.3218705654144287e-01</leafValues></_>
    <_>
      <internalNodes>
        1 2 4388951 -3.5850628046318889e-04 0 -1 5421
        -3.3998823165893555e-01 -2 -3 5090913 2.3563482682220638e-04</internalNodes>
      <leafValues>
        1. -9.8187738656997681e-01 -1.9467537105083466e-01
        6.0768759250640869e-01</leafValues></_>
    <_>
      <internalNodes>
        1 2 5425483 -4.0074691059999168e-04 0 -1 5576346
        -1.1822298984043300e-04 -2 -3 2434611 2.1467390470206738e-03</internalNodes>
      <leafValues>
        -7.6442980766296387e-01 5.0693356990814209e-01
        -8.3511960506439209e-01 2.4856466054916382e-01</leafValues></_>
    <_>
      <internalNodes>
        1 2 4287727 -4.4531002640724182e-03 0 -1 2811042
        -4.1411416605114937e-03 -2 -3 3612354 -3.0070492997765541e-02</internalNodes>
      <leafValues>
        -8.4778034687042236e-01 6.5684497356414795e-01
        8.1440252065658569e-01 -5.4317104816436768e-01</leafValues></_>
    <_>
      <internalNodes>
        1 2 373079 -5.4556378163397312e-03 0 -1 2529985
        7.7744428999722004e-03 -2 -3 129829 3.2278255093842745e-03</internalNodes>
      <leafValues>
        6.8024343252182007e-01 -6.3376349210739136e-01
        -6.0657280683517456e-01 5.4918056726455688e-01</leafValues></_></weakClassifiers></stage10>
</opencv_storage>
