<?xml version="1.0"?>
<opencv_storage>
<stage9>
  <maxWeakCount>6</maxWeakCount>
  <stageThreshold>-1.3634420633316040e+00</stageThreshold>
  <weakClassifiers>
    <_>
      <internalNodes>
        1 2 186909 1.3010513782501221e-01 0 -1 146353
        -4.1828760877251625e-03 -2 -3 276249 1.8205877393484116e-02</internalNodes>
      <leafValues>
        1.6129031777381897e-02 -7.5945019721984863e-01
        7.2949945926666260e-01 -5.5737704038619995e-01</leafValues></_>
    <_>
      <internalNodes>
        1 2 372031 -1.2898632884025574e-01 0 -1 54614
        8.1889294087886810e-03 -2 -3 27198 -2.3960522376000881e-03</internalNodes>
      <leafValues>
        -6.3459914922714233e-01 6.6173493862152100e-01
        6.4768284559249878e-01 -5.2564603090286255e-01</leafValues></_>
    <_>
      <internalNodes>
        1 2 463530 -1.2696808204054832e-02 0 -1 400937
        1.8069469369947910e-03 -2 -3 474691 -7.0402031997218728e-04</internalNodes>
      <leafValues>
        7.5910758972167969e-01 -4.8218259215354919e-01
        5.7736599445343018e-01 -4.8233801126480103e-01</leafValues></_>
    <_>
      <internalNodes>
        1 2 208018 -1.7754550208337605e-04 0 -1 311764
        -1.2199010699987411e-02 -2 -3 351442 -3.1642145477235317e-03</internalNodes>
      <leafValues>
        -6.5885668992996216e-01 4.9024003744125366e-01
        5.4079324007034302e-02 -8.2287794351577759e-01</leafValues></_>
    <_>
      <internalNodes>
        1 2 204911 1.0528060374781489e-04 0 -1 173770
        3.3863168209791183e-02 -2 -3 320237 -9.6550900489091873e-03</internalNodes>
      <leafValues>
        -8.1584709882736206e-01 6.0502803325653076e-01
        -7.8979802131652832e-01 3.6203846335411072e-01</leafValues></_>
    <_>
      <internalNodes>
        1 2 67589 -1.7627314664423466e-03 0 -1 154837
        -1.7710532993078232e-02 -2 -3 159451 -1.0721832513809204e-03</internalNodes>
      <leafValues>
        5.1223969459533691e-01 -6.3716900348663330e-01
        7.5339061021804810e-01 -6.7918616533279419e-01</leafValues></_></weakClassifiers></stage9>
</opencv_storage>
