<?xml version="1.0"?>
<opencv_storage>
<stage11>
  <maxWeakCount>5</maxWeakCount>
  <stageThreshold>-8.6372441053390503e-01</stageThreshold>
  <weakClassifiers>
    <_>
      <internalNodes>
        1 2 402196 -6.2698304653167725e-02 0 -1 230924
        1.2592684477567673e-02 -2 -3 489772 -1.6031293198466301e-03</internalNodes>
      <leafValues>
        -7.1171170473098755e-01 6.6064256429672241e-01
        5.9360731393098831e-02 -7.0072990655899048e-01</leafValues></_>
    <_>
      <internalNodes>
        1 2 111112 -4.7062199562788010e-02 0 -1 236967
        7.3812472692225128e-05 -2 -3 41317 2.5447836518287659e-01</internalNodes>
      <leafValues>
        -4.5436006784439087e-01 9.4392091035842896e-01
        -3.4850549697875977e-01 5.9279471635818481e-01</leafValues></_>
    <_>
      <internalNodes>
        1 2 437475 -3.3211961388587952e-02 0 -1 266446
        2.7812642976641655e-02 -2 -3 23743 4.2578782886266708e-03</internalNodes>
      <leafValues>
        5.6252002716064453e-01 -7.3918491601943970e-01
        -5.0303035974502563e-01 7.2045326232910156e-01</leafValues></_>
    <_>
      <internalNodes>
        1 2 7511 -5.6799408048391342e-03 0 -1 267531
        -7.0467423647642136e-03 -2 -3 153127 1.4737375313416123e-03</internalNodes>
      <leafValues>
        -8.4386670589447021e-01 6.6060882806777954e-01
        -4.2061555385589600e-01 8.3527541160583496e-01</leafValues></_>
    <_>
      <internalNodes>
        1 2 309693 -1.2813778594136238e-03 0 -1 4322
        7.3290534317493439e-02 -2 -3 81346 -3.2725919038057327e-02</internalNodes>
      <leafValues>
        -9.1874575614929199e-01 1. -9.0429258346557617e-01
        3.4906631708145142e-01</leafValues></_></weakClassifiers></stage11>
</opencv_storage>
