<?xml version="1.0"?>
<opencv_storage>
<stage0>
  <maxWeakCount>3</maxWeakCount>
  <stageThreshold>-8.7649506330490112e-01</stageThreshold>
  <weakClassifiers>
    <_>
      <internalNodes>
        1 2 452323 -5.7170465588569641e-02 0 -1 229017
        4.8710564151406288e-03 -2 -3 20645 2.6443328708410263e-02</internalNodes>
      <leafValues>
        -8.9473682641983032e-01 9.8702704906463623e-01
        -8.9333331584930420e-01 7.1428573131561279e-01</leafValues></_>
    <_>
      <internalNodes>
        1 2 44647 1.3888768851757050e-01 0 -1 484207
        -4.1446834802627563e-02 -2 -3 238783 8.6201354861259460e-03</internalNodes>
      <leafValues>
        5.2369374036788940e-01 -8.4244728088378906e-01 -1.
        9.8301601409912109e-01</leafValues></_>
    <_>
      <internalNodes>
        1 2 292212 -6.6456086933612823e-03 0 -1 258881
        1.8206508830189705e-03 -2 -3 452148 -2.7439013123512268e-02</internalNodes>
      <leafValues>
        -8.0512130260467529e-01 8.9818626642227173e-01
        2.5257611274719238e-01 -9.6617776155471802e-01</leafValues></_></weakClassifiers></stage0>
</opencv_storage>
