<?xml version="1.0"?>
<opencv_storage>
<stage10>
  <maxWeakCount>10</maxWeakCount>
  <stageThreshold>-1.3911830186843872e+00</stageThreshold>
  <weakClassifiers>
    <_>
      <internalNodes>
        1 2 382598 -7.2512671351432800e-02 0 -1 212761
        4.5403841882944107e-02 -2 -3 497877 -7.1519152261316776e-03</internalNodes>
      <leafValues>
        6.6809552907943726e-01 -6.7524755001068115e-01
        3.6111110448837280e-01 -5.0277262926101685e-01</leafValues></_>
    <_>
      <internalNodes>
        1 2 158548 -2.6607505977153778e-02 0 -1 258368
        6.5858513116836548e-03 -2 -3 10782 2.2160459775477648e-03</internalNodes>
      <leafValues>
        -3.3403456211090088e-01 7.2327065467834473e-01
        -4.3071255087852478e-01 3.3072504401206970e-01</leafValues></_>
    <_>
      <internalNodes>
        1 2 206348 -7.2205746546387672e-03 0 -1 255193
        7.7714300714433193e-03 -2 -3 127651 -1.1222718656063080e-01</internalNodes>
      <leafValues>
        -2.1149548888206482e-01 4.7429421544075012e-01
        4.7530481219291687e-01 -7.1201449632644653e-01</leafValues></_>
    <_>
      <internalNodes>
        1 2 258861 3.8017425686120987e-03 0 -1 499650
        -3.3218758180737495e-03 -2 -3 201873 4.2675182223320007e-02</internalNodes>
      <leafValues>
        4.3887582421302795e-01 -7.2250622510910034e-01
        3.2204580307006836e-01 -5.9279435873031616e-01</leafValues></_>
    <_>
      <internalNodes>
        1 2 491465 -1.1014953255653381e-02 0 -1 313379
        -5.9670507907867432e-03 -2 -3 474692 -5.4118977859616280e-03</internalNodes>
      <leafValues>
        -5.9693998098373413e-01 6.6679829359054565e-01
        4.1685885190963745e-01 -3.8888984918594360e-01</leafValues></_>
    <_>
      <internalNodes>
        1 2 19331 -3.4413782414048910e-03 0 -1 201689
        2.1698109339922667e-03 -2 -3 142316 -3.5391457378864288e-02</internalNodes>
      <leafValues>
        -3.0904132127761841e-01 5.6231021881103516e-01
        4.7827988862991333e-01 -4.0089774131774902e-01</leafValues></_>
    <_>
      <internalNodes>
        1 2 463528 8.0197136849164963e-03 0 -1 152625
        7.4230143800377846e-03 -2 -3 355554 -1.4531516935676336e-03</internalNodes>
      <leafValues>
        -3.1871029734611511e-01 5.8451980352401733e-01
        -9.6329683065414429e-01 4.9856331944465637e-01</leafValues></_>
    <_>
      <internalNodes>
        1 2 84641 -1.9914656877517700e-02 0 -1 150690
        -1.2905119918286800e-02 -2 -3 354440 1.4939707471057773e-03</internalNodes>
      <leafValues>
        3.1243738532066345e-01 -8.4699761867523193e-01
        -8.6395360529422760e-02 5.5225664377212524e-01</leafValues></_>
    <_>
      <internalNodes>
        1 2 288684 -7.6314591569826007e-04 0 -1 311767
        -9.4811562448740005e-03 -2 -3 299536 -5.7167978957295418e-04</internalNodes>
      <leafValues>
        -6.7790341377258301e-01 4.4446393847465515e-01
        -9.5198470354080200e-01 -1.8545609712600708e-01</leafValues></_>
    <_>
      <internalNodes>
        1 2 271630 -2.8693338390439749e-03 0 -1 152255
        4.1802832856774330e-03 -2 -3 215526 6.1292923055589199e-03</internalNodes>
      <leafValues>
        -8.7045025825500488e-01 7.0368725061416626e-01
        1.8774236738681793e-01 -6.8092614412307739e-01</leafValues></_></weakClassifiers></stage10>
</opencv_storage>
