<?xml version="1.0"?>
<opencv_storage>
<stage3>
  <maxWeakCount>5</maxWeakCount>
  <stageThreshold>-1.3887549638748169e+00</stageThreshold>
  <weakClassifiers>
    <_>
      <internalNodes>
        1 2 106829 4.2700264602899551e-02 0 -1 183661
        -3.3889502286911011e-02 -2 -3 158140 1.2099676579236984e-01</internalNodes>
      <leafValues>
        2.9940120875835419e-03 -8.1702125072479248e-01
        -5.3530752658843994e-01 9.1415363550186157e-01</leafValues></_>
    <_>
      <internalNodes>
        1 2 71133 2.0895415544509888e-01 0 -1 95789
        8.7862424552440643e-03 -2 -3 145688 1.3326092623174191e-02</internalNodes>
      <leafValues>
        -6.7727929353713989e-01 2.7802363038063049e-01
        -3.6540010571479797e-01 7.8450900316238403e-01</leafValues></_>
    <_>
      <internalNodes>
        1 2 20537 -3.1328015029430389e-03 0 -1 349620
        3.1167245469987392e-03 -2 -3 143489 -2.6405032724142075e-02</internalNodes>
      <leafValues>
        7.3547804355621338e-01 -5.0056463479995728e-01
        5.3510403633117676e-01 -4.7585952281951904e-01</leafValues></_>
    <_>
      <internalNodes>
        1 2 463477 -8.2768257707357407e-03 0 -1 206335
        -3.3637590240687132e-03 -2 -3 70213 -5.7718041352927685e-03</internalNodes>
      <leafValues>
        7.4256044626235962e-01 -1.7239406704902649e-01
        6.5079879760742188e-01 -4.5000353455543518e-01</leafValues></_>
    <_>
      <internalNodes>
        1 2 324010 4.1860444471240044e-03 0 -1 472365
        2.9759104363620281e-03 -2 -3 278739 -3.4579940140247345e-02</internalNodes>
      <leafValues>
        -7.8107863664627075e-01 5.0914611667394638e-02
        -7.5474828481674194e-01 4.2890202999114990e-01</leafValues></_></weakClassifiers></stage3>
</opencv_storage>
