<?xml version="1.0"?>
<opencv_storage>
<stage9>
  <maxWeakCount>9</maxWeakCount>
  <stageThreshold>-1.7132221460342407e+00</stageThreshold>
  <weakClassifiers>
    <_>
      <internalNodes>
        1 2 44647 1.8552885949611664e-01 0 -1 182278
        -1.5761822462081909e-02 -2 -3 241335 1.2561726570129395e-01</internalNodes>
      <leafValues>
        1.7798164486885071e-01 -6.1982625722885132e-01
        -2.5987526774406433e-01 6.9891917705535889e-01</leafValues></_>
    <_>
      <internalNodes>
        1 2 435783 -5.0644345581531525e-02 0 -1 203157
        1.5893362462520599e-02 -2 -3 153930 -4.7082295641303062e-03</internalNodes>
      <leafValues>
        -4.2341864109039307e-01 5.9474062919616699e-01
        2.8949522972106934e-01 -5.4232585430145264e-01</leafValues></_>
    <_>
      <internalNodes>
        1 2 207861 5.6446501985192299e-03 0 -1 228744
        1.1919123120605946e-02 -2 -3 81084 -4.7017417848110199e-02</internalNodes>
      <leafValues>
        -4.7544956207275391e-01 4.3035924434661865e-01
        8.6402666568756104e-01 3.2902851700782776e-02</leafValues></_>
    <_>
      <internalNodes>
        1 2 183660 -1.6146579757332802e-02 0 -1 155677
        6.0034391935914755e-04 -2 -3 162781 1.0934357345104218e-01</internalNodes>
      <leafValues>
        -3.4740319848060608e-01 4.6898505091667175e-01
        -5.6880241632461548e-01 1.7466539144515991e-01</leafValues></_>
    <_>
      <internalNodes>
        1 2 499580 4.7093117609620094e-03 0 -1 496712
        1.3947276398539543e-02 -2 -3 451604 -6.9121448323130608e-03</internalNodes>
      <leafValues>
        -3.3146050572395325e-01 5.7092630863189697e-01
        8.1975275278091431e-01 -2.2751644253730774e-02</leafValues></_>
    <_>
      <internalNodes>
        1 2 491171 7.8682769089937210e-03 0 -1 447288
        1.4727518428117037e-03 -2 -3 401089 6.2175437808036804e-02</internalNodes>
      <leafValues>
        -3.8094064593315125e-01 2.5815320014953613e-01
        -4.1619043797254562e-02 8.2463979721069336e-01</leafValues></_>
    <_>
      <internalNodes>
        1 2 422442 -4.1796229779720306e-03 0 -1 474691
        -1.3247710885480046e-03 -2 -3 403437 -2.9946099966764450e-03</internalNodes>
      <leafValues>
        3.9395996928215027e-01 -7.9315215349197388e-01
        -6.1468029022216797e-01 2.8743809461593628e-01</leafValues></_>
    <_>
      <internalNodes>
        1 2 243174 -3.0924003571271896e-02 0 -1 305371
        1.6591738909482956e-02 -2 -3 329011 -2.1368369925767183e-03</internalNodes>
      <leafValues>
        -8.2495963573455811e-01 4.3319258093833923e-01
        2.7996447682380676e-01 -3.9649397134780884e-01</leafValues></_>
    <_>
      <internalNodes>
        1 2 16852 -1.2957528233528137e-02 0 -1 138580
        -1.2135332508478314e-04 -2 -3 239670 3.1512603163719177e-02</internalNodes>
      <leafValues>
        4.8591333627700806e-01 -4.2465457320213318e-01
        -4.7566807270050049e-01 4.4954234361648560e-01</leafValues></_></weakClassifiers></stage9>
</opencv_storage>
