<?xml version="1.0"?>
<opencv_storage>
<stage9>
  <maxWeakCount>8</maxWeakCount>
  <stageThreshold>-1.6906136274337769e+00</stageThreshold>
  <weakClassifiers>
    <_>
      <internalNodes>
        1 2 436809 -8.8893420994281769e-02 0 -1 446015
        -1.4173096977174282e-02 -2 -3 23838 -6.9273523986339569e-03</internalNodes>
      <leafValues>
        7.4302172660827637e-01 -3.9072847366333008e-01
        1.7647059261798859e-01 -5.7380074262619019e-01</leafValues></_>
    <_>
      <internalNodes>
        1 2 4315 3.9562132209539413e-02 0 -1 153001
        -1.2002666480839252e-03 -2 -3 382397 -2.0884587429463863e-03</internalNodes>
      <leafValues>
        6.3720858097076416e-01 -4.0223053097724915e-01
        7.5159841775894165e-01 -2.2970688343048096e-01</leafValues></_>
    <_>
      <internalNodes>
        1 2 486251 -7.5455885380506516e-03 0 -1 329128
        -5.0857220776379108e-03 -2 -3 125281 -2.5631268508732319e-03</internalNodes>
      <leafValues>
        6.8040162324905396e-01 -3.8839760422706604e-01
        5.6830042600631714e-01 -3.8715314865112305e-01</leafValues></_>
    <_>
      <internalNodes>
        1 2 337055 6.1087840003892779e-04 0 -1 320268
        2.4360423907637596e-02 -2 -3 316883 5.9551540762186050e-02</internalNodes>
      <leafValues>
        -5.0769430398941040e-01 5.9883636236190796e-01
        -4.7872361540794373e-01 5.2078992128372192e-01</leafValues></_>
    <_>
      <internalNodes>
        1 2 28547 -6.1223725788295269e-04 0 -1 369015
        -1.2053092941641808e-03 -2 -3 26448 3.8667242042720318e-03</internalNodes>
      <leafValues>
        -8.0291491746902466e-01 6.0648798942565918e-01
        -3.8611504435539246e-01 5.7888603210449219e-01</leafValues></_>
    <_>
      <internalNodes>
        1 2 333056 1.3742863666266203e-03 0 -1 252518
        -3.4119638148695230e-03 -2 -3 96752 -4.3313028290867805e-03</internalNodes>
      <leafValues>
        3.8411468267440796e-01 -4.0866383910179138e-01
        7.8622275590896606e-01 -8.7565439939498901e-01</leafValues></_>
    <_>
      <internalNodes>
        1 2 79920 -6.9235190749168396e-02 0 -1 259690
        8.1855170428752899e-03 -2 -3 200038 2.0682375878095627e-02</internalNodes>
      <leafValues>
        -9.2981642484664917e-01 7.8952664136886597e-01
        -4.8889827728271484e-01 3.8843867182731628e-01</leafValues></_>
    <_>
      <internalNodes>
        1 2 309817 1.1715048924088478e-02 0 -1 262519
        -1.0977414203807712e-03 -2 -3 1007 1.7411574721336365e-01</internalNodes>
      <leafValues>
        5.0848871469497681e-01 -1.6637831926345825e-01
        -9.0740889310836792e-01 6.3987571001052856e-01</leafValues></_></weakClassifiers></stage9>
</opencv_storage>
