<?xml version="1.0"?>
<opencv_storage>
<stage10>
  <maxWeakCount>7</maxWeakCount>
  <stageThreshold>-1.2515637874603271e+00</stageThreshold>
  <weakClassifiers>
    <_>
      <internalNodes>
        1 2 158140 1.7140293121337891e-01 0 -1 238823
        -1.0740663856267929e-02 -2 -3 344658 -4.6216063201427460e-02</internalNodes>
      <leafValues>
        2.2741432487964630e-01 -6.8577980995178223e-01
        6.7818832397460938e-01 -6.2758618593215942e-01</leafValues></_>
    <_>
      <internalNodes>
        1 2 475223 5.3511979058384895e-03 0 -1 376126
        -1.1746395612135530e-03 -2 -3 468301 -1.6395486891269684e-02</internalNodes>
      <leafValues>
        6.6099785268306732e-02 -6.2448519468307495e-01
        7.5775259733200073e-01 -3.0073359608650208e-02</leafValues></_>
    <_>
      <internalNodes>
        1 2 255725 -4.3185599148273468e-02 0 -1 290222
        -1.3784376904368401e-02 -2 -3 252989 1.9989390857517719e-03</internalNodes>
      <leafValues>
        5.9879589080810547e-01 -9.6088212728500366e-01
        -3.4637165069580078e-01 3.8227733969688416e-01</leafValues></_>
    <_>
      <internalNodes>
        1 2 7732 2.8348837047815323e-02 0 -1 158367
        7.3347203433513641e-03 -2 -3 404910 1.4322653412818909e-02</internalNodes>
      <leafValues>
        -3.7812110781669617e-01 6.7808407545089722e-01
        -3.4602966904640198e-01 7.2320699691772461e-01</leafValues></_>
    <_>
      <internalNodes>
        1 2 234654 1.2927591800689697e-02 0 -1 172500
        6.1273805797100067e-02 -2 -3 293302 -5.9969618916511536e-02</internalNodes>
      <leafValues>
        2.6468989253044128e-01 -9.3396872282028198e-01
        3.2398074865341187e-01 -8.6049747467041016e-01</leafValues></_>
    <_>
      <internalNodes>
        1 2 474691 -8.9144823141396046e-04 0 -1 382661
        2.3996727541089058e-03 -2 -3 247954 2.0871006418019533e-03</internalNodes>
      <leafValues>
        7.1089738607406616e-01 -8.0650806427001953e-01
        -4.9696040153503418e-01 1.1563675105571747e-01</leafValues></_>
    <_>
      <internalNodes>
        1 2 304509 -1.5089055523276329e-02 0 -1 496444
        1.8423814326524734e-02 -2 -3 84562 1.0064113885164261e-02</internalNodes>
      <leafValues>
        -9.1665744781494141e-01 1. -3.5787314176559448e-01
        3.4156191349029541e-01</leafValues></_></weakClassifiers></stage10>
</opencv_storage>
