<?xml version="1.0"?>
<opencv_storage>
<cascade>
  <stageType>BOOST</stageType>
  <featureType>HAAR</featureType>
  <height>32</height>
  <width>25</width>
  <stageParams>
    <boostType>GAB</boostType>
    <minHitRate>9.9900001287460327e-01</minHitRate>
    <maxFalseAlarm>5.0000000000000000e-01</maxFalseAlarm>
    <weightTrimRate>9.4999999999999996e-01</weightTrimRate>
    <maxDepth>2</maxDepth>
    <maxWeakCount>100</maxWeakCount></stageParams>
  <featureParams>
    <maxCatCount>0</maxCatCount>
    <featSize>1</featSize>
    <mode>ALL</mode></featureParams>
  <stageNum>12</stageNum>
  <stages>
    <!-- stage 0 -->
    <_>
      <maxWeakCount>3</maxWeakCount>
      <stageThreshold>-1.4583336114883423e+00</stageThreshold>
      <weakClassifiers>
        <_>
          <internalNodes>
            1 2 154 4.1140433400869370e-02 0 -1 218
            -4.7213047742843628e-02 -2 -3 76 3.3490531146526337e-02</internalNodes>
          <leafValues>
            6.1256545782089233e-01 -8.4677964448928833e-01
            -6.6507178544998169e-01 9.7204303741455078e-01</leafValues></_>
        <_>
          <internalNodes>
            1 2 9 1.7605027556419373e-01 0 -1 0 -1.3771041296422482e-02
            -2 -3 74 2.1610505878925323e-02</internalNodes>
          <leafValues>
            5.6494665145874023e-01 -7.0964568853378296e-01
            -6.8028146028518677e-01 9.6541339159011841e-01</leafValues></_>
        <_>
          <internalNodes>
            1 2 158 4.3800286948680878e-03 0 -1 198
            -2.8339140117168427e-02 -2 -3 98 -8.7902601808309555e-03</internalNodes>
          <leafValues>
            9.8091773688793182e-02 -8.9380449056625366e-01
            -9.7107934951782227e-01 7.3860484361648560e-01</leafValues></_></weakClassifiers></_>
    <!-- stage 1 -->
    <_>
      <maxWeakCount>4</maxWeakCount>
      <stageThreshold>-1.5373783111572266e+00</stageThreshold>
      <weakClassifiers>
        <_>
          <internalNodes>
            1 2 23 1.6171541810035706e-01 0 -1 21
            -8.0576986074447632e-02 -2 -3 136 2.9159234836697578e-02</internalNodes>
          <leafValues>
            3.6443150043487549e-01 -8.2574117183685303e-01
            -3.8297873735427856e-01 9.5304542779922485e-01</leafValues></_>
        <_>
          <internalNodes>
            1 2 187 -3.9732839912176132e-02 0 -1 97
            2.5125681422650814e-03 -2 -3 171 1.4004521071910858e-03</internalNodes>
          <leafValues>
            -3.1623297929763794e-01 8.7888228893280029e-01
            -6.3729429244995117e-01 4.6756112575531006e-01</leafValues></_>
        <_>
          <internalNodes>
            1 2 205 -1.7828328534960747e-02 0 -1 38
            2.3997414857149124e-02 -2 -3 226 -2.5736179668456316e-03</internalNodes>
          <leafValues>
            -6.7891341447830200e-01 7.4618506431579590e-01
            3.5117629170417786e-01 -6.8903923034667969e-01</leafValues></_>
        <_>
          <internalNodes>
            1 2 178 -8.9614425087347627e-04 0 -1 144
            3.3135451376438141e-03 -2 -3 32 -3.4334614872932434e-02</internalNodes>
          <leafValues>
            6.1469632387161255e-01 -6.5793269872665405e-01
            7.1887928247451782e-01 -7.2244411706924438e-01</leafValues></_></weakClassifiers></_>
    <!-- stage 2 -->
    <_>
      <maxWeakCount>5</maxWeakCount>
      <stageThreshold>-2.0744085311889648e+00</stageThreshold>
      <weakClassifiers>
        <_>
          <internalNodes>
            1 2 200 -7.7011555433273315e-02 0 -1 114
            6.2483586370944977e-03 -2 -3 132 -9.7176842391490936e-03</internalNodes>
          <leafValues>
            -7.4358975887298584e-01 9.0461868047714233e-01
            1.6438356041908264e-01 -7.8967350721359253e-01</leafValues></_>
        <_>
          <internalNodes>
            1 2 24 1.9825562834739685e-01 0 -1 87 9.6938889473676682e-03
            -2 -3 85 1.3742376863956451e-01</internalNodes>
          <leafValues>
            -6.3609170913696289e-01 5.6897372007369995e-01
            -5.6338894367218018e-01 8.6869025230407715e-01</leafValues></_>
        <_>
          <internalNodes>
            1 2 126 3.7797279655933380e-03 0 -1 223
            7.3214410804212093e-03 -2 -3 80 5.6384112685918808e-02</internalNodes>
          <leafValues>
            -6.3452452421188354e-01 3.5953712463378906e-01
            5.9331798553466797e-01 -8.5229367017745972e-01</leafValues></_>
        <_>
          <internalNodes>
            1 2 212 -7.6233390718698502e-03 0 -1 138
            3.2447032630443573e-02 -2 -3 233 7.7137658372521400e-03</internalNodes>
          <leafValues>
            -1.8201883137226105e-01 7.2910296916961670e-01
            -5.9706282615661621e-01 4.8366484045982361e-01</leafValues></_>
        <_>
          <internalNodes>
            1 2 66 -1.0157048236578703e-03 0 -1 94
            -2.0422298461198807e-02 -2 -3 93 1.9285839051008224e-02</internalNodes>
          <leafValues>
            -7.2595167160034180e-01 5.2860099077224731e-01
            -6.4489865303039551e-01 4.2100897431373596e-01</leafValues></_></weakClassifiers></_>
    <!-- stage 3 -->
    <_>
      <maxWeakCount>5</maxWeakCount>
      <stageThreshold>-1.3887549638748169e+00</stageThreshold>
      <weakClassifiers>
        <_>
          <internalNodes>
            1 2 45 4.2700264602899551e-02 0 -1 86
            -3.3889502286911011e-02 -2 -3 73 1.2099676579236984e-01</internalNodes>
          <leafValues>
            2.9940120875835419e-03 -8.1702125072479248e-01
            -5.3530752658843994e-01 9.1415363550186157e-01</leafValues></_>
        <_>
          <internalNodes>
            1 2 37 2.0895415544509888e-01 0 -1 41 8.7862424552440643e-03
            -2 -3 61 1.3326092623174191e-02</internalNodes>
          <leafValues>
            -6.7727929353713989e-01 2.7802363038063049e-01
            -3.6540010571479797e-01 7.8450900316238403e-01</leafValues></_>
        <_>
          <internalNodes>
            1 2 16 -3.1328015029430389e-03 0 -1 177
            3.1167245469987392e-03 -2 -3 60 -2.6405032724142075e-02</internalNodes>
          <leafValues>
            7.3547804355621338e-01 -5.0056463479995728e-01
            5.3510403633117676e-01 -4.7585952281951904e-01</leafValues></_>
        <_>
          <internalNodes>
            1 2 208 -8.2768257707357407e-03 0 -1 100
            -3.3637590240687132e-03 -2 -3 36 -5.7718041352927685e-03</internalNodes>
          <leafValues>
            7.4256044626235962e-01 -1.7239406704902649e-01
            6.5079879760742188e-01 -4.5000353455543518e-01</leafValues></_>
        <_>
          <internalNodes>
            1 2 166 4.1860444471240044e-03 0 -1 213
            2.9759104363620281e-03 -2 -3 145 -3.4579940140247345e-02</internalNodes>
          <leafValues>
            -7.8107863664627075e-01 5.0914611667394638e-02
            -7.5474828481674194e-01 4.2890202999114990e-01</leafValues></_></weakClassifiers></_>
    <!-- stage 4 -->
    <_>
      <maxWeakCount>6</maxWeakCount>
      <stageThreshold>-1.4090576171875000e+00</stageThreshold>
      <weakClassifiers>
        <_>
          <internalNodes>
            1 2 109 1.1359120905399323e-01 0 -1 84
            -2.9729364439845085e-02 -2 -3 8 1.6029563546180725e-01</internalNodes>
          <leafValues>
            1.6199755668640137e-01 -6.6358739137649536e-01
            -6.9230771064758301e-01 9.0148478746414185e-01</leafValues></_>
        <_>
          <internalNodes>
            1 2 10 2.2958272695541382e-01 0 -1 69 3.1363718211650848e-02
            -2 -3 115 2.3702304810285568e-02</internalNodes>
          <leafValues>
            -5.4722452163696289e-01 4.6013003587722778e-01
            -4.7184708714485168e-01 7.3567885160446167e-01</leafValues></_>
        <_>
          <internalNodes>
            1 2 223 5.3166253492236137e-03 0 -1 15
            3.5072311758995056e-02 -2 -3 121 6.2829029047861695e-05</internalNodes>
          <leafValues>
            -5.1918202638626099e-01 3.4960433840751648e-01
            -2.6251548528671265e-01 7.2569698095321655e-01</leafValues></_>
        <_>
          <internalNodes>
            1 2 117 1.1573715601116419e-03 0 -1 151
            -1.4787280000746250e-02 -2 -3 194 -3.7059391615912318e-04</internalNodes>
          <leafValues>
            3.2462900876998901e-01 -5.8526051044464111e-01
            -4.2393672466278076e-01 5.4923260211944580e-01</leafValues></_>
        <_>
          <internalNodes>
            1 2 104 1.5211917925626040e-03 0 -1 140
            7.5382538139820099e-02 -2 -3 170 6.3504204154014587e-03</internalNodes>
          <leafValues>
            -5.8812588453292847e-01 7.8176695108413696e-01
            4.5454534888267517e-01 -5.4806542396545410e-01</leafValues></_>
        <_>
          <internalNodes>
            1 2 162 -2.0283893682062626e-03 0 -1 220
            -6.6854907199740410e-03 -2 -3 133 -4.9949366599321365e-02</internalNodes>
          <leafValues>
            -4.0236264467239380e-01 6.0904550552368164e-01
            5.3434485197067261e-01 -4.1713491082191467e-01</leafValues></_></weakClassifiers></_>
    <!-- stage 5 -->
    <_>
      <maxWeakCount>6</maxWeakCount>
      <stageThreshold>-1.8736133575439453e+00</stageThreshold>
      <weakClassifiers>
        <_>
          <internalNodes>
            1 2 203 -7.9697921872138977e-02 0 -1 113
            -3.9480872452259064e-02 -2 -3 230 -3.7930416874587536e-03</internalNodes>
          <leafValues>
            -8.4406781196594238e-01 7.9181385040283203e-01
            2.3113207519054413e-01 -6.7260938882827759e-01</leafValues></_>
        <_>
          <internalNodes>
            1 2 165 8.7386056780815125e-02 0 -1 2
            -2.0499449223279953e-02 -2 -3 128 4.9646468833088875e-03</internalNodes>
          <leafValues>
            3.4189760684967041e-01 -5.4421049356460571e-01
            -6.1859065294265747e-01 7.9284256696701050e-01</leafValues></_>
        <_>
          <internalNodes>
            1 2 125 9.0514477342367172e-03 0 -1 103
            4.1597126983106136e-03 -2 -3 80 5.8976881206035614e-02</internalNodes>
          <leafValues>
            -6.1198848485946655e-01 2.3253434896469116e-01
            5.2577453851699829e-01 -8.5812735557556152e-01</leafValues></_>
        <_>
          <internalNodes>
            1 2 207 -1.4214737340807915e-02 0 -1 31
            3.8794381543993950e-04 -2 -3 26 -6.8643026053905487e-02</internalNodes>
          <leafValues>
            -6.4363133907318115e-01 5.6332951784133911e-01
            4.8954522609710693e-01 -5.5810940265655518e-01</leafValues></_>
        <_>
          <internalNodes>
            1 2 77 -3.1928047537803650e-02 0 -1 206
            5.6181354448199272e-03 -2 -3 79 2.4723798036575317e-02</internalNodes>
          <leafValues>
            -8.4187251329421997e-01 7.6300996541976929e-01
            -4.8718544840812683e-01 4.5443734526634216e-01</leafValues></_>
        <_>
          <internalNodes>
            1 2 217 2.3630610667169094e-03 0 -1 56
            -2.5478767231106758e-02 -2 -3 70 -2.9388166964054108e-02</internalNodes>
          <leafValues>
            6.9125872850418091e-01 -4.9135342240333557e-01
            7.0779597759246826e-01 -4.7164723277091980e-02</leafValues></_></weakClassifiers></_>
    <!-- stage 6 -->
    <_>
      <maxWeakCount>7</maxWeakCount>
      <stageThreshold>-1.6005753278732300e+00</stageThreshold>
      <weakClassifiers>
        <_>
          <internalNodes>
            1 2 73 1.7303772270679474e-01 0 -1 234
            -3.5974108614027500e-03 -2 -3 127 -5.1006015390157700e-02</internalNodes>
          <leafValues>
            1.8942731618881226e-01 -7.0291340351104736e-01
            -6.9948184490203857e-01 8.2511115074157715e-01</leafValues></_>
        <_>
          <internalNodes>
            1 2 44 7.7305436134338379e-02 0 -1 11
            -5.5575813166797161e-03 -2 -3 123 2.0630732178688049e-03</internalNodes>
          <leafValues>
            5.3452301025390625e-01 -4.6726301312446594e-01
            -7.9382830858230591e-01 7.4308103322982788e-01</leafValues></_>
        <_>
          <internalNodes>
            1 2 211 -1.7860528081655502e-02 0 -1 179
            -3.8602864369750023e-03 -2 -3 235 6.6845696419477463e-03</internalNodes>
          <leafValues>
            7.0915132761001587e-01 -2.0903526246547699e-01
            -3.5083049535751343e-01 5.5793589353561401e-01</leafValues></_>
        <_>
          <internalNodes>
            1 2 204 -9.3916733749210835e-04 0 -1 27
            5.7824389077723026e-03 -2 -3 168 2.3956573568284512e-03</internalNodes>
          <leafValues>
            -8.3364105224609375e-01 1.3415010273456573e-01
            -3.0425572395324707e-01 4.2659372091293335e-01</leafValues></_>
        <_>
          <internalNodes>
            1 2 72 -8.2567613571882248e-04 0 -1 135
            -1.3895012438297272e-02 -2 -3 1 1.0129795223474503e-01</internalNodes>
          <leafValues>
            -9.2413800954818726e-01 6.1585336923599243e-01
            -4.1431969404220581e-01 4.0326991677284241e-01</leafValues></_>
        <_>
          <internalNodes>
            1 2 191 1.2436836957931519e-02 0 -1 143
            -1.2612722457561176e-05 -2 -3 180 8.5892761126160622e-03</internalNodes>
          <leafValues>
            3.6484903097152710e-01 -3.4712159633636475e-01
            -9.3147718906402588e-01 7.7209222316741943e-01</leafValues></_>
        <_>
          <internalNodes>
            1 2 227 -1.0329630225896835e-02 0 -1 40
            -2.2463295608758926e-03 -2 -3 221 4.8757577314972878e-03</internalNodes>
          <leafValues>
            -7.9005151987075806e-01 7.2047519683837891e-01
            -4.5480653643608093e-01 2.7415794134140015e-01</leafValues></_></weakClassifiers></_>
    <!-- stage 7 -->
    <_>
      <maxWeakCount>8</maxWeakCount>
      <stageThreshold>-1.6729445457458496e+00</stageThreshold>
      <weakClassifiers>
        <_>
          <internalNodes>
            1 2 43 7.9557761549949646e-02 0 -1 215
            -1.3563958927989006e-03 -2 -3 73 1.6777250170707703e-01</internalNodes>
          <leafValues>
            3.7007874250411987e-01 -6.0000002384185791e-01
            -4.1573032736778259e-01 7.9193758964538574e-01</leafValues></_>
        <_>
          <internalNodes>
            1 2 197 -4.7233521938323975e-02 0 -1 71
            -3.1417239457368851e-02 -2 -3 22 2.0969009492546320e-03</internalNodes>
          <leafValues>
            7.3156833648681641e-01 -1.5640404820442200e-01
            -5.0106930732727051e-01 3.6202093958854675e-01</leafValues></_>
        <_>
          <internalNodes>
            1 2 113 -3.3033441752195358e-02 0 -1 210
            -2.8467401862144470e-02 -2 -3 148 1.1033246992155910e-03</internalNodes>
          <leafValues>
            5.2973711490631104e-01 -9.3087488412857056e-01
            -2.7589765191078186e-01 4.4327378273010254e-01</leafValues></_>
        <_>
          <internalNodes>
            1 2 7 1.3393406569957733e-01 0 -1 120
            -1.7140351235866547e-02 -2 -3 201 6.2009622342884541e-03</internalNodes>
          <leafValues>
            5.3853732347488403e-01 -5.1751798391342163e-01
            -4.1190487146377563e-01 5.4924440383911133e-01</leafValues></_>
        <_>
          <internalNodes>
            1 2 46 -4.3894663453102112e-02 0 -1 99
            -2.3645177134312689e-04 -2 -3 17 2.1421837154775858e-03</internalNodes>
          <leafValues>
            7.7457755804061890e-01 -6.8739467859268188e-01
            -4.4009891152381897e-01 5.3847944736480713e-01</leafValues></_>
        <_>
          <internalNodes>
            1 2 90 -3.8733378052711487e-02 0 -1 33
            2.9878845810890198e-01 -2 -3 159 -1.4345636591315269e-03</internalNodes>
          <leafValues>
            -9.8980104923248291e-01 -1.5760637819766998e-02
            3.9066934585571289e-01 -2.8210917115211487e-01</leafValues></_>
        <_>
          <internalNodes>
            1 2 18 -1.5193944796919823e-02 0 -1 119
            -9.9496599286794662e-03 -2 -3 106 1.5929737128317356e-03</internalNodes>
          <leafValues>
            -8.8505417108535767e-01 7.0332133769989014e-01
            -3.7028625607490540e-01 3.7708991765975952e-01</leafValues></_>
        <_>
          <internalNodes>
            1 2 67 -3.0489729251712561e-03 0 -1 176
            -1.5622435603290796e-03 -2 -3 51 -3.4779743291437626e-03</internalNodes>
          <leafValues>
            -9.3449825048446655e-01 5.6665861606597900e-01
            2.3589879274368286e-01 -4.2778003215789795e-01</leafValues></_></weakClassifiers></_>
    <!-- stage 8 -->
    <_>
      <maxWeakCount>8</maxWeakCount>
      <stageThreshold>-1.5318076610565186e+00</stageThreshold>
      <weakClassifiers>
        <_>
          <internalNodes>
            1 2 155 7.5432620942592621e-02 0 -1 89
            1.2183839082717896e-01 -2 -3 57 7.7804110944271088e-02</internalNodes>
          <leafValues>
            -6.1301827430725098e-01 2.0494699478149414e-01
            -5.4459202289581299e-01 7.6029157638549805e-01</leafValues></_>
        <_>
          <internalNodes>
            1 2 83 -3.7482932209968567e-02 0 -1 184
            -9.5563940703868866e-03 -2 -3 42 1.3055063318461180e-03</internalNodes>
          <leafValues>
            7.1957725286483765e-01 -3.9810025691986084e-01
            -3.3037978410720825e-01 4.0346029400825500e-01</leafValues></_>
        <_>
          <internalNodes>
            1 2 146 -3.2259975560009480e-03 0 -1 5
            2.6905223727226257e-01 -2 -3 231 -1.1188065633177757e-02</internalNodes>
          <leafValues>
            -1.3122648000717163e-01 7.1898221969604492e-01
            4.9504759907722473e-01 -4.5124226808547974e-01</leafValues></_>
        <_>
          <internalNodes>
            1 2 173 1.4935415238142014e-03 0 -1 172
            -1.3436815934255719e-03 -2 -3 112 -4.8005633056163788e-02</internalNodes>
          <leafValues>
            -9.0650755167007446e-01 2.1011660993099213e-01
            8.2350641489028931e-01 -9.3178021907806396e-01</leafValues></_>
        <_>
          <internalNodes>
            1 2 122 -1.8441153224557638e-03 0 -1 142
            -1.7100214958190918e-02 -2 -3 188 -1.3418290764093399e-02</internalNodes>
          <leafValues>
            -7.7647757530212402e-01 3.0316996574401855e-01
            6.3818997144699097e-01 -7.2069734334945679e-01</leafValues></_>
        <_>
          <internalNodes>
            1 2 48 3.0715728178620338e-02 0 -1 78 1.1968741193413734e-02
            -2 -3 183 8.5455942898988724e-03</internalNodes>
          <leafValues>
            -5.5443114042282104e-01 1.4467884600162506e-01
            7.4618244171142578e-01 -8.4436261653900146e-01</leafValues></_>
        <_>
          <internalNodes>
            1 2 174 1.5002125874161720e-02 0 -1 149
            -1.4150383882224560e-02 -2 -3 30 2.7418935298919678e-01</internalNodes>
          <leafValues>
            -7.3120677471160889e-01 2.5464254617691040e-01
            -8.9212244749069214e-01 3.0027830600738525e-01</leafValues></_>
        <_>
          <internalNodes>
            1 2 53 -2.3715412244200706e-03 0 -1 141
            -4.6070255339145660e-03 -2 -3 229 -6.3267478253692389e-04</internalNodes>
          <leafValues>
            -7.7944999933242798e-01 6.7786109447479248e-01
            4.4696676731109619e-01 -3.5066533088684082e-01</leafValues></_></weakClassifiers></_>
    <!-- stage 9 -->
    <_>
      <maxWeakCount>10</maxWeakCount>
      <stageThreshold>-1.4762413501739502e+00</stageThreshold>
      <weakClassifiers>
        <_>
          <internalNodes>
            1 2 34 4.4286155700683594e-01 0 -1 58
            -3.4702349454164505e-02 -2 -3 91 7.5909405946731567e-02</internalNodes>
          <leafValues>
            2.7104958891868591e-01 -5.4483926296234131e-01
            7.2334295511245728e-01 -8.1395345926284790e-01</leafValues></_>
        <_>
          <internalNodes>
            1 2 199 -4.6134166419506073e-02 0 -1 52
            -8.4040760993957520e-03 -2 -3 19 2.3653465323150158e-03</internalNodes>
          <leafValues>
            6.8431407213211060e-01 -1.7465288937091827e-01
            -4.5375078916549683e-01 5.3267961740493774e-01</leafValues></_>
        <_>
          <internalNodes>
            1 2 105 -1.8090216908603907e-03 0 -1 111
            -1.0679399967193604e-01 -2 -3 93 2.2090855985879898e-02</internalNodes>
          <leafValues>
            5.3177583217620850e-01 -3.4006837010383606e-01
            -5.5154126882553101e-01 3.0458256602287292e-01</leafValues></_>
        <_>
          <internalNodes>
            1 2 152 -4.3012131936848164e-03 0 -1 167
            1.0680957348085940e-04 -2 -3 92 -1.1214574333280325e-03</internalNodes>
          <leafValues>
            -3.0254268646240234e-01 5.6287533044815063e-01
            4.6953402459621429e-02 -5.7201522588729858e-01</leafValues></_>
        <_>
          <internalNodes>
            1 2 12 -1.5663836151361465e-02 0 -1 163
            -3.9870508015155792e-02 -2 -3 14 1.7914677038788795e-02</internalNodes>
          <leafValues>
            -8.8457047939300537e-01 4.8254558444023132e-01
            -4.7820833325386047e-01 2.4720722436904907e-01</leafValues></_>
        <_>
          <internalNodes>
            1 2 118 -1.1051910696551204e-03 0 -1 131
            -1.7869614064693451e-02 -2 -3 81 -3.7150862626731396e-03</internalNodes>
          <leafValues>
            -6.7953312397003174e-01 4.5913347601890564e-01
            4.6324968338012695e-01 -4.0971979498863220e-01</leafValues></_>
        <_>
          <internalNodes>
            1 2 202 1.1581197381019592e-02 0 -1 193
            -9.8659172654151917e-03 -2 -3 224 -1.4227267354726791e-02</internalNodes>
          <leafValues>
            -5.8507633209228516e-01 2.7928176522254944e-01
            1.8367902934551239e-01 -8.2334840297698975e-01</leafValues></_>
        <_>
          <internalNodes>
            1 2 222 -9.1295735910534859e-04 0 -1 49
            -1.8930714577436447e-02 -2 -3 68 -1.0131995659321547e-03</internalNodes>
          <leafValues>
            -7.8116244077682495e-01 5.9716510772705078e-01
            5.5926942825317383e-01 -3.3081585168838501e-01</leafValues></_>
        <_>
          <internalNodes>
            1 2 185 -2.4230137933045626e-03 0 -1 28
            3.3155828714370728e-01 -2 -3 169 -2.6367050595581532e-03</internalNodes>
          <leafValues>
            -9.1574847698211670e-01 3.0342575907707214e-01
            3.4319925308227539e-01 -2.6197180151939392e-01</leafValues></_>
        <_>
          <internalNodes>
            1 2 134 2.0236496347934008e-03 0 -1 156
            4.5187231153249741e-03 -2 -3 214 -4.5751456171274185e-02</internalNodes>
          <leafValues>
            1.6184192895889282e-01 -8.4063202142715454e-01
            8.3830589056015015e-01 -8.2039767503738403e-01</leafValues></_></weakClassifiers></_>
    <!-- stage 10 -->
    <_>
      <maxWeakCount>10</maxWeakCount>
      <stageThreshold>-1.3911830186843872e+00</stageThreshold>
      <weakClassifiers>
        <_>
          <internalNodes>
            1 2 189 -7.2512671351432800e-02 0 -1 107
            4.5403841882944107e-02 -2 -3 232 -7.1519152261316776e-03</internalNodes>
          <leafValues>
            6.6809552907943726e-01 -6.7524755001068115e-01
            3.6111110448837280e-01 -5.0277262926101685e-01</leafValues></_>
        <_>
          <internalNodes>
            1 2 75 -2.6607505977153778e-02 0 -1 129
            6.5858513116836548e-03 -2 -3 4 2.2160459775477648e-03</internalNodes>
          <leafValues>
            -3.3403456211090088e-01 7.2327065467834473e-01
            -4.3071255087852478e-01 3.3072504401206970e-01</leafValues></_>
        <_>
          <internalNodes>
            1 2 101 -7.2205746546387672e-03 0 -1 124
            7.7714300714433193e-03 -2 -3 55 -1.1222718656063080e-01</internalNodes>
          <leafValues>
            -2.1149548888206482e-01 4.7429421544075012e-01
            4.7530481219291687e-01 -7.1201449632644653e-01</leafValues></_>
        <_>
          <internalNodes>
            1 2 130 3.8017425686120987e-03 0 -1 237
            -3.3218758180737495e-03 -2 -3 96 4.2675182223320007e-02</internalNodes>
          <leafValues>
            4.3887582421302795e-01 -7.2250622510910034e-01
            3.2204580307006836e-01 -5.9279435873031616e-01</leafValues></_>
        <_>
          <internalNodes>
            1 2 228 -1.1014953255653381e-02 0 -1 161
            -5.9670507907867432e-03 -2 -3 216 -5.4118977859616280e-03</internalNodes>
          <leafValues>
            -5.9693998098373413e-01 6.6679829359054565e-01
            4.1685885190963745e-01 -3.8888984918594360e-01</leafValues></_>
        <_>
          <internalNodes>
            1 2 13 -3.4413782414048910e-03 0 -1 95
            2.1698109339922667e-03 -2 -3 59 -3.5391457378864288e-02</internalNodes>
          <leafValues>
            -3.0904132127761841e-01 5.6231021881103516e-01
            4.7827988862991333e-01 -4.0089774131774902e-01</leafValues></_>
        <_>
          <internalNodes>
            1 2 209 8.0197136849164963e-03 0 -1 65
            7.4230143800377846e-03 -2 -3 182 -1.4531516935676336e-03</internalNodes>
          <leafValues>
            -3.1871029734611511e-01 5.8451980352401733e-01
            -9.6329683065414429e-01 4.9856331944465637e-01</leafValues></_>
        <_>
          <internalNodes>
            1 2 39 -1.9914656877517700e-02 0 -1 63
            -1.2905119918286800e-02 -2 -3 181 1.4939707471057773e-03</internalNodes>
          <leafValues>
            3.1243738532066345e-01 -8.4699761867523193e-01
            -8.6395360529422760e-02 5.5225664377212524e-01</leafValues></_>
        <_>
          <internalNodes>
            1 2 150 -7.6314591569826007e-04 0 -1 160
            -9.4811562448740005e-03 -2 -3 157 -5.7167978957295418e-04</internalNodes>
          <leafValues>
            -6.7790341377258301e-01 4.4446393847465515e-01
            -9.5198470354080200e-01 -1.8545609712600708e-01</leafValues></_>
        <_>
          <internalNodes>
            1 2 139 -2.8693338390439749e-03 0 -1 64
            4.1802832856774330e-03 -2 -3 110 6.1292923055589199e-03</internalNodes>
          <leafValues>
            -8.7045025825500488e-01 7.0368725061416626e-01
            1.8774236738681793e-01 -6.8092614412307739e-01</leafValues></_></weakClassifiers></_>
    <!-- stage 11 -->
    <_>
      <maxWeakCount>10</maxWeakCount>
      <stageThreshold>-1.5787564516067505e+00</stageThreshold>
      <weakClassifiers>
        <_>
          <internalNodes>
            1 2 88 1.8817201256752014e-01 0 -1 108
            3.4744389355182648e-02 -2 -3 116 1.7631534487009048e-02</internalNodes>
          <leafValues>
            -5.5214720964431763e-01 2.5984251499176025e-01
            -4.3820226192474365e-01 6.6610950231552124e-01</leafValues></_>
        <_>
          <internalNodes>
            1 2 82 1.3162094168365002e-02 0 -1 3 8.3850533701479435e-04
            -2 -3 164 -5.3173787891864777e-03</internalNodes>
          <leafValues>
            -5.0431388616561890e-01 1.8337950110435486e-01
            6.1795002222061157e-01 -3.6609348654747009e-01</leafValues></_>
        <_>
          <internalNodes>
            1 2 25 2.0469965040683746e-01 0 -1 35 3.1956264283508062e-03
            -2 -3 190 -3.0872002243995667e-03</internalNodes>
          <leafValues>
            -4.7250297665596008e-01 5.3566223382949829e-01
            6.5265166759490967e-01 -2.1231451630592346e-01</leafValues></_>
        <_>
          <internalNodes>
            1 2 102 6.4076194539666176e-03 0 -1 29
            4.1776083409786224e-02 -2 -3 47 -2.1372791379690170e-02</internalNodes>
          <leafValues>
            -4.2167881131172180e-01 4.2788624763488770e-01
            8.1270670890808105e-01 4.8382587730884552e-02</leafValues></_>
        <_>
          <internalNodes>
            1 2 225 -2.5494403671473265e-03 0 -1 230
            -1.7446405254304409e-03 -2 -3 147 -3.6884939763695002e-03</internalNodes>
          <leafValues>
            7.4978017807006836e-01 6.2940448522567749e-02
            1.9247864186763763e-01 -4.7050058841705322e-01</leafValues></_>
        <_>
          <internalNodes>
            1 2 20 1.7652269452810287e-02 0 -1 236
            4.1759680025279522e-03 -2 -3 219 1.4304505661129951e-02</internalNodes>
          <leafValues>
            -1.6352098900824785e-03 7.4897497892379761e-01
            -8.4066426753997803e-01 6.4934539794921875e-01</leafValues></_>
        <_>
          <internalNodes>
            1 2 175 9.9027408286929131e-03 0 -1 195
            -4.6274983324110508e-03 -2 -3 153 4.4683523476123810e-02</internalNodes>
          <leafValues>
            5.9321022033691406e-01 -5.2656441926956177e-01
            2.5633212924003601e-01 -8.3359003067016602e-01</leafValues></_>
        <_>
          <internalNodes>
            1 2 238 -2.8640702366828918e-03 0 -1 137
            -3.2868697308003902e-03 -2 -3 6 1.0938629508018494e-01</internalNodes>
          <leafValues>
            -9.0981376171112061e-01 7.9818290472030640e-01
            -4.5606693625450134e-01 1.4001406729221344e-01</leafValues></_>
        <_>
          <internalNodes>
            1 2 186 1.8058881396427751e-03 0 -1 50
            -3.9913696236908436e-03 -2 -3 54 -1.6188096487894654e-03</internalNodes>
          <leafValues>
            2.6588824391365051e-01 -4.8373448848724365e-01
            4.4522231817245483e-01 -2.9033210873603821e-01</leafValues></_>
        <_>
          <internalNodes>
            1 2 196 8.0773532390594482e-03 0 -1 192
            -2.0166803151369095e-03 -2 -3 62 -2.9921807348728180e-02</internalNodes>
          <leafValues>
            -5.6507211923599243e-01 2.0657314360141754e-01
            6.6626000404357910e-01 -9.0104854106903076e-01</leafValues></_></weakClassifiers></_></stages>
  <features>
    <_>
      <rects>
        <_>
          0 0 12 4 -1.</_>
        <_>
          0 0 6 2 2.</_>
        <_>
          6 2 6 2 2.</_></rects>
      <tilted>0</tilted></_>
    <_>
      <rects>
        <_>
          0 0 12 18 -1.</_>
        <_>
          0 0 6 9 2.</_>
        <_>
          6 9 6 9 2.</_></rects>
      <tilted>0</tilted></_>
    <_>
      <rects>
        <_>
          0 2 24 1 -1.</_>
        <_>
          6 2 12 1 2.</_></rects>
      <tilted>0</tilted></_>
    <_>
      <rects>
        <_>
          0 6 2 6 -1.</_>
        <_>
          0 6 1 3 2.</_>
        <_>
          1 9 1 3 2.</_></rects>
      <tilted>0</tilted></_>
    <_>
      <rects>
        <_>
          0 6 2 8 -1.</_>
        <_>
          0 6 1 4 2.</_>
        <_>
          1 10 1 4 2.</_></rects>
      <tilted>0</tilted></_>
    <_>
      <rects>
        <_>
          0 6 24 23 -1.</_>
        <_>
          6 6 12 23 2.</_></rects>
      <tilted>0</tilted></_>
    <_>
      <rects>
        <_>
          0 7 20 15 -1.</_>
        <_>
          5 7 10 15 2.</_></rects>
      <tilted>0</tilted></_>
    <_>
      <rects>
        <_>
          0 7 20 21 -1.</_>
        <_>
          5 7 10 21 2.</_></rects>
      <tilted>0</tilted></_>
    <_>
      <rects>
        <_>
          0 7 24 17 -1.</_>
        <_>
          6 7 12 17 2.</_></rects>
      <tilted>0</tilted></_>
    <_>
      <rects>
        <_>
          0 7 24 18 -1.</_>
        <_>
          6 7 12 18 2.</_></rects>
      <tilted>0</tilted></_>
    <_>
      <rects>
        <_>
          0 7 24 22 -1.</_>
        <_>
          6 7 12 22 2.</_></rects>
      <tilted>0</tilted></_>
    <_>
      <rects>
        <_>
          0 10 2 8 -1.</_>
        <_>
          0 10 1 4 2.</_>
        <_>
          1 14 1 4 2.</_></rects>
      <tilted>0</tilted></_>
    <_>
      <rects>
        <_>
          0 10 6 12 -1.</_>
        <_>
          2 10 2 12 3.</_></rects>
      <tilted>0</tilted></_>
    <_>
      <rects>
        <_>
          0 12 4 7 -1.</_>
        <_>
          1 12 2 7 2.</_></rects>
      <tilted>0</tilted></_>
    <_>
      <rects>
        <_>
          0 12 9 8 -1.</_>
        <_>
          3 12 3 8 3.</_></rects>
      <tilted>0</tilted></_>
    <_>
      <rects>
        <_>
          0 12 6 18 -1.</_>
        <_>
          3 12 3 18 2.</_></rects>
      <tilted>0</tilted></_>
    <_>
      <rects>
        <_>
          0 13 4 6 -1.</_>
        <_>
          1 13 2 6 2.</_></rects>
      <tilted>0</tilted></_>
    <_>
      <rects>
        <_>
          0 17 2 4 -1.</_>
        <_>
          0 17 1 2 2.</_>
        <_>
          1 19 1 2 2.</_></rects>
      <tilted>0</tilted></_>
    <_>
      <rects>
        <_>
          0 19 4 13 -1.</_>
        <_>
          2 19 2 13 2.</_></rects>
      <tilted>0</tilted></_>
    <_>
      <rects>
        <_>
          0 20 2 2 -1.</_>
        <_>
          1 20 1 2 2.</_></rects>
      <tilted>0</tilted></_>
    <_>
      <rects>
        <_>
          0 20 18 8 -1.</_>
        <_>
          0 22 18 4 2.</_></rects>
      <tilted>0</tilted></_>
    <_>
      <rects>
        <_>
          1 1 21 3 -1.</_>
        <_>
          8 2 7 1 9.</_></rects>
      <tilted>0</tilted></_>
    <_>
      <rects>
        <_>
          1 4 2 6 -1.</_>
        <_>
          1 4 1 3 2.</_>
        <_>
          2 7 1 3 2.</_></rects>
      <tilted>0</tilted></_>
    <_>
      <rects>
        <_>
          1 7 24 15 -1.</_>
        <_>
          7 7 12 15 2.</_></rects>
      <tilted>0</tilted></_>
    <_>
      <rects>
        <_>
          1 7 24 16 -1.</_>
        <_>
          7 7 12 16 2.</_></rects>
      <tilted>0</tilted></_>
    <_>
      <rects>
        <_>
          1 8 24 13 -1.</_>
        <_>
          7 8 12 13 2.</_></rects>
      <tilted>0</tilted></_>
    <_>
      <rects>
        <_>
          1 9 24 17 -1.</_>
        <_>
          7 9 12 17 2.</_></rects>
      <tilted>0</tilted></_>
    <_>
      <rects>
        <_>
          1 10 2 14 -1.</_>
        <_>
          1 10 1 7 2.</_>
        <_>
          2 17 1 7 2.</_></rects>
      <tilted>0</tilted></_>
    <_>
      <rects>
        <_>
          1 10 24 15 -1.</_>
        <_>
          9 10 8 15 3.</_></rects>
      <tilted>0</tilted></_>
    <_>
      <rects>
        <_>
          1 10 22 10 -1.</_>
        <_>
          1 10 11 5 2.</_>
        <_>
          12 15 11 5 2.</_></rects>
      <tilted>0</tilted></_>
    <_>
      <rects>
        <_>
          1 11 24 14 -1.</_>
        <_>
          7 11 12 14 2.</_></rects>
      <tilted>0</tilted></_>
    <_>
      <rects>
        <_>
          1 18 16 2 -1.</_>
        <_>
          5 18 8 2 2.</_></rects>
      <tilted>0</tilted></_>
    <_>
      <rects>
        <_>
          1 30 24 2 -1.</_>
        <_>
          7 30 12 2 2.</_></rects>
      <tilted>0</tilted></_>
    <_>
      <rects>
        <_>
          2 1 19 20 -1.</_>
        <_>
          2 11 19 10 2.</_></rects>
      <tilted>0</tilted></_>
    <_>
      <rects>
        <_>
          2 2 21 18 -1.</_>
        <_>
          9 8 7 6 9.</_></rects>
      <tilted>0</tilted></_>
    <_>
      <rects>
        <_>
          2 4 2 4 -1.</_>
        <_>
          2 4 1 2 2.</_>
        <_>
          3 6 1 2 2.</_></rects>
      <tilted>0</tilted></_>
    <_>
      <rects>
        <_>
          2 4 3 2 -1.</_>
        <_>
          3 5 1 2 3.</_></rects>
      <tilted>1</tilted></_>
    <_>
      <rects>
        <_>
          2 4 21 25 -1.</_>
        <_>
          9 4 7 25 3.</_></rects>
      <tilted>0</tilted></_>
    <_>
      <rects>
        <_>
          2 5 12 16 -1.</_>
        <_>
          8 5 6 16 2.</_></rects>
      <tilted>0</tilted></_>
    <_>
      <rects>
        <_>
          2 14 20 10 -1.</_>
        <_>
          2 19 20 5 2.</_></rects>
      <tilted>0</tilted></_>
    <_>
      <rects>
        <_>
          2 16 18 4 -1.</_>
        <_>
          8 16 6 4 3.</_></rects>
      <tilted>0</tilted></_>
    <_>
      <rects>
        <_>
          3 1 12 4 -1.</_>
        <_>
          3 1 6 2 2.</_>
        <_>
          9 3 6 2 2.</_></rects>
      <tilted>0</tilted></_>
    <_>
      <rects>
        <_>
          3 2 2 4 -1.</_>
        <_>
          3 2 1 2 2.</_>
        <_>
          4 4 1 2 2.</_></rects>
      <tilted>0</tilted></_>
    <_>
      <rects>
        <_>
          3 6 20 8 -1.</_>
        <_>
          8 6 10 8 2.</_></rects>
      <tilted>0</tilted></_>
    <_>
      <rects>
        <_>
          3 7 20 6 -1.</_>
        <_>
          8 7 10 6 2.</_></rects>
      <tilted>0</tilted></_>
    <_>
      <rects>
        <_>
          3 8 20 4 -1.</_>
        <_>
          8 8 10 4 2.</_></rects>
      <tilted>0</tilted></_>
    <_>
      <rects>
        <_>
          3 11 18 8 -1.</_>
        <_>
          3 11 9 4 2.</_>
        <_>
          12 15 9 4 2.</_></rects>
      <tilted>0</tilted></_>
    <_>
      <rects>
        <_>
          3 13 18 6 -1.</_>
        <_>
          3 13 9 3 2.</_>
        <_>
          12 16 9 3 2.</_></rects>
      <tilted>0</tilted></_>
    <_>
      <rects>
        <_>
          3 13 20 6 -1.</_>
        <_>
          3 13 10 3 2.</_>
        <_>
          13 16 10 3 2.</_></rects>
      <tilted>0</tilted></_>
    <_>
      <rects>
        <_>
          3 19 7 9 -1.</_>
        <_>
          3 22 7 3 3.</_></rects>
      <tilted>0</tilted></_>
    <_>
      <rects>
        <_>
          3 29 3 3 -1.</_>
        <_>
          4 30 1 1 9.</_></rects>
      <tilted>0</tilted></_>
    <_>
      <rects>
        <_>
          3 29 16 2 -1.</_>
        <_>
          3 29 8 1 2.</_>
        <_>
          11 30 8 1 2.</_></rects>
      <tilted>0</tilted></_>
    <_>
      <rects>
        <_>
          4 0 16 4 -1.</_>
        <_>
          4 2 16 2 2.</_></rects>
      <tilted>0</tilted></_>
    <_>
      <rects>
        <_>
          4 1 4 2 -1.</_>
        <_>
          4 1 2 1 2.</_>
        <_>
          6 2 2 1 2.</_></rects>
      <tilted>0</tilted></_>
    <_>
      <rects>
        <_>
          4 1 10 2 -1.</_>
        <_>
          9 1 5 2 2.</_></rects>
      <tilted>0</tilted></_>
    <_>
      <rects>
        <_>
          4 2 20 24 -1.</_>
        <_>
          9 2 10 24 2.</_></rects>
      <tilted>0</tilted></_>
    <_>
      <rects>
        <_>
          4 3 4 4 -1.</_>
        <_>
          4 3 2 4 2.</_></rects>
      <tilted>1</tilted></_>
    <_>
      <rects>
        <_>
          4 4 18 11 -1.</_>
        <_>
          10 4 6 11 3.</_></rects>
      <tilted>0</tilted></_>
    <_>
      <rects>
        <_>
          4 11 16 8 -1.</_>
        <_>
          4 11 8 4 2.</_>
        <_>
          12 15 8 4 2.</_></rects>
      <tilted>0</tilted></_>
    <_>
      <rects>
        <_>
          4 12 16 6 -1.</_>
        <_>
          4 12 8 3 2.</_>
        <_>
          12 15 8 3 2.</_></rects>
      <tilted>0</tilted></_>
    <_>
      <rects>
        <_>
          4 13 18 6 -1.</_>
        <_>
          4 13 9 3 2.</_>
        <_>
          13 16 9 3 2.</_></rects>
      <tilted>0</tilted></_>
    <_>
      <rects>
        <_>
          4 15 14 16 -1.</_>
        <_>
          4 19 14 8 2.</_></rects>
      <tilted>0</tilted></_>
    <_>
      <rects>
        <_>
          4 18 10 2 -1.</_>
        <_>
          4 18 5 2 2.</_></rects>
      <tilted>1</tilted></_>
    <_>
      <rects>
        <_>
          4 22 6 4 -1.</_>
        <_>
          3 23 6 2 2.</_></rects>
      <tilted>1</tilted></_>
    <_>
      <rects>
        <_>
          4 26 2 4 -1.</_>
        <_>
          4 26 1 2 2.</_>
        <_>
          5 28 1 2 2.</_></rects>
      <tilted>0</tilted></_>
    <_>
      <rects>
        <_>
          4 27 3 2 -1.</_>
        <_>
          4 27 3 1 2.</_></rects>
      <tilted>1</tilted></_>
    <_>
      <rects>
        <_>
          4 28 12 2 -1.</_>
        <_>
          4 29 12 1 2.</_></rects>
      <tilted>0</tilted></_>
    <_>
      <rects>
        <_>
          4 29 12 3 -1.</_>
        <_>
          4 30 12 1 3.</_></rects>
      <tilted>0</tilted></_>
    <_>
      <rects>
        <_>
          4 30 2 2 -1.</_>
        <_>
          4 30 1 1 2.</_>
        <_>
          5 31 1 1 2.</_></rects>
      <tilted>0</tilted></_>
    <_>
      <rects>
        <_>
          5 0 4 5 -1.</_>
        <_>
          5 0 2 5 2.</_></rects>
      <tilted>1</tilted></_>
    <_>
      <rects>
        <_>
          5 0 8 5 -1.</_>
        <_>
          7 2 4 5 2.</_></rects>
      <tilted>1</tilted></_>
    <_>
      <rects>
        <_>
          5 0 20 9 -1.</_>
        <_>
          5 3 20 3 3.</_></rects>
      <tilted>0</tilted></_>
    <_>
      <rects>
        <_>
          5 1 2 2 -1.</_>
        <_>
          5 1 1 1 2.</_>
        <_>
          6 2 1 1 2.</_></rects>
      <tilted>0</tilted></_>
    <_>
      <rects>
        <_>
          5 2 15 28 -1.</_>
        <_>
          5 9 15 14 2.</_></rects>
      <tilted>0</tilted></_>
    <_>
      <rects>
        <_>
          5 2 17 12 -1.</_>
        <_>
          5 8 17 6 2.</_></rects>
      <tilted>0</tilted></_>
    <_>
      <rects>
        <_>
          5 3 6 5 -1.</_>
        <_>
          7 5 2 5 3.</_></rects>
      <tilted>1</tilted></_>
    <_>
      <rects>
        <_>
          5 4 15 16 -1.</_>
        <_>
          10 4 5 16 3.</_></rects>
      <tilted>0</tilted></_>
    <_>
      <rects>
        <_>
          5 11 14 8 -1.</_>
        <_>
          5 11 7 4 2.</_>
        <_>
          12 15 7 4 2.</_></rects>
      <tilted>0</tilted></_>
    <_>
      <rects>
        <_>
          5 12 5 12 -1.</_>
        <_>
          5 16 5 4 3.</_></rects>
      <tilted>0</tilted></_>
    <_>
      <rects>
        <_>
          5 12 18 6 -1.</_>
        <_>
          5 12 9 3 2.</_>
        <_>
          14 15 9 3 2.</_></rects>
      <tilted>0</tilted></_>
    <_>
      <rects>
        <_>
          5 13 15 6 -1.</_>
        <_>
          10 15 5 2 9.</_></rects>
      <tilted>0</tilted></_>
    <_>
      <rects>
        <_>
          5 28 2 2 -1.</_>
        <_>
          5 28 2 1 2.</_></rects>
      <tilted>1</tilted></_>
    <_>
      <rects>
        <_>
          6 0 4 6 -1.</_>
        <_>
          6 0 2 6 2.</_></rects>
      <tilted>1</tilted></_>
    <_>
      <rects>
        <_>
          6 0 6 6 -1.</_>
        <_>
          8 2 2 6 3.</_></rects>
      <tilted>1</tilted></_>
    <_>
      <rects>
        <_>
          6 0 13 6 -1.</_>
        <_>
          6 2 13 2 3.</_></rects>
      <tilted>0</tilted></_>
    <_>
      <rects>
        <_>
          6 0 13 32 -1.</_>
        <_>
          6 8 13 16 2.</_></rects>
      <tilted>0</tilted></_>
    <_>
      <rects>
        <_>
          6 0 14 8 -1.</_>
        <_>
          6 2 14 4 2.</_></rects>
      <tilted>0</tilted></_>
    <_>
      <rects>
        <_>
          6 1 2 6 -1.</_>
        <_>
          6 1 1 6 2.</_></rects>
      <tilted>1</tilted></_>
    <_>
      <rects>
        <_>
          6 2 15 28 -1.</_>
        <_>
          6 9 15 14 2.</_></rects>
      <tilted>0</tilted></_>
    <_>
      <rects>
        <_>
          6 3 13 16 -1.</_>
        <_>
          6 11 13 8 2.</_></rects>
      <tilted>0</tilted></_>
    <_>
      <rects>
        <_>
          6 10 14 18 -1.</_>
        <_>
          6 16 14 6 3.</_></rects>
      <tilted>0</tilted></_>
    <_>
      <rects>
        <_>
          6 12 15 9 -1.</_>
        <_>
          11 15 5 3 9.</_></rects>
      <tilted>0</tilted></_>
    <_>
      <rects>
        <_>
          6 13 6 5 -1.</_>
        <_>
          8 13 2 5 3.</_></rects>
      <tilted>0</tilted></_>
    <_>
      <rects>
        <_>
          6 13 14 6 -1.</_>
        <_>
          6 13 7 3 2.</_>
        <_>
          13 16 7 3 2.</_></rects>
      <tilted>0</tilted></_>
    <_>
      <rects>
        <_>
          6 13 12 12 -1.</_>
        <_>
          6 19 12 6 2.</_></rects>
      <tilted>0</tilted></_>
    <_>
      <rects>
        <_>
          6 14 12 5 -1.</_>
        <_>
          9 14 6 5 2.</_></rects>
      <tilted>0</tilted></_>
    <_>
      <rects>
        <_>
          6 14 15 6 -1.</_>
        <_>
          11 16 5 2 9.</_></rects>
      <tilted>0</tilted></_>
    <_>
      <rects>
        <_>
          6 14 12 16 -1.</_>
        <_>
          6 18 12 8 2.</_></rects>
      <tilted>0</tilted></_>
    <_>
      <rects>
        <_>
          6 15 13 12 -1.</_>
        <_>
          6 18 13 6 2.</_></rects>
      <tilted>0</tilted></_>
    <_>
      <rects>
        <_>
          6 17 4 12 -1.</_>
        <_>
          6 20 4 6 2.</_></rects>
      <tilted>0</tilted></_>
    <_>
      <rects>
        <_>
          6 19 14 8 -1.</_>
        <_>
          6 23 14 4 2.</_></rects>
      <tilted>0</tilted></_>
    <_>
      <rects>
        <_>
          6 19 15 8 -1.</_>
        <_>
          6 23 15 4 2.</_></rects>
      <tilted>0</tilted></_>
    <_>
      <rects>
        <_>
          6 22 5 4 -1.</_>
        <_>
          5 23 5 2 2.</_></rects>
      <tilted>1</tilted></_>
    <_>
      <rects>
        <_>
          6 23 5 3 -1.</_>
        <_>
          5 24 5 1 3.</_></rects>
      <tilted>1</tilted></_>
    <_>
      <rects>
        <_>
          6 25 12 6 -1.</_>
        <_>
          6 27 12 2 3.</_></rects>
      <tilted>0</tilted></_>
    <_>
      <rects>
        <_>
          6 28 12 2 -1.</_>
        <_>
          6 29 12 1 2.</_></rects>
      <tilted>0</tilted></_>
    <_>
      <rects>
        <_>
          6 29 1 2 -1.</_>
        <_>
          6 29 1 1 2.</_></rects>
      <tilted>1</tilted></_>
    <_>
      <rects>
        <_>
          7 1 12 20 -1.</_>
        <_>
          7 1 6 10 2.</_>
        <_>
          13 11 6 10 2.</_></rects>
      <tilted>0</tilted></_>
    <_>
      <rects>
        <_>
          7 1 9 12 -1.</_>
        <_>
          7 4 9 6 2.</_></rects>
      <tilted>0</tilted></_>
    <_>
      <rects>
        <_>
          7 2 12 12 -1.</_>
        <_>
          7 8 12 6 2.</_></rects>
      <tilted>0</tilted></_>
    <_>
      <rects>
        <_>
          7 3 4 4 -1.</_>
        <_>
          6 4 4 2 2.</_></rects>
      <tilted>1</tilted></_>
    <_>
      <rects>
        <_>
          7 9 18 16 -1.</_>
        <_>
          16 9 9 16 2.</_></rects>
      <tilted>0</tilted></_>
    <_>
      <rects>
        <_>
          7 12 9 2 -1.</_>
        <_>
          10 15 3 2 3.</_></rects>
      <tilted>1</tilted></_>
    <_>
      <rects>
        <_>
          7 12 11 14 -1.</_>
        <_>
          7 19 11 7 2.</_></rects>
      <tilted>0</tilted></_>
    <_>
      <rects>
        <_>
          7 13 11 18 -1.</_>
        <_>
          7 19 11 6 3.</_></rects>
      <tilted>0</tilted></_>
    <_>
      <rects>
        <_>
          7 13 12 18 -1.</_>
        <_>
          7 19 12 6 3.</_></rects>
      <tilted>0</tilted></_>
    <_>
      <rects>
        <_>
          7 15 12 16 -1.</_>
        <_>
          7 19 12 8 2.</_></rects>
      <tilted>0</tilted></_>
    <_>
      <rects>
        <_>
          7 18 12 4 -1.</_>
        <_>
          7 19 12 2 2.</_></rects>
      <tilted>0</tilted></_>
    <_>
      <rects>
        <_>
          7 23 7 4 -1.</_>
        <_>
          7 24 7 2 2.</_></rects>
      <tilted>0</tilted></_>
    <_>
      <rects>
        <_>
          8 0 4 20 -1.</_>
        <_>
          8 0 2 10 2.</_>
        <_>
          10 10 2 10 2.</_></rects>
      <tilted>0</tilted></_>
    <_>
      <rects>
        <_>
          8 0 8 4 -1.</_>
        <_>
          8 1 8 2 2.</_></rects>
      <tilted>0</tilted></_>
    <_>
      <rects>
        <_>
          8 3 4 13 -1.</_>
        <_>
          10 3 2 13 2.</_></rects>
      <tilted>0</tilted></_>
    <_>
      <rects>
        <_>
          8 10 10 12 -1.</_>
        <_>
          8 13 10 6 2.</_></rects>
      <tilted>0</tilted></_>
    <_>
      <rects>
        <_>
          8 11 10 21 -1.</_>
        <_>
          8 18 10 7 3.</_></rects>
      <tilted>0</tilted></_>
    <_>
      <rects>
        <_>
          8 13 9 3 -1.</_>
        <_>
          11 13 3 3 3.</_></rects>
      <tilted>0</tilted></_>
    <_>
      <rects>
        <_>
          8 13 9 5 -1.</_>
        <_>
          11 13 3 5 3.</_></rects>
      <tilted>0</tilted></_>
    <_>
      <rects>
        <_>
          8 14 9 3 -1.</_>
        <_>
          11 14 3 3 3.</_></rects>
      <tilted>0</tilted></_>
    <_>
      <rects>
        <_>
          8 14 9 14 -1.</_>
        <_>
          8 21 9 7 2.</_></rects>
      <tilted>0</tilted></_>
    <_>
      <rects>
        <_>
          8 16 16 6 -1.</_>
        <_>
          12 16 8 6 2.</_></rects>
      <tilted>0</tilted></_>
    <_>
      <rects>
        <_>
          8 16 9 16 -1.</_>
        <_>
          8 20 9 8 2.</_></rects>
      <tilted>0</tilted></_>
    <_>
      <rects>
        <_>
          8 17 16 3 -1.</_>
        <_>
          12 17 8 3 2.</_></rects>
      <tilted>0</tilted></_>
    <_>
      <rects>
        <_>
          8 20 7 9 -1.</_>
        <_>
          8 23 7 3 3.</_></rects>
      <tilted>0</tilted></_>
    <_>
      <rects>
        <_>
          9 0 7 4 -1.</_>
        <_>
          9 1 7 2 2.</_></rects>
      <tilted>0</tilted></_>
    <_>
      <rects>
        <_>
          9 1 6 8 -1.</_>
        <_>
          11 3 2 8 3.</_></rects>
      <tilted>1</tilted></_>
    <_>
      <rects>
        <_>
          9 2 6 2 -1.</_>
        <_>
          9 2 6 1 2.</_></rects>
      <tilted>1</tilted></_>
    <_>
      <rects>
        <_>
          9 3 4 6 -1.</_>
        <_>
          7 5 4 2 3.</_></rects>
      <tilted>1</tilted></_>
    <_>
      <rects>
        <_>
          9 3 10 8 -1.</_>
        <_>
          9 7 10 4 2.</_></rects>
      <tilted>0</tilted></_>
    <_>
      <rects>
        <_>
          9 4 2 3 -1.</_>
        <_>
          8 5 2 1 3.</_></rects>
      <tilted>1</tilted></_>
    <_>
      <rects>
        <_>
          9 4 9 12 -1.</_>
        <_>
          9 8 9 4 3.</_></rects>
      <tilted>0</tilted></_>
    <_>
      <rects>
        <_>
          9 5 2 4 -1.</_>
        <_>
          8 6 2 2 2.</_></rects>
      <tilted>1</tilted></_>
    <_>
      <rects>
        <_>
          9 5 8 7 -1.</_>
        <_>
          9 5 4 7 2.</_></rects>
      <tilted>1</tilted></_>
    <_>
      <rects>
        <_>
          9 6 6 7 -1.</_>
        <_>
          11 6 2 7 3.</_></rects>
      <tilted>0</tilted></_>
    <_>
      <rects>
        <_>
          9 9 4 16 -1.</_>
        <_>
          9 13 4 8 2.</_></rects>
      <tilted>0</tilted></_>
    <_>
      <rects>
        <_>
          9 10 3 12 -1.</_>
        <_>
          9 13 3 6 2.</_></rects>
      <tilted>0</tilted></_>
    <_>
      <rects>
        <_>
          9 10 8 12 -1.</_>
        <_>
          9 14 8 4 3.</_></rects>
      <tilted>0</tilted></_>
    <_>
      <rects>
        <_>
          9 10 9 14 -1.</_>
        <_>
          9 17 9 7 2.</_></rects>
      <tilted>0</tilted></_>
    <_>
      <rects>
        <_>
          9 13 4 10 -1.</_>
        <_>
          9 13 2 5 2.</_>
        <_>
          11 18 2 5 2.</_></rects>
      <tilted>0</tilted></_>
    <_>
      <rects>
        <_>
          9 13 4 12 -1.</_>
        <_>
          9 13 2 6 2.</_>
        <_>
          11 19 2 6 2.</_></rects>
      <tilted>0</tilted></_>
    <_>
      <rects>
        <_>
          9 14 6 2 -1.</_>
        <_>
          11 14 2 2 3.</_></rects>
      <tilted>0</tilted></_>
    <_>
      <rects>
        <_>
          9 20 6 6 -1.</_>
        <_>
          9 23 6 3 2.</_></rects>
      <tilted>0</tilted></_>
    <_>
      <rects>
        <_>
          9 23 9 4 -1.</_>
        <_>
          9 24 9 2 2.</_></rects>
      <tilted>0</tilted></_>
    <_>
      <rects>
        <_>
          10 0 4 8 -1.</_>
        <_>
          11 1 2 8 2.</_></rects>
      <tilted>1</tilted></_>
    <_>
      <rects>
        <_>
          10 0 6 4 -1.</_>
        <_>
          10 1 6 2 2.</_></rects>
      <tilted>0</tilted></_>
    <_>
      <rects>
        <_>
          10 0 9 6 -1.</_>
        <_>
          8 2 9 2 3.</_></rects>
      <tilted>1</tilted></_>
    <_>
      <rects>
        <_>
          10 1 7 12 -1.</_>
        <_>
          10 7 7 6 2.</_></rects>
      <tilted>0</tilted></_>
    <_>
      <rects>
        <_>
          10 1 8 12 -1.</_>
        <_>
          10 7 8 6 2.</_></rects>
      <tilted>0</tilted></_>
    <_>
      <rects>
        <_>
          10 2 2 4 -1.</_>
        <_>
          9 3 2 2 2.</_></rects>
      <tilted>1</tilted></_>
    <_>
      <rects>
        <_>
          10 7 4 1 -1.</_>
        <_>
          11 8 2 1 2.</_></rects>
      <tilted>1</tilted></_>
    <_>
      <rects>
        <_>
          10 7 8 8 -1.</_>
        <_>
          10 9 8 4 2.</_></rects>
      <tilted>0</tilted></_>
    <_>
      <rects>
        <_>
          10 10 4 8 -1.</_>
        <_>
          10 14 4 4 2.</_></rects>
      <tilted>0</tilted></_>
    <_>
      <rects>
        <_>
          10 20 5 12 -1.</_>
        <_>
          10 23 5 6 2.</_></rects>
      <tilted>0</tilted></_>
    <_>
      <rects>
        <_>
          10 24 6 2 -1.</_>
        <_>
          10 24 3 2 2.</_></rects>
      <tilted>1</tilted></_>
    <_>
      <rects>
        <_>
          11 0 4 2 -1.</_>
        <_>
          11 1 4 1 2.</_></rects>
      <tilted>0</tilted></_>
    <_>
      <rects>
        <_>
          11 0 8 9 -1.</_>
        <_>
          15 0 4 9 2.</_></rects>
      <tilted>0</tilted></_>
    <_>
      <rects>
        <_>
          11 0 11 4 -1.</_>
        <_>
          11 2 11 2 2.</_></rects>
      <tilted>0</tilted></_>
    <_>
      <rects>
        <_>
          11 1 12 11 -1.</_>
        <_>
          14 4 6 11 2.</_></rects>
      <tilted>1</tilted></_>
    <_>
      <rects>
        <_>
          11 7 5 8 -1.</_>
        <_>
          11 9 5 4 2.</_></rects>
      <tilted>0</tilted></_>
    <_>
      <rects>
        <_>
          11 9 3 6 -1.</_>
        <_>
          12 11 1 2 9.</_></rects>
      <tilted>0</tilted></_>
    <_>
      <rects>
        <_>
          11 12 6 14 -1.</_>
        <_>
          11 12 3 7 2.</_>
        <_>
          14 19 3 7 2.</_></rects>
      <tilted>0</tilted></_>
    <_>
      <rects>
        <_>
          11 14 6 5 -1.</_>
        <_>
          14 14 3 5 2.</_></rects>
      <tilted>0</tilted></_>
    <_>
      <rects>
        <_>
          11 14 3 10 -1.</_>
        <_>
          11 19 3 5 2.</_></rects>
      <tilted>0</tilted></_>
    <_>
      <rects>
        <_>
          11 15 3 2 -1.</_>
        <_>
          12 15 1 2 3.</_></rects>
      <tilted>0</tilted></_>
    <_>
      <rects>
        <_>
          11 17 2 3 -1.</_>
        <_>
          11 18 2 1 3.</_></rects>
      <tilted>0</tilted></_>
    <_>
      <rects>
        <_>
          11 17 3 3 -1.</_>
        <_>
          11 18 3 1 3.</_></rects>
      <tilted>0</tilted></_>
    <_>
      <rects>
        <_>
          12 1 6 12 -1.</_>
        <_>
          14 1 2 12 3.</_></rects>
      <tilted>0</tilted></_>
    <_>
      <rects>
        <_>
          12 1 13 6 -1.</_>
        <_>
          10 3 13 2 3.</_></rects>
      <tilted>1</tilted></_>
    <_>
      <rects>
        <_>
          12 7 7 2 -1.</_>
        <_>
          12 8 7 1 2.</_></rects>
      <tilted>0</tilted></_>
    <_>
      <rects>
        <_>
          12 10 2 22 -1.</_>
        <_>
          12 21 2 11 2.</_></rects>
      <tilted>0</tilted></_>
    <_>
      <rects>
        <_>
          12 12 4 5 -1.</_>
        <_>
          14 12 2 5 2.</_></rects>
      <tilted>0</tilted></_>
    <_>
      <rects>
        <_>
          12 12 6 7 -1.</_>
        <_>
          15 12 3 7 2.</_></rects>
      <tilted>0</tilted></_>
    <_>
      <rects>
        <_>
          12 14 3 2 -1.</_>
        <_>
          13 15 1 2 3.</_></rects>
      <tilted>1</tilted></_>
    <_>
      <rects>
        <_>
          12 15 7 4 -1.</_>
        <_>
          12 16 7 2 2.</_></rects>
      <tilted>0</tilted></_>
    <_>
      <rects>
        <_>
          12 17 3 2 -1.</_>
        <_>
          12 18 3 1 2.</_></rects>
      <tilted>0</tilted></_>
    <_>
      <rects>
        <_>
          12 17 7 8 -1.</_>
        <_>
          12 19 7 4 2.</_></rects>
      <tilted>0</tilted></_>
    <_>
      <rects>
        <_>
          13 0 9 9 -1.</_>
        <_>
          13 3 9 3 3.</_></rects>
      <tilted>0</tilted></_>
    <_>
      <rects>
        <_>
          13 2 3 6 -1.</_>
        <_>
          14 2 1 6 3.</_></rects>
      <tilted>0</tilted></_>
    <_>
      <rects>
        <_>
          13 2 10 1 -1.</_>
        <_>
          18 2 5 1 2.</_></rects>
      <tilted>0</tilted></_>
    <_>
      <rects>
        <_>
          13 2 12 10 -1.</_>
        <_>
          13 2 6 5 2.</_>
        <_>
          19 7 6 5 2.</_></rects>
      <tilted>0</tilted></_>
    <_>
      <rects>
        <_>
          13 11 2 8 -1.</_>
        <_>
          13 11 2 4 2.</_></rects>
      <tilted>1</tilted></_>
    <_>
      <rects>
        <_>
          14 0 11 6 -1.</_>
        <_>
          14 0 11 3 2.</_></rects>
      <tilted>1</tilted></_>
    <_>
      <rects>
        <_>
          14 12 6 4 -1.</_>
        <_>
          16 14 2 4 3.</_></rects>
      <tilted>1</tilted></_>
    <_>
      <rects>
        <_>
          14 21 5 4 -1.</_>
        <_>
          14 21 5 2 2.</_></rects>
      <tilted>1</tilted></_>
    <_>
      <rects>
        <_>
          15 2 4 1 -1.</_>
        <_>
          16 3 2 1 2.</_></rects>
      <tilted>1</tilted></_>
    <_>
      <rects>
        <_>
          15 20 5 6 -1.</_>
        <_>
          15 20 5 3 2.</_></rects>
      <tilted>1</tilted></_>
    <_>
      <rects>
        <_>
          16 7 4 12 -1.</_>
        <_>
          16 7 2 6 2.</_>
        <_>
          18 13 2 6 2.</_></rects>
      <tilted>0</tilted></_>
    <_>
      <rects>
        <_>
          16 30 5 2 -1.</_>
        <_>
          16 31 5 1 2.</_></rects>
      <tilted>0</tilted></_>
    <_>
      <rects>
        <_>
          17 0 4 6 -1.</_>
        <_>
          18 1 2 6 2.</_></rects>
      <tilted>1</tilted></_>
    <_>
      <rects>
        <_>
          17 0 8 18 -1.</_>
        <_>
          17 0 4 9 2.</_>
        <_>
          21 9 4 9 2.</_></rects>
      <tilted>0</tilted></_>
    <_>
      <rects>
        <_>
          17 1 8 16 -1.</_>
        <_>
          17 1 4 8 2.</_>
        <_>
          21 9 4 8 2.</_></rects>
      <tilted>0</tilted></_>
    <_>
      <rects>
        <_>
          17 1 8 18 -1.</_>
        <_>
          17 1 4 9 2.</_>
        <_>
          21 10 4 9 2.</_></rects>
      <tilted>0</tilted></_>
    <_>
      <rects>
        <_>
          17 1 8 8 -1.</_>
        <_>
          17 1 8 4 2.</_></rects>
      <tilted>1</tilted></_>
    <_>
      <rects>
        <_>
          17 13 8 6 -1.</_>
        <_>
          19 15 4 6 2.</_></rects>
      <tilted>1</tilted></_>
    <_>
      <rects>
        <_>
          17 22 3 6 -1.</_>
        <_>
          17 22 3 3 2.</_></rects>
      <tilted>1</tilted></_>
    <_>
      <rects>
        <_>
          18 2 7 8 -1.</_>
        <_>
          18 2 7 4 2.</_></rects>
      <tilted>1</tilted></_>
    <_>
      <rects>
        <_>
          18 7 1 6 -1.</_>
        <_>
          16 9 1 2 3.</_></rects>
      <tilted>1</tilted></_>
    <_>
      <rects>
        <_>
          18 12 6 10 -1.</_>
        <_>
          21 12 3 10 2.</_></rects>
      <tilted>0</tilted></_>
    <_>
      <rects>
        <_>
          18 14 4 9 -1.</_>
        <_>
          15 17 4 3 3.</_></rects>
      <tilted>1</tilted></_>
    <_>
      <rects>
        <_>
          18 15 6 5 -1.</_>
        <_>
          21 15 3 5 2.</_></rects>
      <tilted>0</tilted></_>
    <_>
      <rects>
        <_>
          19 0 5 4 -1.</_>
        <_>
          18 1 5 2 2.</_></rects>
      <tilted>1</tilted></_>
    <_>
      <rects>
        <_>
          19 0 6 2 -1.</_>
        <_>
          19 0 6 1 2.</_></rects>
      <tilted>1</tilted></_>
    <_>
      <rects>
        <_>
          19 0 6 4 -1.</_>
        <_>
          18 1 6 2 2.</_></rects>
      <tilted>1</tilted></_>
    <_>
      <rects>
        <_>
          19 9 4 11 -1.</_>
        <_>
          21 9 2 11 2.</_></rects>
      <tilted>0</tilted></_>
    <_>
      <rects>
        <_>
          19 13 4 8 -1.</_>
        <_>
          21 13 2 8 2.</_></rects>
      <tilted>0</tilted></_>
    <_>
      <rects>
        <_>
          19 17 3 5 -1.</_>
        <_>
          20 18 1 5 3.</_></rects>
      <tilted>1</tilted></_>
    <_>
      <rects>
        <_>
          19 18 6 4 -1.</_>
        <_>
          21 20 2 4 3.</_></rects>
      <tilted>1</tilted></_>
    <_>
      <rects>
        <_>
          19 29 2 2 -1.</_>
        <_>
          19 29 1 1 2.</_>
        <_>
          20 30 1 1 2.</_></rects>
      <tilted>0</tilted></_>
    <_>
      <rects>
        <_>
          19 29 3 3 -1.</_>
        <_>
          20 30 1 1 9.</_></rects>
      <tilted>0</tilted></_>
    <_>
      <rects>
        <_>
          20 0 1 4 -1.</_>
        <_>
          20 0 1 2 2.</_></rects>
      <tilted>1</tilted></_>
    <_>
      <rects>
        <_>
          20 0 5 6 -1.</_>
        <_>
          18 2 5 2 3.</_></rects>
      <tilted>1</tilted></_>
    <_>
      <rects>
        <_>
          20 3 5 2 -1.</_>
        <_>
          20 3 5 1 2.</_></rects>
      <tilted>1</tilted></_>
    <_>
      <rects>
        <_>
          20 11 5 12 -1.</_>
        <_>
          16 15 5 4 3.</_></rects>
      <tilted>1</tilted></_>
    <_>
      <rects>
        <_>
          20 22 4 5 -1.</_>
        <_>
          21 23 2 5 2.</_></rects>
      <tilted>1</tilted></_>
    <_>
      <rects>
        <_>
          20 29 1 3 -1.</_>
        <_>
          20 30 1 1 3.</_></rects>
      <tilted>0</tilted></_>
    <_>
      <rects>
        <_>
          21 1 4 2 -1.</_>
        <_>
          21 1 4 1 2.</_></rects>
      <tilted>1</tilted></_>
    <_>
      <rects>
        <_>
          21 2 4 4 -1.</_>
        <_>
          20 3 4 2 2.</_></rects>
      <tilted>1</tilted></_>
    <_>
      <rects>
        <_>
          21 5 4 4 -1.</_>
        <_>
          22 5 2 4 2.</_></rects>
      <tilted>0</tilted></_>
    <_>
      <rects>
        <_>
          21 12 3 10 -1.</_>
        <_>
          22 12 1 10 3.</_></rects>
      <tilted>0</tilted></_>
    <_>
      <rects>
        <_>
          21 22 4 5 -1.</_>
        <_>
          22 23 2 5 2.</_></rects>
      <tilted>1</tilted></_>
    <_>
      <rects>
        <_>
          21 23 4 5 -1.</_>
        <_>
          22 24 2 5 2.</_></rects>
      <tilted>1</tilted></_>
    <_>
      <rects>
        <_>
          21 28 2 2 -1.</_>
        <_>
          21 28 1 1 2.</_>
        <_>
          22 29 1 1 2.</_></rects>
      <tilted>0</tilted></_>
    <_>
      <rects>
        <_>
          22 4 2 6 -1.</_>
        <_>
          22 4 1 3 2.</_>
        <_>
          23 7 1 3 2.</_></rects>
      <tilted>0</tilted></_>
    <_>
      <rects>
        <_>
          22 22 3 7 -1.</_>
        <_>
          23 23 1 7 3.</_></rects>
      <tilted>1</tilted></_>
    <_>
      <rects>
        <_>
          23 3 2 3 -1.</_>
        <_>
          22 4 2 1 3.</_></rects>
      <tilted>1</tilted></_>
    <_>
      <rects>
        <_>
          23 5 2 20 -1.</_>
        <_>
          24 5 1 20 2.</_></rects>
      <tilted>0</tilted></_>
    <_>
      <rects>
        <_>
          23 6 2 6 -1.</_>
        <_>
          23 6 1 3 2.</_>
        <_>
          24 9 1 3 2.</_></rects>
      <tilted>0</tilted></_>
    <_>
      <rects>
        <_>
          23 13 2 11 -1.</_>
        <_>
          24 13 1 11 2.</_></rects>
      <tilted>0</tilted></_>
    <_>
      <rects>
        <_>
          23 15 2 8 -1.</_>
        <_>
          23 15 1 4 2.</_>
        <_>
          24 19 1 4 2.</_></rects>
      <tilted>0</tilted></_>
    <_>
      <rects>
        <_>
          23 16 2 6 -1.</_>
        <_>
          23 16 1 3 2.</_>
        <_>
          24 19 1 3 2.</_></rects>
      <tilted>0</tilted></_>
    <_>
      <rects>
        <_>
          23 18 2 4 -1.</_>
        <_>
          23 18 1 2 2.</_>
        <_>
          24 20 1 2 2.</_></rects>
      <tilted>0</tilted></_></features></cascade>
</opencv_storage>
