<?xml version="1.0"?>
<opencv_storage>
<cascade>
  <stageType>BOOST</stageType>
  <featureType>HAAR</featureType>
  <height>32</height>
  <width>25</width>
  <stageParams>
    <boostType>GAB</boostType>
    <minHitRate>9.9900001287460327e-01</minHitRate>
    <maxFalseAlarm>5.0000000000000000e-01</maxFalseAlarm>
    <weightTrimRate>9.4999999999999996e-01</weightTrimRate>
    <maxDepth>2</maxDepth>
    <maxWeakCount>100</maxWeakCount></stageParams>
  <featureParams>
    <maxCatCount>0</maxCatCount>
    <featSize>1</featSize>
    <mode>ALL</mode></featureParams>
  <stageNum>14</stageNum>
  <stages>
    <!-- stage 0 -->
    <_>
      <maxWeakCount>3</maxWeakCount>
      <stageThreshold>-8.7649506330490112e-01</stageThreshold>
      <weakClassifiers>
        <_>
          <internalNodes>
            1 2 167 -5.7170465588569641e-02 0 -1 82
            4.8710564151406288e-03 -2 -3 11 2.6443328708410263e-02</internalNodes>
          <leafValues>
            -8.9473682641983032e-01 9.8702704906463623e-01
            -8.9333331584930420e-01 7.1428573131561279e-01</leafValues></_>
        <_>
          <internalNodes>
            1 2 23 1.3888768851757050e-01 0 -1 177
            -4.1446834802627563e-02 -2 -3 90 8.6201354861259460e-03</internalNodes>
          <leafValues>
            5.2369374036788940e-01 -8.4244728088378906e-01 -1.
            9.8301601409912109e-01</leafValues></_>
        <_>
          <internalNodes>
            1 2 117 -6.6456086933612823e-03 0 -1 100
            1.8206508830189705e-03 -2 -3 166 -2.7439013123512268e-02</internalNodes>
          <leafValues>
            -8.0512130260467529e-01 8.9818626642227173e-01
            2.5257611274719238e-01 -9.6617776155471802e-01</leafValues></_></weakClassifiers></_>
    <!-- stage 1 -->
    <_>
      <maxWeakCount>2</maxWeakCount>
      <stageThreshold>-9.0540635585784912e-01</stageThreshold>
      <weakClassifiers>
        <_>
          <internalNodes>
            1 2 148 -6.7858368158340454e-02 0 -1 155
            1.2890116311609745e-02 -2 -3 13 -1.5024751424789429e-02</internalNodes>
          <leafValues>
            9.3406593799591064e-01 -1. 5.6250000000000000e-01
            -8.3985763788223267e-01</leafValues></_>
        <_>
          <internalNodes>
            1 2 1 4.0669400244951248e-02 0 -1 91 6.1065498739480972e-02
            -2 -3 131 -9.9515207111835480e-02</internalNodes>
          <leafValues>
            -8.4499174356460571e-01 5.4058337211608887e-01
            9.6933943033218384e-01 -6.5548673272132874e-02</leafValues></_></weakClassifiers></_>
    <!-- stage 2 -->
    <_>
      <maxWeakCount>3</maxWeakCount>
      <stageThreshold>-1.2233312129974365e+00</stageThreshold>
      <weakClassifiers>
        <_>
          <internalNodes>
            1 2 24 2.0069088041782379e-01 0 -1 169
            1.0792708024382591e-02 -2 -3 107 5.0991952419281006e-02</internalNodes>
          <leafValues>
            -7.9180890321731567e-01 6.5217393636703491e-01
            -8.4905660152435303e-01 9.7698503732681274e-01</leafValues></_>
        <_>
          <internalNodes>
            1 2 163 -3.0005557462573051e-02 0 -1 70
            9.6970424056053162e-03 -2 -3 12 -7.5856998562812805e-02</internalNodes>
          <leafValues>
            -7.4957591295242310e-01 8.9343464374542236e-01
            6.0264062881469727e-01 -7.3769712448120117e-01</leafValues></_>
        <_>
          <internalNodes>
            1 2 29 3.1772828102111816e-01 0 -1 178
            -2.4878089316189289e-03 -2 -3 45 1.6811202513054013e-03</internalNodes>
          <leafValues>
            3.0617481470108032e-01 -7.3684942722320557e-01
            -9.6402263641357422e-01 9.2660981416702271e-01</leafValues></_></weakClassifiers></_>
    <!-- stage 3 -->
    <_>
      <maxWeakCount>4</maxWeakCount>
      <stageThreshold>-1.0817966461181641e+00</stageThreshold>
      <weakClassifiers>
        <_>
          <internalNodes>
            1 2 53 1.8543127179145813e-01 0 -1 103
            -6.7556267604231834e-03 -2 -3 4 2.5410258769989014e-01</internalNodes>
          <leafValues>
            2.8205129504203796e-01 -7.9476863145828247e-01
            -7.4193549156188965e-01 9.3057107925415039e-01</leafValues></_>
        <_>
          <internalNodes>
            1 2 119 1.1043919585063122e-05 0 -1 14
            -7.9078480601310730e-02 -2 -3 111 -8.8263121142517775e-05</internalNodes>
          <leafValues>
            8.7673532962799072e-01 -9.5474749803543091e-01
            6.8345910310745239e-01 -5.4329448938369751e-01</leafValues></_>
        <_>
          <internalNodes>
            1 2 154 -5.6880019605159760e-02 0 -1 115
            -5.0435075536370277e-04 -2 -3 8 -1.2072534300386906e-02</internalNodes>
          <leafValues>
            8.4175509214401245e-01 -3.7989231944084167e-01
            3.7213674187660217e-01 -7.7103477716445923e-01</leafValues></_>
        <_>
          <internalNodes>
            1 2 129 -6.2951177358627319e-02 0 -1 146
            -8.2917358668055385e-05 -2 -3 164 1.2347806245088577e-02</internalNodes>
          <leafValues>
            8.1149941682815552e-01 -4.2901703715324402e-01
            -7.8123712539672852e-01 4.0479543805122375e-01</leafValues></_></weakClassifiers></_>
    <!-- stage 4 -->
    <_>
      <maxWeakCount>4</maxWeakCount>
      <stageThreshold>-1.2235510349273682e+00</stageThreshold>
      <weakClassifiers>
        <_>
          <internalNodes>
            1 2 7 2.4857400357723236e-01 0 -1 64 -6.5307337790727615e-03
            -2 -3 97 5.7969190180301666e-02</internalNodes>
          <leafValues>
            3.2450330257415771e-01 -7.8475338220596313e-01
            8.1700754165649414e-01 -7.8378379344940186e-01</leafValues></_>
        <_>
          <internalNodes>
            1 2 93 1.7438393551856279e-03 0 -1 104
            -4.0967181324958801e-02 -2 -3 81 -3.5669162869453430e-02</internalNodes>
          <leafValues>
            8.5014134645462036e-01 -7.9787361621856689e-01
            -8.3208435773849487e-01 5.7270568609237671e-01</leafValues></_>
        <_>
          <internalNodes>
            1 2 157 -1.3400451280176640e-03 0 -1 60
            4.2549237608909607e-02 -2 -3 63 1.0541313327848911e-02</internalNodes>
          <leafValues>
            6.1506515741348267e-01 -8.8085299730300903e-01
            -6.8694216012954712e-01 6.8278628587722778e-01</leafValues></_>
        <_>
          <internalNodes>
            1 2 151 2.2074994631111622e-03 0 -1 5 5.3776133805513382e-02
            -2 -3 78 -2.8044044971466064e-02</internalNodes>
          <leafValues>
            -7.3767918348312378e-01 9.1578423976898193e-01
            8.5535132884979248e-01 -2.5598913431167603e-01</leafValues></_></weakClassifiers></_>
    <!-- stage 5 -->
    <_>
      <maxWeakCount>4</maxWeakCount>
      <stageThreshold>-1.3458169698715210e+00</stageThreshold>
      <weakClassifiers>
        <_>
          <internalNodes>
            1 2 67 2.3308911919593811e-01 0 -1 92
            -2.5687772780656815e-02 -2 -3 83 -5.4882161319255829e-02</internalNodes>
          <leafValues>
            3.5616439580917358e-01 -6.9197398424148560e-01
            -8.6842107772827148e-01 7.9934567213058472e-01</leafValues></_>
        <_>
          <internalNodes>
            1 2 98 8.3857830613851547e-03 0 -1 85
            -5.0749266520142555e-03 -2 -3 110 5.5758664384484291e-03</internalNodes>
          <leafValues>
            5.1876306533813477e-01 -6.9204717874526978e-01
            6.9068419933319092e-01 -7.6096731424331665e-01</leafValues></_>
        <_>
          <internalNodes>
            1 2 3 2.2502045333385468e-01 0 -1 33 -4.6688634902238846e-02
            -2 -3 73 2.3176807910203934e-02</internalNodes>
          <leafValues>
            4.7829627990722656e-01 -5.7550466060638428e-01
            -8.6510300636291504e-01 7.0625311136245728e-01</leafValues></_>
        <_>
          <internalNodes>
            1 2 158 -5.2994834259152412e-03 0 -1 120
            -2.4888575077056885e-02 -2 -3 42 1.1892700567841530e-03</internalNodes>
          <leafValues>
            -6.7413693666458130e-01 6.1370879411697388e-01
            -6.6721910238265991e-01 7.5801873207092285e-01</leafValues></_></weakClassifiers></_>
    <!-- stage 6 -->
    <_>
      <maxWeakCount>5</maxWeakCount>
      <stageThreshold>-1.0746841430664062e+00</stageThreshold>
      <weakClassifiers>
        <_>
          <internalNodes>
            1 2 128 9.2739619314670563e-02 0 -1 65
            -3.2546274363994598e-02 -2 -3 133 -4.0871378034353256e-02</internalNodes>
          <leafValues>
            4.6000000834465027e-01 -6.9462364912033081e-01
            8.0487805604934692e-01 -8.9130437374114990e-01</leafValues></_>
        <_>
          <internalNodes>
            1 2 153 4.4458322227001190e-03 0 -1 86
            -9.8616164177656174e-04 -2 -3 31 7.6534361578524113e-03</internalNodes>
          <leafValues>
            6.1042970418930054e-01 -1.9480344653129578e-01
            -9.0345919132232666e-01 8.9902931451797485e-01</leafValues></_>
        <_>
          <internalNodes>
            1 2 51 -5.5311527103185654e-03 0 -1 173
            2.2838059812784195e-03 -2 -3 189 3.9110179059207439e-03</internalNodes>
          <leafValues>
            -8.4708601236343384e-01 5.9479659795761108e-01
            -6.9769543409347534e-01 6.1218643188476562e-01</leafValues></_>
        <_>
          <internalNodes>
            1 2 112 -1.9563673995435238e-03 0 -1 136
            1.4432552270591259e-03 -2 -3 76 6.4690764993429184e-03</internalNodes>
          <leafValues>
            4.4591975212097168e-01 -9.8460376262664795e-01
            -7.9067242145538330e-01 3.6231920123100281e-01</leafValues></_>
        <_>
          <internalNodes>
            1 2 44 1.0427106171846390e-02 0 -1 16 1.8471567891538143e-03
            -2 -3 124 -3.3038351684808731e-03</internalNodes>
          <leafValues>
            -6.7934983968734741e-01 6.5292555093765259e-01
            4.9787765741348267e-01 -8.4496241807937622e-01</leafValues></_></weakClassifiers></_>
    <!-- stage 7 -->
    <_>
      <maxWeakCount>4</maxWeakCount>
      <stageThreshold>-1.0261646509170532e+00</stageThreshold>
      <weakClassifiers>
        <_>
          <internalNodes>
            1 2 36 1.0822225362062454e-01 0 -1 62
            -3.7441451568156481e-03 -2 -3 56 1.2218992225825787e-02</internalNodes>
          <leafValues>
            1.7499999701976776e-01 -6.2561577558517456e-01
            -7.7499997615814209e-01 7.7116703987121582e-01</leafValues></_>
        <_>
          <internalNodes>
            1 2 80 -3.2894216477870941e-02 0 -1 143
            8.6927364463917911e-05 -2 -3 149 2.8235535137355328e-03</internalNodes>
          <leafValues>
            -5.8775794506072998e-01 6.5502285957336426e-01
            -6.9844663143157959e-01 1.9594050943851471e-01</leafValues></_>
        <_>
          <internalNodes>
            1 2 181 -5.5800452828407288e-03 0 -1 139
            6.8267043679952621e-03 -2 -3 180 3.8774367421865463e-03</internalNodes>
          <leafValues>
            -8.9636677503585815e-01 9.1970771551132202e-01
            -4.9041342735290527e-01 4.4290250539779663e-01</leafValues></_>
        <_>
          <internalNodes>
            1 2 71 -3.4934803843498230e-02 0 -1 68
            -5.8773800730705261e-02 -2 -3 134 -3.1344182789325714e-03</internalNodes>
          <leafValues>
            4.6290585398674011e-01 -9.7988700866699219e-01
            4.1373705863952637e-01 -4.7242566943168640e-01</leafValues></_></weakClassifiers></_>
    <!-- stage 8 -->
    <_>
      <maxWeakCount>5</maxWeakCount>
      <stageThreshold>-8.3283370733261108e-01</stageThreshold>
      <weakClassifiers>
        <_>
          <internalNodes>
            1 2 6 2.0542824268341064e-01 0 -1 30 -1.1756531894207001e-01
            -2 -3 84 7.5594661757349968e-03</internalNodes>
          <leafValues>
            6.6101694107055664e-01 -5.8313816785812378e-01
            -8.3720928430557251e-01 6.6342413425445557e-01</leafValues></_>
        <_>
          <internalNodes>
            1 2 87 9.5788799226284027e-03 0 -1 21
            -5.7030851021409035e-03 -2 -3 47 -1.4598412439227104e-02</internalNodes>
          <leafValues>
            4.4892016053199768e-01 -5.7045662403106689e-01
            6.7216801643371582e-01 -5.1416522264480591e-01</leafValues></_>
        <_>
          <internalNodes>
            1 2 39 -4.0893688797950745e-02 0 -1 123
            -9.3930102884769440e-03 -2 -3 72 3.0601870268583298e-02</internalNodes>
          <leafValues>
            9.6838414669036865e-01 -1. -4.9177184700965881e-01
            6.1589014530181885e-01</leafValues></_>
        <_>
          <internalNodes>
            1 2 171 -2.1579753607511520e-02 0 -1 186
            -1.5417294576764107e-02 -2 -3 17 -2.7193303685635328e-03</internalNodes>
          <leafValues>
            -8.0099803209304810e-01 6.8535274267196655e-01
            4.7243592143058777e-01 -5.3259426355361938e-01</leafValues></_>
        <_>
          <internalNodes>
            1 2 122 4.2051607742905617e-03 0 -1 162
            -3.3178729936480522e-03 -2 -3 127 1.1461103335022926e-02</internalNodes>
          <leafValues>
            3.8994541764259338e-01 -6.5000092983245850e-01
            6.2390565872192383e-01 -9.4002211093902588e-01</leafValues></_></weakClassifiers></_>
    <!-- stage 9 -->
    <_>
      <maxWeakCount>6</maxWeakCount>
      <stageThreshold>-1.3634420633316040e+00</stageThreshold>
      <weakClassifiers>
        <_>
          <internalNodes>
            1 2 69 1.3010513782501221e-01 0 -1 48
            -4.1828760877251625e-03 -2 -3 109 1.8205877393484116e-02</internalNodes>
          <leafValues>
            1.6129031777381897e-02 -7.5945019721984863e-01
            7.2949945926666260e-01 -5.5737704038619995e-01</leafValues></_>
        <_>
          <internalNodes>
            1 2 138 -1.2898632884025574e-01 0 -1 26
            8.1889294087886810e-03 -2 -3 18 -2.3960522376000881e-03</internalNodes>
          <leafValues>
            -6.3459914922714233e-01 6.6173493862152100e-01
            6.4768284559249878e-01 -5.2564603090286255e-01</leafValues></_>
        <_>
          <internalNodes>
            1 2 170 -1.2696808204054832e-02 0 -1 145
            1.8069469369947910e-03 -2 -3 172 -7.0402031997218728e-04</internalNodes>
          <leafValues>
            7.5910758972167969e-01 -4.8218259215354919e-01
            5.7736599445343018e-01 -4.8233801126480103e-01</leafValues></_>
        <_>
          <internalNodes>
            1 2 77 -1.7754550208337605e-04 0 -1 126
            -1.2199010699987411e-02 -2 -3 135 -3.1642145477235317e-03</internalNodes>
          <leafValues>
            -6.5885668992996216e-01 4.9024003744125366e-01
            5.4079324007034302e-02 -8.2287794351577759e-01</leafValues></_>
        <_>
          <internalNodes>
            1 2 75 1.0528060374781489e-04 0 -1 58 3.3863168209791183e-02
            -2 -3 130 -9.6550900489091873e-03</internalNodes>
          <leafValues>
            -8.1584709882736206e-01 6.0502803325653076e-01
            -7.8979802131652832e-01 3.6203846335411072e-01</leafValues></_>
        <_>
          <internalNodes>
            1 2 28 -1.7627314664423466e-03 0 -1 52
            -1.7710532993078232e-02 -2 -3 55 -1.0721832513809204e-03</internalNodes>
          <leafValues>
            5.1223969459533691e-01 -6.3716900348663330e-01
            7.5339061021804810e-01 -6.7918616533279419e-01</leafValues></_></weakClassifiers></_>
    <!-- stage 10 -->
    <_>
      <maxWeakCount>5</maxWeakCount>
      <stageThreshold>-8.8088506460189819e-01</stageThreshold>
      <weakClassifiers>
        <_>
          <internalNodes>
            1 2 37 3.6281518638134003e-02 0 -1 19
            -2.1081648766994476e-02 -2 -3 114 1.3762938324362040e-03</internalNodes>
          <leafValues>
            4.4444444775581360e-01 -5.7512950897216797e-01
            -9.2592589557170868e-02 7.6499998569488525e-01</leafValues></_>
        <_>
          <internalNodes>
            1 2 187 -6.6414019092917442e-03 0 -1 66
            4.4372074306011200e-02 -2 -3 46 3.8893684744834900e-02</internalNodes>
          <leafValues>
            8.2803362607955933e-01 -7.6671785116195679e-01
            -3.4250709414482117e-01 5.1770770549774170e-01</leafValues></_>
        <_>
          <internalNodes>
            1 2 188 2.7130232192575932e-03 0 -1 25
            3.7403912283480167e-03 -2 -3 137 -4.9759540706872940e-02</internalNodes>
          <leafValues>
            -5.3590303659439087e-01 2.5114411115646362e-01
            -9.4255381822586060e-01 6.0950350761413574e-01</leafValues></_>
        <_>
          <internalNodes>
            1 2 95 8.1220467109233141e-04 0 -1 99
            -1.8899002671241760e-01 -2 -3 108 -2.7192428708076477e-02</internalNodes>
          <leafValues>
            7.9200220108032227e-01 -8.4927242994308472e-01
            -9.4907134771347046e-01 2.8264683485031128e-01</leafValues></_>
        <_>
          <internalNodes>
            1 2 116 -2.8608136344701052e-03 0 -1 168
            -7.4682815466076136e-04 -2 -3 176 -2.3137535899877548e-03</internalNodes>
          <leafValues>
            -8.5539877414703369e-01 5.9721893072128296e-01
            5.8249717950820923e-01 -4.6752789616584778e-01</leafValues></_></weakClassifiers></_>
    <!-- stage 11 -->
    <_>
      <maxWeakCount>5</maxWeakCount>
      <stageThreshold>-8.6372441053390503e-01</stageThreshold>
      <weakClassifiers>
        <_>
          <internalNodes>
            1 2 147 -6.2698304653167725e-02 0 -1 84
            1.2592684477567673e-02 -2 -3 179 -1.6031293198466301e-03</internalNodes>
          <leafValues>
            -7.1171170473098755e-01 6.6064256429672241e-01
            5.9360731393098831e-02 -7.0072990655899048e-01</leafValues></_>
        <_>
          <internalNodes>
            1 2 38 -4.7062199562788010e-02 0 -1 88
            7.3812472692225128e-05 -2 -3 22 2.5447836518287659e-01</internalNodes>
          <leafValues>
            -4.5436006784439087e-01 9.4392091035842896e-01
            -3.4850549697875977e-01 5.9279471635818481e-01</leafValues></_>
        <_>
          <internalNodes>
            1 2 160 -3.3211961388587952e-02 0 -1 105
            2.7812642976641655e-02 -2 -3 15 4.2578782886266708e-03</internalNodes>
          <leafValues>
            5.6252002716064453e-01 -7.3918491601943970e-01
            -5.0303035974502563e-01 7.2045326232910156e-01</leafValues></_>
        <_>
          <internalNodes>
            1 2 2 -5.6799408048391342e-03 0 -1 106
            -7.0467423647642136e-03 -2 -3 50 1.4737375313416123e-03</internalNodes>
          <leafValues>
            -8.4386670589447021e-01 6.6060882806777954e-01
            -4.2061555385589600e-01 8.3527541160583496e-01</leafValues></_>
        <_>
          <internalNodes>
            1 2 125 -1.2813778594136238e-03 0 -1 0
            7.3290534317493439e-02 -2 -3 34 -3.2725919038057327e-02</internalNodes>
          <leafValues>
            -9.1874575614929199e-01 1. -9.0429258346557617e-01
            3.4906631708145142e-01</leafValues></_></weakClassifiers></_>
    <!-- stage 12 -->
    <_>
      <maxWeakCount>7</maxWeakCount>
      <stageThreshold>-8.1376487016677856e-01</stageThreshold>
      <weakClassifiers>
        <_>
          <internalNodes>
            1 2 118 9.5683529973030090e-02 0 -1 89
            1.1437736451625824e-01 -2 -3 159 1.3026092201471329e-02</internalNodes>
          <leafValues>
            -3.6316695809364319e-01 6.8695652484893799e-01
            -5.6756758689880371e-01 7.5031524896621704e-01</leafValues></_>
        <_>
          <internalNodes>
            1 2 190 -3.3708680421113968e-03 0 -1 59
            -5.9574700891971588e-02 -2 -3 41 6.1352085322141647e-03</internalNodes>
          <leafValues>
            -7.0128995180130005e-01 5.7803684473037720e-01
            -5.3868836164474487e-01 4.7528374195098877e-01</leafValues></_>
        <_>
          <internalNodes>
            1 2 113 4.9532144330441952e-03 0 -1 156
            -6.5404945053160191e-04 -2 -3 96 7.2599353734403849e-04</internalNodes>
          <leafValues>
            7.7512405812740326e-02 -7.9456621408462524e-01
            -9.8755687475204468e-01 6.1994385719299316e-01</leafValues></_>
        <_>
          <internalNodes>
            1 2 32 1.4141508936882019e-01 0 -1 54 1.2355733662843704e-01
            -2 -3 144 3.9425995200872421e-03</internalNodes>
          <leafValues>
            -2.7079808712005615e-01 4.6960261464118958e-01
            -9.8488783836364746e-01 1.</leafValues></_>
        <_>
          <internalNodes>
            1 2 10 -1.7605606699362397e-03 0 -1 121
            -6.8585580447688699e-04 -2 -3 9 -9.7388908034190536e-04</internalNodes>
          <leafValues>
            -7.3969697952270508e-01 7.3655062913894653e-01
            4.2682749032974243e-01 -4.7168773412704468e-01</leafValues></_>
        <_>
          <internalNodes>
            1 2 141 1.4841512776911259e-02 0 -1 57
            5.9827089309692383e-02 -2 -3 43 5.5514570325613022e-02</internalNodes>
          <leafValues>
            2.7598455548286438e-01 -9.3675231933593750e-01
            -9.5520853996276855e-01 6.0758692026138306e-01</leafValues></_>
        <_>
          <internalNodes>
            1 2 79 1.0986414551734924e-01 0 -1 20 5.6225463747978210e-02
            -2 -3 150 1.0161949694156647e-01</internalNodes>
          <leafValues>
            -4.3524527549743652e-01 3.4281799197196960e-01
            9.3481475114822388e-01 -1.</leafValues></_></weakClassifiers></_>
    <!-- stage 13 -->
    <_>
      <maxWeakCount>7</maxWeakCount>
      <stageThreshold>-1.2525534629821777e+00</stageThreshold>
      <weakClassifiers>
        <_>
          <internalNodes>
            1 2 74 2.4333184119313955e-03 0 -1 140
            -1.2818999588489532e-02 -2 -3 161 1.3177057728171349e-02</internalNodes>
          <leafValues>
            8.3333331346511841e-01 -5.9411764144897461e-01
            -5.3374230861663818e-01 6.1620056629180908e-01</leafValues></_>
        <_>
          <internalNodes>
            1 2 35 5.6348793441429734e-04 0 -1 152
            -3.4930191934108734e-02 -2 -3 94 5.1918625831604004e-03</internalNodes>
          <leafValues>
            3.6165091395378113e-01 -4.0921676158905029e-01
            7.1496987342834473e-01 -9.5566493272781372e-01</leafValues></_>
        <_>
          <internalNodes>
            1 2 27 -2.5514522567391396e-03 0 -1 142
            2.8057568706572056e-03 -2 -3 185 -2.2475644946098328e-03</internalNodes>
          <leafValues>
            8.4424680471420288e-01 -7.5548398494720459e-01
            2.3686845600605011e-01 -4.5779472589492798e-01</leafValues></_>
        <_>
          <internalNodes>
            1 2 175 6.4429100602865219e-03 0 -1 165
            1.4639707515016198e-03 -2 -3 102 -6.7114131525158882e-03</internalNodes>
          <leafValues>
            -4.8953059315681458e-01 3.6316266655921936e-01
            -7.3570221662521362e-01 8.0277973413467407e-01</leafValues></_>
        <_>
          <internalNodes>
            1 2 61 1.0685142129659653e-02 0 -1 40
            -3.0868470668792725e-02 -2 -3 101 -7.7345985919237137e-03</internalNodes>
          <leafValues>
            -8.5749638080596924e-01 3.5938075184822083e-01
            7.3155820369720459e-01 -8.3016997575759888e-01</leafValues></_>
        <_>
          <internalNodes>
            1 2 184 -1.6948400298133492e-04 0 -1 183
            -2.1798093803226948e-03 -2 -3 182 1.5948602231219411e-04</internalNodes>
          <leafValues>
            6.1230468750000000e-01 -6.8814140558242798e-01
            4.4311797618865967e-01 -3.6301726102828979e-01</leafValues></_>
        <_>
          <internalNodes>
            1 2 174 -8.2409486640244722e-04 0 -1 132
            -2.5132734328508377e-02 -2 -3 49 -4.0046948939561844e-02</internalNodes>
          <leafValues>
            -7.9592347145080566e-01 4.9906936287879944e-01
            7.6622331142425537e-01 -5.0857543945312500e-01</leafValues></_></weakClassifiers></_></stages>
  <features>
    <_>
      <rects>
        <_>
          0 2 8 16 -1.</_>
        <_>
          0 2 4 8 2.</_>
        <_>
          4 10 4 8 2.</_></rects>
      <tilted>0</tilted></_>
    <_>
      <rects>
        <_>
          0 2 14 10 -1.</_>
        <_>
          0 2 7 5 2.</_>
        <_>
          7 7 7 5 2.</_></rects>
      <tilted>0</tilted></_>
    <_>
      <rects>
        <_>
          0 4 2 19 -1.</_>
        <_>
          1 4 1 19 2.</_></rects>
      <tilted>0</tilted></_>
    <_>
      <rects>
        <_>
          0 5 24 16 -1.</_>
        <_>
          6 5 12 16 2.</_></rects>
      <tilted>0</tilted></_>
    <_>
      <rects>
        <_>
          0 5 24 21 -1.</_>
        <_>
          8 5 8 21 3.</_></rects>
      <tilted>0</tilted></_>
    <_>
      <rects>
        <_>
          0 6 6 18 -1.</_>
        <_>
          0 6 3 9 2.</_>
        <_>
          3 15 3 9 2.</_></rects>
      <tilted>0</tilted></_>
    <_>
      <rects>
        <_>
          0 6 24 16 -1.</_>
        <_>
          6 6 12 16 2.</_></rects>
      <tilted>0</tilted></_>
    <_>
      <rects>
        <_>
          0 6 24 21 -1.</_>
        <_>
          6 6 12 21 2.</_></rects>
      <tilted>0</tilted></_>
    <_>
      <rects>
        <_>
          0 7 4 12 -1.</_>
        <_>
          0 7 2 6 2.</_>
        <_>
          2 13 2 6 2.</_></rects>
      <tilted>0</tilted></_>
    <_>
      <rects>
        <_>
          0 12 3 1 -1.</_>
        <_>
          1 12 1 1 3.</_></rects>
      <tilted>0</tilted></_>
    <_>
      <rects>
        <_>
          0 12 2 6 -1.</_>
        <_>
          0 12 1 3 2.</_>
        <_>
          1 15 1 3 2.</_></rects>
      <tilted>0</tilted></_>
    <_>
      <rects>
        <_>
          0 13 4 18 -1.</_>
        <_>
          0 13 2 9 2.</_>
        <_>
          2 22 2 9 2.</_></rects>
      <tilted>0</tilted></_>
    <_>
      <rects>
        <_>
          0 13 24 12 -1.</_>
        <_>
          6 13 12 12 2.</_></rects>
      <tilted>0</tilted></_>
    <_>
      <rects>
        <_>
          0 14 6 5 -1.</_>
        <_>
          2 14 2 5 3.</_></rects>
      <tilted>0</tilted></_>
    <_>
      <rects>
        <_>
          0 15 8 16 -1.</_>
        <_>
          0 15 4 8 2.</_>
        <_>
          4 23 4 8 2.</_></rects>
      <tilted>0</tilted></_>
    <_>
      <rects>
        <_>
          0 16 2 6 -1.</_>
        <_>
          0 16 1 3 2.</_>
        <_>
          1 19 1 3 2.</_></rects>
      <tilted>0</tilted></_>
    <_>
      <rects>
        <_>
          0 19 3 1 -1.</_>
        <_>
          1 19 1 1 3.</_></rects>
      <tilted>0</tilted></_>
    <_>
      <rects>
        <_>
          0 19 2 6 -1.</_>
        <_>
          0 19 1 3 2.</_>
        <_>
          1 22 1 3 2.</_></rects>
      <tilted>0</tilted></_>
    <_>
      <rects>
        <_>
          0 20 2 4 -1.</_>
        <_>
          0 20 1 2 2.</_>
        <_>
          1 22 1 2 2.</_></rects>
      <tilted>0</tilted></_>
    <_>
      <rects>
        <_>
          0 29 20 2 -1.</_>
        <_>
          5 29 10 2 2.</_></rects>
      <tilted>0</tilted></_>
    <_>
      <rects>
        <_>
          1 2 8 16 -1.</_>
        <_>
          1 2 4 8 2.</_>
        <_>
          5 10 4 8 2.</_></rects>
      <tilted>0</tilted></_>
    <_>
      <rects>
        <_>
          1 4 4 3 -1.</_>
        <_>
          3 4 2 3 2.</_></rects>
      <tilted>0</tilted></_>
    <_>
      <rects>
        <_>
          1 5 15 15 -1.</_>
        <_>
          6 10 5 5 9.</_></rects>
      <tilted>0</tilted></_>
    <_>
      <rects>
        <_>
          1 7 24 14 -1.</_>
        <_>
          7 7 12 14 2.</_></rects>
      <tilted>0</tilted></_>
    <_>
      <rects>
        <_>
          1 7 24 15 -1.</_>
        <_>
          7 7 12 15 2.</_></rects>
      <tilted>0</tilted></_>
    <_>
      <rects>
        <_>
          1 13 8 3 -1.</_>
        <_>
          3 13 4 3 2.</_></rects>
      <tilted>0</tilted></_>
    <_>
      <rects>
        <_>
          1 15 16 5 -1.</_>
        <_>
          5 15 8 5 2.</_></rects>
      <tilted>0</tilted></_>
    <_>
      <rects>
        <_>
          1 22 2 6 -1.</_>
        <_>
          1 22 1 3 2.</_>
        <_>
          2 25 1 3 2.</_></rects>
      <tilted>0</tilted></_>
    <_>
      <rects>
        <_>
          2 2 12 1 -1.</_>
        <_>
          8 2 6 1 2.</_></rects>
      <tilted>0</tilted></_>
    <_>
      <rects>
        <_>
          2 4 21 15 -1.</_>
        <_>
          9 9 7 5 9.</_></rects>
      <tilted>0</tilted></_>
    <_>
      <rects>
        <_>
          2 8 21 24 -1.</_>
        <_>
          9 8 7 24 3.</_></rects>
      <tilted>0</tilted></_>
    <_>
      <rects>
        <_>
          2 10 4 2 -1.</_>
        <_>
          4 10 2 2 2.</_></rects>
      <tilted>0</tilted></_>
    <_>
      <rects>
        <_>
          2 10 23 20 -1.</_>
        <_>
          2 15 23 10 2.</_></rects>
      <tilted>0</tilted></_>
    <_>
      <rects>
        <_>
          2 11 20 8 -1.</_>
        <_>
          2 11 10 4 2.</_>
        <_>
          12 15 10 4 2.</_></rects>
      <tilted>0</tilted></_>
    <_>
      <rects>
        <_>
          2 11 19 10 -1.</_>
        <_>
          2 16 19 5 2.</_></rects>
      <tilted>0</tilted></_>
    <_>
      <rects>
        <_>
          3 3 2 2 -1.</_>
        <_>
          3 3 1 1 2.</_>
        <_>
          4 4 1 1 2.</_></rects>
      <tilted>0</tilted></_>
    <_>
      <rects>
        <_>
          3 6 20 9 -1.</_>
        <_>
          8 6 10 9 2.</_></rects>
      <tilted>0</tilted></_>
    <_>
      <rects>
        <_>
          3 8 20 3 -1.</_>
        <_>
          8 8 10 3 2.</_></rects>
      <tilted>0</tilted></_>
    <_>
      <rects>
        <_>
          3 11 18 8 -1.</_>
        <_>
          3 11 9 4 2.</_>
        <_>
          12 15 9 4 2.</_></rects>
      <tilted>0</tilted></_>
    <_>
      <rects>
        <_>
          3 12 18 6 -1.</_>
        <_>
          3 12 9 3 2.</_>
        <_>
          12 15 9 3 2.</_></rects>
      <tilted>0</tilted></_>
    <_>
      <rects>
        <_>
          3 16 6 15 -1.</_>
        <_>
          3 21 6 5 3.</_></rects>
      <tilted>0</tilted></_>
    <_>
      <rects>
        <_>
          4 0 3 4 -1.</_>
        <_>
          5 1 1 4 3.</_></rects>
      <tilted>1</tilted></_>
    <_>
      <rects>
        <_>
          4 1 2 2 -1.</_>
        <_>
          4 1 1 1 2.</_>
        <_>
          5 2 1 1 2.</_></rects>
      <tilted>0</tilted></_>
    <_>
      <rects>
        <_>
          4 3 10 10 -1.</_>
        <_>
          4 3 5 5 2.</_>
        <_>
          9 8 5 5 2.</_></rects>
      <tilted>0</tilted></_>
    <_>
      <rects>
        <_>
          4 5 6 8 -1.</_>
        <_>
          7 5 3 8 2.</_></rects>
      <tilted>0</tilted></_>
    <_>
      <rects>
        <_>
          4 8 18 24 -1.</_>
        <_>
          4 16 18 8 3.</_></rects>
      <tilted>0</tilted></_>
    <_>
      <rects>
        <_>
          4 11 18 8 -1.</_>
        <_>
          4 11 9 4 2.</_>
        <_>
          13 15 9 4 2.</_></rects>
      <tilted>0</tilted></_>
    <_>
      <rects>
        <_>
          4 13 20 6 -1.</_>
        <_>
          14 13 10 6 2.</_></rects>
      <tilted>0</tilted></_>
    <_>
      <rects>
        <_>
          4 16 7 4 -1.</_>
        <_>
          3 17 7 2 2.</_></rects>
      <tilted>1</tilted></_>
    <_>
      <rects>
        <_>
          4 26 16 3 -1.</_>
        <_>
          12 26 8 3 2.</_></rects>
      <tilted>0</tilted></_>
    <_>
      <rects>
        <_>
          4 30 2 1 -1.</_>
        <_>
          5 30 1 1 2.</_></rects>
      <tilted>0</tilted></_>
    <_>
      <rects>
        <_>
          5 0 12 4 -1.</_>
        <_>
          5 2 12 2 2.</_></rects>
      <tilted>0</tilted></_>
    <_>
      <rects>
        <_>
          5 0 17 8 -1.</_>
        <_>
          5 2 17 4 2.</_></rects>
      <tilted>0</tilted></_>
    <_>
      <rects>
        <_>
          5 2 15 28 -1.</_>
        <_>
          5 9 15 14 2.</_></rects>
      <tilted>0</tilted></_>
    <_>
      <rects>
        <_>
          5 3 20 5 -1.</_>
        <_>
          10 8 10 5 2.</_></rects>
      <tilted>1</tilted></_>
    <_>
      <rects>
        <_>
          5 3 9 12 -1.</_>
        <_>
          5 9 9 6 2.</_></rects>
      <tilted>0</tilted></_>
    <_>
      <rects>
        <_>
          5 6 18 4 -1.</_>
        <_>
          5 8 18 2 2.</_></rects>
      <tilted>0</tilted></_>
    <_>
      <rects>
        <_>
          5 13 15 6 -1.</_>
        <_>
          10 15 5 2 9.</_></rects>
      <tilted>0</tilted></_>
    <_>
      <rects>
        <_>
          5 14 16 6 -1.</_>
        <_>
          5 14 8 3 2.</_>
        <_>
          13 17 8 3 2.</_></rects>
      <tilted>0</tilted></_>
    <_>
      <rects>
        <_>
          5 14 11 14 -1.</_>
        <_>
          5 21 11 7 2.</_></rects>
      <tilted>0</tilted></_>
    <_>
      <rects>
        <_>
          5 17 14 12 -1.</_>
        <_>
          5 20 14 6 2.</_></rects>
      <tilted>0</tilted></_>
    <_>
      <rects>
        <_>
          5 20 11 9 -1.</_>
        <_>
          5 23 11 3 3.</_></rects>
      <tilted>0</tilted></_>
    <_>
      <rects>
        <_>
          5 29 17 3 -1.</_>
        <_>
          5 30 17 1 3.</_></rects>
      <tilted>0</tilted></_>
    <_>
      <rects>
        <_>
          6 0 2 6 -1.</_>
        <_>
          6 0 1 6 2.</_></rects>
      <tilted>1</tilted></_>
    <_>
      <rects>
        <_>
          6 0 2 6 -1.</_>
        <_>
          6 3 2 3 2.</_></rects>
      <tilted>0</tilted></_>
    <_>
      <rects>
        <_>
          6 0 6 4 -1.</_>
        <_>
          8 2 2 4 3.</_></rects>
      <tilted>1</tilted></_>
    <_>
      <rects>
        <_>
          6 0 10 26 -1.</_>
        <_>
          6 0 5 13 2.</_>
        <_>
          11 13 5 13 2.</_></rects>
      <tilted>0</tilted></_>
    <_>
      <rects>
        <_>
          6 0 13 32 -1.</_>
        <_>
          6 8 13 16 2.</_></rects>
      <tilted>0</tilted></_>
    <_>
      <rects>
        <_>
          6 1 6 6 -1.</_>
        <_>
          8 3 2 6 3.</_></rects>
      <tilted>1</tilted></_>
    <_>
      <rects>
        <_>
          6 2 14 24 -1.</_>
        <_>
          6 8 14 12 2.</_></rects>
      <tilted>0</tilted></_>
    <_>
      <rects>
        <_>
          6 4 12 17 -1.</_>
        <_>
          9 4 6 17 2.</_></rects>
      <tilted>0</tilted></_>
    <_>
      <rects>
        <_>
          6 10 12 14 -1.</_>
        <_>
          6 17 12 7 2.</_></rects>
      <tilted>0</tilted></_>
    <_>
      <rects>
        <_>
          6 11 16 8 -1.</_>
        <_>
          6 11 8 4 2.</_>
        <_>
          14 15 8 4 2.</_></rects>
      <tilted>0</tilted></_>
    <_>
      <rects>
        <_>
          6 11 14 21 -1.</_>
        <_>
          6 18 14 7 3.</_></rects>
      <tilted>0</tilted></_>
    <_>
      <rects>
        <_>
          6 14 12 5 -1.</_>
        <_>
          9 14 6 5 2.</_></rects>
      <tilted>0</tilted></_>
    <_>
      <rects>
        <_>
          6 17 15 6 -1.</_>
        <_>
          6 19 15 2 3.</_></rects>
      <tilted>0</tilted></_>
    <_>
      <rects>
        <_>
          6 22 6 4 -1.</_>
        <_>
          5 23 6 2 2.</_></rects>
      <tilted>1</tilted></_>
    <_>
      <rects>
        <_>
          6 22 10 6 -1.</_>
        <_>
          6 24 10 2 3.</_></rects>
      <tilted>0</tilted></_>
    <_>
      <rects>
        <_>
          7 0 11 8 -1.</_>
        <_>
          7 2 11 4 2.</_></rects>
      <tilted>0</tilted></_>
    <_>
      <rects>
        <_>
          7 0 11 15 -1.</_>
        <_>
          7 5 11 5 3.</_></rects>
      <tilted>0</tilted></_>
    <_>
      <rects>
        <_>
          7 0 12 8 -1.</_>
        <_>
          7 2 12 4 2.</_></rects>
      <tilted>0</tilted></_>
    <_>
      <rects>
        <_>
          7 12 11 14 -1.</_>
        <_>
          7 19 11 7 2.</_></rects>
      <tilted>0</tilted></_>
    <_>
      <rects>
        <_>
          7 13 11 18 -1.</_>
        <_>
          7 19 11 6 3.</_></rects>
      <tilted>0</tilted></_>
    <_>
      <rects>
        <_>
          7 13 12 14 -1.</_>
        <_>
          7 20 12 7 2.</_></rects>
      <tilted>0</tilted></_>
    <_>
      <rects>
        <_>
          7 15 11 16 -1.</_>
        <_>
          7 19 11 8 2.</_></rects>
      <tilted>0</tilted></_>
    <_>
      <rects>
        <_>
          7 20 5 3 -1.</_>
        <_>
          6 21 5 1 3.</_></rects>
      <tilted>1</tilted></_>
    <_>
      <rects>
        <_>
          7 22 10 6 -1.</_>
        <_>
          7 24 10 2 3.</_></rects>
      <tilted>0</tilted></_>
    <_>
      <rects>
        <_>
          7 25 9 6 -1.</_>
        <_>
          10 27 3 2 9.</_></rects>
      <tilted>0</tilted></_>
    <_>
      <rects>
        <_>
          7 26 1 4 -1.</_>
        <_>
          7 27 1 2 2.</_></rects>
      <tilted>0</tilted></_>
    <_>
      <rects>
        <_>
          8 0 12 6 -1.</_>
        <_>
          12 4 4 6 3.</_></rects>
      <tilted>1</tilted></_>
    <_>
      <rects>
        <_>
          8 0 6 20 -1.</_>
        <_>
          8 10 6 10 2.</_></rects>
      <tilted>0</tilted></_>
    <_>
      <rects>
        <_>
          8 0 8 16 -1.</_>
        <_>
          8 4 8 8 2.</_></rects>
      <tilted>0</tilted></_>
    <_>
      <rects>
        <_>
          8 0 10 4 -1.</_>
        <_>
          8 2 10 2 2.</_></rects>
      <tilted>0</tilted></_>
    <_>
      <rects>
        <_>
          8 3 4 15 -1.</_>
        <_>
          10 3 2 15 2.</_></rects>
      <tilted>0</tilted></_>
    <_>
      <rects>
        <_>
          8 3 3 3 -1.</_>
        <_>
          7 4 3 1 3.</_></rects>
      <tilted>1</tilted></_>
    <_>
      <rects>
        <_>
          8 7 6 6 -1.</_>
        <_>
          8 9 6 2 3.</_></rects>
      <tilted>0</tilted></_>
    <_>
      <rects>
        <_>
          8 11 12 5 -1.</_>
        <_>
          11 11 6 5 2.</_></rects>
      <tilted>0</tilted></_>
    <_>
      <rects>
        <_>
          8 11 12 12 -1.</_>
        <_>
          12 15 4 4 9.</_></rects>
      <tilted>0</tilted></_>
    <_>
      <rects>
        <_>
          8 12 9 5 -1.</_>
        <_>
          11 12 3 5 3.</_></rects>
      <tilted>0</tilted></_>
    <_>
      <rects>
        <_>
          8 14 14 16 -1.</_>
        <_>
          15 14 7 16 2.</_></rects>
      <tilted>0</tilted></_>
    <_>
      <rects>
        <_>
          8 17 16 5 -1.</_>
        <_>
          12 17 8 5 2.</_></rects>
      <tilted>0</tilted></_>
    <_>
      <rects>
        <_>
          8 19 7 4 -1.</_>
        <_>
          8 21 7 2 2.</_></rects>
      <tilted>0</tilted></_>
    <_>
      <rects>
        <_>
          8 21 6 8 -1.</_>
        <_>
          8 23 6 4 2.</_></rects>
      <tilted>0</tilted></_>
    <_>
      <rects>
        <_>
          9 0 13 2 -1.</_>
        <_>
          9 1 13 1 2.</_></rects>
      <tilted>0</tilted></_>
    <_>
      <rects>
        <_>
          9 1 4 7 -1.</_>
        <_>
          9 1 2 7 2.</_></rects>
      <tilted>1</tilted></_>
    <_>
      <rects>
        <_>
          9 1 10 18 -1.</_>
        <_>
          9 1 5 9 2.</_>
        <_>
          14 10 5 9 2.</_></rects>
      <tilted>0</tilted></_>
    <_>
      <rects>
        <_>
          9 2 6 4 -1.</_>
        <_>
          12 2 3 4 2.</_></rects>
      <tilted>0</tilted></_>
    <_>
      <rects>
        <_>
          9 3 11 10 -1.</_>
        <_>
          9 8 11 5 2.</_></rects>
      <tilted>0</tilted></_>
    <_>
      <rects>
        <_>
          9 8 6 16 -1.</_>
        <_>
          9 12 6 8 2.</_></rects>
      <tilted>0</tilted></_>
    <_>
      <rects>
        <_>
          9 8 7 18 -1.</_>
        <_>
          9 14 7 6 3.</_></rects>
      <tilted>0</tilted></_>
    <_>
      <rects>
        <_>
          9 10 9 1 -1.</_>
        <_>
          12 10 3 1 3.</_></rects>
      <tilted>0</tilted></_>
    <_>
      <rects>
        <_>
          9 10 8 12 -1.</_>
        <_>
          9 13 8 6 2.</_></rects>
      <tilted>0</tilted></_>
    <_>
      <rects>
        <_>
          9 12 7 8 -1.</_>
        <_>
          9 14 7 4 2.</_></rects>
      <tilted>0</tilted></_>
    <_>
      <rects>
        <_>
          9 13 2 6 -1.</_>
        <_>
          7 15 2 2 3.</_></rects>
      <tilted>1</tilted></_>
    <_>
      <rects>
        <_>
          9 13 4 5 -1.</_>
        <_>
          11 13 2 5 2.</_></rects>
      <tilted>0</tilted></_>
    <_>
      <rects>
        <_>
          9 28 6 2 -1.</_>
        <_>
          9 29 6 1 2.</_></rects>
      <tilted>0</tilted></_>
    <_>
      <rects>
        <_>
          10 0 6 3 -1.</_>
        <_>
          10 1 6 1 3.</_></rects>
      <tilted>0</tilted></_>
    <_>
      <rects>
        <_>
          10 1 8 3 -1.</_>
        <_>
          10 1 4 3 2.</_></rects>
      <tilted>1</tilted></_>
    <_>
      <rects>
        <_>
          10 2 12 10 -1.</_>
        <_>
          13 5 6 10 2.</_></rects>
      <tilted>1</tilted></_>
    <_>
      <rects>
        <_>
          10 8 10 2 -1.</_>
        <_>
          10 9 10 1 2.</_></rects>
      <tilted>0</tilted></_>
    <_>
      <rects>
        <_>
          10 9 4 15 -1.</_>
        <_>
          10 14 4 5 3.</_></rects>
      <tilted>0</tilted></_>
    <_>
      <rects>
        <_>
          10 11 4 2 -1.</_>
        <_>
          11 11 2 2 2.</_></rects>
      <tilted>0</tilted></_>
    <_>
      <rects>
        <_>
          10 13 6 3 -1.</_>
        <_>
          12 14 2 1 9.</_></rects>
      <tilted>0</tilted></_>
    <_>
      <rects>
        <_>
          10 13 10 7 -1.</_>
        <_>
          15 13 5 7 2.</_></rects>
      <tilted>0</tilted></_>
    <_>
      <rects>
        <_>
          10 14 3 18 -1.</_>
        <_>
          10 23 3 9 2.</_></rects>
      <tilted>0</tilted></_>
    <_>
      <rects>
        <_>
          10 17 3 3 -1.</_>
        <_>
          10 18 3 1 3.</_></rects>
      <tilted>0</tilted></_>
    <_>
      <rects>
        <_>
          10 20 5 6 -1.</_>
        <_>
          10 23 5 3 2.</_></rects>
      <tilted>0</tilted></_>
    <_>
      <rects>
        <_>
          11 0 12 3 -1.</_>
        <_>
          11 0 6 3 2.</_></rects>
      <tilted>1</tilted></_>
    <_>
      <rects>
        <_>
          11 1 12 10 -1.</_>
        <_>
          15 5 4 10 3.</_></rects>
      <tilted>1</tilted></_>
    <_>
      <rects>
        <_>
          11 1 14 12 -1.</_>
        <_>
          11 1 7 6 2.</_>
        <_>
          18 7 7 6 2.</_></rects>
      <tilted>0</tilted></_>
    <_>
      <rects>
        <_>
          11 4 9 8 -1.</_>
        <_>
          14 4 3 8 3.</_></rects>
      <tilted>0</tilted></_>
    <_>
      <rects>
        <_>
          11 8 14 13 -1.</_>
        <_>
          18 8 7 13 2.</_></rects>
      <tilted>0</tilted></_>
    <_>
      <rects>
        <_>
          11 18 5 10 -1.</_>
        <_>
          11 23 5 5 2.</_></rects>
      <tilted>0</tilted></_>
    <_>
      <rects>
        <_>
          12 4 10 13 -1.</_>
        <_>
          17 4 5 13 2.</_></rects>
      <tilted>0</tilted></_>
    <_>
      <rects>
        <_>
          12 11 6 8 -1.</_>
        <_>
          15 11 3 8 2.</_></rects>
      <tilted>0</tilted></_>
    <_>
      <rects>
        <_>
          12 12 6 1 -1.</_>
        <_>
          14 14 2 1 3.</_></rects>
      <tilted>1</tilted></_>
    <_>
      <rects>
        <_>
          12 17 2 3 -1.</_>
        <_>
          12 18 2 1 3.</_></rects>
      <tilted>0</tilted></_>
    <_>
      <rects>
        <_>
          13 4 9 21 -1.</_>
        <_>
          16 11 3 7 9.</_></rects>
      <tilted>0</tilted></_>
    <_>
      <rects>
        <_>
          13 10 12 15 -1.</_>
        <_>
          19 10 6 15 2.</_></rects>
      <tilted>0</tilted></_>
    <_>
      <rects>
        <_>
          13 11 12 7 -1.</_>
        <_>
          16 14 6 7 2.</_></rects>
      <tilted>1</tilted></_>
    <_>
      <rects>
        <_>
          13 14 9 6 -1.</_>
        <_>
          13 17 9 3 2.</_></rects>
      <tilted>0</tilted></_>
    <_>
      <rects>
        <_>
          14 2 6 14 -1.</_>
        <_>
          16 2 2 14 3.</_></rects>
      <tilted>0</tilted></_>
    <_>
      <rects>
        <_>
          14 3 2 12 -1.</_>
        <_>
          14 3 1 6 2.</_>
        <_>
          15 9 1 6 2.</_></rects>
      <tilted>0</tilted></_>
    <_>
      <rects>
        <_>
          14 8 7 4 -1.</_>
        <_>
          14 10 7 2 2.</_></rects>
      <tilted>0</tilted></_>
    <_>
      <rects>
        <_>
          14 15 3 3 -1.</_>
        <_>
          15 15 1 3 3.</_></rects>
      <tilted>0</tilted></_>
    <_>
      <rects>
        <_>
          15 0 5 3 -1.</_>
        <_>
          14 1 5 1 3.</_></rects>
      <tilted>1</tilted></_>
    <_>
      <rects>
        <_>
          15 0 5 4 -1.</_>
        <_>
          15 2 5 2 2.</_></rects>
      <tilted>0</tilted></_>
    <_>
      <rects>
        <_>
          15 1 8 6 -1.</_>
        <_>
          15 1 8 3 2.</_></rects>
      <tilted>1</tilted></_>
    <_>
      <rects>
        <_>
          15 1 10 6 -1.</_>
        <_>
          15 1 10 3 2.</_></rects>
      <tilted>1</tilted></_>
    <_>
      <rects>
        <_>
          15 9 4 4 -1.</_>
        <_>
          16 10 2 4 2.</_></rects>
      <tilted>1</tilted></_>
    <_>
      <rects>
        <_>
          15 9 7 14 -1.</_>
        <_>
          15 9 7 7 2.</_></rects>
      <tilted>1</tilted></_>
    <_>
      <rects>
        <_>
          15 14 8 3 -1.</_>
        <_>
          17 14 4 3 2.</_></rects>
      <tilted>0</tilted></_>
    <_>
      <rects>
        <_>
          15 18 8 6 -1.</_>
        <_>
          19 18 4 6 2.</_></rects>
      <tilted>0</tilted></_>
    <_>
      <rects>
        <_>
          16 2 8 1 -1.</_>
        <_>
          16 2 4 1 2.</_></rects>
      <tilted>1</tilted></_>
    <_>
      <rects>
        <_>
          16 9 8 16 -1.</_>
        <_>
          20 9 4 16 2.</_></rects>
      <tilted>0</tilted></_>
    <_>
      <rects>
        <_>
          16 11 5 8 -1.</_>
        <_>
          16 11 5 4 2.</_></rects>
      <tilted>1</tilted></_>
    <_>
      <rects>
        <_>
          16 14 4 2 -1.</_>
        <_>
          16 14 2 2 2.</_></rects>
      <tilted>1</tilted></_>
    <_>
      <rects>
        <_>
          16 21 3 4 -1.</_>
        <_>
          16 23 3 2 2.</_></rects>
      <tilted>0</tilted></_>
    <_>
      <rects>
        <_>
          17 0 4 6 -1.</_>
        <_>
          17 3 4 3 2.</_></rects>
      <tilted>0</tilted></_>
    <_>
      <rects>
        <_>
          17 2 2 16 -1.</_>
        <_>
          17 10 2 8 2.</_></rects>
      <tilted>0</tilted></_>
    <_>
      <rects>
        <_>
          17 2 8 12 -1.</_>
        <_>
          17 2 4 6 2.</_>
        <_>
          21 8 4 6 2.</_></rects>
      <tilted>0</tilted></_>
    <_>
      <rects>
        <_>
          17 4 3 24 -1.</_>
        <_>
          17 10 3 12 2.</_></rects>
      <tilted>0</tilted></_>
    <_>
      <rects>
        <_>
          17 12 4 2 -1.</_>
        <_>
          17 12 2 2 2.</_></rects>
      <tilted>1</tilted></_>
    <_>
      <rects>
        <_>
          17 12 8 9 -1.</_>
        <_>
          21 12 4 9 2.</_></rects>
      <tilted>0</tilted></_>
    <_>
      <rects>
        <_>
          17 13 6 5 -1.</_>
        <_>
          19 13 2 5 3.</_></rects>
      <tilted>0</tilted></_>
    <_>
      <rects>
        <_>
          17 17 2 3 -1.</_>
        <_>
          16 18 2 1 3.</_></rects>
      <tilted>1</tilted></_>
    <_>
      <rects>
        <_>
          18 2 6 16 -1.</_>
        <_>
          18 2 3 8 2.</_>
        <_>
          21 10 3 8 2.</_></rects>
      <tilted>0</tilted></_>
    <_>
      <rects>
        <_>
          18 2 6 8 -1.</_>
        <_>
          18 2 6 4 2.</_></rects>
      <tilted>1</tilted></_>
    <_>
      <rects>
        <_>
          18 9 3 2 -1.</_>
        <_>
          18 10 3 1 2.</_></rects>
      <tilted>0</tilted></_>
    <_>
      <rects>
        <_>
          19 0 6 2 -1.</_>
        <_>
          19 0 6 1 2.</_></rects>
      <tilted>1</tilted></_>
    <_>
      <rects>
        <_>
          19 0 6 4 -1.</_>
        <_>
          18 1 6 2 2.</_></rects>
      <tilted>1</tilted></_>
    <_>
      <rects>
        <_>
          19 3 6 12 -1.</_>
        <_>
          19 3 3 6 2.</_>
        <_>
          22 9 3 6 2.</_></rects>
      <tilted>0</tilted></_>
    <_>
      <rects>
        <_>
          19 29 2 2 -1.</_>
        <_>
          19 29 1 1 2.</_>
        <_>
          20 30 1 1 2.</_></rects>
      <tilted>0</tilted></_>
    <_>
      <rects>
        <_>
          20 7 5 12 -1.</_>
        <_>
          17 10 5 6 2.</_></rects>
      <tilted>1</tilted></_>
    <_>
      <rects>
        <_>
          20 18 2 2 -1.</_>
        <_>
          21 18 1 2 2.</_></rects>
      <tilted>0</tilted></_>
    <_>
      <rects>
        <_>
          20 22 4 6 -1.</_>
        <_>
          21 23 2 6 2.</_></rects>
      <tilted>1</tilted></_>
    <_>
      <rects>
        <_>
          20 29 2 3 -1.</_>
        <_>
          20 30 2 1 3.</_></rects>
      <tilted>0</tilted></_>
    <_>
      <rects>
        <_>
          21 0 4 9 -1.</_>
        <_>
          18 3 4 3 3.</_></rects>
      <tilted>1</tilted></_>
    <_>
      <rects>
        <_>
          21 14 3 5 -1.</_>
        <_>
          22 14 1 5 3.</_></rects>
      <tilted>0</tilted></_>
    <_>
      <rects>
        <_>
          21 15 3 4 -1.</_>
        <_>
          22 15 1 4 3.</_></rects>
      <tilted>0</tilted></_>
    <_>
      <rects>
        <_>
          21 23 3 6 -1.</_>
        <_>
          22 24 1 6 3.</_></rects>
      <tilted>1</tilted></_>
    <_>
      <rects>
        <_>
          21 24 3 4 -1.</_>
        <_>
          22 25 1 4 3.</_></rects>
      <tilted>1</tilted></_>
    <_>
      <rects>
        <_>
          22 0 2 1 -1.</_>
        <_>
          23 0 1 1 2.</_></rects>
      <tilted>0</tilted></_>
    <_>
      <rects>
        <_>
          22 0 3 1 -1.</_>
        <_>
          23 0 1 1 3.</_></rects>
      <tilted>0</tilted></_>
    <_>
      <rects>
        <_>
          22 0 2 2 -1.</_>
        <_>
          23 0 1 2 2.</_></rects>
      <tilted>0</tilted></_>
    <_>
      <rects>
        <_>
          22 2 1 8 -1.</_>
        <_>
          22 6 1 4 2.</_></rects>
      <tilted>0</tilted></_>
    <_>
      <rects>
        <_>
          22 7 3 9 -1.</_>
        <_>
          22 10 3 3 3.</_></rects>
      <tilted>0</tilted></_>
    <_>
      <rects>
        <_>
          22 22 3 4 -1.</_>
        <_>
          23 23 1 4 3.</_></rects>
      <tilted>1</tilted></_>
    <_>
      <rects>
        <_>
          23 4 2 17 -1.</_>
        <_>
          24 4 1 17 2.</_></rects>
      <tilted>0</tilted></_>
    <_>
      <rects>
        <_>
          23 14 2 10 -1.</_>
        <_>
          23 14 1 5 2.</_>
        <_>
          24 19 1 5 2.</_></rects>
      <tilted>0</tilted></_>
    <_>
      <rects>
        <_>
          24 2 1 16 -1.</_>
        <_>
          24 10 1 8 2.</_></rects>
      <tilted>0</tilted></_></features></cascade>
</opencv_storage>
