<?xml version="1.0"?>
<opencv_storage>
<stage7>
  <maxWeakCount>4</maxWeakCount>
  <stageThreshold>-1.0261646509170532e+00</stageThreshold>
  <weakClassifiers>
    <_>
      <internalNodes>
        1 2 103946 1.0822225362062454e-01 0 -1 182107
        -3.7441451568156481e-03 -2 -3 164345 1.2218992225825787e-02</internalNodes>
      <leafValues>
        1.7499999701976776e-01 -6.2561577558517456e-01
        -7.7499997615814209e-01 7.7116703987121582e-01</leafValues></_>
    <_>
      <internalNodes>
        1 2 211557 -3.2894216477870941e-02 0 -1 390283
        8.6927364463917911e-05 -2 -3 409002 2.8235535137355328e-03</internalNodes>
      <leafValues>
        -5.8775794506072998e-01 6.5502285957336426e-01
        -6.9844663143157959e-01 1.9594050943851471e-01</leafValues></_>
    <_>
      <internalNodes>
        1 2 491584 -5.5800452828407288e-03 0 -1 372644
        6.8267043679952621e-03 -2 -3 491470 3.8774367421865463e-03</internalNodes>
      <leafValues>
        -8.9636677503585815e-01 9.1970771551132202e-01
        -4.9041342735290527e-01 4.4290250539779663e-01</leafValues></_>
    <_>
      <internalNodes>
        1 2 197930 -3.4934803843498230e-02 0 -1 184137
        -5.8773800730705261e-02 -2 -3 350729 -3.1344182789325714e-03</internalNodes>
      <leafValues>
        4.6290585398674011e-01 -9.7988700866699219e-01
        4.1373705863952637e-01 -4.7242566943168640e-01</leafValues></_></weakClassifiers></stage7>
</opencv_storage>
