<?xml version="1.0"?>
<opencv_storage>
<stage9>
  <maxWeakCount>10</maxWeakCount>
  <stageThreshold>-1.4762413501739502e+00</stageThreshold>
  <weakClassifiers>
    <_>
      <internalNodes>
        1 2 67757 4.4286155700683594e-01 0 -1 141137
        -3.4702349454164505e-02 -2 -3 199798 7.5909405946731567e-02</internalNodes>
      <leafValues>
        2.7104958891868591e-01 -5.4483926296234131e-01
        7.2334295511245728e-01 -8.1395345926284790e-01</leafValues></_>
    <_>
      <internalNodes>
        1 2 436645 -4.6134166419506073e-02 0 -1 124887
        -8.4040760993957520e-03 -2 -3 27192 2.3653465323150158e-03</internalNodes>
      <leafValues>
        6.8431407213211060e-01 -1.7465288937091827e-01
        -4.5375078916549683e-01 5.3267961740493774e-01</leafValues></_>
    <_>
      <internalNodes>
        1 2 209935 -1.8090216908603907e-03 0 -1 224451
        -1.0679399967193604e-01 -2 -3 201039 2.2090855985879898e-02</internalNodes>
      <leafValues>
        5.3177583217620850e-01 -3.4006837010383606e-01
        -5.5154126882553101e-01 3.0458256602287292e-01</leafValues></_>
    <_>
      <internalNodes>
        1 2 291058 -4.3012131936848164e-03 0 -1 325632
        1.0680957348085940e-04 -2 -3 200555 -1.1214574333280325e-03</internalNodes>
      <leafValues>
        -3.0254268646240234e-01 5.6287533044815063e-01
        4.6953402459621429e-02 -5.7201522588729858e-01</leafValues></_>
    <_>
      <internalNodes>
        1 2 16856 -1.5663836151361465e-02 0 -1 315215
        -3.9870508015155792e-02 -2 -3 19529 1.7914677038788795e-02</internalNodes>
      <leafValues>
        -8.8457047939300537e-01 4.8254558444023132e-01
        -4.7820833325386047e-01 2.4720722436904907e-01</leafValues></_>
    <_>
      <internalNodes>
        1 2 236113 -1.1051910696551204e-03 0 -1 261048
        -1.7869614064693451e-02 -2 -3 181829 -3.7150862626731396e-03</internalNodes>
      <leafValues>
        -6.7953312397003174e-01 4.5913347601890564e-01
        4.6324968338012695e-01 -4.0971979498863220e-01</leafValues></_>
    <_>
      <internalNodes>
        1 2 449172 1.1581197381019592e-02 0 -1 416478
        -9.8659172654151917e-03 -2 -3 485122 -1.4227267354726791e-02</internalNodes>
      <leafValues>
        -5.8507633209228516e-01 2.7928176522254944e-01
        1.8367902934551239e-01 -8.2334840297698975e-01</leafValues></_>
    <_>
      <internalNodes>
        1 2 483726 -9.1295735910534859e-04 0 -1 118779
        -1.8930714577436447e-02 -2 -3 153131 -1.0131995659321547e-03</internalNodes>
      <leafValues>
        -7.8116244077682495e-01 5.9716510772705078e-01
        5.5926942825317383e-01 -3.3081585168838501e-01</leafValues></_>
    <_>
      <internalNodes>
        1 2 362449 -2.4230137933045626e-03 0 -1 49102
        3.3155828714370728e-01 -2 -3 330773 -2.6367050595581532e-03</internalNodes>
      <leafValues>
        -9.1574847698211670e-01 3.0342575907707214e-01
        3.4319925308227539e-01 -2.6197180151939392e-01</leafValues></_>
    <_>
      <internalNodes>
        1 2 268006 2.0236496347934008e-03 0 -1 293211
        4.5187231153249741e-03 -2 -3 472804 -4.5751456171274185e-02</internalNodes>
      <leafValues>
        1.6184192895889282e-01 -8.4063202142715454e-01
        8.3830589056015015e-01 -8.2039767503738403e-01</leafValues></_></weakClassifiers></stage9>
</opencv_storage>
