<?xml version="1.0"?>
<opencv_storage>
<stage9>
  <maxWeakCount>13</maxWeakCount>
  <stageThreshold>-8.2997423410415649e-01</stageThreshold>
  <weakClassifiers>
    <_>
      <internalNodes>
        0 -1 306306 5.6780431419610977e-02</internalNodes>
      <leafValues>
        -1.6603295505046844e-01 6.5474724769592285e-01</leafValues></_>
    <_>
      <internalNodes>
        0 -1 1623566 -6.6638395190238953e-02</internalNodes>
      <leafValues>
        5.7929986715316772e-01 -2.1136517822742462e-01</leafValues></_>
    <_>
      <internalNodes>
        0 -1 2612040 -2.8967391699552536e-02</internalNodes>
      <leafValues>
        -9.2879951000213623e-01 1.4813414216041565e-01</leafValues></_>
    <_>
      <internalNodes>
        0 -1 3668756 -3.1157310586422682e-03</internalNodes>
      <leafValues>
        2.0127774775028229e-01 -5.1309800148010254e-01</leafValues></_>
    <_>
      <internalNodes>
        0 -1 3459578 -2.1953741088509560e-02</internalNodes>
      <leafValues>
        -8.5287225246429443e-01 1.0904346406459808e-01</leafValues></_>
    <_>
      <internalNodes>
        0 -1 410098 1.4457386918365955e-02</internalNodes>
      <leafValues>
        -1.9693465530872345e-01 5.7712560892105103e-01</leafValues></_>
    <_>
      <internalNodes>
        0 -1 1483917 1.4732831157743931e-02</internalNodes>
      <leafValues>
        -1.8285824358463287e-01 6.0602688789367676e-01</leafValues></_>
    <_>
      <internalNodes>
        0 -1 3643596 -6.8675354123115540e-04</internalNodes>
      <leafValues>
        -6.2461400032043457e-01 1.8056049942970276e-01</leafValues></_>
    <_>
      <internalNodes>
        0 -1 4666562 9.5521826297044754e-03</internalNodes>
      <leafValues>
        -2.1438026428222656e-01 5.5184197425842285e-01</leafValues></_>
    <_>
      <internalNodes>
        0 -1 4924271 -1.2327613076195121e-03</internalNodes>
      <leafValues>
        5.1846837997436523e-01 -2.2031547129154205e-01</leafValues></_>
    <_>
      <internalNodes>
        0 -1 4892097 9.8427734337747097e-04</internalNodes>
      <leafValues>
        -2.0170576870441437e-01 5.3727531433105469e-01</leafValues></_>
    <_>
      <internalNodes>
        0 -1 4414373 -3.9246365427970886e-02</internalNodes>
      <leafValues>
        4.4233688712120056e-01 -2.8956079483032227e-01</leafValues></_>
    <_>
      <internalNodes>
        0 -1 3848377 4.7945827245712280e-03</internalNodes>
      <leafValues>
        -5.0852847099304199e-01 2.5354212522506714e-01</leafValues></_></weakClassifiers></stage9>
</opencv_storage>
