<?xml version="1.0"?>
<opencv_storage>
<stage7>
  <maxWeakCount>12</maxWeakCount>
  <stageThreshold>-9.1806107759475708e-01</stageThreshold>
  <weakClassifiers>
    <_>
      <internalNodes>
        0 -1 88001 1.8993389606475830e-01</internalNodes>
      <leafValues>
        -3.0807247757911682e-01 5.9113794565200806e-01</leafValues></_>
    <_>
      <internalNodes>
        0 -1 41949 -1.1153784580528736e-02</internalNodes>
      <leafValues>
        5.5999958515167236e-01 -2.1193699538707733e-01</leafValues></_>
    <_>
      <internalNodes>
        0 -1 4266441 1.5157903544604778e-03</internalNodes>
      <leafValues>
        -4.7190508246421814e-01 2.7096447348594666e-01</leafValues></_>
    <_>
      <internalNodes>
        0 -1 3001072 7.8322691842913628e-04</internalNodes>
      <leafValues>
        -4.9504435062408447e-01 2.3806220293045044e-01</leafValues></_>
    <_>
      <internalNodes>
        0 -1 2194238 3.2053306698799133e-02</internalNodes>
      <leafValues>
        8.8401883840560913e-02 -9.4189757108688354e-01</leafValues></_>
    <_>
      <internalNodes>
        0 -1 2988661 2.2024255304131657e-04</internalNodes>
      <leafValues>
        1.2395920604467392e-01 -7.6507353782653809e-01</leafValues></_>
    <_>
      <internalNodes>
        0 -1 2752422 8.4573514759540558e-03</internalNodes>
      <leafValues>
        1.3867421448230743e-01 -7.5911104679107666e-01</leafValues></_>
    <_>
      <internalNodes>
        0 -1 2748003 6.8703331053256989e-03</internalNodes>
      <leafValues>
        -2.1107390522956848e-01 6.4624482393264771e-01</leafValues></_>
    <_>
      <internalNodes>
        0 -1 4423575 9.8859309218823910e-04</internalNodes>
      <leafValues>
        -3.8345205783843994e-01 3.4398481249809265e-01</leafValues></_>
    <_>
      <internalNodes>
        0 -1 4682451 -8.3576906472444534e-03</internalNodes>
      <leafValues>
        4.5436558127403259e-01 -2.5134372711181641e-01</leafValues></_>
    <_>
      <internalNodes>
        0 -1 4033375 -2.2603280376642942e-04</internalNodes>
      <leafValues>
        -6.4250761270523071e-01 1.8765720725059509e-01</leafValues></_>
    <_>
      <internalNodes>
        0 -1 3105920 -4.8927008174359798e-04</internalNodes>
      <leafValues>
        -7.1342343091964722e-01 1.3320547342300415e-01</leafValues></_></weakClassifiers></stage7>
</opencv_storage>
