<?xml version="1.0"?>
<opencv_storage>
<stage0>
  <maxWeakCount>5</maxWeakCount>
  <stageThreshold>-1.1496949195861816e+00</stageThreshold>
  <weakClassifiers>
    <_>
      <internalNodes>
        0 -1 285945 1.3495790958404541e-01</internalNodes>
      <leafValues>
        -6.3197588920593262e-01 8.7406617403030396e-01</leafValues></_>
    <_>
      <internalNodes>
        0 -1 4341207 1.1782820802181959e-03</internalNodes>
      <leafValues>
        -4.8921889066696167e-01 6.5626746416091919e-01</leafValues></_>
    <_>
      <internalNodes>
        0 -1 2524203 -5.7506427168846130e-02</internalNodes>
      <leafValues>
        7.6918041706085205e-01 -3.4272354841232300e-01</leafValues></_>
    <_>
      <internalNodes>
        0 -1 2560748 7.0415176451206207e-03</internalNodes>
      <leafValues>
        -5.3538072109222412e-01 4.4543263316154480e-01</leafValues></_>
    <_>
      <internalNodes>
        0 -1 2997438 -2.2099843772593886e-04</internalNodes>
      <leafValues>
        3.7155961990356445e-01 -6.5643793344497681e-01</leafValues></_></weakClassifiers></stage0>
</opencv_storage>
