<?xml version="1.0"?>
<opencv_storage>
<stage1>
  <maxWeakCount>7</maxWeakCount>
  <stageThreshold>-1.1951550245285034e+00</stageThreshold>
  <weakClassifiers>
    <_>
      <internalNodes>
        0 -1 3656956 -5.3441680967807770e-02</internalNodes>
      <leafValues>
        7.5530838966369629e-01 -5.6792145967483521e-01</leafValues></_>
    <_>
      <internalNodes>
        0 -1 3546474 5.8345589786767960e-03</internalNodes>
      <leafValues>
        -6.3963097333908081e-01 5.5126547813415527e-01</leafValues></_>
    <_>
      <internalNodes>
        0 -1 1468319 -2.9170744121074677e-02</internalNodes>
      <leafValues>
        6.6845291852951050e-01 -3.5744175314903259e-01</leafValues></_>
    <_>
      <internalNodes>
        0 -1 3243387 1.4623885508626699e-03</internalNodes>
      <leafValues>
        -4.0599694848060608e-01 5.7264763116836548e-01</leafValues></_>
    <_>
      <internalNodes>
        0 -1 119553 -9.9132312461733818e-03</internalNodes>
      <leafValues>
        7.3794722557067871e-01 -3.2657879590988159e-01</leafValues></_>
    <_>
      <internalNodes>
        0 -1 4639603 -1.0107837617397308e-02</internalNodes>
      <leafValues>
        6.3006860017776489e-01 -3.5730510950088501e-01</leafValues></_>
    <_>
      <internalNodes>
        0 -1 2347002 3.2674879767000675e-03</internalNodes>
      <leafValues>
        -5.0629836320877075e-01 3.8703483343124390e-01</leafValues></_></weakClassifiers></stage1>
</opencv_storage>
