<?xml version="1.0"?>
<opencv_storage>
<stage6>
  <maxWeakCount>7</maxWeakCount>
  <stageThreshold>-1.6005753278732300e+00</stageThreshold>
  <weakClassifiers>
    <_>
      <internalNodes>
        1 2 158140 1.7303772270679474e-01 0 -1 498284
        -3.5974108614027500e-03 -2 -3 256649 -5.1006015390157700e-02</internalNodes>
      <leafValues>
        1.8942731618881226e-01 -7.0291340351104736e-01
        -6.9948184490203857e-01 8.2511115074157715e-01</leafValues></_>
    <_>
      <internalNodes>
        1 2 105409 7.7305436134338379e-02 0 -1 16704
        -5.5575813166797161e-03 -2 -3 253667 2.0630732178688049e-03</internalNodes>
      <leafValues>
        5.3452301025390625e-01 -4.6726301312446594e-01
        -7.9382830858230591e-01 7.4308103322982788e-01</leafValues></_>
    <_>
      <internalNodes>
        1 2 468856 -1.7860528081655502e-02 0 -1 351656
        -3.8602864369750023e-03 -2 -3 499355 6.6845696419477463e-03</internalNodes>
      <leafValues>
        7.0915132761001587e-01 -2.0903526246547699e-01
        -3.5083049535751343e-01 5.5793589353561401e-01</leafValues></_>
    <_>
      <internalNodes>
        1 2 455090 -9.3916733749210835e-04 0 -1 48340
        5.7824389077723026e-03 -2 -3 329007 2.3956573568284512e-03</internalNodes>
      <leafValues>
        -8.3364105224609375e-01 1.3415010273456573e-01
        -3.0425572395324707e-01 4.2659372091293335e-01</leafValues></_>
    <_>
      <internalNodes>
        1 2 154987 -8.2567613571882248e-04 0 -1 269166
        -1.3895012438297272e-02 -2 -3 849 1.0129795223474503e-01</internalNodes>
      <leafValues>
        -9.2413800954818726e-01 6.1585336923599243e-01
        -4.1431969404220581e-01 4.0326991677284241e-01</leafValues></_>
    <_>
      <internalNodes>
        1 2 398591 1.2436836957931519e-02 0 -1 278135
        -1.2612722457561176e-05 -2 -3 353061 8.5892761126160622e-03</internalNodes>
      <leafValues>
        3.6484903097152710e-01 -3.4712159633636475e-01
        -9.3147718906402588e-01 7.7209222316741943e-01</leafValues></_>
    <_>
      <internalNodes>
        1 2 491319 -1.0329630225896835e-02 0 -1 86103
        -2.2463295608758926e-03 -2 -3 483062 4.8757577314972878e-03</internalNodes>
      <leafValues>
        -7.9005151987075806e-01 7.2047519683837891e-01
        -4.5480653643608093e-01 2.7415794134140015e-01</leafValues></_></weakClassifiers></stage6>
</opencv_storage>
