<?xml version="1.0"?>
<opencv_storage>
<stage0>
  <maxWeakCount>3</maxWeakCount>
  <stageThreshold>-1.3210864067077637e+00</stageThreshold>
  <weakClassifiers>
    <_>
      <internalNodes>
        1 2 294081 4.7148257493972778e-02 0 -1 471733
        -1.1890763416886330e-02 -2 -3 163673 1.8113601952791214e-02</internalNodes>
      <leafValues>
        1.2566371262073517e-01 -8.7240356206893921e-01
        -9.7122299671173096e-01 9.5999997854232788e-01</leafValues></_>
    <_>
      <internalNodes>
        1 2 44656 1.6445636749267578e-01 0 -1 211556
        -2.5943771004676819e-02 -2 -3 214881 2.6881519705057144e-02</internalNodes>
      <leafValues>
        4.9971258640289307e-01 -7.6726728677749634e-01
        -8.6431437730789185e-01 8.9962208271026611e-01</leafValues></_>
    <_>
      <internalNodes>
        1 2 299162 4.3860212899744511e-03 0 -1 475230
        -2.0766500383615494e-02 -2 -3 229017 -1.1657939292490482e-02</internalNodes>
      <leafValues>
        1.0386388003826141e-01 -9.4839543104171753e-01
        -8.5394048690795898e-01 6.5476876497268677e-01</leafValues></_></weakClassifiers></stage0>
</opencv_storage>
