<?xml version="1.0"?>
<opencv_storage>
<stage19>
  <maxWeakCount>13</maxWeakCount>
  <stageThreshold>-1.3593761920928955e+00</stageThreshold>
  <weakClassifiers>
    <_>
      <internalNodes>
        1 2 239839 1.8152949213981628e-01 0 -1 111112
        -3.8360949605703354e-02 -2 -3 370011 4.4691603630781174e-02</internalNodes>
      <leafValues>
        3.5412475466728210e-01 -3.6306306719779968e-01
        6.0407698154449463e-01 -5.7412397861480713e-01</leafValues></_>
    <_>
      <internalNodes>
        1 2 237731 -3.3213696442544460e-03 0 -1 463429
        -8.4888432174921036e-03 -2 -3 154987 -1.0903087677434087e-03</internalNodes>
      <leafValues>
        5.3012722730636597e-01 -2.0882897078990936e-01
        4.7260981798171997e-01 -3.1015729904174805e-01</leafValues></_>
    <_>
      <internalNodes>
        1 2 474069 7.6245851814746857e-03 0 -1 256065
        3.5620335256680846e-04 -2 -3 40066 1.7861017584800720e-01</internalNodes>
      <leafValues>
        -4.6729287505149841e-01 6.8535216152667999e-02
        -5.0489664077758789e-01 6.2969499826431274e-01</leafValues></_>
    <_>
      <internalNodes>
        1 2 203714 2.8481185436248779e-02 0 -1 460191
        -1.2607501819729805e-02 -2 -3 192260 -7.5878933072090149e-02</internalNodes>
      <leafValues>
        4.7255718708038330e-01 -1.0809957981109619e-01
        9.4400799274444580e-01 -8.6965721845626831e-01</leafValues></_>
    <_>
      <internalNodes>
        1 2 142430 2.6229884475469589e-02 0 -1 378082
        -1.4786610845476389e-03 -2 -3 355947 1.4194168150424957e-02</internalNodes>
      <leafValues>
        1.7686954140663147e-01 -5.1320308446884155e-01
        5.8706408739089966e-01 -7.1908980607986450e-01</leafValues></_>
    <_>
      <internalNodes>
        1 2 473268 2.1764510311186314e-03 0 -1 323711
        -8.1496190978214145e-04 -2 -3 126582 1.5901967883110046e-01</internalNodes>
      <leafValues>
        -5.3434002399444580e-01 1.9837965071201324e-01
        -8.3083319664001465e-01 8.5392737388610840e-01</leafValues></_>
    <_>
      <internalNodes>
        1 2 201873 -7.1692392230033875e-03 0 -1 784
        2.3640686646103859e-02 -2 -3 393912 -5.0795078277587891e-03</internalNodes>
      <leafValues>
        -5.9646159410476685e-01 8.0968588590621948e-01
        3.9299964904785156e-01 -1.8451933562755585e-01</leafValues></_>
    <_>
      <internalNodes>
        1 2 125793 2.7929758653044701e-03 0 -1 91087
        9.4837114214897156e-02 -2 -3 314549 1.3743692543357611e-03</internalNodes>
      <leafValues>
        -5.4718244075775146e-01 1.3179279863834381e-01
        3.4869697690010071e-01 -5.4106771945953369e-01</leafValues></_>
    <_>
      <internalNodes>
        1 2 27186 1.2895234394818544e-03 0 -1 429721
        -4.1696904227137566e-03 -2 -3 411431 4.1854372248053551e-03</internalNodes>
      <leafValues>
        3.3368071913719177e-01 -3.0889531970024109e-01
        6.1638963222503662e-01 -6.8794268369674683e-01</leafValues></_>
    <_>
      <internalNodes>
        1 2 487176 -2.2464327514171600e-02 0 -1 87204
        -1.1301571503281593e-03 -2 -3 499991 5.7222263421863317e-04</internalNodes>
      <leafValues>
        -2.7088597416877747e-01 7.5108951330184937e-01
        -2.7630737423896790e-01 3.4921967983245850e-01</leafValues></_>
    <_>
      <internalNodes>
        1 2 419446 6.4466306939721107e-03 0 -1 200190
        -1.8417011946439743e-02 -2 -3 258937 -8.4626115858554840e-03</internalNodes>
      <leafValues>
        2.4040167033672333e-01 -3.3084353804588318e-01
        5.2212774753570557e-01 -9.0537172555923462e-01</leafValues></_>
    <_>
      <internalNodes>
        1 2 497213 -1.3936980394646525e-04 0 -1 153215
        4.0225125849246979e-03 -2 -3 200691 2.8885331004858017e-02</internalNodes>
      <leafValues>
        -6.0488921403884888e-01 -3.9900261908769608e-02
        2.2704713046550751e-01 -6.2627381086349487e-01</leafValues></_>
    <_>
      <internalNodes>
        1 2 83868 5.8874972164630890e-03 0 -1 489969
        -1.6266708262264729e-03 -2 -3 330779 1.0871936380863190e-01</internalNodes>
      <leafValues>
        -6.7680585384368896e-01 1.5221488475799561e-01
        -8.7799161672592163e-01 1.8174198269844055e-01</leafValues></_></weakClassifiers></stage19>
</opencv_storage>
