<?xml version="1.0"?>
<opencv_storage>
<stage1>
  <maxWeakCount>4</maxWeakCount>
  <stageThreshold>-1.7172675132751465e+00</stageThreshold>
  <weakClassifiers>
    <_>
      <internalNodes>
        1 2 44647 1.5012159943580627e-01 0 -1 475229
        3.9059847593307495e-02 -2 -3 185311 8.6441218852996826e-02</internalNodes>
      <leafValues>
        -8.2839423418045044e-01 6.6153848171234131e-01
        -7.3333334922790527e-01 9.4770961999893188e-01</leafValues></_>
    <_>
      <internalNodes>
        1 2 402290 -6.1796665191650391e-02 0 -1 229017
        5.7031451724469662e-03 -2 -3 497957 -3.3102515153586864e-03</internalNodes>
      <leafValues>
        -7.7290213108062744e-01 8.9683467149734497e-01
        5.6976795196533203e-01 -6.3391315937042236e-01</leafValues></_>
    <_>
      <internalNodes>
        1 2 254181 6.0666259378194809e-03 0 -1 461143
        9.2450864613056183e-03 -2 -3 169615 -4.1112236678600311e-02</internalNodes>
      <leafValues>
        -6.5845710039138794e-01 5.5443936586380005e-01
        -8.9954197406768799e-01 6.9841992855072021e-01</leafValues></_>
    <_>
      <internalNodes>
        1 2 4593 4.2960721999406815e-02 0 -1 489199
        -3.4947467502206564e-03 -2 -3 95480 -3.0782613903284073e-03</internalNodes>
      <leafValues>
        4.0349695086479187e-01 -5.9276574850082397e-01
        8.8469839096069336e-01 -2.1007908880710602e-01</leafValues></_></weakClassifiers></stage1>
</opencv_storage>
