<?xml version="1.0"?>
<opencv_storage>
<stage9>
  <maxWeakCount>9</maxWeakCount>
  <stageThreshold>-1.5592383146286011e+00</stageThreshold>
  <weakClassifiers>
    <_>
      <internalNodes>
        1 2 186912 1.7209090292453766e-01 0 -1 497877
        -9.6732871606945992e-03 -2 -3 230924 1.1480940505862236e-02</internalNodes>
      <leafValues>
        4.3046358227729797e-01 -5.9945130348205566e-01
        -5.3005462884902954e-01 6.9971787929534912e-01</leafValues></_>
    <_>
      <internalNodes>
        1 2 182457 -3.5827405750751495e-02 0 -1 316871
        -4.1759166866540909e-02 -2 -3 158378 7.8946668654680252e-03</internalNodes>
      <leafValues>
        7.4735665321350098e-01 -3.4465864300727844e-01
        -3.6421850323677063e-01 5.3485703468322754e-01</leafValues></_>
    <_>
      <internalNodes>
        1 2 255084 4.0223756805062294e-03 0 -1 178692
        6.0964347794651985e-03 -2 -3 46136 1.9059139490127563e-01</internalNodes>
      <leafValues>
        -6.2888860702514648e-01 2.1897754073143005e-01
        -1.8232476711273193e-01 6.4710706472396851e-01</leafValues></_>
    <_>
      <internalNodes>
        1 2 208898 -1.0950647294521332e-02 0 -1 497276
        -2.8664931654930115e-02 -2 -3 315134 -1.8007291946560144e-03</internalNodes>
      <leafValues>
        3.3796364068984985e-01 -8.7106406688690186e-01
        4.5898127555847168e-01 -1.8298092484474182e-01</leafValues></_>
    <_>
      <internalNodes>
        1 2 445812 5.0489632412791252e-03 0 -1 171724
        -2.2755715996026993e-02 -2 -3 245815 -8.9592058211565018e-03</internalNodes>
      <leafValues>
        -1.6799366101622581e-02 -6.8690925836563110e-01
        -8.1866377592086792e-01 4.0304020047187805e-01</leafValues></_>
    <_>
      <internalNodes>
        1 2 197358 5.3095996379852295e-02 0 -1 141482
        -4.9436464905738831e-02 -2 -3 115047 3.0374828726053238e-02</internalNodes>
      <leafValues>
        -8.6938464641571045e-01 1.8974490463733673e-01
        -8.4687256813049316e-01 1.5378539264202118e-01</leafValues></_>
    <_>
      <internalNodes>
        1 2 331322 1.2478352291509509e-03 0 -1 24712
        3.4107151441276073e-03 -2 -3 387802 -2.7033879887312651e-03</internalNodes>
      <leafValues>
        -3.3524841070175171e-01 6.4771091938018799e-01
        -5.7608109712600708e-01 5.3969645500183105e-01</leafValues></_>
    <_>
      <internalNodes>
        1 2 333056 1.2864680029451847e-03 0 -1 269242
        -3.1094342470169067e-02 -2 -3 228530 -9.4233602285385132e-03</internalNodes>
      <leafValues>
        -8.3646333217620850e-01 2.0718184113502502e-01
        2.4062018096446991e-01 -9.0398854017257690e-01</leafValues></_>
    <_>
      <internalNodes>
        1 2 111168 -5.0171714276075363e-02 0 -1 416432
        -4.8009706661105156e-03 -2 -3 202035 8.4470044821500778e-03</internalNodes>
      <leafValues>
        8.0708301067352295e-01 -5.0844264030456543e-01
        -4.2702353000640869e-01 2.9497045278549194e-01</leafValues></_></weakClassifiers></stage9>
</opencv_storage>
