<?xml version="1.0"?>
<opencv_storage>
<stage6>
  <maxWeakCount>8</maxWeakCount>
  <stageThreshold>-1.8202625513076782e+00</stageThreshold>
  <weakClassifiers>
    <_>
      <internalNodes>
        1 2 436809 -8.6660936474800110e-02 0 -1 80584
        -7.8447833657264709e-03 -2 -3 493173 -3.8739247247576714e-03</internalNodes>
      <leafValues>
        8.2495343685150146e-01 -1.9463087618350983e-01
        3.1591448187828064e-01 -6.0362488031387329e-01</leafValues></_>
    <_>
      <internalNodes>
        1 2 291347 -2.6930687017738819e-03 0 -1 71129
        1.6238605976104736e-01 -2 -3 336867 2.5456573348492384e-03</internalNodes>
      <leafValues>
        -1.8168842792510986e-01 7.7189314365386963e-01
        -6.4124286174774170e-01 1.4885020256042480e-01</leafValues></_>
    <_>
      <internalNodes>
        1 2 281299 -2.2427691146731377e-03 0 -1 373680
        -1.4664391987025738e-02 -2 -3 491325 -1.0709529742598534e-02</internalNodes>
      <leafValues>
        -7.5013238191604614e-01 5.1591050624847412e-01
        4.2110663652420044e-01 -5.1808881759643555e-01</leafValues></_>
    <_>
      <internalNodes>
        1 2 21655 -2.7358005754649639e-03 0 -1 362814
        2.2497014142572880e-03 -2 -3 208300 2.8124011587351561e-03</internalNodes>
      <leafValues>
        5.6427633762359619e-01 -5.4409223794937134e-01
        -4.8760503530502319e-01 2.7758929133415222e-01</leafValues></_>
    <_>
      <internalNodes>
        1 2 484195 7.5310235843062401e-03 0 -1 326356
        1.8427672330290079e-03 -2 -3 325112 -8.8116963161155581e-04</internalNodes>
      <leafValues>
        -6.1336064338684082e-01 1.6855146735906601e-02
        -9.2234265804290771e-01 6.2494784593582153e-01</leafValues></_>
    <_>
      <internalNodes>
        1 2 444870 -4.5179866254329681e-02 0 -1 158248
        1.3194833695888519e-01 -2 -3 499338 4.8182588070631027e-03</internalNodes>
      <leafValues>
        -5.2326959371566772e-01 6.0000163316726685e-01
        -4.8575723171234131e-01 4.7097447514533997e-01</leafValues></_>
    <_>
      <internalNodes>
        1 2 497966 -2.9862581286579370e-03 0 -1 245457
        -3.7354670930653811e-03 -2 -3 16857 -3.8376420736312866e-02</internalNodes>
      <leafValues>
        -7.1266418695449829e-01 6.1341542005538940e-01
        6.1896485090255737e-01 -3.3296149969100952e-01</leafValues></_>
    <_>
      <internalNodes>
        1 2 201258 -5.1490478217601776e-02 0 -1 294457
        -1.6492292284965515e-02 -2 -3 277820 -3.8820749614387751e-04</internalNodes>
      <leafValues>
        7.2947674989700317e-01 -9.7595900297164917e-01
        -6.4149385690689087e-01 2.7543100714683533e-01</leafValues></_></weakClassifiers></stage6>
</opencv_storage>
