<?xml version="1.0"?>
<opencv_storage>
<stage5>
  <maxWeakCount>6</maxWeakCount>
  <stageThreshold>-1.5817117691040039e+00</stageThreshold>
  <weakClassifiers>
    <_>
      <internalNodes>
        1 2 158140 1.9054105877876282e-01 0 -1 186823
        5.7885278016328812e-02 -2 -3 134168 6.2122926115989685e-02</internalNodes>
      <leafValues>
        -6.4769232273101807e-01 3.6708861589431763e-01
        -7.0854270458221436e-01 8.7274456024169922e-01</leafValues></_>
    <_>
      <internalNodes>
        1 2 403052 -5.0193175673484802e-02 0 -1 304869
        -4.9117643386125565e-02 -2 -3 126901 -1.4305111952126026e-02</internalNodes>
      <leafValues>
        -8.7005138397216797e-01 7.4852693080902100e-01
        6.8147152662277222e-01 -4.0074443817138672e-01</leafValues></_>
    <_>
      <internalNodes>
        1 2 289009 2.4983780458569527e-03 0 -1 330618
        -1.4059979002922773e-03 -2 -3 316209 -1.4466780703514814e-03</internalNodes>
      <leafValues>
        5.6855436414480209e-02 -7.2463816404342651e-01
        -8.4230107069015503e-01 5.7859075069427490e-01</leafValues></_>
    <_>
      <internalNodes>
        1 2 291347 -3.9246170781552792e-03 0 -1 44656
        2.2102984786033630e-01 -2 -3 153131 -1.3464342337101698e-03</internalNodes>
      <leafValues>
        5.0935074687004089e-02 8.6011856794357300e-01
        7.3184460401535034e-01 -4.8398163914680481e-01</leafValues></_>
    <_>
      <internalNodes>
        1 2 426706 1.1812995653599501e-03 0 -1 199783
        -6.5770666114985943e-03 -2 -3 229041 -2.3515544831752777e-02</internalNodes>
      <leafValues>
        3.1839972734451294e-01 -6.8657350540161133e-01
        -8.5376042127609253e-01 3.9818772673606873e-01</leafValues></_>
    <_>
      <internalNodes>
        1 2 16856 -1.4976222068071365e-02 0 -1 394231
        -2.0089562982320786e-02 -2 -3 12535 2.0144509151577950e-02</internalNodes>
      <leafValues>
        -9.3577659130096436e-01 6.4022314548492432e-01
        -5.4017299413681030e-01 4.8646095395088196e-01</leafValues></_></weakClassifiers></stage5>
</opencv_storage>
