<?xml version="1.0"?>
<opencv_storage>
<stage13>
  <maxWeakCount>10</maxWeakCount>
  <stageThreshold>-1.4344987869262695e+00</stageThreshold>
  <weakClassifiers>
    <_>
      <internalNodes>
        1 2 362052 -6.9002330303192139e-02 0 -1 349759
        -2.5836359709501266e-03 -2 -3 120514 -2.6493207551538944e-03</internalNodes>
      <leafValues>
        6.3969379663467407e-01 -4.6886447072029114e-01
        1.7352415621280670e-01 -4.5759367942810059e-01</leafValues></_>
    <_>
      <internalNodes>
        1 2 56817 6.7641526460647583e-02 0 -1 17303
        -8.8928297162055969e-02 -2 -3 130141 8.6812973022460938e-02</internalNodes>
      <leafValues>
        3.2001116871833801e-01 -6.2283778190612793e-01
        -5.3661739826202393e-01 3.9519396424293518e-01</leafValues></_>
    <_>
      <internalNodes>
        1 2 283172 -2.3330841213464737e-03 0 -1 393048
        -5.7710679247975349e-03 -2 -3 482898 -1.4750140719115734e-02</internalNodes>
      <leafValues>
        -6.2120872735977173e-01 5.4271996021270752e-01
        4.7941702604293823e-01 -4.1827967762947083e-01</leafValues></_>
    <_>
      <internalNodes>
        1 2 4315 4.4277880340814590e-02 0 -1 360275
        3.6762556992471218e-03 -2 -3 361003 -3.4316061064600945e-03</internalNodes>
      <leafValues>
        -4.6541821956634521e-01 4.3337246775627136e-01
        5.5273884534835815e-01 -3.5325312614440918e-01</leafValues></_>
    <_>
      <internalNodes>
        1 2 496889 -6.3905152492225170e-03 0 -1 335358
        -5.8966372162103653e-03 -2 -3 496782 2.6268356014043093e-03</internalNodes>
      <leafValues>
        -4.5550444722175598e-01 6.2393939495086670e-01
        -3.6562246084213257e-01 5.0794517993927002e-01</leafValues></_>
    <_>
      <internalNodes>
        1 2 251368 -1.4802210498601198e-03 0 -1 277370
        -2.8553102165460587e-02 -2 -3 356000 -1.2258091010153294e-03</internalNodes>
      <leafValues>
        -8.3904337882995605e-01 3.8638406991958618e-01
        3.5798099637031555e-01 -5.0199311971664429e-01</leafValues></_>
    <_>
      <internalNodes>
        1 2 226659 2.8319519013166428e-02 0 -1 50486
        -4.0041141211986542e-02 -2 -3 398520 -4.7396160662174225e-03</internalNodes>
      <leafValues>
        2.9252007603645325e-01 -5.0472354888916016e-01
        -5.0522178411483765e-01 6.4483338594436646e-01</leafValues></_>
    <_>
      <internalNodes>
        1 2 475888 8.3500519394874573e-03 0 -1 207222
        -1.0771930217742920e-02 -2 -3 499099 -1.2257082387804985e-02</internalNodes>
      <leafValues>
        -7.3514109849929810e-01 1.9655236601829529e-01
        7.7053046226501465e-01 -8.4107226133346558e-01</leafValues></_>
    <_>
      <internalNodes>
        1 2 237784 -5.8196652680635452e-03 0 -1 451775
        -4.3161157518625259e-03 -2 -3 122845 1.1084108846262097e-03</internalNodes>
      <leafValues>
        -6.0991179943084717e-01 7.5169622898101807e-01
        -2.7653592824935913e-01 5.4314529895782471e-01</leafValues></_>
    <_>
      <internalNodes>
        1 2 451746 4.6406164765357971e-03 0 -1 241634
        7.7724466100335121e-03 -2 -3 346880 -9.3074589967727661e-02</internalNodes>
      <leafValues>
        2.2659763693809509e-01 -7.6104557514190674e-01
        9.2811924219131470e-01 -7.9395782947540283e-01</leafValues></_></weakClassifiers></stage13>
</opencv_storage>
