<?xml version="1.0"?>
<opencv_storage>
<stage12>
  <maxWeakCount>10</maxWeakCount>
  <stageThreshold>-1.6388940811157227e+00</stageThreshold>
  <weakClassifiers>
    <_>
      <internalNodes>
        1 2 241335 1.3527235388755798e-01 0 -1 138672
        -6.5253898501396179e-02 -2 -3 141834 -8.5382070392370224e-03</internalNodes>
      <leafValues>
        4.7342994809150696e-01 -5.0116115808486938e-01
        6.3243520259857178e-01 -3.0035334825515747e-01</leafValues></_>
    <_>
      <internalNodes>
        1 2 464708 -3.3028338104486465e-02 0 -1 125802
        -1.0464099235832691e-02 -2 -3 26439 -3.3281994983553886e-03</internalNodes>
      <leafValues>
        6.8668407201766968e-01 -1.6900913417339325e-01
        5.0487720966339111e-01 -3.6168345808982849e-01</leafValues></_>
    <_>
      <internalNodes>
        1 2 288684 -6.7913363454863429e-04 0 -1 357550
        -1.4648007228970528e-02 -2 -3 142430 2.9332935810089111e-02</internalNodes>
      <leafValues>
        -6.9145441055297852e-01 4.2658710479736328e-01
        -4.5348963141441345e-01 3.6749690771102905e-01</leafValues></_>
    <_>
      <internalNodes>
        1 2 172795 -1.9967023283243179e-02 0 -1 109392
        1.3824640518578235e-05 -2 -3 375475 5.3051235154271126e-03</internalNodes>
      <leafValues>
        -7.5790929794311523e-01 6.7578488588333130e-01
        -6.2010633945465088e-01 7.6850846409797668e-02</leafValues></_>
    <_>
      <internalNodes>
        1 2 173537 4.9370601773262024e-02 0 -1 333615
        9.5671543385833502e-04 -2 -3 386415 1.4107070863246918e-02</internalNodes>
      <leafValues>
        2.3080618679523468e-01 -7.6616573333740234e-01
        -8.5731005668640137e-01 4.6389093995094299e-01</leafValues></_>
    <_>
      <internalNodes>
        1 2 218344 -2.3036042694002390e-03 0 -1 242474
        1.2628175318241119e-02 -2 -3 216865 6.4276391640305519e-03</internalNodes>
      <leafValues>
        -7.8333741426467896e-01 5.1765638589859009e-01
        1.5364430844783783e-01 -8.4043085575103760e-01</leafValues></_>
    <_>
      <internalNodes>
        1 2 496652 -1.4992353972047567e-03 0 -1 425163
        -4.0549375116825104e-02 -2 -3 483726 -8.7992980843409896e-04</internalNodes>
      <leafValues>
        -1. 5.9974950551986694e-01 3.1317937374114990e-01
        -3.6436167359352112e-01</leafValues></_>
    <_>
      <internalNodes>
        1 2 23679 -3.1910748220980167e-03 0 -1 297940
        5.2950601093471050e-04 -2 -3 330297 2.6857886463403702e-02</internalNodes>
      <leafValues>
        1.8152433633804321e-01 -7.8289753198623657e-01
        2.9157957434654236e-01 -5.8658874034881592e-01</leafValues></_>
    <_>
      <internalNodes>
        1 2 96752 1.2498972937464714e-03 0 -1 98481
        -8.7046198314055800e-04 -2 -3 198259 -6.1981042381376028e-04</internalNodes>
      <leafValues>
        4.6773970127105713e-01 -3.7336894869804382e-01
        -3.3035114407539368e-01 5.9654390811920166e-01</leafValues></_>
    <_>
      <internalNodes>
        1 2 43332 3.6305069923400879e-01 0 -1 948
        -2.1647922694683075e-02 -2 -3 432720 5.9547659475356340e-04</internalNodes>
      <leafValues>
        3.5924711823463440e-01 -4.2411044239997864e-01
        -1.4233916997909546e-01 6.3570940494537354e-01</leafValues></_></weakClassifiers></stage12>
</opencv_storage>
