<?xml version="1.0"?>
<opencv_storage>
<stage9>
  <maxWeakCount>7</maxWeakCount>
  <stageThreshold>-1.5261268615722656e+00</stageThreshold>
  <weakClassifiers>
    <_>
      <internalNodes>
        1 2 437700 -7.0055618882179260e-02 0 -1 96327
        4.6711950562894344e-03 -2 -3 489185 -1.8520466983318329e-03</internalNodes>
      <leafValues>
        8.3377730846405029e-01 -2.1353065967559814e-01
        1.4069591462612152e-01 -5.6319516897201538e-01</leafValues></_>
    <_>
      <internalNodes>
        1 2 254071 1.8831121269613504e-03 0 -1 370524
        -7.6034674420952797e-03 -2 -3 171406 7.6403565704822540e-02</internalNodes>
      <leafValues>
        6.1799067258834839e-01 -6.0198771953582764e-01
        5.0539904832839966e-01 -8.3397346735000610e-01</leafValues></_>
    <_>
      <internalNodes>
        1 2 143489 2.6693988591432571e-02 0 -1 81138
        -4.7482077032327652e-02 -2 -3 231230 -5.7966047897934914e-03</internalNodes>
      <leafValues>
        4.1532349586486816e-01 -4.6379673480987549e-01
        8.3117944002151489e-01 -5.5837649106979370e-01</leafValues></_>
    <_>
      <internalNodes>
        1 2 343963 -2.5916791055351496e-03 0 -1 490788
        1.2757131829857826e-02 -2 -3 448897 1.2575034052133560e-02</internalNodes>
      <leafValues>
        -9.0041685104370117e-01 1.5648953616619110e-01
        2.7906185388565063e-01 -7.5184869766235352e-01</leafValues></_>
    <_>
      <internalNodes>
        1 2 36205 -2.1831817924976349e-02 0 -1 64075
        -2.9332847334444523e-03 -2 -3 500033 1.2666793540120125e-02</internalNodes>
      <leafValues>
        7.0000159740447998e-01 -7.1362578868865967e-01
        -4.2839983105659485e-01 4.7608208656311035e-01</leafValues></_>
    <_>
      <internalNodes>
        1 2 212822 -3.8663868326693773e-03 0 -1 214851
        1.9724121689796448e-01 -2 -3 246775 -1.6137078637257218e-03</internalNodes>
      <leafValues>
        -8.6752045154571533e-01 2.1171744167804718e-01
        -6.2519407272338867e-01 2.9666912555694580e-01</leafValues></_>
    <_>
      <internalNodes>
        1 2 227768 1.7226312309503555e-02 0 -1 411623
        -7.3649175465106964e-03 -2 -3 355891 9.1114668175578117e-03</internalNodes>
      <leafValues>
        1.8867181241512299e-01 -5.9006100893020630e-01
        6.5418648719787598e-01 -7.8905761241912842e-01</leafValues></_></weakClassifiers></stage9>
</opencv_storage>
