<?xml version="1.0"?>
<opencv_storage>
<stage12>
  <maxWeakCount>10</maxWeakCount>
  <stageThreshold>-1.1868991851806641e+00</stageThreshold>
  <weakClassifiers>
    <_>
      <internalNodes>
        1 2 67757 4.9422389268875122e-01 0 -1 281372
        5.6581171229481697e-03 -2 -3 281286 3.1305146403610706e-03</internalNodes>
      <leafValues>
        -3.3813986182212830e-01 4.6460175514221191e-01
        -1.6289593279361725e-01 7.7428740262985229e-01</leafValues></_>
    <_>
      <internalNodes>
        1 2 124843 -5.8244462125003338e-03 0 -1 238954
        -1.9563086330890656e-02 -2 -3 153131 -9.5233926549553871e-04</internalNodes>
      <leafValues>
        5.8458006381988525e-01 -4.5458593964576721e-01
        4.7032976150512695e-01 -4.1143137216567993e-01</leafValues></_>
    <_>
      <internalNodes>
        1 2 290058 -7.5635686516761780e-04 0 -1 363952
        -1.8276799470186234e-02 -2 -3 200848 1.5846893656998873e-03</internalNodes>
      <leafValues>
        -7.1576148271560669e-01 4.1417020559310913e-01
        -4.8680025339126587e-01 2.6076203584671021e-01</leafValues></_>
    <_>
      <internalNodes>
        1 2 139961 5.5083796381950378e-02 0 -1 412544
        -8.6405873298645020e-03 -2 -3 332820 1.8534168601036072e-02</internalNodes>
      <leafValues>
        2.6231274008750916e-01 -5.1732146739959717e-01
        7.7758592367172241e-01 -6.9016128778457642e-01</leafValues></_>
    <_>
      <internalNodes>
        1 2 111500 -4.5100510120391846e-02 0 -1 243122
        3.5357847809791565e-02 -2 -3 278731 9.4103527953848243e-04</internalNodes>
      <leafValues>
        -8.6617821455001831e-01 1. 3.0409166216850281e-01
        -5.0116223096847534e-01</leafValues></_>
    <_>
      <internalNodes>
        1 2 18066 -4.1652680374681950e-03 0 -1 165978
        4.2566722258925438e-03 -2 -3 496786 -7.8876987099647522e-03</internalNodes>
      <leafValues>
        4.7846472263336182e-01 -9.0765500068664551e-01
        5.1493823528289795e-01 -4.5253163576126099e-01</leafValues></_>
    <_>
      <internalNodes>
        1 2 332947 1.0542712407186627e-03 0 -1 173537
        4.1064716875553131e-02 -2 -3 290989 4.4631149619817734e-02</internalNodes>
      <leafValues>
        2.4728284776210785e-01 -5.7645994424819946e-01
        -8.8115006685256958e-01 8.5965508222579956e-01</leafValues></_>
    <_>
      <internalNodes>
        1 2 278440 -2.5799719616770744e-02 0 -1 436254
        5.2529443055391312e-03 -2 -3 324673 8.8025938021019101e-04</internalNodes>
      <leafValues>
        -9.6372497081756592e-01 1. -3.9534321427345276e-01
        2.7033179998397827e-01</leafValues></_>
    <_>
      <internalNodes>
        1 2 433119 1.3152378378435969e-03 0 -1 476295
        8.5388787556439638e-04 -2 -3 398595 -1.4415590092539787e-02</internalNodes>
      <leafValues>
        -4.4521370530128479e-01 4.8279547691345215e-01
        -5.6483685970306396e-01 4.8139676451683044e-01</leafValues></_>
    <_>
      <internalNodes>
        1 2 381751 2.3472001776099205e-03 0 -1 152918
        1.5312856994569302e-02 -2 -3 402287 -6.7525647580623627e-02</internalNodes>
      <leafValues>
        -2.6149842143058777e-01 4.9299004673957825e-01
        -9.5907384157180786e-01 7.1753221750259399e-01</leafValues></_></weakClassifiers></stage12>
</opencv_storage>
