<?xml version="1.0"?>
<opencv_storage>
<stage6>
  <maxWeakCount>6</maxWeakCount>
  <stageThreshold>-1.6751691102981567e+00</stageThreshold>
  <weakClassifiers>
    <_>
      <internalNodes>
        1 2 75622 9.9735125899314880e-02 0 -1 141256
        -6.0876708477735519e-02 -2 -3 292700 6.4216092228889465e-02</internalNodes>
      <leafValues>
        5.2073734998703003e-01 -5.4744523763656616e-01
        -6.6071426868438721e-01 8.1544083356857300e-01</leafValues></_>
    <_>
      <internalNodes>
        1 2 435783 -4.5371532440185547e-02 0 -1 64895
        -1.0076168924570084e-02 -2 -3 498128 -3.2145841978490353e-03</internalNodes>
      <leafValues>
        8.0411040782928467e-01 -1.6102841496467590e-01
        4.5471265912055969e-01 -5.5252391099929810e-01</leafValues></_>
    <_>
      <internalNodes>
        1 2 281289 -4.0932716801762581e-03 0 -1 359336
        -8.9681670942809433e-05 -2 -3 497088 4.8617939464747906e-03</internalNodes>
      <leafValues>
        6.4591509103775024e-01 -4.5720648765563965e-01
        -4.2935118079185486e-01 5.7372069358825684e-01</leafValues></_>
    <_>
      <internalNodes>
        1 2 4315 4.6597760170698166e-02 0 -1 39050
        2.5461628101766109e-03 -2 -3 401105 -4.3863654136657715e-03</internalNodes>
      <leafValues>
        -4.5368006825447083e-01 4.8588472604751587e-01
        7.6928925514221191e-01 -6.9340348243713379e-01</leafValues></_>
    <_>
      <internalNodes>
        1 2 315136 -4.5649129897356033e-03 0 -1 302787
        -1.8190902192145586e-03 -2 -3 25982 8.8444232940673828e-02</internalNodes>
      <leafValues>
        -6.6377598047256470e-01 7.5637745857238770e-01
        -5.5800873041152954e-01 2.0485877990722656e-01</leafValues></_>
    <_>
      <internalNodes>
        1 2 418388 6.8296454846858978e-03 0 -1 474692
        -3.3624800853431225e-03 -2 -3 376757 -2.4651706218719482e-02</internalNodes>
      <leafValues>
        4.5723387598991394e-01 -4.2069077491760254e-01
        -9.7979676723480225e-01 8.2598423957824707e-01</leafValues></_></weakClassifiers></stage6>
</opencv_storage>
