<?xml version="1.0"?>
<opencv_storage>
<stage3>
  <maxWeakCount>5</maxWeakCount>
  <stageThreshold>-1.7087800502777100e+00</stageThreshold>
  <weakClassifiers>
    <_>
      <internalNodes>
        1 2 74177 1.1116984486579895e-01 0 -1 153455
        3.2186184078454971e-02 -2 -3 266740 5.6063603609800339e-02</internalNodes>
      <leafValues>
        -7.3592084646224976e-01 2.9815304279327393e-01
        -7.1563982963562012e-01 8.8574343919754028e-01</leafValues></_>
    <_>
      <internalNodes>
        1 2 437488 -3.3389620482921600e-02 0 -1 183745
        -3.2640472054481506e-02 -2 -3 497794 -3.3803437836468220e-03</internalNodes>
      <leafValues>
        8.4592086076736450e-01 -2.5451440364122391e-02
        3.5969135165214539e-01 -6.1520189046859741e-01</leafValues></_>
    <_>
      <internalNodes>
        1 2 43002 1.4706549048423767e-01 0 -1 183620
        -2.3958561941981316e-02 -2 -3 230901 3.0660391785204411e-03</internalNodes>
      <leafValues>
        1.6291886568069458e-01 -7.3017072677612305e-01
        -6.6871517896652222e-01 7.2347664833068848e-01</leafValues></_>
    <_>
      <internalNodes>
        1 2 281274 3.4215801861137152e-03 0 -1 143489
        -2.6535265147686005e-02 -2 -3 225796 -4.3129906058311462e-02</internalNodes>
      <leafValues>
        5.3837794065475464e-01 -6.3463395833969116e-01
        -9.2108595371246338e-01 5.5104726552963257e-01</leafValues></_>
    <_>
      <internalNodes>
        1 2 39050 2.6160802226513624e-03 0 -1 338430
        -1.6465058550238609e-02 -2 -3 250218 -1.2579346075654030e-03</internalNodes>
      <leafValues>
        3.3566036820411682e-01 -5.1212000846862793e-01
        -9.2551183700561523e-01 7.3897063732147217e-01</leafValues></_></weakClassifiers></stage3>
</opencv_storage>
