<?xml version="1.0"?>
<opencv_storage>
<stage18>
  <maxWeakCount>14</maxWeakCount>
  <stageThreshold>-1.4609502553939819e+00</stageThreshold>
  <weakClassifiers>
    <_>
      <internalNodes>
        1 2 325993 -3.1322883442044258e-03 0 -1 326819
        -6.5556017216295004e-04 -2 -3 324860 -1.7761334776878357e-02</internalNodes>
      <leafValues>
        -5.5982905626296997e-01 5.9102243185043335e-01
        4.3619048595428467e-01 -3.6947607994079590e-01</leafValues></_>
    <_>
      <internalNodes>
        1 2 400940 -4.3589239940047264e-03 0 -1 67589
        -9.5226062694564462e-04 -2 -3 118243 -4.9875833094120026e-02</internalNodes>
      <leafValues>
        4.6410816907882690e-01 -3.4797251224517822e-01
        -5.9921316802501678e-02 -7.4738466739654541e-01</leafValues></_>
    <_>
      <internalNodes>
        1 2 500083 2.9949212912470102e-03 0 -1 181721
        -2.5573033839464188e-02 -2 -3 48273 6.7501083016395569e-02</internalNodes>
      <leafValues>
        4.8388808965682983e-01 -3.6346408724784851e-01
        4.8785355687141418e-01 -7.1508568525314331e-01</leafValues></_>
    <_>
      <internalNodes>
        1 2 369444 2.7795990463346243e-03 0 -1 203734
        -7.6480879215523601e-04 -2 -3 486047 -6.6297009587287903e-02</internalNodes>
      <leafValues>
        1.4755365252494812e-01 -5.8450365066528320e-01
        4.4036871194839478e-01 -2.6797503232955933e-01</leafValues></_>
    <_>
      <internalNodes>
        1 2 351762 1.8645085394382477e-02 0 -1 377290
        -1.6694418154656887e-03 -2 -3 255049 -4.3648295104503632e-03</internalNodes>
      <leafValues>
        4.8434126377105713e-01 -1.1017842590808868e-01
        7.0932674407958984e-01 -8.5042017698287964e-01</leafValues></_>
    <_>
      <internalNodes>
        1 2 431482 2.8935244772583246e-03 0 -1 353071
        1.0489751584827900e-03 -2 -3 482409 -8.7535227066837251e-06</internalNodes>
      <leafValues>
        -3.7377214431762695e-01 1.7803876101970673e-01
        5.9703606367111206e-01 -3.0914357304573059e-01</leafValues></_>
    <_>
      <internalNodes>
        1 2 182244 7.5908023864030838e-03 0 -1 2465
        4.9777530133724213e-02 -2 -3 261330 -7.8587606549263000e-03</internalNodes>
      <leafValues>
        -3.6616554856300354e-01 2.6432073116302490e-01
        -7.5208967924118042e-01 6.9440704584121704e-01</leafValues></_>
    <_>
      <internalNodes>
        1 2 417934 -1.5939506702125072e-03 0 -1 206660
        -1.3927065767347813e-02 -2 -3 310859 1.0274557862430811e-03</internalNodes>
      <leafValues>
        8.9822655916213989e-01 -8.1936091184616089e-01
        -6.6988170146942139e-02 5.5008888244628906e-01</leafValues></_>
    <_>
      <internalNodes>
        1 2 332947 -1.2425493914633989e-03 0 -1 474344
        -5.0039025954902172e-03 -2 -3 249802 -1.0862118797376752e-03</internalNodes>
      <leafValues>
        7.6987314224243164e-01 -8.9536607265472412e-01
        -5.5179405212402344e-01 1.8218441307544708e-01</leafValues></_>
    <_>
      <internalNodes>
        1 2 374650 2.5698584504425526e-03 0 -1 412417
        -3.8223792798817158e-03 -2 -3 470541 1.1603184975683689e-02</internalNodes>
      <leafValues>
        4.8237439990043640e-01 -3.2530236244201660e-01
        5.7150262594223022e-01 -8.5424131155014038e-01</leafValues></_>
    <_>
      <internalNodes>
        1 2 11979 5.3904838860034943e-02 0 -1 215359
        4.3784067966043949e-03 -2 -3 118380 2.9270872473716736e-03</internalNodes>
      <leafValues>
        1.8979881703853607e-01 -5.8455860614776611e-01
        -8.9663398265838623e-01 1.8937276303768158e-01</leafValues></_>
    <_>
      <internalNodes>
        1 2 419613 2.5784196332097054e-03 0 -1 237784
        -5.1882658153772354e-03 -2 -3 421467 9.8445806652307510e-03</internalNodes>
      <leafValues>
        4.6849173307418823e-01 -2.5487306714057922e-01
        7.5018793344497681e-01 -9.5608133077621460e-01</leafValues></_>
    <_>
      <internalNodes>
        1 2 182118 -6.5750046633183956e-04 0 -1 481551
        1.7443211982026696e-03 -2 -3 334170 8.6626003030687571e-04</internalNodes>
      <leafValues>
        6.1247122287750244e-01 -5.5604362487792969e-01
        -2.7957040071487427e-01 3.3326372504234314e-01</leafValues></_>
    <_>
      <internalNodes>
        1 2 434214 -4.0945373475551605e-03 0 -1 420110
        -4.2808815836906433e-02 -2 -3 433704 -1.3786179944872856e-02</internalNodes>
      <leafValues>
        1. -9.8153001070022583e-01 -8.5686385631561279e-01
        1.5987914800643921e-01</leafValues></_></weakClassifiers></stage18>
</opencv_storage>
