<?xml version="1.0"?>
<opencv_storage>
<stage12>
  <maxWeakCount>8</maxWeakCount>
  <stageThreshold>-1.3531678915023804e+00</stageThreshold>
  <weakClassifiers>
    <_>
      <internalNodes>
        1 2 44644 1.7863087356090546e-01 0 -1 264081
        -3.8456984329968691e-03 -2 -3 126597 1.3162267208099365e-01</internalNodes>
      <leafValues>
        7.1969695389270782e-02 -7.2689652442932129e-01
        -8.2198953628540039e-01 6.4397495985031128e-01</leafValues></_>
    <_>
      <internalNodes>
        1 2 125001 -2.0052354782819748e-02 0 -1 36470
        -9.5508224330842495e-04 -2 -3 483704 -1.3145364355295897e-03</internalNodes>
      <leafValues>
        5.8543509244918823e-01 -4.9167528748512268e-01
        4.1769155859947205e-01 -4.4600504636764526e-01</leafValues></_>
    <_>
      <internalNodes>
        1 2 348765 -6.8349833600223064e-03 0 -1 409169
        1.4025985728949308e-03 -2 -3 209902 -2.5901198387145996e-02</internalNodes>
      <leafValues>
        -4.1145801544189453e-01 4.2860910296440125e-01
        4.9985441565513611e-01 -6.9705146551132202e-01</leafValues></_>
    <_>
      <internalNodes>
        1 2 181944 -2.1139588207006454e-03 0 -1 201873
        4.9479886889457703e-02 -2 -3 142375 2.5874048471450806e-02</internalNodes>
      <leafValues>
        4.2438006401062012e-01 -8.2878607511520386e-01
        -5.7947623729705811e-01 2.9772123694419861e-01</leafValues></_>
    <_>
      <internalNodes>
        1 2 225684 -3.8092359900474548e-02 0 -1 355321
        9.6953404136002064e-04 -2 -3 219662 -2.2458499297499657e-03</internalNodes>
      <leafValues>
        -9.8065680265426636e-01 3.5580691695213318e-01
        -5.3367662429809570e-01 2.2382940351963043e-01</leafValues></_>
    <_>
      <internalNodes>
        1 2 498150 3.5746749490499496e-03 0 -1 93118
        1.0390908457338810e-02 -2 -3 465966 -5.3637465462088585e-03</internalNodes>
      <leafValues>
        -4.5417264103889465e-01 3.0952993035316467e-01
        7.1306514739990234e-01 -1.5498340129852295e-01</leafValues></_>
    <_>
      <internalNodes>
        1 2 12003 2.3597396910190582e-02 0 -1 272816
        -1.3759379507973790e-03 -2 -3 5861 2.8636720031499863e-02</internalNodes>
      <leafValues>
        -6.5031880140304565e-01 2.7019017934799194e-01
        -8.0301165580749512e-01 7.5558817386627197e-01</leafValues></_>
    <_>
      <internalNodes>
        1 2 332086 5.7014450430870056e-04 0 -1 332100
        -3.8635390228591859e-04 -2 -3 321389 -1.3551859883591533e-03</internalNodes>
      <leafValues>
        1.7921695113182068e-01 -5.4572999477386475e-01
        -6.6954988241195679e-01 5.3749656677246094e-01</leafValues></_></weakClassifiers></stage12>
</opencv_storage>
