<?xml version="1.0"?>
<opencv_storage>
<stage11>
  <maxWeakCount>7</maxWeakCount>
  <stageThreshold>-1.1676691770553589e+00</stageThreshold>
  <weakClassifiers>
    <_>
      <internalNodes>
        1 2 44647 2.0010745525360107e-01 0 -1 363254
        2.5857202708721161e-02 -2 -3 293997 5.7703636586666107e-02</internalNodes>
      <leafValues>
        -5.7873213291168213e-01 1.7617866396903992e-01
        -2.1941748261451721e-01 7.6425856351852417e-01</leafValues></_>
    <_>
      <internalNodes>
        1 2 154753 -6.6133164800703526e-03 0 -1 493402
        4.3172881007194519e-02 -2 -3 182134 2.3914615157991648e-03</internalNodes>
      <leafValues>
        -1.6859228909015656e-01 7.0245212316513062e-01
        -3.9038121700286865e-01 5.7065504789352417e-01</leafValues></_>
    <_>
      <internalNodes>
        1 2 281299 -2.6139048859477043e-03 0 -1 333780
        -5.6364249758189544e-05 -2 -3 491311 -1.1319229379296303e-02</internalNodes>
      <leafValues>
        4.6285367012023926e-01 -6.6370415687561035e-01
        5.5556464195251465e-01 -4.6201249957084656e-01</leafValues></_>
    <_>
      <internalNodes>
        1 2 407904 5.4742125794291496e-03 0 -1 314891
        2.6290636509656906e-02 -2 -3 444790 5.3944729268550873e-02</internalNodes>
      <leafValues>
        2.0156772434711456e-01 -7.0933288335800171e-01
        -9.3387377262115479e-01 5.1516968011856079e-01</leafValues></_>
    <_>
      <internalNodes>
        1 2 308706 -5.8364460710436106e-04 0 -1 301942
        3.3055036328732967e-03 -2 -3 23743 4.2954701930284500e-03</internalNodes>
      <leafValues>
        5.5805301666259766e-01 -7.1829670667648315e-01
        -3.7639397382736206e-01 7.6057350635528564e-01</leafValues></_>
    <_>
      <internalNodes>
        1 2 327662 8.7062723934650421e-02 0 -1 406212
        4.2440863326191902e-03 -2 -3 175 1.2436605058610439e-02</internalNodes>
      <leafValues>
        2.2481970489025116e-01 -6.9596654176712036e-01
        -9.0356278419494629e-01 3.5667061805725098e-01</leafValues></_>
    <_>
      <internalNodes>
        1 2 430794 5.1117956172674894e-04 0 -1 81029
        -4.3550889939069748e-02 -2 -3 448050 3.5085766576230526e-03</internalNodes>
      <leafValues>
        3.5364633798599243e-01 -5.4144757986068726e-01
        5.0006562471389771e-01 -5.9459602832794189e-01</leafValues></_></weakClassifiers></stage11>
</opencv_storage>
