<?xml version="1.0"?>
<opencv_storage>
<stage2>
  <maxWeakCount>5</maxWeakCount>
  <stageThreshold>-1.6625832319259644e+00</stageThreshold>
  <weakClassifiers>
    <_>
      <internalNodes>
        1 2 43113 1.8445184826850891e-01 0 -1 127350
        2.6928046718239784e-03 -2 -3 318309 3.8020577281713486e-02</internalNodes>
      <leafValues>
        -8.5086995363235474e-01 1.6292135417461395e-01
        -8.2113820314407349e-01 8.9455491304397583e-01</leafValues></_>
    <_>
      <internalNodes>
        1 2 316878 -7.2448387742042542e-02 0 -1 360519
        -6.9317000452429056e-04 -2 -3 493173 -1.6043209470808506e-03</internalNodes>
      <leafValues>
        8.7185460329055786e-01 -6.2855863571166992e-01
        3.6045631766319275e-01 -6.3391268253326416e-01</leafValues></_>
    <_>
      <internalNodes>
        1 2 237596 -1.0890082921832800e-03 0 -1 447474
        -1.0500026866793633e-02 -2 -3 330622 -1.7445079283788800e-03</internalNodes>
      <leafValues>
        8.3262550830841064e-01 -1.3637660443782806e-01
        1.6243895888328552e-01 -8.5449826717376709e-01</leafValues></_>
    <_>
      <internalNodes>
        1 2 291259 -3.5239690914750099e-03 0 -1 173988
        -1.9842848181724548e-02 -2 -3 236045 5.7827858254313469e-03</internalNodes>
      <leafValues>
        -1. 7.1045553684234619e-01 -5.3387981653213501e-01
        4.2679142951965332e-01</leafValues></_>
    <_>
      <internalNodes>
        1 2 302056 2.0897972863167524e-03 0 -1 472132
        -1.7608592286705971e-02 -2 -3 227980 -3.5623874515295029e-02</internalNodes>
      <leafValues>
        4.0778139233589172e-01 -8.2015103101730347e-01
        -9.5325297117233276e-01 3.9168232679367065e-01</leafValues></_></weakClassifiers></stage2>
</opencv_storage>
