<?xml version="1.0"?>
<opencv_storage>
<cascade>
  <stageType>BOOST</stageType>
  <featureType>HAAR</featureType>
  <height>32</height>
  <width>25</width>
  <stageParams>
    <boostType>GAB</boostType>
    <minHitRate>9.9900001287460327e-01</minHitRate>
    <maxFalseAlarm>5.0000000000000000e-01</maxFalseAlarm>
    <weightTrimRate>9.4999999999999996e-01</weightTrimRate>
    <maxDepth>2</maxDepth>
    <maxWeakCount>100</maxWeakCount></stageParams>
  <featureParams>
    <maxCatCount>0</maxCatCount>
    <featSize>1</featSize>
    <mode>ALL</mode></featureParams>
  <stageNum>11</stageNum>
  <stages>
    <!-- stage 0 -->
    <_>
      <maxWeakCount>2</maxWeakCount>
      <stageThreshold>-2.3790319263935089e-01</stageThreshold>
      <weakClassifiers>
        <_>
          <internalNodes>
            1 2 97 -3.1935773789882660e-02 0 -1 122
            -1.2866383418440819e-02 -2 -3 16 1.5957418084144592e-01</internalNodes>
          <leafValues>
            -1. 9.6230596303939819e-01 -9.1872793436050415e-01
            6.4285713434219360e-01</leafValues></_>
        <_>
          <internalNodes>
            1 2 29 1.5988092124462128e-01 0 -1 132
            6.8277651444077492e-03 -2 -3 28 -2.4642802774906158e-02</internalNodes>
          <leafValues>
            -8.8076031208038330e-01 6.8137133121490479e-01
            -8.7192988395690918e-01 9.6440768241882324e-01</leafValues></_></weakClassifiers></_>
    <!-- stage 1 -->
    <_>
      <maxWeakCount>3</maxWeakCount>
      <stageThreshold>-7.3994946479797363e-01</stageThreshold>
      <weakClassifiers>
        <_>
          <internalNodes>
            1 2 107 3.1198238953948021e-02 0 -1 47
            -6.5274298191070557e-02 -2 -3 33 4.5816786587238312e-02</internalNodes>
          <leafValues>
            6.6666668653488159e-01 -8.8636362552642822e-01
            -8.1132078170776367e-01 9.2265194654464722e-01</leafValues></_>
        <_>
          <internalNodes>
            1 2 27 2.6159679889678955e-01 0 -1 34
            -4.3736182153224945e-02 -2 -3 111 -1.7044404521584511e-02</internalNodes>
          <leafValues>
            8.5639345645904541e-01 -6.0728782415390015e-01
            -9.1709548234939575e-01 9.5021581649780273e-01</leafValues></_>
        <_>
          <internalNodes>
            1 2 3 1.1677641421556473e-01 0 -1 52 1.4604590833187103e-02
            -2 -3 67 1.7052300274372101e-02</internalNodes>
          <leafValues>
            -7.8502219915390015e-01 8.2004821300506592e-01
            -8.4070414304733276e-01 8.7504363059997559e-01</leafValues></_></weakClassifiers></_>
    <!-- stage 2 -->
    <_>
      <maxWeakCount>3</maxWeakCount>
      <stageThreshold>-8.9885216951370239e-01</stageThreshold>
      <weakClassifiers>
        <_>
          <internalNodes>
            1 2 109 -3.2257661223411560e-02 0 -1 41
            4.4409949332475662e-03 -2 -3 7 1.9448962062597275e-02</internalNodes>
          <leafValues>
            -4.8051947355270386e-01 9.3111640214920044e-01
            -7.3684209585189819e-01 6.5765768289566040e-01</leafValues></_>
        <_>
          <internalNodes>
            1 2 102 -1.2372126802802086e-03 0 -1 88
            3.4351884387433529e-03 -2 -3 95 -2.8012212365865707e-02</internalNodes>
          <leafValues>
            -6.3846147060394287e-01 7.0480024814605713e-01
            8.1726437807083130e-01 -8.5460937023162842e-01</leafValues></_>
        <_>
          <internalNodes>
            1 2 105 -6.8985559046268463e-02 0 -1 116
            -2.3192513734102249e-02 -2 -3 69 -1.2696884572505951e-02</internalNodes>
          <leafValues>
            8.8892006874084473e-01 -9.4672203063964844e-01
            6.4538556337356567e-01 -7.0190042257308960e-01</leafValues></_></weakClassifiers></_>
    <!-- stage 3 -->
    <_>
      <maxWeakCount>4</maxWeakCount>
      <stageThreshold>-1.3865510225296021e+00</stageThreshold>
      <weakClassifiers>
        <_>
          <internalNodes>
            1 2 91 -1.0343992710113525e-01 0 -1 98
            -2.2485740482807159e-02 -2 -3 70 -1.0969685390591621e-02</internalNodes>
          <leafValues>
            8.9513111114501953e-01 -7.5342464447021484e-01
            6.9696968793869019e-01 -6.7201423645019531e-01</leafValues></_>
        <_>
          <internalNodes>
            1 2 60 3.4611730370670557e-04 0 -1 1 4.0790244936943054e-02
            -2 -3 123 -1.7584583838470280e-04</internalNodes>
          <leafValues>
            -8.1652200222015381e-01 7.1148538589477539e-01
            7.9636591672897339e-01 -1.9667577743530273e-01</leafValues></_>
        <_>
          <internalNodes>
            1 2 130 -1.9535063765943050e-03 0 -1 74
            -2.0738832652568817e-02 -2 -3 124 -1.3024408835917711e-03</internalNodes>
          <leafValues>
            9.1391998529434204e-01 -3.7028223276138306e-02
            3.3890137076377869e-01 -7.6641291379928589e-01</leafValues></_>
        <_>
          <internalNodes>
            1 2 78 -5.1930155605077744e-03 0 -1 86
            -4.7665555030107498e-03 -2 -3 2 2.8986997902393341e-02</internalNodes>
          <leafValues>
            -9.6456170082092285e-01 8.1062710285186768e-01
            -6.6307932138442993e-01 3.9056736230850220e-01</leafValues></_></weakClassifiers></_>
    <!-- stage 4 -->
    <_>
      <maxWeakCount>5</maxWeakCount>
      <stageThreshold>-1.1475354433059692e+00</stageThreshold>
      <weakClassifiers>
        <_>
          <internalNodes>
            1 2 17 1.7822973430156708e-01 0 -1 12
            -7.9886525869369507e-02 -2 -3 59 6.1491299420595169e-03</internalNodes>
          <leafValues>
            7.1875000000000000e-01 -6.5151512622833252e-01
            -8.7179487943649292e-01 8.3140879869461060e-01</leafValues></_>
        <_>
          <internalNodes>
            1 2 114 -7.1273043751716614e-02 0 -1 96
            1.5154931694269180e-02 -2 -3 26 -4.2249821126461029e-03</internalNodes>
          <leafValues>
            7.9595208168029785e-01 -9.1032624244689941e-01
            6.2165915966033936e-01 -6.0629248619079590e-01</leafValues></_>
        <_>
          <internalNodes>
            1 2 0 -3.1577059999108315e-03 0 -1 92 9.8573379218578339e-03
            -2 -3 8 1.8103403970599174e-02</internalNodes>
          <leafValues>
            7.1424692869186401e-01 -8.1784600019454956e-01
            -7.2197484970092773e-01 3.7922680377960205e-01</leafValues></_>
        <_>
          <internalNodes>
            1 2 113 8.2948813214898109e-03 0 -1 131
            -2.7378532104194164e-03 -2 -3 76 5.4536396637558937e-03</internalNodes>
          <leafValues>
            4.4791409373283386e-01 -6.8675583600997925e-01
            -8.2402330636978149e-01 7.3443019390106201e-01</leafValues></_>
        <_>
          <internalNodes>
            1 2 68 -1.9424967467784882e-02 0 -1 46
            4.7838129103183746e-03 -2 -3 58 3.3430177718400955e-02</internalNodes>
          <leafValues>
            -9.7796273231506348e-01 8.1711876392364502e-01
            4.1780123114585876e-01 -9.3438810110092163e-01</leafValues></_></weakClassifiers></_>
    <!-- stage 5 -->
    <_>
      <maxWeakCount>4</maxWeakCount>
      <stageThreshold>-1.0731519460678101e+00</stageThreshold>
      <weakClassifiers>
        <_>
          <internalNodes>
            1 2 119 -7.8299850225448608e-02 0 -1 81
            1.0502995923161507e-02 -2 -3 5 -2.8833597898483276e-03</internalNodes>
          <leafValues>
            -4.8387095332145691e-01 8.5925924777984619e-01
            4.1714286804199219e-01 -6.2068963050842285e-01</leafValues></_>
        <_>
          <internalNodes>
            1 2 120 -3.0990023165941238e-02 0 -1 13
            1.9245887175202370e-02 -2 -3 10 -2.9556907247751951e-03</internalNodes>
          <leafValues>
            -5.3304576873779297e-01 7.6339846849441528e-01
            6.2855845689773560e-01 -5.3651589155197144e-01</leafValues></_>
        <_>
          <internalNodes>
            1 2 55 2.3252479732036591e-03 0 -1 72
            -3.9523191750049591e-02 -2 -3 77 1.0915697552263737e-02</internalNodes>
          <leafValues>
            6.9282841682434082e-01 -7.7765482664108276e-01
            -9.1482418775558472e-01 5.5237120389938354e-01</leafValues></_>
        <_>
          <internalNodes>
            1 2 80 5.8656884357333183e-04 0 -1 100
            2.7161523699760437e-02 -2 -3 42 -1.3908955734223127e-03</internalNodes>
          <leafValues>
            -8.9730215072631836e-01 9.0562885999679565e-01
            5.3971511125564575e-01 -4.3820595741271973e-01</leafValues></_></weakClassifiers></_>
    <!-- stage 6 -->
    <_>
      <maxWeakCount>4</maxWeakCount>
      <stageThreshold>-1.3705365657806396e+00</stageThreshold>
      <weakClassifiers>
        <_>
          <internalNodes>
            1 2 87 -3.2174445688724518e-02 0 -1 110
            2.5044959038496017e-03 -2 -3 22 2.1261300891637802e-02</internalNodes>
          <leafValues>
            -6.4485979080200195e-01 7.1786832809448242e-01
            -6.9072163105010986e-01 3.3783784508705139e-01</leafValues></_>
        <_>
          <internalNodes>
            1 2 61 -7.5845798710361123e-04 0 -1 37
            6.0709245502948761e-02 -2 -3 15 -1.3874459266662598e-01</internalNodes>
          <leafValues>
            -5.3364592790603638e-01 6.1847054958343506e-01
            7.4845665693283081e-01 -6.9356757402420044e-01</leafValues></_>
        <_>
          <internalNodes>
            1 2 23 -5.1062740385532379e-02 0 -1 35
            4.6839155256748199e-03 -2 -3 135 -5.8933491818606853e-03</internalNodes>
          <leafValues>
            -7.5940287113189697e-01 5.6939870119094849e-01
            7.5967037677764893e-01 -6.5313875675201416e-01</leafValues></_>
        <_>
          <internalNodes>
            1 2 82 1.1068098247051239e-03 0 -1 50
            -4.1538639925420284e-03 -2 -3 115 2.1392091002780944e-04</internalNodes>
          <leafValues>
            2.5699752569198608e-01 -8.1964898109436035e-01
            -5.5063068866729736e-01 5.0696986913681030e-01</leafValues></_></weakClassifiers></_>
    <!-- stage 7 -->
    <_>
      <maxWeakCount>5</maxWeakCount>
      <stageThreshold>-1.6404000520706177e+00</stageThreshold>
      <weakClassifiers>
        <_>
          <internalNodes>
            1 2 38 8.0969095230102539e-02 0 -1 128
            1.3954039663076401e-02 -2 -3 56 1.0357402265071869e-01</internalNodes>
          <leafValues>
            -6.6507178544998169e-01 4.2857143282890320e-01
            -4.9693250656127930e-01 8.0728554725646973e-01</leafValues></_>
        <_>
          <internalNodes>
            1 2 62 -2.2314812522381544e-03 0 -1 66
            -6.2503404915332794e-02 -2 -3 51 2.4311933666467667e-03</internalNodes>
          <leafValues>
            -9.3470388650894165e-01 6.0308969020843506e-01
            -6.2343943119049072e-01 4.4087827205657959e-01</leafValues></_>
        <_>
          <internalNodes>
            1 2 121 -5.7796888053417206e-02 0 -1 63
            2.3618835955858231e-02 -2 -3 24 -3.4708674065768719e-03</internalNodes>
          <leafValues>
            -5.7016468048095703e-01 7.0238167047500610e-01
            3.4402182698249817e-01 -6.2983036041259766e-01</leafValues></_>
        <_>
          <internalNodes>
            1 2 30 1.1157222092151642e-02 0 -1 9 -1.9668634049594402e-03
            -2 -3 64 4.8590791411697865e-03</internalNodes>
          <leafValues>
            4.9330225586891174e-01 -6.8160766363143921e-01
            -6.0160940885543823e-01 5.4996591806411743e-01</leafValues></_>
        <_>
          <internalNodes>
            1 2 14 3.1635235063731670e-03 0 -1 1 3.5409156233072281e-02
            -2 -3 85 7.4045713990926743e-03</internalNodes>
          <leafValues>
            -4.9478492140769958e-01 5.8966618776321411e-01
            7.9969286918640137e-01 -8.8877844810485840e-01</leafValues></_></weakClassifiers></_>
    <!-- stage 8 -->
    <_>
      <maxWeakCount>5</maxWeakCount>
      <stageThreshold>-9.1128635406494141e-01</stageThreshold>
      <weakClassifiers>
        <_>
          <internalNodes>
            1 2 79 -1.1080070398747921e-03 0 -1 19
            -5.8135122060775757e-02 -2 -3 94 2.0709740929305553e-03</internalNodes>
          <leafValues>
            -9.5789474248886108e-01 6.3773584365844727e-01
            -7.9211467504501343e-01 2.1686747670173645e-01</leafValues></_>
        <_>
          <internalNodes>
            1 2 4 2.7023896574974060e-01 0 -1 126
            -3.4201353788375854e-02 -2 -3 25 1.5415173955261707e-02</internalNodes>
          <leafValues>
            5.3096884489059448e-01 -5.5539762973785400e-01
            -8.1536298990249634e-01 7.7391928434371948e-01</leafValues></_>
        <_>
          <internalNodes>
            1 2 103 -9.1270974371582270e-04 0 -1 104
            -1.1000121012330055e-03 -2 -3 65 -6.9084800779819489e-03</internalNodes>
          <leafValues>
            -8.7257128953933716e-01 4.9722847342491150e-01
            7.4359983205795288e-01 -7.2827458381652832e-01</leafValues></_>
        <_>
          <internalNodes>
            1 2 73 -1.3971554115414619e-02 0 -1 44
            -8.3889970555901527e-03 -2 -3 6 2.0261604338884354e-02</internalNodes>
          <leafValues>
            -8.8483011722564697e-01 5.2387195825576782e-01
            -6.4497375488281250e-01 4.7089117765426636e-01</leafValues></_>
        <_>
          <internalNodes>
            1 2 32 -2.6126433163881302e-02 0 -1 84
            1.2228420004248619e-02 -2 -3 43 2.5087099522352219e-02</internalNodes>
          <leafValues>
            -5.9346008300781250e-01 9.1875565052032471e-01
            -5.8487439155578613e-01 5.3949809074401855e-01</leafValues></_></weakClassifiers></_>
    <!-- stage 9 -->
    <_>
      <maxWeakCount>5</maxWeakCount>
      <stageThreshold>-9.8205190896987915e-01</stageThreshold>
      <weakClassifiers>
        <_>
          <internalNodes>
            1 2 18 1.9639006257057190e-01 0 -1 71 1.1514220386743546e-02
            -2 -3 48 1.6964668035507202e-01</internalNodes>
          <leafValues>
            -5.6709957122802734e-01 6.1006289720535278e-01
            -5.4471546411514282e-01 7.3831772804260254e-01</leafValues></_>
        <_>
          <internalNodes>
            1 2 57 -5.0734460353851318e-02 0 -1 129
            -1.7351422458887100e-02 -2 -3 99 -9.6486031543463469e-04</internalNodes>
          <leafValues>
            1. -1. 5.3590738773345947e-01 -2.5561857223510742e-01</leafValues></_>
        <_>
          <internalNodes>
            1 2 89 3.1957664759829640e-04 0 -1 90 1.4396526385098696e-03
            -2 -3 49 2.0582759752869606e-03</internalNodes>
          <leafValues>
            -7.3497903347015381e-01 1.1867343634366989e-01
            -6.0426265001296997e-01 4.7739860415458679e-01</leafValues></_>
        <_>
          <internalNodes>
            1 2 127 5.2529810927808285e-03 0 -1 21
            9.5495185814797878e-04 -2 -3 54 -1.8598813563585281e-02</internalNodes>
          <leafValues>
            -6.0449367761611938e-01 2.7444091439247131e-01
            -6.2320053577423096e-01 6.7436343431472778e-01</leafValues></_>
        <_>
          <internalNodes>
            1 2 115 2.2457266459241509e-04 0 -1 134
            -6.3934084028005600e-03 -2 -3 45 -1.8328047590330243e-03</internalNodes>
          <leafValues>
            2.2145743668079376e-01 -9.1011130809783936e-01
            -9.2544287443161011e-01 3.0120435357093811e-01</leafValues></_></weakClassifiers></_>
    <!-- stage 10 -->
    <_>
      <maxWeakCount>6</maxWeakCount>
      <stageThreshold>-1.1377265453338623e+00</stageThreshold>
      <weakClassifiers>
        <_>
          <internalNodes>
            1 2 75 1.6287237405776978e-01 0 -1 11
            -1.0034101456403732e-01 -2 -3 20 1.9166547805070877e-02</internalNodes>
          <leafValues>
            8.5858583450317383e-01 -4.1666665673255920e-01
            -6.5454542636871338e-01 7.3539930582046509e-01</leafValues></_>
        <_>
          <internalNodes>
            1 2 117 2.7516416739672422e-03 0 -1 39
            -4.3632186949253082e-02 -2 -3 125 1.0081471409648657e-03</internalNodes>
          <leafValues>
            4.5114487409591675e-01 -6.7353802919387817e-01
            -8.0645465850830078e-01 5.9088921546936035e-01</leafValues></_>
        <_>
          <internalNodes>
            1 2 118 7.5803860090672970e-03 0 -1 133
            -1.1909751221537590e-02 -2 -3 101 -1.9670743495225906e-03</internalNodes>
          <leafValues>
            6.0669815540313721e-01 -3.9169564843177795e-01
            -9.4081264734268188e-01 7.5366926193237305e-01</leafValues></_>
        <_>
          <internalNodes>
            1 2 83 5.9478753246366978e-04 0 -1 108
            5.0983123946934938e-04 -2 -3 106 6.9477381184697151e-03</internalNodes>
          <leafValues>
            -7.7639651298522949e-01 1.2526252865791321e-01
            4.7240081429481506e-01 -7.8495937585830688e-01</leafValues></_>
        <_>
          <internalNodes>
            1 2 40 -2.1276447921991348e-02 0 -1 31
            -2.7712248265743256e-03 -2 -3 93 5.0878305919468403e-03</internalNodes>
          <leafValues>
            1. -9.5284694433212280e-01 4.0543517470359802e-01
            -4.6190404891967773e-01</leafValues></_>
        <_>
          <internalNodes>
            1 2 53 -4.2611625045537949e-02 0 -1 112
            -3.5695862607099116e-04 -2 -3 36 2.1717562340199947e-03</internalNodes>
          <leafValues>
            -7.3528790473937988e-01 8.3977431058883667e-01
            -4.3693074584007263e-01 5.7729309797286987e-01</leafValues></_></weakClassifiers></_></stages>
  <features>
    <_>
      <rects>
        <_>
          0 0 18 2 -1.</_>
        <_>
          0 0 9 1 2.</_>
        <_>
          9 1 9 1 2.</_></rects>
      <tilted>0</tilted></_>
    <_>
      <rects>
        <_>
          0 1 6 16 -1.</_>
        <_>
          0 1 3 8 2.</_>
        <_>
          3 9 3 8 2.</_></rects>
      <tilted>0</tilted></_>
    <_>
      <rects>
        <_>
          0 2 8 12 -1.</_>
        <_>
          0 2 4 6 2.</_>
        <_>
          4 8 4 6 2.</_></rects>
      <tilted>0</tilted></_>
    <_>
      <rects>
        <_>
          0 6 20 21 -1.</_>
        <_>
          5 6 10 21 2.</_></rects>
      <tilted>0</tilted></_>
    <_>
      <rects>
        <_>
          0 8 24 17 -1.</_>
        <_>
          6 8 12 17 2.</_></rects>
      <tilted>0</tilted></_>
    <_>
      <rects>
        <_>
          0 10 2 8 -1.</_>
        <_>
          0 10 1 4 2.</_>
        <_>
          1 14 1 4 2.</_></rects>
      <tilted>0</tilted></_>
    <_>
      <rects>
        <_>
          0 12 8 10 -1.</_>
        <_>
          2 12 4 10 2.</_></rects>
      <tilted>0</tilted></_>
    <_>
      <rects>
        <_>
          0 13 4 16 -1.</_>
        <_>
          0 13 2 8 2.</_>
        <_>
          2 21 2 8 2.</_></rects>
      <tilted>0</tilted></_>
    <_>
      <rects>
        <_>
          0 14 12 9 -1.</_>
        <_>
          3 14 6 9 2.</_></rects>
      <tilted>0</tilted></_>
    <_>
      <rects>
        <_>
          0 16 2 3 -1.</_>
        <_>
          1 16 1 3 2.</_></rects>
      <tilted>0</tilted></_>
    <_>
      <rects>
        <_>
          0 19 2 6 -1.</_>
        <_>
          0 19 1 3 2.</_>
        <_>
          1 22 1 3 2.</_></rects>
      <tilted>0</tilted></_>
    <_>
      <rects>
        <_>
          0 19 24 13 -1.</_>
        <_>
          6 19 12 13 2.</_></rects>
      <tilted>0</tilted></_>
    <_>
      <rects>
        <_>
          1 1 21 3 -1.</_>
        <_>
          8 2 7 1 9.</_></rects>
      <tilted>0</tilted></_>
    <_>
      <rects>
        <_>
          1 1 16 10 -1.</_>
        <_>
          1 1 8 5 2.</_>
        <_>
          9 6 8 5 2.</_></rects>
      <tilted>0</tilted></_>
    <_>
      <rects>
        <_>
          1 2 2 8 -1.</_>
        <_>
          1 2 1 4 2.</_>
        <_>
          2 6 1 4 2.</_></rects>
      <tilted>0</tilted></_>
    <_>
      <rects>
        <_>
          1 3 24 21 -1.</_>
        <_>
          9 10 8 7 9.</_></rects>
      <tilted>0</tilted></_>
    <_>
      <rects>
        <_>
          1 6 24 16 -1.</_>
        <_>
          7 6 12 16 2.</_></rects>
      <tilted>0</tilted></_>
    <_>
      <rects>
        <_>
          1 8 24 13 -1.</_>
        <_>
          7 8 12 13 2.</_></rects>
      <tilted>0</tilted></_>
    <_>
      <rects>
        <_>
          1 8 24 14 -1.</_>
        <_>
          7 8 12 14 2.</_></rects>
      <tilted>0</tilted></_>
    <_>
      <rects>
        <_>
          1 9 21 16 -1.</_>
        <_>
          1 13 21 8 2.</_></rects>
      <tilted>0</tilted></_>
    <_>
      <rects>
        <_>
          1 10 8 19 -1.</_>
        <_>
          5 10 4 19 2.</_></rects>
      <tilted>0</tilted></_>
    <_>
      <rects>
        <_>
          1 22 2 2 -1.</_>
        <_>
          2 22 1 2 2.</_></rects>
      <tilted>0</tilted></_>
    <_>
      <rects>
        <_>
          1 30 24 2 -1.</_>
        <_>
          7 30 12 2 2.</_></rects>
      <tilted>0</tilted></_>
    <_>
      <rects>
        <_>
          2 0 21 12 -1.</_>
        <_>
          2 3 21 6 2.</_></rects>
      <tilted>0</tilted></_>
    <_>
      <rects>
        <_>
          2 1 8 2 -1.</_>
        <_>
          2 1 4 1 2.</_>
        <_>
          6 2 4 1 2.</_></rects>
      <tilted>0</tilted></_>
    <_>
      <rects>
        <_>
          2 1 19 30 -1.</_>
        <_>
          2 16 19 15 2.</_></rects>
      <tilted>0</tilted></_>
    <_>
      <rects>
        <_>
          2 4 3 2 -1.</_>
        <_>
          3 5 1 2 3.</_></rects>
      <tilted>1</tilted></_>
    <_>
      <rects>
        <_>
          2 4 21 12 -1.</_>
        <_>
          9 8 7 4 9.</_></rects>
      <tilted>0</tilted></_>
    <_>
      <rects>
        <_>
          2 4 14 28 -1.</_>
        <_>
          2 11 14 14 2.</_></rects>
      <tilted>0</tilted></_>
    <_>
      <rects>
        <_>
          2 6 21 9 -1.</_>
        <_>
          9 9 7 3 9.</_></rects>
      <tilted>0</tilted></_>
    <_>
      <rects>
        <_>
          2 8 4 19 -1.</_>
        <_>
          4 8 2 19 2.</_></rects>
      <tilted>0</tilted></_>
    <_>
      <rects>
        <_>
          2 11 3 1 -1.</_>
        <_>
          3 11 1 1 3.</_></rects>
      <tilted>0</tilted></_>
    <_>
      <rects>
        <_>
          2 13 20 6 -1.</_>
        <_>
          2 13 10 3 2.</_>
        <_>
          12 16 10 3 2.</_></rects>
      <tilted>0</tilted></_>
    <_>
      <rects>
        <_>
          2 14 21 12 -1.</_>
        <_>
          9 18 7 4 9.</_></rects>
      <tilted>0</tilted></_>
    <_>
      <rects>
        <_>
          3 0 20 4 -1.</_>
        <_>
          3 2 20 2 2.</_></rects>
      <tilted>0</tilted></_>
    <_>
      <rects>
        <_>
          3 1 10 10 -1.</_>
        <_>
          3 1 5 5 2.</_>
        <_>
          8 6 5 5 2.</_></rects>
      <tilted>0</tilted></_>
    <_>
      <rects>
        <_>
          3 2 2 4 -1.</_>
        <_>
          3 2 1 2 2.</_>
        <_>
          4 4 1 2 2.</_></rects>
      <tilted>0</tilted></_>
    <_>
      <rects>
        <_>
          3 4 20 11 -1.</_>
        <_>
          8 4 10 11 2.</_></rects>
      <tilted>0</tilted></_>
    <_>
      <rects>
        <_>
          3 6 20 8 -1.</_>
        <_>
          8 6 10 8 2.</_></rects>
      <tilted>0</tilted></_>
    <_>
      <rects>
        <_>
          3 11 14 8 -1.</_>
        <_>
          3 11 7 4 2.</_>
        <_>
          10 15 7 4 2.</_></rects>
      <tilted>0</tilted></_>
    <_>
      <rects>
        <_>
          3 21 22 4 -1.</_>
        <_>
          3 23 22 2 2.</_></rects>
      <tilted>0</tilted></_>
    <_>
      <rects>
        <_>
          4 5 10 6 -1.</_>
        <_>
          9 5 5 6 2.</_></rects>
      <tilted>0</tilted></_>
    <_>
      <rects>
        <_>
          4 9 6 10 -1.</_>
        <_>
          4 9 3 5 2.</_>
        <_>
          7 14 3 5 2.</_></rects>
      <tilted>0</tilted></_>
    <_>
      <rects>
        <_>
          4 12 20 6 -1.</_>
        <_>
          4 12 10 3 2.</_>
        <_>
          14 15 10 3 2.</_></rects>
      <tilted>0</tilted></_>
    <_>
      <rects>
        <_>
          4 15 18 6 -1.</_>
        <_>
          10 17 6 2 9.</_></rects>
      <tilted>0</tilted></_>
    <_>
      <rects>
        <_>
          4 17 18 1 -1.</_>
        <_>
          10 17 6 1 3.</_></rects>
      <tilted>0</tilted></_>
    <_>
      <rects>
        <_>
          4 23 2 2 -1.</_>
        <_>
          4 23 2 1 2.</_></rects>
      <tilted>1</tilted></_>
    <_>
      <rects>
        <_>
          5 0 18 12 -1.</_>
        <_>
          5 3 18 6 2.</_></rects>
      <tilted>0</tilted></_>
    <_>
      <rects>
        <_>
          5 2 16 28 -1.</_>
        <_>
          5 9 16 14 2.</_></rects>
      <tilted>0</tilted></_>
    <_>
      <rects>
        <_>
          5 16 13 9 -1.</_>
        <_>
          5 19 13 3 3.</_></rects>
      <tilted>0</tilted></_>
    <_>
      <rects>
        <_>
          5 29 9 3 -1.</_>
        <_>
          5 30 9 1 3.</_></rects>
      <tilted>0</tilted></_>
    <_>
      <rects>
        <_>
          5 30 8 2 -1.</_>
        <_>
          5 30 4 1 2.</_>
        <_>
          9 31 4 1 2.</_></rects>
      <tilted>0</tilted></_>
    <_>
      <rects>
        <_>
          6 0 4 2 -1.</_>
        <_>
          6 0 2 2 2.</_></rects>
      <tilted>1</tilted></_>
    <_>
      <rects>
        <_>
          6 0 6 6 -1.</_>
        <_>
          8 2 2 6 3.</_></rects>
      <tilted>1</tilted></_>
    <_>
      <rects>
        <_>
          6 0 12 6 -1.</_>
        <_>
          6 0 6 3 2.</_>
        <_>
          12 3 6 3 2.</_></rects>
      <tilted>0</tilted></_>
    <_>
      <rects>
        <_>
          6 2 1 24 -1.</_>
        <_>
          6 8 1 12 2.</_></rects>
      <tilted>0</tilted></_>
    <_>
      <rects>
        <_>
          6 2 15 24 -1.</_>
        <_>
          6 8 15 12 2.</_></rects>
      <tilted>0</tilted></_>
    <_>
      <rects>
        <_>
          6 13 12 14 -1.</_>
        <_>
          6 20 12 7 2.</_></rects>
      <tilted>0</tilted></_>
    <_>
      <rects>
        <_>
          6 14 12 9 -1.</_>
        <_>
          9 14 6 9 2.</_></rects>
      <tilted>0</tilted></_>
    <_>
      <rects>
        <_>
          6 15 11 16 -1.</_>
        <_>
          6 19 11 8 2.</_></rects>
      <tilted>0</tilted></_>
    <_>
      <rects>
        <_>
          6 17 12 4 -1.</_>
        <_>
          6 19 12 2 2.</_></rects>
      <tilted>0</tilted></_>
    <_>
      <rects>
        <_>
          6 28 11 2 -1.</_>
        <_>
          6 29 11 1 2.</_></rects>
      <tilted>0</tilted></_>
    <_>
      <rects>
        <_>
          7 0 13 2 -1.</_>
        <_>
          7 1 13 1 2.</_></rects>
      <tilted>0</tilted></_>
    <_>
      <rects>
        <_>
          7 4 12 6 -1.</_>
        <_>
          7 7 12 3 2.</_></rects>
      <tilted>0</tilted></_>
    <_>
      <rects>
        <_>
          7 7 15 8 -1.</_>
        <_>
          7 9 15 4 2.</_></rects>
      <tilted>0</tilted></_>
    <_>
      <rects>
        <_>
          7 10 2 3 -1.</_>
        <_>
          7 10 1 3 2.</_></rects>
      <tilted>1</tilted></_>
    <_>
      <rects>
        <_>
          7 11 12 16 -1.</_>
        <_>
          7 19 12 8 2.</_></rects>
      <tilted>0</tilted></_>
    <_>
      <rects>
        <_>
          7 13 10 18 -1.</_>
        <_>
          7 19 10 6 3.</_></rects>
      <tilted>0</tilted></_>
    <_>
      <rects>
        <_>
          7 13 11 12 -1.</_>
        <_>
          7 19 11 6 2.</_></rects>
      <tilted>0</tilted></_>
    <_>
      <rects>
        <_>
          8 0 3 8 -1.</_>
        <_>
          9 1 1 8 3.</_></rects>
      <tilted>1</tilted></_>
    <_>
      <rects>
        <_>
          8 0 8 4 -1.</_>
        <_>
          8 1 8 2 2.</_></rects>
      <tilted>0</tilted></_>
    <_>
      <rects>
        <_>
          8 0 16 2 -1.</_>
        <_>
          8 0 8 1 2.</_>
        <_>
          16 1 8 1 2.</_></rects>
      <tilted>0</tilted></_>
    <_>
      <rects>
        <_>
          8 0 11 4 -1.</_>
        <_>
          8 2 11 2 2.</_></rects>
      <tilted>0</tilted></_>
    <_>
      <rects>
        <_>
          8 0 12 6 -1.</_>
        <_>
          8 2 12 2 3.</_></rects>
      <tilted>0</tilted></_>
    <_>
      <rects>
        <_>
          8 0 12 8 -1.</_>
        <_>
          8 2 12 4 2.</_></rects>
      <tilted>0</tilted></_>
    <_>
      <rects>
        <_>
          8 1 9 21 -1.</_>
        <_>
          11 8 3 7 9.</_></rects>
      <tilted>0</tilted></_>
    <_>
      <rects>
        <_>
          8 4 9 14 -1.</_>
        <_>
          11 4 3 14 3.</_></rects>
      <tilted>0</tilted></_>
    <_>
      <rects>
        <_>
          8 11 10 21 -1.</_>
        <_>
          8 18 10 7 3.</_></rects>
      <tilted>0</tilted></_>
    <_>
      <rects>
        <_>
          8 12 4 4 -1.</_>
        <_>
          8 12 4 2 2.</_></rects>
      <tilted>1</tilted></_>
    <_>
      <rects>
        <_>
          8 12 9 4 -1.</_>
        <_>
          8 14 9 2 2.</_></rects>
      <tilted>0</tilted></_>
    <_>
      <rects>
        <_>
          8 14 8 4 -1.</_>
        <_>
          10 14 4 4 2.</_></rects>
      <tilted>0</tilted></_>
    <_>
      <rects>
        <_>
          8 16 16 7 -1.</_>
        <_>
          12 16 8 7 2.</_></rects>
      <tilted>0</tilted></_>
    <_>
      <rects>
        <_>
          8 17 13 6 -1.</_>
        <_>
          8 19 13 2 3.</_></rects>
      <tilted>0</tilted></_>
    <_>
      <rects>
        <_>
          8 18 9 2 -1.</_>
        <_>
          8 19 9 1 2.</_></rects>
      <tilted>0</tilted></_>
    <_>
      <rects>
        <_>
          8 20 15 2 -1.</_>
        <_>
          13 20 5 2 3.</_></rects>
      <tilted>0</tilted></_>
    <_>
      <rects>
        <_>
          8 20 9 8 -1.</_>
        <_>
          8 22 9 4 2.</_></rects>
      <tilted>0</tilted></_>
    <_>
      <rects>
        <_>
          9 2 6 30 -1.</_>
        <_>
          11 12 2 10 9.</_></rects>
      <tilted>0</tilted></_>
    <_>
      <rects>
        <_>
          9 2 16 8 -1.</_>
        <_>
          9 2 8 4 2.</_>
        <_>
          17 6 8 4 2.</_></rects>
      <tilted>0</tilted></_>
    <_>
      <rects>
        <_>
          9 7 10 9 -1.</_>
        <_>
          9 10 10 3 3.</_></rects>
      <tilted>0</tilted></_>
    <_>
      <rects>
        <_>
          9 25 6 4 -1.</_>
        <_>
          9 26 6 2 2.</_></rects>
      <tilted>0</tilted></_>
    <_>
      <rects>
        <_>
          9 26 8 4 -1.</_>
        <_>
          9 27 8 2 2.</_></rects>
      <tilted>0</tilted></_>
    <_>
      <rects>
        <_>
          10 1 8 10 -1.</_>
        <_>
          10 1 4 10 2.</_></rects>
      <tilted>1</tilted></_>
    <_>
      <rects>
        <_>
          10 13 4 12 -1.</_>
        <_>
          10 19 4 6 2.</_></rects>
      <tilted>0</tilted></_>
    <_>
      <rects>
        <_>
          10 20 9 9 -1.</_>
        <_>
          10 23 9 3 3.</_></rects>
      <tilted>0</tilted></_>
    <_>
      <rects>
        <_>
          10 25 5 4 -1.</_>
        <_>
          10 26 5 2 2.</_></rects>
      <tilted>0</tilted></_>
    <_>
      <rects>
        <_>
          11 0 4 11 -1.</_>
        <_>
          12 1 2 11 2.</_></rects>
      <tilted>1</tilted></_>
    <_>
      <rects>
        <_>
          11 1 6 20 -1.</_>
        <_>
          11 1 3 10 2.</_>
        <_>
          14 11 3 10 2.</_></rects>
      <tilted>0</tilted></_>
    <_>
      <rects>
        <_>
          11 2 14 10 -1.</_>
        <_>
          11 2 7 5 2.</_>
        <_>
          18 7 7 5 2.</_></rects>
      <tilted>0</tilted></_>
    <_>
      <rects>
        <_>
          11 4 10 14 -1.</_>
        <_>
          16 4 5 14 2.</_></rects>
      <tilted>0</tilted></_>
    <_>
      <rects>
        <_>
          11 9 2 14 -1.</_>
        <_>
          11 16 2 7 2.</_></rects>
      <tilted>0</tilted></_>
    <_>
      <rects>
        <_>
          11 9 9 4 -1.</_>
        <_>
          14 12 3 4 3.</_></rects>
      <tilted>1</tilted></_>
    <_>
      <rects>
        <_>
          11 10 4 3 -1.</_>
        <_>
          11 11 4 1 3.</_></rects>
      <tilted>0</tilted></_>
    <_>
      <rects>
        <_>
          11 13 6 6 -1.</_>
        <_>
          14 13 3 6 2.</_></rects>
      <tilted>0</tilted></_>
    <_>
      <rects>
        <_>
          11 14 9 4 -1.</_>
        <_>
          14 14 3 4 3.</_></rects>
      <tilted>0</tilted></_>
    <_>
      <rects>
        <_>
          11 17 2 3 -1.</_>
        <_>
          11 18 2 1 3.</_></rects>
      <tilted>0</tilted></_>
    <_>
      <rects>
        <_>
          12 1 6 12 -1.</_>
        <_>
          12 1 3 12 2.</_></rects>
      <tilted>1</tilted></_>
    <_>
      <rects>
        <_>
          12 1 12 1 -1.</_>
        <_>
          12 1 6 1 2.</_></rects>
      <tilted>1</tilted></_>
    <_>
      <rects>
        <_>
          12 2 6 10 -1.</_>
        <_>
          12 7 6 5 2.</_></rects>
      <tilted>0</tilted></_>
    <_>
      <rects>
        <_>
          13 16 6 12 -1.</_>
        <_>
          16 16 3 12 2.</_></rects>
      <tilted>0</tilted></_>
    <_>
      <rects>
        <_>
          14 1 11 4 -1.</_>
        <_>
          14 1 11 2 2.</_></rects>
      <tilted>1</tilted></_>
    <_>
      <rects>
        <_>
          14 9 6 4 -1.</_>
        <_>
          14 9 3 4 2.</_></rects>
      <tilted>1</tilted></_>
    <_>
      <rects>
        <_>
          15 7 6 14 -1.</_>
        <_>
          17 7 2 14 3.</_></rects>
      <tilted>0</tilted></_>
    <_>
      <rects>
        <_>
          15 8 7 4 -1.</_>
        <_>
          15 10 7 2 2.</_></rects>
      <tilted>0</tilted></_>
    <_>
      <rects>
        <_>
          15 14 9 3 -1.</_>
        <_>
          18 14 3 3 3.</_></rects>
      <tilted>0</tilted></_>
    <_>
      <rects>
        <_>
          16 1 9 6 -1.</_>
        <_>
          16 1 9 3 2.</_></rects>
      <tilted>1</tilted></_>
    <_>
      <rects>
        <_>
          16 7 4 12 -1.</_>
        <_>
          16 7 2 6 2.</_>
        <_>
          18 13 2 6 2.</_></rects>
      <tilted>0</tilted></_>
    <_>
      <rects>
        <_>
          16 10 8 14 -1.</_>
        <_>
          20 10 4 14 2.</_></rects>
      <tilted>0</tilted></_>
    <_>
      <rects>
        <_>
          16 17 6 4 -1.</_>
        <_>
          18 17 2 4 3.</_></rects>
      <tilted>0</tilted></_>
    <_>
      <rects>
        <_>
          17 1 8 4 -1.</_>
        <_>
          17 1 4 2 2.</_>
        <_>
          21 3 4 2 2.</_></rects>
      <tilted>0</tilted></_>
    <_>
      <rects>
        <_>
          17 1 6 8 -1.</_>
        <_>
          17 1 6 4 2.</_></rects>
      <tilted>1</tilted></_>
    <_>
      <rects>
        <_>
          17 2 8 14 -1.</_>
        <_>
          17 2 4 7 2.</_>
        <_>
          21 9 4 7 2.</_></rects>
      <tilted>0</tilted></_>
    <_>
      <rects>
        <_>
          17 9 8 15 -1.</_>
        <_>
          21 9 4 15 2.</_></rects>
      <tilted>0</tilted></_>
    <_>
      <rects>
        <_>
          17 10 7 12 -1.</_>
        <_>
          14 13 7 6 2.</_></rects>
      <tilted>1</tilted></_>
    <_>
      <rects>
        <_>
          17 17 2 10 -1.</_>
        <_>
          17 22 2 5 2.</_></rects>
      <tilted>0</tilted></_>
    <_>
      <rects>
        <_>
          18 14 2 3 -1.</_>
        <_>
          18 14 1 3 2.</_></rects>
      <tilted>1</tilted></_>
    <_>
      <rects>
        <_>
          19 12 6 7 -1.</_>
        <_>
          21 14 2 7 3.</_></rects>
      <tilted>1</tilted></_>
    <_>
      <rects>
        <_>
          21 0 4 6 -1.</_>
        <_>
          19 2 4 2 3.</_></rects>
      <tilted>1</tilted></_>
    <_>
      <rects>
        <_>
          21 1 4 2 -1.</_>
        <_>
          21 1 4 1 2.</_></rects>
      <tilted>1</tilted></_>
    <_>
      <rects>
        <_>
          21 5 4 18 -1.</_>
        <_>
          23 5 2 18 2.</_></rects>
      <tilted>0</tilted></_>
    <_>
      <rects>
        <_>
          21 11 4 5 -1.</_>
        <_>
          23 11 2 5 2.</_></rects>
      <tilted>0</tilted></_>
    <_>
      <rects>
        <_>
          21 15 4 5 -1.</_>
        <_>
          22 15 2 5 2.</_></rects>
      <tilted>0</tilted></_>
    <_>
      <rects>
        <_>
          21 17 4 4 -1.</_>
        <_>
          22 17 2 4 2.</_></rects>
      <tilted>0</tilted></_>
    <_>
      <rects>
        <_>
          21 17 4 6 -1.</_>
        <_>
          23 17 2 6 2.</_></rects>
      <tilted>0</tilted></_>
    <_>
      <rects>
        <_>
          21 22 4 6 -1.</_>
        <_>
          22 23 2 6 2.</_></rects>
      <tilted>1</tilted></_>
    <_>
      <rects>
        <_>
          21 26 4 2 -1.</_>
        <_>
          21 26 2 2 2.</_></rects>
      <tilted>1</tilted></_>
    <_>
      <rects>
        <_>
          22 5 3 2 -1.</_>
        <_>
          22 5 3 1 2.</_></rects>
      <tilted>1</tilted></_></features></cascade>
</opencv_storage>
