<?xml version="1.0"?>
<opencv_storage>
<stage5>
  <maxWeakCount>4</maxWeakCount>
  <stageThreshold>-1.0731519460678101e+00</stageThreshold>
  <weakClassifiers>
    <_>
      <internalNodes>
        1 2 436760 -7.8299850225448608e-02 0 -1 258088
        1.0502995923161507e-02 -2 -3 16704 -2.8833597898483276e-03</internalNodes>
      <leafValues>
        -4.8387095332145691e-01 8.5925924777984619e-01
        4.1714286804199219e-01 -6.2068963050842285e-01</leafValues></_>
    <_>
      <internalNodes>
        1 2 437482 -3.0990023165941238e-02 0 -1 34665
        1.9245887175202370e-02 -2 -3 26439 -2.9556907247751951e-03</internalNodes>
      <leafValues>
        -5.3304576873779297e-01 7.6339846849441528e-01
        6.2855845689773560e-01 -5.3651589155197144e-01</leafValues></_>
    <_>
      <internalNodes>
        1 2 185579 2.3252479732036591e-03 0 -1 239106
        -3.9523191750049591e-02 -2 -3 253667 1.0915697552263737e-02</internalNodes>
      <leafValues>
        6.9282841682434082e-01 -7.7765482664108276e-01
        -9.1482418775558472e-01 5.5237120389938354e-01</leafValues></_>
    <_>
      <internalNodes>
        1 2 256056 5.8656884357333183e-04 0 -1 325968
        2.7161523699760437e-02 -2 -3 138056 -1.3908955734223127e-03</internalNodes>
      <leafValues>
        -8.9730215072631836e-01 9.0562885999679565e-01
        5.3971511125564575e-01 -4.3820595741271973e-01</leafValues></_></weakClassifiers></stage5>
</opencv_storage>
