<?xml version="1.0"?>
<opencv_storage>
<stage8>
  <maxWeakCount>5</maxWeakCount>
  <stageThreshold>-9.1128635406494141e-01</stageThreshold>
  <weakClassifiers>
    <_>
      <internalNodes>
        1 2 254680 -1.1080070398747921e-03 0 -1 48204
        -5.8135122060775757e-02 -2 -3 313732 2.0709740929305553e-03</internalNodes>
      <leafValues>
        -9.5789474248886108e-01 6.3773584365844727e-01
        -7.9211467504501343e-01 2.1686747670173645e-01</leafValues></_>
    <_>
      <internalNodes>
        1 2 14517 2.7023896574974060e-01 0 -1 484201
        -3.4201353788375854e-02 -2 -3 66686 1.5415173955261707e-02</internalNodes>
      <leafValues>
        5.3096884489059448e-01 -5.5539762973785400e-01
        -8.1536298990249634e-01 7.7391928434371948e-01</leafValues></_>
    <_>
      <internalNodes>
        1 2 330763 -9.1270974371582270e-04 0 -1 332947
        -1.1000121012330055e-03 -2 -3 224753 -6.9084800779819489e-03</internalNodes>
      <leafValues>
        -8.7257128953933716e-01 4.9722847342491150e-01
        7.4359983205795288e-01 -7.2827458381652832e-01</leafValues></_>
    <_>
      <internalNodes>
        1 2 239149 -1.3971554115414619e-02 0 -1 145347
        -8.3889970555901527e-03 -2 -3 19443 2.0261604338884354e-02</internalNodes>
      <leafValues>
        -8.8483011722564697e-01 5.2387195825576782e-01
        -6.4497375488281250e-01 4.7089117765426636e-01</leafValues></_>
    <_>
      <internalNodes>
        1 2 83348 -2.6126433163881302e-02 0 -1 260953
        1.2228420004248619e-02 -2 -3 142430 2.5087099522352219e-02</internalNodes>
      <leafValues>
        -5.9346008300781250e-01 9.1875565052032471e-01
        -5.8487439155578613e-01 5.3949809074401855e-01</leafValues></_></weakClassifiers></stage8>
</opencv_storage>
