<?xml version="1.0"?>
<opencv_storage>
<stage1>
  <maxWeakCount>3</maxWeakCount>
  <stageThreshold>-7.3994946479797363e-01</stageThreshold>
  <weakClassifiers>
    <_>
      <internalNodes>
        1 2 341105 3.1198238953948021e-02 0 -1 154879
        -6.5274298191070557e-02 -2 -3 84239 4.5816786587238312e-02</internalNodes>
      <leafValues>
        6.6666668653488159e-01 -8.8636362552642822e-01
        -8.1132078170776367e-01 9.2265194654464722e-01</leafValues></_>
    <_>
      <internalNodes>
        1 2 71058 2.6159679889678955e-01 0 -1 94865
        -4.3736182153224945e-02 -2 -3 407493 -1.7044404521584511e-02</internalNodes>
      <leafValues>
        8.5639345645904541e-01 -6.0728782415390015e-01
        -9.1709548234939575e-01 9.5021581649780273e-01</leafValues></_>
    <_>
      <internalNodes>
        1 2 11366 1.1677641421556473e-01 0 -1 182409
        1.4604590833187103e-02 -2 -3 228992 1.7052300274372101e-02</internalNodes>
      <leafValues>
        -7.8502219915390015e-01 8.2004821300506592e-01
        -8.4070414304733276e-01 8.7504363059997559e-01</leafValues></_></weakClassifiers></stage1>
</opencv_storage>
