<?xml version="1.0"?>
<opencv_storage>
<stage15>
  <maxWeakCount>10</maxWeakCount>
  <stageThreshold>-1.3438286781311035e+00</stageThreshold>
  <weakClassifiers>
    <_>
      <internalNodes>
        1 2 184494 2.4246153235435486e-01 0 -1 109985
        -4.9380756914615631e-02 -2 -3 49944 3.1769666820764542e-03</internalNodes>
      <leafValues>
        4.7016707062721252e-01 -4.0047207474708557e-01
        -5.3982299566268921e-01 6.8809980154037476e-01</leafValues></_>
    <_>
      <internalNodes>
        1 2 382397 -3.6567063070833683e-03 0 -1 67844
        7.8748725354671478e-04 -2 -3 497652 -5.6603653356432915e-03</internalNodes>
      <leafValues>
        -3.2511541247367859e-01 4.7494280338287354e-01
        2.0719853043556213e-01 -5.6123113632202148e-01</leafValues></_>
    <_>
      <internalNodes>
        1 2 373680 -1.6666095703840256e-02 0 -1 15315
        -3.1730150803923607e-03 -2 -3 282261 -3.3160191960632801e-03</internalNodes>
      <leafValues>
        8.0657225847244263e-01 -9.3413263559341431e-01
        4.1217061877250671e-01 -2.0737171173095703e-01</leafValues></_>
    <_>
      <internalNodes>
        1 2 367931 -1.3508814573287964e-01 0 -1 171873
        2.7417667210102081e-02 -2 -3 50432 2.2102236747741699e-02</internalNodes>
      <leafValues>
        -5.0507289171218872e-01 4.9374824762344360e-01
        -4.7899883985519409e-01 3.0714687705039978e-01</leafValues></_>
    <_>
      <internalNodes>
        1 2 499991 5.7269760873168707e-04 0 -1 483726
        -1.7749608960002661e-03 -2 -3 327963 -1.4457310317084193e-04</internalNodes>
      <leafValues>
        4.5524913072586060e-01 -3.5435095429420471e-01
        -4.4754147529602051e-01 7.1534007787704468e-01</leafValues></_>
    <_>
      <internalNodes>
        1 2 449165 6.8688704632222652e-03 0 -1 335568
        -9.7353719174861908e-03 -2 -3 95470 1.3461153954267502e-02</internalNodes>
      <leafValues>
        -6.2746232748031616e-01 2.7397760748863220e-01
        -9.3394076824188232e-01 1.2204825133085251e-01</leafValues></_>
    <_>
      <internalNodes>
        1 2 10778 -1.6919306945055723e-03 0 -1 239493
        4.0012137033045292e-03 -2 -3 74859 6.1328448355197906e-03</internalNodes>
      <leafValues>
        5.4054409265518188e-01 -6.7353677749633789e-01
        -3.9871686697006226e-01 6.7776238918304443e-01</leafValues></_>
    <_>
      <internalNodes>
        1 2 437760 5.0402255728840828e-03 0 -1 472811
        -1.0150733869522810e-03 -2 -3 93118 2.3574033752083778e-02</internalNodes>
      <leafValues>
        -3.3514729142189026e-01 2.7665600180625916e-01
        -9.3072372674942017e-01 1.</leafValues></_>
    <_>
      <internalNodes>
        1 2 268889 2.2364526987075806e-02 0 -1 90257
        -2.3844563402235508e-03 -2 -3 478682 -8.0574145540595055e-03</internalNodes>
      <leafValues>
        5.5415689945220947e-01 -8.9637421071529388e-02 1.
        -8.3786344528198242e-01</leafValues></_>
    <_>
      <internalNodes>
        1 2 92892 -7.4087374377995729e-04 0 -1 127731
        -1.2613919563591480e-02 -2 -3 93051 -9.1489367187023163e-03</internalNodes>
      <leafValues>
        -6.4393156766891479e-01 7.0934849977493286e-01
        4.9865597486495972e-01 -2.8459051251411438e-01</leafValues></_></weakClassifiers></stage15>
</opencv_storage>
