<?xml version="1.0"?>
<opencv_storage>
<stage10>
  <maxWeakCount>8</maxWeakCount>
  <stageThreshold>-1.2375841140747070e+00</stageThreshold>
  <weakClassifiers>
    <_>
      <internalNodes>
        1 2 476212 9.3876957893371582e-02 0 -1 18039
        -5.1576197147369385e-03 -2 -3 145688 1.4197686687111855e-02</internalNodes>
      <leafValues>
        6.0204082727432251e-01 -5.0576603412628174e-01
        -4.6540880203247070e-01 7.2359156608581543e-01</leafValues></_>
    <_>
      <internalNodes>
        1 2 238104 -4.1309267282485962e-02 0 -1 69709
        -6.4276456832885742e-02 -2 -3 182256 -1.1588463559746742e-02</internalNodes>
      <leafValues>
        -8.1342869997024536e-01 6.8463903665542603e-01
        5.0245916843414307e-01 -4.4508984684944153e-01</leafValues></_>
    <_>
      <internalNodes>
        1 2 491459 -6.4446879550814629e-03 0 -1 223855
        -1.7997621325775981e-03 -2 -3 484139 7.6155872084200382e-03</internalNodes>
      <leafValues>
        7.3674970865249634e-01 -2.3583647608757019e-01
        -3.5271194577217102e-01 5.9183782339096069e-01</leafValues></_>
    <_>
      <internalNodes>
        1 2 262496 -6.0118176043033600e-04 0 -1 254728
        -2.9935602098703384e-02 -2 -3 201966 1.6591839492321014e-02</internalNodes>
      <leafValues>
        -8.5875689983367920e-01 4.5237767696380615e-01
        -5.1258546113967896e-01 3.7128913402557373e-01</leafValues></_>
    <_>
      <internalNodes>
        1 2 43107 2.0290245115756989e-01 0 -1 499338
        5.0120800733566284e-03 -2 -3 439115 8.6589939892292023e-03</internalNodes>
      <leafValues>
        -5.4237967729568481e-01 4.6185299754142761e-01
        -7.4448704719543457e-01 4.6884024143218994e-01</leafValues></_>
    <_>
      <internalNodes>
        1 2 280214 -6.1351759359240532e-03 0 -1 371556
        -5.5026542395353317e-03 -2 -3 430203 1.3670136686414480e-03</internalNodes>
      <leafValues>
        8.0327033996582031e-01 -8.1078213453292847e-01
        -5.2086073160171509e-01 2.8053379058837891e-01</leafValues></_>
    <_>
      <internalNodes>
        1 2 310709 1.1159854009747505e-02 0 -1 277966
        -2.9173828661441803e-03 -2 -3 141749 2.6158582419157028e-02</internalNodes>
      <leafValues>
        -7.1204602718353271e-01 3.2208079099655151e-01
        -7.4225103855133057e-01 6.5569037199020386e-01</leafValues></_>
    <_>
      <internalNodes>
        1 2 464694 -1.7592882737517357e-02 0 -1 350869
        -7.0964405313134193e-03 -2 -3 483741 2.2399427834898233e-03</internalNodes>
      <leafValues>
        5.9845548868179321e-01 -4.2494264245033264e-01
        -5.0998133420944214e-01 5.5568122863769531e-01</leafValues></_></weakClassifiers></stage10>
</opencv_storage>
