<?xml version="1.0"?>
<opencv_storage>
<stage8>
  <maxWeakCount>7</maxWeakCount>
  <stageThreshold>-1.5333118438720703e+00</stageThreshold>
  <weakClassifiers>
    <_>
      <internalNodes>
        1 2 103933 8.0894678831100464e-02 0 -1 67202
        4.6458303928375244e-02 -2 -3 186907 1.2719008326530457e-01</internalNodes>
      <leafValues>
        -4.7189348936080933e-01 4.6382978558540344e-01
        -1.2601625919342041e-01 8.2821446657180786e-01</leafValues></_>
    <_>
      <internalNodes>
        1 2 181953 -1.7137059476226568e-03 0 -1 393331
        -1.1037064716219902e-02 -2 -3 171654 2.5409668684005737e-02</internalNodes>
      <leafValues>
        -6.6660577058792114e-01 5.5134946107864380e-01
        -5.5025249719619751e-01 4.2773616313934326e-01</leafValues></_>
    <_>
      <internalNodes>
        1 2 484660 3.4619623329490423e-03 0 -1 24712
        2.0189168862998486e-03 -2 -3 453143 -2.8654942288994789e-03</internalNodes>
      <leafValues>
        -5.1599067449569702e-01 4.2622134089469910e-01
        -6.3309270143508911e-01 5.5307805538177490e-01</leafValues></_>
    <_>
      <internalNodes>
        1 2 168912 -4.6233855187892914e-02 0 -1 477648
        -2.8898473829030991e-02 -2 -3 278596 -2.6256456039845943e-03</internalNodes>
      <leafValues>
        8.7706971168518066e-01 -9.1741979122161865e-01
        3.8763308525085449e-01 -3.6425539851188660e-01</leafValues></_>
    <_>
      <internalNodes>
        1 2 443590 -6.3381403684616089e-02 0 -1 199569
        6.5153213217854500e-03 -2 -3 18770 -6.0451839119195938e-02</internalNodes>
      <leafValues>
        -9.3195050954818726e-02 8.0470919609069824e-01
        5.4921889305114746e-01 -5.5425781011581421e-01</leafValues></_>
    <_>
      <internalNodes>
        1 2 348773 -3.5784565843641758e-03 0 -1 2322
        3.7731692194938660e-02 -2 -3 207903 9.3486309051513672e-03</internalNodes>
      <leafValues>
        -3.6112486850470304e-04 8.0040967464447021e-01
        -7.6599955558776855e-01 4.4498026371002197e-01</leafValues></_>
    <_>
      <internalNodes>
        1 2 238578 -3.7248439621180296e-03 0 -1 387743
        -1.0551970917731524e-03 -2 -3 188250 1.1226484179496765e-01</internalNodes>
      <leafValues>
        -5.5370336771011353e-01 5.8368355035781860e-01
        -4.8320788145065308e-01 2.9490587115287781e-01</leafValues></_></weakClassifiers></stage8>
</opencv_storage>
