<?xml version="1.0"?>
<opencv_storage>
<stage4>
  <maxWeakCount>6</maxWeakCount>
  <stageThreshold>-1.4418829679489136e+00</stageThreshold>
  <weakClassifiers>
    <_>
      <internalNodes>
        1 2 69439 3.4134227037429810e-01 0 -1 475230
        -2.9693899676203728e-02 -2 -3 253667 -2.7723130770027637e-03</internalNodes>
      <leafValues>
        3.0325815081596375e-01 -6.7541766166687012e-01
        -8.8489210605621338e-01 8.3945578336715698e-01</leafValues></_>
    <_>
      <internalNodes>
        1 2 444866 -2.9356859624385834e-02 0 -1 47479
        6.9294884800910950e-02 -2 -3 498284 -3.9157317951321602e-03</internalNodes>
      <leafValues>
        -6.1304879188537598e-01 7.3425447940826416e-01
        5.7997000217437744e-01 -5.9993755817413330e-01</leafValues></_>
    <_>
      <internalNodes>
        1 2 153457 -4.9903966486454010e-02 0 -1 450839
        -9.6379173919558525e-04 -2 -3 111112 -4.8689797520637512e-02</internalNodes>
      <leafValues>
        9.3987131118774414e-01 -2.6413595676422119e-01
        6.4746063947677612e-01 -4.2579266428947449e-01</leafValues></_>
    <_>
      <internalNodes>
        1 2 197920 -1.3903950457461178e-04 0 -1 301350
        -2.0184079185128212e-02 -2 -3 460103 4.8349834978580475e-02</internalNodes>
      <leafValues>
        -6.3725173473358154e-01 5.5908876657485962e-01
        -7.6532107591629028e-01 7.0447367429733276e-01</leafValues></_>
    <_>
      <internalNodes>
        1 2 51761 3.1874284148216248e-02 0 -1 48344
        -3.0944517347961664e-03 -2 -3 350995 -5.4515581578016281e-03</internalNodes>
      <leafValues>
        3.4207022190093994e-01 -5.3378742933273315e-01
        -8.2783252000808716e-01 8.7993252277374268e-01</leafValues></_>
    <_>
      <internalNodes>
        1 2 261619 -9.9270995706319809e-03 0 -1 436846
        -4.7769408673048019e-02 -2 -3 479531 8.9616198092699051e-03</internalNodes>
      <leafValues>
        7.2438019514083862e-01 -9.6109002828598022e-01
        3.5705089569091797e-01 -7.3181694746017456e-01</leafValues></_></weakClassifiers></stage4>
</opencv_storage>
