<?xml version="1.0"?>
<opencv_storage>
<stage9>
  <maxWeakCount>4</maxWeakCount>
  <stageThreshold>-1.2702025175094604e+00</stageThreshold>
  <weakClassifiers>
    <_>
      <internalNodes>
        1 2 950805 4.2774542234838009e-03 0 -1 721770
        -1.8059144495055079e-03 -2 -3 3117440 1.0923985391855240e-02</internalNodes>
      <leafValues>
        1. -8.5384613275527954e-01 -8.4931504726409912e-01
        6.1610966920852661e-01</leafValues></_>
    <_>
      <internalNodes>
        1 2 4802638 6.9661675952374935e-03 0 -1 3651909
        1.0297013819217682e-01 -2 -3 2379631 -4.1186206042766571e-02</internalNodes>
      <leafValues>
        -5.2073073387145996e-01 6.0055059194564819e-01
        6.6201597452163696e-01 -8.7486749887466431e-01</leafValues></_>
    <_>
      <internalNodes>
        1 2 6745940 1.5724387485533953e-03 0 -1 124613
        -3.5468511283397675e-02 -2 -3 3990567 4.8129004426300526e-03</internalNodes>
      <leafValues>
        6.9653916358947754e-01 -6.9495022296905518e-01
        -4.1940811276435852e-01 7.1401035785675049e-01</leafValues></_>
    <_>
      <internalNodes>
        1 2 7508549 -1.5470067039132118e-02 0 -1 724460
        2.6619322597980499e-02 -2 -3 1742194 -1.1869762092828751e-03</internalNodes>
      <leafValues>
        6.8273180723190308e-01 -8.1808263063430786e-01
        4.7781440615653992e-01 -5.9203660488128662e-01</leafValues></_></weakClassifiers></stage9>
</opencv_storage>
