<?xml version="1.0"?>
<opencv_storage>
<stage6>
  <maxWeakCount>3</maxWeakCount>
  <stageThreshold>-8.6912840604782104e-01</stageThreshold>
  <weakClassifiers>
    <_>
      <internalNodes>
        1 2 2275414 1.7416231334209442e-01 0 -1 2949215
        -1.5391462482511997e-02 -2 -3 3975065 -8.9317962527275085e-02</internalNodes>
      <leafValues>
        8.4415584802627563e-01 -7.6530611515045166e-01
        -8.5321098566055298e-01 7.1232879161834717e-01</leafValues></_>
    <_>
      <internalNodes>
        1 2 4627014 1.0113359894603491e-03 0 -1 7597461
        6.7662075161933899e-03 -2 -3 2087340 -1.7055138945579529e-02</internalNodes>
      <leafValues>
        -7.5986099243164062e-01 5.4316115379333496e-01
        -8.5545706748962402e-01 6.7900484800338745e-01</leafValues></_>
    <_>
      <internalNodes>
        1 2 3421460 -1.9207872450351715e-02 0 -1 7002195
        -1.6870853141881526e-04 -2 -3 4285314 5.2231743931770325e-02</internalNodes>
      <leafValues>
        7.4571651220321655e-01 -6.0222291946411133e-01
        -7.2600013017654419e-01 6.8336737155914307e-01</leafValues></_></weakClassifiers></stage6>
</opencv_storage>
