<?xml version="1.0"?>
<opencv_storage>
<stage12>
  <maxWeakCount>5</maxWeakCount>
  <stageThreshold>-1.0744243860244751e+00</stageThreshold>
  <weakClassifiers>
    <_>
      <internalNodes>
        1 2 2272130 4.8148981295526028e-04 0 -1 2384579
        -3.0307132750749588e-02 -2 -3 6086091 -4.7472254664171487e-05</internalNodes>
      <leafValues>
        5.7541900873184204e-01 -5.5289423465728760e-01
        -6.1363637447357178e-01 7.5480771064758301e-01</leafValues></_>
    <_>
      <internalNodes>
        1 2 5223711 1.5415702946484089e-03 0 -1 842970
        2.8347933664917946e-02 -2 -3 2885940 -7.3440512642264366e-03</internalNodes>
      <leafValues>
        -7.2898435592651367e-01 3.4103494882583618e-01
        -9.4781327247619629e-01 6.4289605617523193e-01</leafValues></_>
    <_>
      <internalNodes>
        1 2 7666063 -1.3438496738672256e-02 0 -1 5340872
        -5.2644405514001846e-04 -2 -3 2013403 1.0131640359759331e-02</internalNodes>
      <leafValues>
        7.4055057764053345e-01 -6.1479562520980835e-01
        -6.9968450069427490e-01 4.1993263363838196e-01</leafValues></_>
    <_>
      <internalNodes>
        1 2 6996080 -3.2713174005039036e-04 0 -1 2820090
        5.1193364924984053e-06 -2 -3 4004342 -5.2420385181903839e-03</internalNodes>
      <leafValues>
        -7.1390682458877563e-01 5.7808154821395874e-01
        5.7034766674041748e-01 -7.6550865173339844e-01</leafValues></_>
    <_>
      <internalNodes>
        1 2 129797 -1.9138584611937404e-03 0 -1 6088971
        -5.1684514619410038e-04 -2 -3 7906761 -3.3563035540282726e-03</internalNodes>
      <leafValues>
        -5.4438251256942749e-01 8.9281874895095825e-01
        6.0803711414337158e-01 -5.7728701829910278e-01</leafValues></_></weakClassifiers></stage12>
</opencv_storage>
