<?xml version="1.0"?>
<opencv_storage>
<stage7>
  <maxWeakCount>3</maxWeakCount>
  <stageThreshold>-7.7837097644805908e-01</stageThreshold>
  <weakClassifiers>
    <_>
      <internalNodes>
        1 2 7638428 -9.3521056696772575e-03 0 -1 3786556
        1.4162270352244377e-02 -2 -3 1916162 2.8003845363855362e-02</internalNodes>
      <leafValues>
        -7.3469388484954834e-01 7.7408635616302490e-01
        -6.7391306161880493e-01 5.9712231159210205e-01</leafValues></_>
    <_>
      <internalNodes>
        1 2 3186583 -5.0495127215981483e-03 0 -1 2797027
        3.1871084123849869e-02 -2 -3 7159386 5.6280590593814850e-02</internalNodes>
      <leafValues>
        -6.8751883506774902e-01 7.4090778827667236e-01
        -6.9476211071014404e-01 8.1107759475708008e-01</leafValues></_>
    <_>
      <internalNodes>
        1 2 5585292 -2.5793409440666437e-03 0 -1 3941606
        -2.5224999990314245e-04 -2 -3 7043944 2.1127309650182724e-02</internalNodes>
      <leafValues>
        -7.2069889307022095e-01 6.5024846792221069e-01
        -8.4536576271057129e-01 9.7183448076248169e-01</leafValues></_></weakClassifiers></stage7>
</opencv_storage>
