<?xml version="1.0"?>
<opencv_storage>
<stage3>
  <maxWeakCount>3</maxWeakCount>
  <stageThreshold>-6.0348361730575562e-01</stageThreshold>
  <weakClassifiers>
    <_>
      <internalNodes>
        1 2 6509061 -4.7816157341003418e-02 0 -1 4520216
        6.0542635619640350e-02 -2 -3 390083 -1.5583538450300694e-02</internalNodes>
      <leafValues>
        -3.6904761195182800e-01 9.2198580503463745e-01
        5.4838711023330688e-01 -8.3549785614013672e-01</leafValues></_>
    <_>
      <internalNodes>
        1 2 2723214 -2.7007402852177620e-02 0 -1 3803284
        3.4867161884903908e-03 -2 -3 5576702 2.0020599476993084e-03</internalNodes>
      <leafValues>
        -7.7174413204193115e-01 7.9910314083099365e-01
        -9.1272050142288208e-01 1.5220831334590912e-01</leafValues></_>
    <_>
      <internalNodes>
        1 2 3178818 -2.1772336913272738e-04 0 -1 3467095
        1.7102908343076706e-02 -2 -3 4287930 7.5762886554002762e-03</internalNodes>
      <leafValues>
        -9.0018337965011597e-01 6.7828452587127686e-01
        -7.9268562793731689e-01 7.3451167345046997e-01</leafValues></_></weakClassifiers></stage3>
</opencv_storage>
