<?xml version="1.0"?>
<opencv_storage>
<stage9>
  <maxWeakCount>5</maxWeakCount>
  <stageThreshold>-9.8205190896987915e-01</stageThreshold>
  <weakClassifiers>
    <_>
      <internalNodes>
        1 2 46139 1.9639006257057190e-01 0 -1 238922
        1.1514220386743546e-02 -2 -3 158176 1.6964668035507202e-01</internalNodes>
      <leafValues>
        -5.6709957122802734e-01 6.1006289720535278e-01
        -5.4471546411514282e-01 7.3831772804260254e-01</leafValues></_>
    <_>
      <internalNodes>
        1 2 201258 -5.0734460353851318e-02 0 -1 488665
        -1.7351422458887100e-02 -2 -3 325840 -9.6486031543463469e-04</internalNodes>
      <leafValues>
        1. -1. 5.3590738773345947e-01 -2.5561857223510742e-01</leafValues></_>
    <_>
      <internalNodes>
        1 2 289296 3.1957664759829640e-04 0 -1 289583
        1.4396526385098696e-03 -2 -3 175817 2.0582759752869606e-03</internalNodes>
      <leafValues>
        -7.3497903347015381e-01 1.1867343634366989e-01
        -6.0426265001296997e-01 4.7739860415458679e-01</leafValues></_>
    <_>
      <internalNodes>
        1 2 484660 5.2529810927808285e-03 0 -1 60154
        9.5495185814797878e-04 -2 -3 183097 -1.8598813563585281e-02</internalNodes>
      <leafValues>
        -6.0449367761611938e-01 2.7444091439247131e-01
        -6.2320053577423096e-01 6.7436343431472778e-01</leafValues></_>
    <_>
      <internalNodes>
        1 2 425086 2.2457266459241509e-04 0 -1 491801
        -6.3934084028005600e-03 -2 -3 147172 -1.8328047590330243e-03</internalNodes>
      <leafValues>
        2.2145743668079376e-01 -9.1011130809783936e-01
        -9.2544287443161011e-01 3.0120435357093811e-01</leafValues></_></weakClassifiers></stage9>
</opencv_storage>
