<?xml version="1.0"?>
<opencv_storage>
<stage10>
  <maxWeakCount>6</maxWeakCount>
  <stageThreshold>-1.1377265453338623e+00</stageThreshold>
  <weakClassifiers>
    <_>
      <internalNodes>
        1 2 239839 1.6287237405776978e-01 0 -1 26788
        -1.0034101456403732e-01 -2 -3 48713 1.9166547805070877e-02</internalNodes>
      <leafValues>
        8.5858583450317383e-01 -4.1666665673255920e-01
        -6.5454542636871338e-01 7.3539930582046509e-01</leafValues></_>
    <_>
      <internalNodes>
        1 2 431920 2.7516416739672422e-03 0 -1 110975
        -4.3632186949253082e-02 -2 -3 470401 1.0081471409648657e-03</internalNodes>
      <leafValues>
        4.5114487409591675e-01 -6.7353802919387817e-01
        -8.0645465850830078e-01 5.9088921546936035e-01</leafValues></_>
    <_>
      <internalNodes>
        1 2 436591 7.5803860090672970e-03 0 -1 491325
        -1.1909751221537590e-02 -2 -3 327103 -1.9670743495225906e-03</internalNodes>
      <leafValues>
        6.0669815540313721e-01 -3.9169564843177795e-01
        -9.4081264734268188e-01 7.5366926193237305e-01</leafValues></_>
    <_>
      <internalNodes>
        1 2 259841 5.9478753246366978e-04 0 -1 376763
        5.0983123946934938e-04 -2 -3 339812 6.9477381184697151e-03</internalNodes>
      <leafValues>
        -7.7639651298522949e-01 1.2526252865791321e-01
        4.7240081429481506e-01 -7.8495937585830688e-01</leafValues></_>
    <_>
      <internalNodes>
        1 2 120379 -2.1276447921991348e-02 0 -1 80239
        -2.7712248265743256e-03 -2 -3 311895 5.0878305919468403e-03</internalNodes>
      <leafValues>
        1. -9.5284694433212280e-01 4.0543517470359802e-01
        -4.6190404891967773e-01</leafValues></_>
    <_>
      <internalNodes>
        1 2 182457 -4.2611625045537949e-02 0 -1 408791
        -3.5695862607099116e-04 -2 -3 96752 2.1717562340199947e-03</internalNodes>
      <leafValues>
        -7.3528790473937988e-01 8.3977431058883667e-01
        -4.3693074584007263e-01 5.7729309797286987e-01</leafValues></_></weakClassifiers></stage10>
</opencv_storage>
