<?xml version="1.0"?>
<opencv_storage>
<stage3>
  <maxWeakCount>4</maxWeakCount>
  <stageThreshold>-1.3865510225296021e+00</stageThreshold>
  <weakClassifiers>
    <_>
      <internalNodes>
        1 2 292276 -1.0343992710113525e-01 0 -1 320545
        -2.2485740482807159e-02 -2 -3 238921 -1.0969685390591621e-02</internalNodes>
      <leafValues>
        8.9513111114501953e-01 -7.5342464447021484e-01
        6.9696968793869019e-01 -6.7201423645019531e-01</leafValues></_>
    <_>
      <internalNodes>
        1 2 204864 3.4611730370670557e-04 0 -1 2315
        4.0790244936943054e-02 -2 -3 447332 -1.7584583838470280e-04</internalNodes>
      <leafValues>
        -8.1652200222015381e-01 7.1148538589477539e-01
        7.9636591672897339e-01 -1.9667577743530273e-01</leafValues></_>
    <_>
      <internalNodes>
        1 2 489788 -1.9535063765943050e-03 0 -1 239150
        -2.0738832652568817e-02 -2 -3 459038 -1.3024408835917711e-03</internalNodes>
      <leafValues>
        9.1391998529434204e-01 -3.7028223276138306e-02
        3.3890137076377869e-01 -7.6641291379928589e-01</leafValues></_>
    <_>
      <internalNodes>
        1 2 254279 -5.1930155605077744e-03 0 -1 267419
        -4.7665555030107498e-03 -2 -3 4307 2.8986997902393341e-02</internalNodes>
      <leafValues>
        -9.6456170082092285e-01 8.1062710285186768e-01
        -6.6307932138442993e-01 3.9056736230850220e-01</leafValues></_></weakClassifiers></stage3>
</opencv_storage>
