<?xml version="1.0"?>
<opencv_storage>
<stage7>
  <maxWeakCount>5</maxWeakCount>
  <stageThreshold>-1.6404000520706177e+00</stageThreshold>
  <weakClassifiers>
    <_>
      <internalNodes>
        1 2 103940 8.0969095230102539e-02 0 -1 486370
        1.3954039663076401e-02 -2 -3 186947 1.0357402265071869e-01</internalNodes>
      <leafValues>
        -6.6507178544998169e-01 4.2857143282890320e-01
        -4.9693250656127930e-01 8.0728554725646973e-01</leafValues></_>
    <_>
      <internalNodes>
        1 2 211589 -2.2314812522381544e-03 0 -1 226904
        -6.2503404915332794e-02 -2 -3 182142 2.4311933666467667e-03</internalNodes>
      <leafValues>
        -9.3470388650894165e-01 6.0308969020843506e-01
        -6.2343943119049072e-01 4.4087827205657959e-01</leafValues></_>
    <_>
      <internalNodes>
        1 2 442910 -5.7796888053417206e-02 0 -1 217776
        2.3618835955858231e-02 -2 -3 65543 -3.4708674065768719e-03</internalNodes>
      <leafValues>
        -5.7016468048095703e-01 7.0238167047500610e-01
        3.4402182698249817e-01 -6.2983036041259766e-01</leafValues></_>
    <_>
      <internalNodes>
        1 2 76501 1.1157222092151642e-02 0 -1 23737
        -1.9668634049594402e-03 -2 -3 222052 4.8590791411697865e-03</internalNodes>
      <leafValues>
        4.9330225586891174e-01 -6.8160766363143921e-01
        -6.0160940885543823e-01 5.4996591806411743e-01</leafValues></_>
    <_>
      <internalNodes>
        1 2 35484 3.1635235063731670e-03 0 -1 2315
        3.5409156233072281e-02 -2 -3 261109 7.4045713990926743e-03</internalNodes>
      <leafValues>
        -4.9478492140769958e-01 5.8966618776321411e-01
        7.9969286918640137e-01 -8.8877844810485840e-01</leafValues></_></weakClassifiers></stage7>
</opencv_storage>
