<?xml version="1.0"?>
<opencv_storage>
<stage6>
  <maxWeakCount>4</maxWeakCount>
  <stageThreshold>-1.3705365657806396e+00</stageThreshold>
  <weakClassifiers>
    <_>
      <internalNodes>
        1 2 268220 -3.2174445688724518e-02 0 -1 390851
        2.5044959038496017e-03 -2 -3 63166 2.1261300891637802e-02</internalNodes>
      <leafValues>
        -6.4485979080200195e-01 7.1786832809448242e-01
        -6.9072163105010986e-01 3.3783784508705139e-01</leafValues></_>
    <_>
      <internalNodes>
        1 2 209931 -7.5845798710361123e-04 0 -1 100813
        6.0709245502948761e-02 -2 -3 38306 -1.3874459266662598e-01</internalNodes>
      <leafValues>
        -5.3364592790603638e-01 6.1847054958343506e-01
        7.4845665693283081e-01 -6.9356757402420044e-01</leafValues></_>
    <_>
      <internalNodes>
        1 2 64970 -5.1062740385532379e-02 0 -1 95661
        4.6839155256748199e-03 -2 -3 493651 -5.8933491818606853e-03</internalNodes>
      <leafValues>
        -7.5940287113189697e-01 5.6939870119094849e-01
        7.5967037677764893e-01 -6.5313875675201416e-01</leafValues></_>
    <_>
      <internalNodes>
        1 2 259209 1.1068098247051239e-03 0 -1 182084
        -4.1538639925420284e-03 -2 -3 425086 2.1392091002780944e-04</internalNodes>
      <leafValues>
        2.5699752569198608e-01 -8.1964898109436035e-01
        -5.5063068866729736e-01 5.0696986913681030e-01</leafValues></_></weakClassifiers></stage6>
</opencv_storage>
