<?xml version="1.0"?>
<opencv_storage>
<stage0>
  <maxWeakCount>4</maxWeakCount>
  <stageThreshold>-1.7167359590530396e+00</stageThreshold>
  <weakClassifiers>
    <_>
      <internalNodes>
        1 2 43119 1.6713342070579529e-01 0 -1 154759
        -3.8852512836456299e-02 -2 -3 213190 8.1224247813224792e-02</internalNodes>
      <leafValues>
        6.0674154758453369e-01 -9.2166376113891602e-01
        -6.3779526948928833e-01 9.7287797927856445e-01</leafValues></_>
    <_>
      <internalNodes>
        1 2 101024 1.7259436845779419e-01 0 -1 463528
        1.1509520933032036e-02 -2 -3 233350 1.9584901747293770e-04</internalNodes>
      <leafValues>
        -7.7025300264358521e-01 4.9248319864273071e-01
        8.7336319684982300e-01 -8.1327933073043823e-01</leafValues></_>
    <_>
      <internalNodes>
        1 2 13039 2.2982171177864075e-01 0 -1 499461
        4.4894032180309296e-03 -2 -3 402481 -1.7745923250913620e-03</internalNodes>
      <leafValues>
        -5.7987564802169800e-01 5.8218526840209961e-01
        9.1077750921249390e-01 -3.6840206384658813e-01</leafValues></_>
    <_>
      <internalNodes>
        1 2 34636 -4.4835444539785385e-02 0 -1 225705
        4.8840073868632317e-03 -2 -3 348683 1.1419085785746574e-02</internalNodes>
      <leafValues>
        8.3314096927642822e-01 -5.1833796501159668e-01
        -6.0700446367263794e-01 3.7279847264289856e-01</leafValues></_></weakClassifiers></stage0>
</opencv_storage>
