<?xml version="1.0"?>
<opencv_storage>
<stage14>
  <maxWeakCount>11</maxWeakCount>
  <stageThreshold>-1.4252378940582275e+00</stageThreshold>
  <weakClassifiers>
    <_>
      <internalNodes>
        1 2 316416 8.2500129938125610e-02 0 -1 238293
        1.0792663693428040e-01 -2 -3 257232 3.0002286657691002e-03</internalNodes>
      <leafValues>
        -4.3478259444236755e-01 5.9845560789108276e-01
        -7.5518673658370972e-01 5.6195187568664551e-01</leafValues></_>
    <_>
      <internalNodes>
        1 2 281284 1.8770699389278889e-03 0 -1 307129
        -2.0338743925094604e-03 -2 -3 360864 -6.5698204562067986e-03</internalNodes>
      <leafValues>
        1.3153129816055298e-01 -5.8759236335754395e-01
        4.8985058069229126e-01 -2.7935391664505005e-01</leafValues></_>
    <_>
      <internalNodes>
        1 2 143489 -2.5141196325421333e-02 0 -1 209107
        3.1708918977528811e-03 -2 -3 466636 -5.0729222595691681e-02</internalNodes>
      <leafValues>
        -4.5547187328338623e-01 7.5879716873168945e-01
        4.8456692695617676e-01 -4.0389972925186157e-01</leafValues></_>
    <_>
      <internalNodes>
        1 2 269150 1.8992521800100803e-03 0 -1 393201
        -8.8228872045874596e-03 -2 -3 182070 -1.5332881361246109e-02</internalNodes>
      <leafValues>
        -5.7357919216156006e-01 2.1774393320083618e-01
        8.5163313150405884e-01 -8.2551103830337524e-01</leafValues></_>
    <_>
      <internalNodes>
        1 2 152798 -1.2987279333174229e-03 0 -1 241274
        -5.6712646037340164e-03 -2 -3 92427 1.3386104255914688e-03</internalNodes>
      <leafValues>
        -8.8792306184768677e-01 6.7412972450256348e-01
        -2.5726479291915894e-01 5.8925348520278931e-01</leafValues></_>
    <_>
      <internalNodes>
        1 2 349509 -4.2476982343941927e-04 0 -1 498760
        4.4459020718932152e-03 -2 -3 303329 -2.2397786378860474e-03</internalNodes>
      <leafValues>
        -6.1002558469772339e-01 5.8362305164337158e-01
        4.0574517846107483e-01 -2.0918692648410797e-01</leafValues></_>
    <_>
      <internalNodes>
        1 2 10848 -5.3826170042157173e-03 0 -1 464224
        -1.6694257035851479e-02 -2 -3 483725 1.1040973477065563e-03</internalNodes>
      <leafValues>
        6.0663312673568726e-01 -2.0163658261299133e-01
        -3.5933923721313477e-01 4.7354552149772644e-01</leafValues></_>
    <_>
      <internalNodes>
        1 2 447481 -2.4765413254499435e-03 0 -1 283648
        -3.3580362796783447e-02 -2 -3 491054 -3.1590983271598816e-02</internalNodes>
      <leafValues>
        -7.6034730672836304e-01 3.2643932104110718e-01
        7.4108529090881348e-01 -5.1125735044479370e-01</leafValues></_>
    <_>
      <internalNodes>
        1 2 391127 2.7899041771888733e-02 0 -1 151860
        -1.8165778368711472e-02 -2 -3 427723 -9.3141756951808929e-03</internalNodes>
      <leafValues>
        -6.7263108491897583e-01 1.7780181765556335e-01
        2.6877048611640930e-01 -9.2627555131912231e-01</leafValues></_>
    <_>
      <internalNodes>
        1 2 337625 -2.4113631807267666e-03 0 -1 406477
        -1.7164901364594698e-03 -2 -3 483728 8.1726140342652798e-04</internalNodes>
      <leafValues>
        -5.8912754058837891e-01 4.6107909083366394e-01
        -3.9009803533554077e-01 3.7128174304962158e-01</leafValues></_>
    <_>
      <internalNodes>
        1 2 14308 3.7126124370843172e-03 0 -1 476357
        6.8284580484032631e-03 -2 -3 125277 6.9073550403118134e-03</internalNodes>
      <leafValues>
        1.9274252653121948e-01 -5.4648089408874512e-01
        -8.7578749656677246e-01 8.0582320690155029e-01</leafValues></_></weakClassifiers></stage14>
</opencv_storage>
