<?xml version="1.0"?>
<opencv_storage>
<stage11>
  <maxWeakCount>4</maxWeakCount>
  <stageThreshold>-1.2051547765731812e+00</stageThreshold>
  <weakClassifiers>
    <_>
      <internalNodes>
        1 2 363548 1.1395986378192902e-01 0 -1 4214686
        9.5527684316039085e-03 -2 -3 6497616 -2.5519477203488350e-03</internalNodes>
      <leafValues>
        -5.6611567735671997e-01 6.0606062412261963e-01
        7.4944072961807251e-01 -8.4444445371627808e-01</leafValues></_>
    <_>
      <internalNodes>
        1 2 3361069 7.2869809810072184e-04 0 -1 4467549
        -2.9025506228208542e-03 -2 -3 7010208 -2.4993715807795525e-02</internalNodes>
      <leafValues>
        3.5935187339782715e-01 -7.9100352525711060e-01 -1.
        5.5352383852005005e-01</leafValues></_>
    <_>
      <internalNodes>
        1 2 2949556 -2.4849271401762962e-02 0 -1 7488325
        7.4026547372341156e-04 -2 -3 94550 5.0973985344171524e-03</internalNodes>
      <leafValues>
        8.5229474306106567e-01 -9.0250575542449951e-01
        -5.1312285661697388e-01 6.7172282934188843e-01</leafValues></_>
    <_>
      <internalNodes>
        1 2 2104957 3.8017923943698406e-03 0 -1 4857691
        -2.7632422745227814e-02 -2 -3 4919561 1.7950832843780518e-02</internalNodes>
      <leafValues>
        8.8440114259719849e-01 -8.3850139379501343e-01
        -5.1975840330123901e-01 5.0824904441833496e-01</leafValues></_></weakClassifiers></stage11>
</opencv_storage>
