<?xml version="1.0"?>
<opencv_storage>
<stage4>
  <maxWeakCount>3</maxWeakCount>
  <stageThreshold>-1.0045757293701172e+00</stageThreshold>
  <weakClassifiers>
    <_>
      <internalNodes>
        1 2 1884948 -1.2255832552909851e-02 0 -1 5864677
        4.1585702449083328e-02 -2 -3 6866940 -1.0134378448128700e-02</internalNodes>
      <leafValues>
        -5.1048952341079712e-01 8.1958198547363281e-01
        4.7517731785774231e-01 -8.3292382955551147e-01</leafValues></_>
    <_>
      <internalNodes>
        1 2 3408242 -2.6697244495153427e-02 0 -1 5355929
        -9.9619198590517044e-03 -2 -3 5088535 7.2141503915190697e-04</internalNodes>
      <leafValues>
        -9.6662789583206177e-01 8.3124428987503052e-01
        -7.8654050827026367e-01 1.5502068400382996e-01</leafValues></_>
    <_>
      <internalNodes>
        1 2 3979602 -2.9092342592775822e-03 0 -1 2590343
        -3.4785907715559006e-02 -2 -3 4835536 -4.6440344303846359e-03</internalNodes>
      <leafValues>
        -9.0967231988906860e-01 6.1488860845565796e-01
        6.1485445499420166e-01 -9.1210317611694336e-01</leafValues></_></weakClassifiers></stage4>
</opencv_storage>
