<?xml version="1.0"?>
<opencv_storage>
<cascade>
  <stageType>BOOST</stageType>
  <featureType>HAAR</featureType>
  <height>32</height>
  <width>25</width>
  <stageParams>
    <boostType>GAB</boostType>
    <minHitRate>9.9900001287460327e-01</minHitRate>
    <maxFalseAlarm>5.0000000000000000e-01</maxFalseAlarm>
    <weightTrimRate>9.4999999999999996e-01</weightTrimRate>
    <maxDepth>2</maxDepth>
    <maxWeakCount>100</maxWeakCount></stageParams>
  <featureParams>
    <maxCatCount>0</maxCatCount>
    <featSize>1</featSize>
    <mode>ALL</mode></featureParams>
  <stageNum>18</stageNum>
  <stages>
    <!-- stage 0 -->
    <_>
      <maxWeakCount>2</maxWeakCount>
      <stageThreshold>-2.3790319263935089e-01</stageThreshold>
      <weakClassifiers>
        <_>
          <internalNodes>
            1 2 179 -3.1935773789882660e-02 0 -1 238
            -1.2866383418440819e-02 -2 -3 27 1.5957418084144592e-01</internalNodes>
          <leafValues>
            -1. 9.6230596303939819e-01 -9.1872793436050415e-01
            6.4285713434219360e-01</leafValues></_>
        <_>
          <internalNodes>
            1 2 44 1.5988092124462128e-01 0 -1 256
            6.8277651444077492e-03 -2 -3 43 -2.4642802774906158e-02</internalNodes>
          <leafValues>
            -8.8076031208038330e-01 6.8137133121490479e-01
            -8.7192988395690918e-01 9.6440768241882324e-01</leafValues></_></weakClassifiers></_>
    <!-- stage 1 -->
    <_>
      <maxWeakCount>2</maxWeakCount>
      <stageThreshold>-1.2200251221656799e-01</stageThreshold>
      <weakClassifiers>
        <_>
          <internalNodes>
            1 2 191 2.9736518859863281e-02 0 -1 86
            -2.4843163788318634e-02 -2 -3 89 2.6157110929489136e-02</internalNodes>
          <leafValues>
            8.6206895112991333e-01 -8.5899811983108521e-01
            -8.9090907573699951e-01 9.1077256202697754e-01</leafValues></_>
        <_>
          <internalNodes>
            1 2 130 2.6667732745409012e-02 0 -1 153
            -1.1992942541837692e-02 -2 -3 173 -3.2226726034423336e-05</internalNodes>
          <leafValues>
            9.1192448139190674e-01 -8.7049269676208496e-01
            7.6890659332275391e-01 -8.5255277156829834e-01</leafValues></_></weakClassifiers></_>
    <!-- stage 2 -->
    <_>
      <maxWeakCount>2</maxWeakCount>
      <stageThreshold>-1.4235761165618896e+00</stageThreshold>
      <weakClassifiers>
        <_>
          <internalNodes>
            1 2 31 1.7644396424293518e-01 0 -1 98 1.6447596251964569e-02
            -2 -3 155 5.2513867616653442e-02</internalNodes>
          <leafValues>
            -7.0847457647323608e-01 7.2727274894714355e-01
            -8.4615385532379150e-01 9.2736077308654785e-01</leafValues></_>
        <_>
          <internalNodes>
            1 2 171 4.4941715896129608e-03 0 -1 231
            -2.9862251132726669e-02 -2 -3 145 8.2872621715068817e-03</internalNodes>
          <leafValues>
            3.5983997583389282e-01 -8.7357944250106812e-01
            -7.1510148048400879e-01 7.2264003753662109e-01</leafValues></_></weakClassifiers></_>
    <!-- stage 3 -->
    <_>
      <maxWeakCount>5</maxWeakCount>
      <stageThreshold>-1.2394967079162598e+00</stageThreshold>
      <weakClassifiers>
        <_>
          <internalNodes>
            1 2 237 -2.1663691848516464e-02 0 -1 33
            4.3651005253195763e-03 -2 -3 11 -4.7524571418762207e-03</internalNodes>
          <leafValues>
            -7.4757283926010132e-01 8.7485778331756592e-01
            5.7522124052047729e-01 -7.0693069696426392e-01</leafValues></_>
        <_>
          <internalNodes>
            1 2 5 3.6277677863836288e-02 0 -1 8 6.2237724661827087e-02
            -2 -3 127 -3.3229514956474304e-02</internalNodes>
          <leafValues>
            -7.7162033319473267e-01 4.3518978357315063e-01
            -7.1153950691223145e-01 8.2649761438369751e-01</leafValues></_>
        <_>
          <internalNodes>
            1 2 142 -4.3409606441855431e-03 0 -1 172
            -1.3694068416953087e-02 -2 -3 243 1.7933588474988937e-02</internalNodes>
          <leafValues>
            -9.2469626665115356e-01 6.8629807233810425e-01
            -8.9649593830108643e-01 4.2994213104248047e-01</leafValues></_>
        <_>
          <internalNodes>
            1 2 244 -1.9384589046239853e-02 0 -1 102
            -2.3332241922616959e-02 -2 -3 35 -2.5969240814447403e-03</internalNodes>
          <leafValues>
            8.8462567329406738e-01 -3.6670559644699097e-01
            8.9063996076583862e-01 -6.2027412652969360e-01</leafValues></_>
        <_>
          <internalNodes>
            1 2 164 1.7887447029352188e-03 0 -1 25
            1.2207513675093651e-02 -2 -3 205 -1.5552715922240168e-05</internalNodes>
          <leafValues>
            -9.0294116735458374e-01 2.3235094547271729e-01
            5.7721465826034546e-01 -8.4089976549148560e-01</leafValues></_></weakClassifiers></_>
    <!-- stage 4 -->
    <_>
      <maxWeakCount>5</maxWeakCount>
      <stageThreshold>-5.5769258737564087e-01</stageThreshold>
      <weakClassifiers>
        <_>
          <internalNodes>
            1 2 233 -6.1622932553291321e-02 0 -1 126
            -2.4591269902884960e-03 -2 -3 19 1.5876963734626770e-02</internalNodes>
          <leafValues>
            -8.9090907573699951e-01 8.4137928485870361e-01
            -6.3001745939254761e-01 7.6470589637756348e-01</leafValues></_>
        <_>
          <internalNodes>
            1 2 30 8.6025133728981018e-02 0 -1 101
            -8.7551595643162727e-03 -2 -3 75 4.6225994825363159e-02</internalNodes>
          <leafValues>
            5.2589321136474609e-01 -5.9250092506408691e-01
            8.5493272542953491e-01 -9.5613569021224976e-01</leafValues></_>
        <_>
          <internalNodes>
            1 2 118 -3.6909446120262146e-02 0 -1 250
            -1.5364523977041245e-02 -2 -3 81 4.7521479427814484e-03</internalNodes>
          <leafValues>
            -1. 8.2862269878387451e-01 -4.8886129260063171e-01
            7.2388827800750732e-01</leafValues></_>
        <_>
          <internalNodes>
            1 2 254 8.8924802839756012e-03 0 -1 29
            -9.9947184324264526e-02 -2 -3 149 -5.7319719344377518e-02</internalNodes>
          <leafValues>
            7.9028606414794922e-01 -7.6670980453491211e-01
            -8.8758897781372070e-01 5.9954261779785156e-01</leafValues></_>
        <_>
          <internalNodes>
            1 2 54 1.4214088441804051e-03 0 -1 262
            -3.1278964597731829e-03 -2 -3 159 -5.7949293404817581e-03</internalNodes>
          <leafValues>
            6.2311708927154541e-01 -5.8799940347671509e-01
            -8.0875462293624878e-01 8.0200272798538208e-01</leafValues></_></weakClassifiers></_>
    <!-- stage 5 -->
    <_>
      <maxWeakCount>6</maxWeakCount>
      <stageThreshold>-1.3979649543762207e+00</stageThreshold>
      <weakClassifiers>
        <_>
          <internalNodes>
            1 2 167 -9.5703877508640289e-02 0 -1 195
            -5.0969268195331097e-03 -2 -3 38 -8.0677382647991180e-03</internalNodes>
          <leafValues>
            8.0232560634613037e-01 -6.4835166931152344e-01
            6.1842107772827148e-01 -6.5392351150512695e-01</leafValues></_>
        <_>
          <internalNodes>
            1 2 160 4.7409918624907732e-04 0 -1 245
            -5.5235777981579304e-03 -2 -3 107 6.4835824072360992e-02</internalNodes>
          <leafValues>
            3.1303340196609497e-01 -8.3839452266693115e-01
            5.9567201137542725e-01 -8.4173083305358887e-01</leafValues></_>
        <_>
          <internalNodes>
            1 2 248 -2.6608224958181381e-02 0 -1 198
            4.0697134099900723e-03 -2 -3 9 1.2106003612279892e-01</internalNodes>
          <leafValues>
            7.6268386840820312e-01 -9.4859832525253296e-01
            -7.5573521852493286e-01 7.8362450003623962e-02</leafValues></_>
        <_>
          <internalNodes>
            1 2 165 6.7262595985084772e-04 0 -1 20
            1.7998060211539268e-03 -2 -3 106 -1.2872941442765296e-04</internalNodes>
          <leafValues>
            -6.1986780166625977e-01 7.0071482658386230e-01
            -5.0132977962493896e-01 5.9524059295654297e-01</leafValues></_>
        <_>
          <internalNodes>
            1 2 112 -2.4095971137285233e-02 0 -1 255
            -2.7999074663966894e-03 -2 -3 128 1.6113953664898872e-02</internalNodes>
          <leafValues>
            -1. 9.6640932559967041e-01 -5.3541135787963867e-01
            4.8578131198883057e-01</leafValues></_>
        <_>
          <internalNodes>
            1 2 85 -3.0547156929969788e-02 0 -1 146
            9.1654667630791664e-04 -2 -3 47 5.5275196209549904e-03</internalNodes>
          <leafValues>
            -8.0304324626922607e-01 6.8478482961654663e-01
            -5.8893805742263794e-01 6.5826457738876343e-01</leafValues></_></weakClassifiers></_>
    <!-- stage 6 -->
    <_>
      <maxWeakCount>5</maxWeakCount>
      <stageThreshold>-9.7996497154235840e-01</stageThreshold>
      <weakClassifiers>
        <_>
          <internalNodes>
            1 2 104 1.6891038417816162e-01 0 -1 136
            -1.4222871512174606e-02 -2 -3 110 -4.3608926236629486e-02</internalNodes>
          <leafValues>
            6.3492065668106079e-01 -6.4625853300094604e-01
            -7.7551019191741943e-01 7.2834223508834839e-01</leafValues></_>
        <_>
          <internalNodes>
            1 2 235 -5.7070631533861160e-02 0 -1 72
            3.8784800563007593e-03 -2 -3 270 -5.6727202609181404e-03</internalNodes>
          <leafValues>
            -6.8998509645462036e-01 7.9668879508972168e-01
            8.8817304372787476e-01 -4.6338662505149841e-01</leafValues></_>
        <_>
          <internalNodes>
            1 2 144 -1.8416985403746367e-03 0 -1 197
            8.4129528841003776e-04 -2 -3 62 -2.0614624023437500e-02</internalNodes>
          <leafValues>
            4.8176503181457520e-01 -8.0782705545425415e-01
            2.7394822239875793e-01 -8.3933597803115845e-01</leafValues></_>
        <_>
          <internalNodes>
            1 2 185 -1.9887648522853851e-03 0 -1 187
            9.3176849186420441e-03 -2 -3 65 -1.2393165379762650e-02</internalNodes>
          <leafValues>
            5.1540940999984741e-01 -8.0093514919281006e-01
            4.0161702036857605e-01 -8.3222490549087524e-01</leafValues></_>
        <_>
          <internalNodes>
            1 2 3 3.6265440285205841e-02 0 -1 42 -4.6182814985513687e-03
            -2 -3 76 -1.6609432641416788e-03</internalNodes>
          <leafValues>
            5.0691491365432739e-01 -6.4089584350585938e-01
            -9.7168862819671631e-01 6.6114282608032227e-01</leafValues></_></weakClassifiers></_>
    <!-- stage 7 -->
    <_>
      <maxWeakCount>4</maxWeakCount>
      <stageThreshold>-8.5050678253173828e-01</stageThreshold>
      <weakClassifiers>
        <_>
          <internalNodes>
            1 2 28 2.1992745995521545e-01 0 -1 13
            -3.4607755951583385e-03 -2 -3 105 1.5704515576362610e-01</internalNodes>
          <leafValues>
            5.1322752237319946e-01 -5.4527938365936279e-01
            -4.9056604504585266e-01 8.1170481443405151e-01</leafValues></_>
        <_>
          <internalNodes>
            1 2 204 -8.4427207708358765e-02 0 -1 180
            1.1223345994949341e-02 -2 -3 252 -1.3590096496045589e-03</internalNodes>
          <leafValues>
            8.1876069307327271e-01 -9.3585228919982910e-01
            6.5997397899627686e-01 -3.7512451410293579e-01</leafValues></_>
        <_>
          <internalNodes>
            1 2 61 -3.1845241785049438e-02 0 -1 24
            -6.1339205130934715e-03 -2 -3 182 1.7533940263092518e-03</internalNodes>
          <leafValues>
            6.7103534936904907e-01 -9.6569210290908813e-01
            3.7466040253639221e-01 -7.2477751970291138e-01</leafValues></_>
        <_>
          <internalNodes>
            1 2 199 -1.0642375564202666e-03 0 -1 137
            -8.9186162222176790e-04 -2 -3 68 3.5813234746456146e-02</internalNodes>
          <leafValues>
            4.7981604933738708e-01 -3.0476328730583191e-01
            -7.6063221693038940e-01 7.1015328168869019e-01</leafValues></_></weakClassifiers></_>
    <!-- stage 8 -->
    <_>
      <maxWeakCount>6</maxWeakCount>
      <stageThreshold>-1.2266868352890015e+00</stageThreshold>
      <weakClassifiers>
        <_>
          <internalNodes>
            1 2 178 -7.1016207337379456e-02 0 -1 166
            -5.2483309991657734e-04 -2 -3 49 -2.2086692042648792e-03</internalNodes>
          <leafValues>
            8.2954543828964233e-01 -1.4563107490539551e-01
            4.8633879423141479e-01 -4.7928994894027710e-01</leafValues></_>
        <_>
          <internalNodes>
            1 2 228 -7.6000159606337547e-03 0 -1 261
            1.8640886992216110e-02 -2 -3 95 1.9209017045795918e-04</internalNodes>
          <leafValues>
            -9.5907592773437500e-01 1. -3.2673010230064392e-01
            4.9533894658088684e-01</leafValues></_>
        <_>
          <internalNodes>
            1 2 120 -1.3466680422425270e-02 0 -1 215
            -3.6817651562159881e-05 -2 -3 15 2.5586858391761780e-02</internalNodes>
          <leafValues>
            -8.1968432664871216e-01 5.0571542978286743e-01
            -6.6550725698471069e-01 3.9534667134284973e-01</leafValues></_>
        <_>
          <internalNodes>
            1 2 168 -1.1598493158817291e-01 0 -1 150
            1.9988743588328362e-03 -2 -3 117 -1.5332235023379326e-02</internalNodes>
          <leafValues>
            -4.6963605284690857e-01 7.1759980916976929e-01
            6.7133164405822754e-01 -6.1980146169662476e-01</leafValues></_>
        <_>
          <internalNodes>
            1 2 247 -5.8491406962275505e-03 0 -1 196
            1.3964126992505044e-04 -2 -3 269 9.3607902526855469e-03</internalNodes>
          <leafValues>
            8.4491425752639771e-01 -8.2055091857910156e-01
            -4.2643949389457703e-01 5.3265935182571411e-01</leafValues></_>
        <_>
          <internalNodes>
            1 2 113 2.0351199433207512e-02 0 -1 181
            -6.7228935658931732e-03 -2 -3 88 1.8593816086649895e-02</internalNodes>
          <leafValues>
            -8.0234146118164062e-01 3.8679754734039307e-01
            -9.2191815376281738e-01 1.</leafValues></_></weakClassifiers></_>
    <!-- stage 9 -->
    <_>
      <maxWeakCount>5</maxWeakCount>
      <stageThreshold>-8.4008586406707764e-01</stageThreshold>
      <weakClassifiers>
        <_>
          <internalNodes>
            1 2 116 -5.3533620666712523e-04 0 -1 138
            1.6859488189220428e-01 -2 -3 39 -1.2539406307041645e-02</internalNodes>
          <leafValues>
            -4.7393366694450378e-03 7.6963353157043457e-01
            5.0000000000000000e-01 -6.2285715341567993e-01</leafValues></_>
        <_>
          <internalNodes>
            1 2 99 -3.5064734518527985e-02 0 -1 122
            -7.8207592014223337e-04 -2 -3 87 6.6158641129732132e-03</internalNodes>
          <leafValues>
            7.6960557699203491e-01 -5.4196041822433472e-01
            -4.2113855481147766e-01 4.7588482499122620e-01</leafValues></_>
        <_>
          <internalNodes>
            1 2 162 1.8142536282539368e-02 0 -1 213
            8.3326362073421478e-03 -2 -3 239 1.0809125378727913e-02</internalNodes>
          <leafValues>
            -7.0581257343292236e-01 5.2920281887054443e-01
            5.1316809654235840e-01 -9.0286570787429810e-01</leafValues></_>
        <_>
          <internalNodes>
            1 2 66 -3.4143012017011642e-03 0 -1 184
            3.2892338931560516e-03 -2 -3 260 -8.3572044968605042e-03</internalNodes>
          <leafValues>
            6.7178529500961304e-01 -8.5950034856796265e-01
            4.0190953016281128e-01 -4.5893815159797668e-01</leafValues></_>
        <_>
          <internalNodes>
            1 2 226 -5.4346186516340822e-05 0 -1 230
            -3.5026511177420616e-03 -2 -3 7 1.4344805851578712e-02</internalNodes>
          <leafValues>
            -8.5358500480651855e-01 4.7163718938827515e-01
            -7.1060991287231445e-01 3.1564837694168091e-01</leafValues></_></weakClassifiers></_>
    <!-- stage 10 -->
    <_>
      <maxWeakCount>5</maxWeakCount>
      <stageThreshold>-9.4028234481811523e-01</stageThreshold>
      <weakClassifiers>
        <_>
          <internalNodes>
            1 2 41 3.8544031977653503e-01 0 -1 36
            -2.3311909288167953e-02 -2 -3 132 1.2326106429100037e-02</internalNodes>
          <leafValues>
            5.2432429790496826e-01 -4.9180328845977783e-01
            -5.6043958663940430e-01 7.1052628755569458e-01</leafValues></_>
        <_>
          <internalNodes>
            1 2 1 -3.2504908740520477e-03 0 -1 246
            1.1012688279151917e-02 -2 -3 60 -4.1774824261665344e-02</internalNodes>
          <leafValues>
            6.1439490318298340e-01 -8.8091897964477539e-01
            6.5946453809738159e-01 -4.8993131518363953e-01</leafValues></_>
        <_>
          <internalNodes>
            1 2 74 2.2767789661884308e-02 0 -1 108
            4.7054357826709747e-02 -2 -3 212 -1.9034257158637047e-02</internalNodes>
          <leafValues>
            -5.9470188617706299e-01 3.4610870480537415e-01
            -8.5792464017868042e-01 8.1105399131774902e-01</leafValues></_>
        <_>
          <internalNodes>
            1 2 207 -1.2780389515683055e-03 0 -1 100
            6.3994005322456360e-02 -2 -3 79 4.1110441088676453e-03</internalNodes>
          <leafValues>
            5.1964265108108521e-01 -8.6540818214416504e-01
            -7.3132789134979248e-01 5.3702574968338013e-01</leafValues></_>
        <_>
          <internalNodes>
            1 2 229 2.1638091129716486e-04 0 -1 190
            1.9975779578089714e-02 -2 -3 71 -5.5597536265850067e-03</internalNodes>
          <leafValues>
            -8.3508771657943726e-01 7.6347076892852783e-01
            -6.8084329366683960e-01 3.5135439038276672e-01</leafValues></_></weakClassifiers></_>
    <!-- stage 11 -->
    <_>
      <maxWeakCount>7</maxWeakCount>
      <stageThreshold>-9.9071604013442993e-01</stageThreshold>
      <weakClassifiers>
        <_>
          <internalNodes>
            1 2 26 4.8505228757858276e-01 0 -1 96
            -5.1750284619629383e-03 -2 -3 158 -4.1215017437934875e-02</internalNodes>
          <leafValues>
            3.8408303260803223e-01 -4.3505156040191650e-01
            -7.8787881135940552e-01 7.2631579637527466e-01</leafValues></_>
        <_>
          <internalNodes>
            1 2 111 -5.3924287203699350e-04 0 -1 78
            -8.3706842269748449e-04 -2 -3 64 3.5108365118503571e-02</internalNodes>
          <leafValues>
            -7.9032814502716064e-01 4.9306634068489075e-01
            -6.0114246606826782e-01 6.1809408664703369e-01</leafValues></_>
        <_>
          <internalNodes>
            1 2 170 1.6384981572628021e-01 0 -1 52
            -3.4349113702774048e-03 -2 -3 236 7.1729659102857113e-03</internalNodes>
          <leafValues>
            4.6441695094108582e-01 -4.1865330934524536e-01
            -9.4155430793762207e-01 9.2345660924911499e-01</leafValues></_>
        <_>
          <internalNodes>
            1 2 12 1.3938726484775543e-01 0 -1 203
            6.3992035575211048e-03 -2 -3 242 1.3758084969595075e-03</internalNodes>
          <leafValues>
            -4.9394333362579346e-01 5.9117853641510010e-01
            -6.7856800556182861e-01 6.6264706850051880e-01</leafValues></_>
        <_>
          <internalNodes>
            1 2 175 -1.1025255080312490e-03 0 -1 73
            6.2739402055740356e-02 -2 -3 123 -3.4620895981788635e-02</internalNodes>
          <leafValues>
            -9.3899732828140259e-01 5.7700020074844360e-01
            -7.4738579988479614e-01 3.7783747911453247e-01</leafValues></_>
        <_>
          <internalNodes>
            1 2 163 -1.8961066962219775e-04 0 -1 131
            -6.6712163388729095e-03 -2 -3 253 -5.2600521594285965e-03</internalNodes>
          <leafValues>
            -8.5641610622406006e-01 5.7661849260330200e-01
            2.3002253472805023e-01 -5.9526002407073975e-01</leafValues></_>
        <_>
          <internalNodes>
            1 2 141 6.2504445668309927e-04 0 -1 17
            -8.5779633373022079e-03 -2 -3 223 5.8563891798257828e-04</internalNodes>
          <leafValues>
            8.1595504283905029e-01 -7.9846650362014771e-01
            -4.6892002224922180e-01 4.2214334011077881e-01</leafValues></_></weakClassifiers></_>
    <!-- stage 12 -->
    <_>
      <maxWeakCount>6</maxWeakCount>
      <stageThreshold>-1.0532147884368896e+00</stageThreshold>
      <weakClassifiers>
        <_>
          <internalNodes>
            1 2 167 -1.0470096766948700e-01 0 -1 125
            5.7736601680517197e-02 -2 -3 192 -1.2463572202250361e-03</internalNodes>
          <leafValues>
            -9.6666663885116577e-01 6.1571127176284790e-01
            -8.8888889551162720e-01 9.0909093618392944e-02</leafValues></_>
        <_>
          <internalNodes>
            1 2 91 -2.3708116263151169e-02 0 -1 94
            7.1687065064907074e-03 -2 -3 32 -2.0267710089683533e-02</internalNodes>
          <leafValues>
            8.6582618951797485e-01 -1. 4.3208095431327820e-01
            -5.2139914035797119e-01</leafValues></_>
        <_>
          <internalNodes>
            1 2 18 -2.5930576957762241e-03 0 -1 240
            -5.6097814813256264e-03 -2 -3 264 -1.1877855286002159e-02</internalNodes>
          <leafValues>
            7.1948111057281494e-01 -2.3197597265243530e-01
            6.4270836114883423e-01 -4.4754809141159058e-01</leafValues></_>
        <_>
          <internalNodes>
            1 2 188 1.4540972188115120e-03 0 -1 258
            5.6755752302706242e-03 -2 -3 169 4.1722916066646576e-02</internalNodes>
          <leafValues>
            -5.1046490669250488e-02 7.0677024126052856e-01
            -9.5613193511962891e-01 8.3724343776702881e-01</leafValues></_>
        <_>
          <internalNodes>
            1 2 251 -2.7048131451010704e-03 0 -1 220
            -3.6240331828594208e-03 -2 -3 84 -1.3767126947641373e-03</internalNodes>
          <leafValues>
            -5.2258467674255371e-01 8.5541671514511108e-01
            5.1597917079925537e-01 -4.0799835324287415e-01</leafValues></_>
        <_>
          <internalNodes>
            1 2 173 -8.9165108511224389e-04 0 -1 177
            2.4199686013162136e-03 -2 -3 34 1.6039373585954309e-03</internalNodes>
          <leafValues>
            3.3551815152168274e-01 -8.0301499366760254e-01
            -8.8316100835800171e-01 1.</leafValues></_></weakClassifiers></_>
    <!-- stage 13 -->
    <_>
      <maxWeakCount>6</maxWeakCount>
      <stageThreshold>-1.1633387804031372e+00</stageThreshold>
      <weakClassifiers>
        <_>
          <internalNodes>
            1 2 124 3.5405352711677551e-02 0 -1 40
            -3.8481160998344421e-02 -2 -3 193 1.1245044333918486e-05</internalNodes>
          <leafValues>
            4.0611353516578674e-01 -5.5443036556243896e-01
            -8.1818181276321411e-01 6.5517240762710571e-01</leafValues></_>
        <_>
          <internalNodes>
            1 2 93 1.1147452751174569e-03 0 -1 225
            1.2174425646662712e-02 -2 -3 140 -2.6675586123019457e-03</internalNodes>
          <leafValues>
            -5.9004950523376465e-01 4.8826873302459717e-01
            -7.4500405788421631e-01 5.3354364633560181e-01</leafValues></_>
        <_>
          <internalNodes>
            1 2 218 -3.8096280768513680e-03 0 -1 133
            -3.6219670437276363e-03 -2 -3 51 9.8941382020711899e-03</internalNodes>
          <leafValues>
            -6.1800980567932129e-01 4.8266524076461792e-01
            -6.0664278268814087e-01 6.3348257541656494e-01</leafValues></_>
        <_>
          <internalNodes>
            1 2 259 -3.8256624247878790e-03 0 -1 45
            7.1553757879883051e-04 -2 -3 257 5.5725108832120895e-03</internalNodes>
          <leafValues>
            -7.7312701940536499e-01 6.9579666852951050e-01
            -4.6558091044425964e-01 4.2526614665985107e-01</leafValues></_>
        <_>
          <internalNodes>
            1 2 0 -1.3300450518727303e-02 0 -1 200
            -4.6776123344898224e-03 -2 -3 80 -1.2848878279328346e-02</internalNodes>
          <leafValues>
            -9.7680234909057617e-01 6.6442108154296875e-01
            7.6903212070465088e-01 -4.5128491520881653e-01</leafValues></_>
        <_>
          <internalNodes>
            1 2 90 4.2445503175258636e-02 0 -1 103
            4.3306417763233185e-02 -2 -3 4 8.0240473151206970e-02</internalNodes>
          <leafValues>
            2.9504692554473877e-01 -8.2225149869918823e-01
            -8.6047857999801636e-01 1.</leafValues></_></weakClassifiers></_>
    <!-- stage 14 -->
    <_>
      <maxWeakCount>7</maxWeakCount>
      <stageThreshold>-9.1319942474365234e-01</stageThreshold>
      <weakClassifiers>
        <_>
          <internalNodes>
            1 2 201 1.2223030440509319e-02 0 -1 129
            2.1005026996135712e-02 -2 -3 221 1.9271083176136017e-02</internalNodes>
          <leafValues>
            -3.1835207343101501e-01 5.6323933601379395e-01
            -8.5567009449005127e-01 8.0000001192092896e-01</leafValues></_>
        <_>
          <internalNodes>
            1 2 109 2.3320991545915604e-02 0 -1 161
            -3.0593597330152988e-03 -2 -3 271 -1.6248396132141352e-03</internalNodes>
          <leafValues>
            5.6109428405761719e-01 -1.8534339964389801e-01 1.
            -8.7675946950912476e-01</leafValues></_>
        <_>
          <internalNodes>
            1 2 263 -4.6113086864352226e-03 0 -1 219
            1.1539988219738007e-02 -2 -3 14 3.0196208972483873e-03</internalNodes>
          <leafValues>
            -7.4205231666564941e-01 8.5112845897674561e-01
            -3.1342262029647827e-01 9.5090109109878540e-01</leafValues></_>
        <_>
          <internalNodes>
            1 2 156 3.9917780086398125e-03 0 -1 249
            -1.7044737469404936e-03 -2 -3 143 2.4571290239691734e-02</internalNodes>
          <leafValues>
            -7.9612159729003906e-01 4.4226238131523132e-01
            -7.5975966453552246e-01 5.8235293626785278e-01</leafValues></_>
        <_>
          <internalNodes>
            1 2 134 -3.4187496639788151e-03 0 -1 174
            5.9303652495145798e-02 -2 -3 82 1.5555857680737972e-03</internalNodes>
          <leafValues>
            5.9646552801132202e-01 -6.4974904060363770e-01
            -4.7962170839309692e-01 7.3714911937713623e-01</leafValues></_>
        <_>
          <internalNodes>
            1 2 2 5.3262367844581604e-02 0 -1 70 4.1808038949966431e-03
            -2 -3 115 -2.7144756168127060e-03</internalNodes>
          <leafValues>
            -5.7922726869583130e-01 4.8330569267272949e-01
            -8.2826679944992065e-01 5.8248370885848999e-01</leafValues></_>
        <_>
          <internalNodes>
            1 2 53 3.5094718914479017e-03 0 -1 37 1.0052388161420822e-01
            -2 -3 172 -1.1993316933512688e-02</internalNodes>
          <leafValues>
            -6.6036778688430786e-01 2.1956361830234528e-01
            -8.4544169902801514e-01 5.2050524950027466e-01</leafValues></_></weakClassifiers></_>
    <!-- stage 15 -->
    <_>
      <maxWeakCount>6</maxWeakCount>
      <stageThreshold>-1.0724105834960938e+00</stageThreshold>
      <weakClassifiers>
        <_>
          <internalNodes>
            1 2 59 -5.0147712230682373e-02 0 -1 217
            2.9986263252794743e-03 -2 -3 128 1.2713449075818062e-02</internalNodes>
          <leafValues>
            -8.0645161867141724e-01 9.1408115625381470e-01
            -3.9485627412796021e-01 6.1963188648223877e-01</leafValues></_>
        <_>
          <internalNodes>
            1 2 241 -2.5215411558747292e-02 0 -1 208
            1.1943896859884262e-01 -2 -3 50 7.0258472114801407e-03</internalNodes>
          <leafValues>
            6.5563064813613892e-01 -9.0905624628067017e-01
            -4.7448062896728516e-01 5.1973432302474976e-01</leafValues></_>
        <_>
          <internalNodes>
            1 2 114 5.6462541222572327e-02 0 -1 119
            2.0336138084530830e-02 -2 -3 48 3.5573595669120550e-03</internalNodes>
          <leafValues>
            2.8475224971771240e-01 -8.3215034008026123e-01
            -9.6806067228317261e-01 1.</leafValues></_>
        <_>
          <internalNodes>
            1 2 55 7.6485879253596067e-04 0 -1 69 8.2940515130758286e-03
            -2 -3 151 -1.0870762169361115e-02</internalNodes>
          <leafValues>
            -4.2377272248268127e-01 5.5439972877502441e-01
            -8.3403450250625610e-01 7.8914427757263184e-01</leafValues></_>
        <_>
          <internalNodes>
            1 2 10 3.0735713243484497e-01 0 -1 23
            -1.0557056963443756e-01 -2 -3 148 4.2384034022688866e-03</internalNodes>
          <leafValues>
            8.6343973875045776e-01 -5.3460228443145752e-01
            -4.2840293049812317e-01 7.2841620445251465e-01</leafValues></_>
        <_>
          <internalNodes>
            1 2 224 -3.5792854760074988e-05 0 -1 183
            7.2949170134961605e-03 -2 -3 202 -5.6909881532192230e-02</internalNodes>
          <leafValues>
            -7.7610427141189575e-01 5.5462604761123657e-01
            9.6564173698425293e-01 -5.4393911361694336e-01</leafValues></_></weakClassifiers></_>
    <!-- stage 16 -->
    <_>
      <maxWeakCount>7</maxWeakCount>
      <stageThreshold>-1.0782213211059570e+00</stageThreshold>
      <weakClassifiers>
        <_>
          <internalNodes>
            1 2 227 -1.1373344063758850e-01 0 -1 216
            7.7960304915904999e-03 -2 -3 67 -5.5250497534871101e-03</internalNodes>
          <leafValues>
            -1.6577540338039398e-01 7.5664335489273071e-01
            4.3103447556495667e-01 -4.5064377784729004e-01</leafValues></_>
        <_>
          <internalNodes>
            1 2 57 -6.0989655554294586e-02 0 -1 154
            -1.7760297283530235e-02 -2 -3 16 2.2286776453256607e-02</internalNodes>
          <leafValues>
            -1. 9.4908905029296875e-01 -3.6198833584785461e-01
            4.7390151023864746e-01</leafValues></_>
        <_>
          <internalNodes>
            1 2 135 8.6621372029185295e-03 0 -1 268
            -2.3325558751821518e-02 -2 -3 152 2.3516321554780006e-02</internalNodes>
          <leafValues>
            2.0102016627788544e-01 -6.3826161623001099e-01
            7.1521580219268799e-01 -9.8034024238586426e-01</leafValues></_>
        <_>
          <internalNodes>
            1 2 139 1.8624860793352127e-02 0 -1 157
            -3.7869770312681794e-04 -2 -3 234 3.3307053148746490e-02</internalNodes>
          <leafValues>
            -6.5539419651031494e-01 3.5576370358467102e-01
            -8.6659002304077148e-01 1.</leafValues></_>
        <_>
          <internalNodes>
            1 2 176 -1.0853619873523712e-01 0 -1 211
            -8.9195016771554947e-03 -2 -3 265 6.1173425056040287e-03</internalNodes>
          <leafValues>
            -9.7993040084838867e-01 6.9767338037490845e-01
            -4.5934227108955383e-01 4.7904115915298462e-01</leafValues></_>
        <_>
          <internalNodes>
            1 2 232 -2.2567224223166704e-03 0 -1 56
            1.9753932952880859e-02 -2 -3 21 -3.0424734577536583e-03</internalNodes>
          <leafValues>
            6.6345304250717163e-01 -9.0632176399230957e-01
            6.7444473505020142e-01 -4.7295475006103516e-01</leafValues></_>
        <_>
          <internalNodes>
            1 2 92 -3.6087729036808014e-02 0 -1 77
            2.2899739444255829e-02 -2 -3 209 7.9702436923980713e-03</internalNodes>
          <leafValues>
            9.6435689926147461e-01 -1. -5.2952152490615845e-01
            2.7589178085327148e-01</leafValues></_></weakClassifiers></_>
    <!-- stage 17 -->
    <_>
      <maxWeakCount>6</maxWeakCount>
      <stageThreshold>-1.0474714040756226e+00</stageThreshold>
      <weakClassifiers>
        <_>
          <internalNodes>
            1 2 46 -2.5802161544561386e-02 0 -1 58
            -1.5292668715119362e-02 -2 -3 210 -7.9274142626672983e-04</internalNodes>
          <leafValues>
            -8.8235294818878174e-01 8.7152034044265747e-01
            -4.5522388815879822e-01 4.7424510121345520e-01</leafValues></_>
        <_>
          <internalNodes>
            1 2 121 -5.0173569470643997e-03 0 -1 22
            2.5282432325184345e-03 -2 -3 147 9.7957567777484655e-04</internalNodes>
          <leafValues>
            -9.3958282470703125e-01 1. -2.7873939275741577e-01
            4.5698815584182739e-01</leafValues></_>
        <_>
          <internalNodes>
            1 2 222 -5.3864216897636652e-04 0 -1 63
            -4.7572609037160873e-02 -2 -3 189 -2.1255689207464457e-03</internalNodes>
          <leafValues>
            8.5818749666213989e-01 -7.6812130212783813e-01
            -8.6660492420196533e-01 3.2052740454673767e-01</leafValues></_>
        <_>
          <internalNodes>
            1 2 267 1.1326607782393694e-03 0 -1 266
            -2.3107468150556087e-03 -2 -3 214 -4.4369295239448547e-02</internalNodes>
          <leafValues>
            4.2794501781463623e-01 -4.7419112920761108e-01
            -8.3246999979019165e-01 7.6543706655502319e-01</leafValues></_>
        <_>
          <internalNodes>
            1 2 83 -9.1767800040543079e-04 0 -1 206
            -4.6779718250036240e-03 -2 -3 97 -8.3308224566280842e-04</internalNodes>
          <leafValues>
            -9.5864421129226685e-01 8.7609243392944336e-01
            5.5883049964904785e-01 -4.1346284747123718e-01</leafValues></_>
        <_>
          <internalNodes>
            1 2 6 5.5019950866699219e-01 0 -1 186 6.1260012444108725e-04
            -2 -3 194 4.6132795512676239e-02</internalNodes>
          <leafValues>
            -4.8210912942886353e-01 3.9056497812271118e-01
            8.1834715604782104e-01 -8.8276576995849609e-01</leafValues></_></weakClassifiers></_></stages>
  <features>
    <_>
      <rects>
        <_>
          0 0 10 6 -1.</_>
        <_>
          0 0 5 3 2.</_>
        <_>
          5 3 5 3 2.</_></rects>
      <tilted>0</tilted></_>
    <_>
      <rects>
        <_>
          0 0 18 2 -1.</_>
        <_>
          0 0 9 1 2.</_>
        <_>
          9 1 9 1 2.</_></rects>
      <tilted>0</tilted></_>
    <_>
      <rects>
        <_>
          0 1 10 16 -1.</_>
        <_>
          0 1 5 8 2.</_>
        <_>
          5 9 5 8 2.</_></rects>
      <tilted>0</tilted></_>
    <_>
      <rects>
        <_>
          0 2 8 16 -1.</_>
        <_>
          0 2 4 8 2.</_>
        <_>
          4 10 4 8 2.</_></rects>
      <tilted>0</tilted></_>
    <_>
      <rects>
        <_>
          0 2 8 20 -1.</_>
        <_>
          0 2 4 10 2.</_>
        <_>
          4 12 4 10 2.</_></rects>
      <tilted>0</tilted></_>
    <_>
      <rects>
        <_>
          0 2 12 10 -1.</_>
        <_>
          0 2 6 5 2.</_>
        <_>
          6 7 6 5 2.</_></rects>
      <tilted>0</tilted></_>
    <_>
      <rects>
        <_>
          0 3 21 18 -1.</_>
        <_>
          7 9 7 6 9.</_></rects>
      <tilted>0</tilted></_>
    <_>
      <rects>
        <_>
          0 4 6 8 -1.</_>
        <_>
          0 4 3 4 2.</_>
        <_>
          3 8 3 4 2.</_></rects>
      <tilted>0</tilted></_>
    <_>
      <rects>
        <_>
          0 4 8 28 -1.</_>
        <_>
          4 4 4 28 2.</_></rects>
      <tilted>0</tilted></_>
    <_>
      <rects>
        <_>
          0 4 20 21 -1.</_>
        <_>
          5 4 10 21 2.</_></rects>
      <tilted>0</tilted></_>
    <_>
      <rects>
        <_>
          0 5 24 22 -1.</_>
        <_>
          6 5 12 22 2.</_></rects>
      <tilted>0</tilted></_>
    <_>
      <rects>
        <_>
          0 9 2 10 -1.</_>
        <_>
          0 9 1 5 2.</_>
        <_>
          1 14 1 5 2.</_></rects>
      <tilted>0</tilted></_>
    <_>
      <rects>
        <_>
          0 9 18 18 -1.</_>
        <_>
          6 9 6 18 3.</_></rects>
      <tilted>0</tilted></_>
    <_>
      <rects>
        <_>
          0 10 2 8 -1.</_>
        <_>
          0 10 1 4 2.</_>
        <_>
          1 14 1 4 2.</_></rects>
      <tilted>0</tilted></_>
    <_>
      <rects>
        <_>
          0 11 3 1 -1.</_>
        <_>
          1 11 1 1 3.</_></rects>
      <tilted>0</tilted></_>
    <_>
      <rects>
        <_>
          0 11 9 10 -1.</_>
        <_>
          3 11 3 10 3.</_></rects>
      <tilted>0</tilted></_>
    <_>
      <rects>
        <_>
          0 12 24 6 -1.</_>
        <_>
          0 12 12 3 2.</_>
        <_>
          12 15 12 3 2.</_></rects>
      <tilted>0</tilted></_>
    <_>
      <rects>
        <_>
          0 14 2 7 -1.</_>
        <_>
          1 14 1 7 2.</_></rects>
      <tilted>0</tilted></_>
    <_>
      <rects>
        <_>
          0 15 4 4 -1.</_>
        <_>
          1 15 2 4 2.</_></rects>
      <tilted>0</tilted></_>
    <_>
      <rects>
        <_>
          0 17 4 10 -1.</_>
        <_>
          0 17 2 5 2.</_>
        <_>
          2 22 2 5 2.</_></rects>
      <tilted>0</tilted></_>
    <_>
      <rects>
        <_>
          0 18 2 4 -1.</_>
        <_>
          0 18 1 2 2.</_>
        <_>
          1 20 1 2 2.</_></rects>
      <tilted>0</tilted></_>
    <_>
      <rects>
        <_>
          0 19 2 6 -1.</_>
        <_>
          0 19 1 3 2.</_>
        <_>
          1 22 1 3 2.</_></rects>
      <tilted>0</tilted></_>
    <_>
      <rects>
        <_>
          0 20 3 1 -1.</_>
        <_>
          1 20 1 1 3.</_></rects>
      <tilted>0</tilted></_>
    <_>
      <rects>
        <_>
          0 20 24 12 -1.</_>
        <_>
          6 20 12 12 2.</_></rects>
      <tilted>0</tilted></_>
    <_>
      <rects>
        <_>
          0 27 6 1 -1.</_>
        <_>
          2 27 2 1 3.</_></rects>
      <tilted>0</tilted></_>
    <_>
      <rects>
        <_>
          1 3 4 14 -1.</_>
        <_>
          1 3 2 7 2.</_>
        <_>
          3 10 2 7 2.</_></rects>
      <tilted>0</tilted></_>
    <_>
      <rects>
        <_>
          1 4 24 15 -1.</_>
        <_>
          9 9 8 5 9.</_></rects>
      <tilted>0</tilted></_>
    <_>
      <rects>
        <_>
          1 6 24 16 -1.</_>
        <_>
          7 6 12 16 2.</_></rects>
      <tilted>0</tilted></_>
    <_>
      <rects>
        <_>
          1 7 24 15 -1.</_>
        <_>
          7 7 12 15 2.</_></rects>
      <tilted>0</tilted></_>
    <_>
      <rects>
        <_>
          1 7 24 21 -1.</_>
        <_>
          7 7 12 21 2.</_></rects>
      <tilted>0</tilted></_>
    <_>
      <rects>
        <_>
          1 8 24 5 -1.</_>
        <_>
          7 8 12 5 2.</_></rects>
      <tilted>0</tilted></_>
    <_>
      <rects>
        <_>
          1 8 24 13 -1.</_>
        <_>
          7 8 12 13 2.</_></rects>
      <tilted>0</tilted></_>
    <_>
      <rects>
        <_>
          1 11 10 12 -1.</_>
        <_>
          1 15 10 4 3.</_></rects>
      <tilted>0</tilted></_>
    <_>
      <rects>
        <_>
          1 15 16 5 -1.</_>
        <_>
          5 15 8 5 2.</_></rects>
      <tilted>0</tilted></_>
    <_>
      <rects>
        <_>
          1 21 2 2 -1.</_>
        <_>
          1 21 1 1 2.</_>
        <_>
          2 22 1 1 2.</_></rects>
      <tilted>0</tilted></_>
    <_>
      <rects>
        <_>
          1 22 2 4 -1.</_>
        <_>
          1 22 1 2 2.</_>
        <_>
          2 24 1 2 2.</_></rects>
      <tilted>0</tilted></_>
    <_>
      <rects>
        <_>
          1 30 24 2 -1.</_>
        <_>
          9 30 8 2 3.</_></rects>
      <tilted>0</tilted></_>
    <_>
      <rects>
        <_>
          2 0 15 32 -1.</_>
        <_>
          7 0 5 32 3.</_></rects>
      <tilted>0</tilted></_>
    <_>
      <rects>
        <_>
          2 0 12 2 -1.</_>
        <_>
          2 0 6 1 2.</_>
        <_>
          8 1 6 1 2.</_></rects>
      <tilted>0</tilted></_>
    <_>
      <rects>
        <_>
          2 0 14 2 -1.</_>
        <_>
          2 0 7 1 2.</_>
        <_>
          9 1 7 1 2.</_></rects>
      <tilted>0</tilted></_>
    <_>
      <rects>
        <_>
          2 0 10 24 -1.</_>
        <_>
          2 8 10 8 3.</_></rects>
      <tilted>0</tilted></_>
    <_>
      <rects>
        <_>
          2 3 21 15 -1.</_>
        <_>
          9 8 7 5 9.</_></rects>
      <tilted>0</tilted></_>
    <_>
      <rects>
        <_>
          2 4 3 2 -1.</_>
        <_>
          3 5 1 2 3.</_></rects>
      <tilted>1</tilted></_>
    <_>
      <rects>
        <_>
          2 4 14 28 -1.</_>
        <_>
          2 11 14 14 2.</_></rects>
      <tilted>0</tilted></_>
    <_>
      <rects>
        <_>
          2 6 21 9 -1.</_>
        <_>
          9 9 7 3 9.</_></rects>
      <tilted>0</tilted></_>
    <_>
      <rects>
        <_>
          2 7 6 22 -1.</_>
        <_>
          5 7 3 22 2.</_></rects>
      <tilted>0</tilted></_>
    <_>
      <rects>
        <_>
          2 13 20 6 -1.</_>
        <_>
          2 13 10 3 2.</_>
        <_>
          12 16 10 3 2.</_></rects>
      <tilted>0</tilted></_>
    <_>
      <rects>
        <_>
          2 15 4 2 -1.</_>
        <_>
          2 15 4 1 2.</_></rects>
      <tilted>1</tilted></_>
    <_>
      <rects>
        <_>
          2 18 2 6 -1.</_>
        <_>
          2 18 1 3 2.</_>
        <_>
          3 21 1 3 2.</_></rects>
      <tilted>0</tilted></_>
    <_>
      <rects>
        <_>
          2 23 2 6 -1.</_>
        <_>
          2 23 1 3 2.</_>
        <_>
          3 26 1 3 2.</_></rects>
      <tilted>0</tilted></_>
    <_>
      <rects>
        <_>
          2 28 10 4 -1.</_>
        <_>
          2 28 5 2 2.</_>
        <_>
          7 30 5 2 2.</_></rects>
      <tilted>0</tilted></_>
    <_>
      <rects>
        <_>
          2 31 12 1 -1.</_>
        <_>
          8 31 6 1 2.</_></rects>
      <tilted>0</tilted></_>
    <_>
      <rects>
        <_>
          3 1 6 2 -1.</_>
        <_>
          3 1 3 1 2.</_>
        <_>
          6 2 3 1 2.</_></rects>
      <tilted>0</tilted></_>
    <_>
      <rects>
        <_>
          3 1 6 6 -1.</_>
        <_>
          3 1 3 3 2.</_>
        <_>
          6 4 3 3 2.</_></rects>
      <tilted>0</tilted></_>
    <_>
      <rects>
        <_>
          3 2 2 4 -1.</_>
        <_>
          3 2 1 2 2.</_>
        <_>
          4 4 1 2 2.</_></rects>
      <tilted>0</tilted></_>
    <_>
      <rects>
        <_>
          3 3 2 2 -1.</_>
        <_>
          3 3 1 1 2.</_>
        <_>
          4 4 1 1 2.</_></rects>
      <tilted>0</tilted></_>
    <_>
      <rects>
        <_>
          3 7 12 10 -1.</_>
        <_>
          3 7 6 5 2.</_>
        <_>
          9 12 6 5 2.</_></rects>
      <tilted>0</tilted></_>
    <_>
      <rects>
        <_>
          3 9 20 10 -1.</_>
        <_>
          3 9 10 5 2.</_>
        <_>
          13 14 10 5 2.</_></rects>
      <tilted>0</tilted></_>
    <_>
      <rects>
        <_>
          3 10 4 9 -1.</_>
        <_>
          3 13 4 3 3.</_></rects>
      <tilted>0</tilted></_>
    <_>
      <rects>
        <_>
          3 10 20 10 -1.</_>
        <_>
          3 10 10 5 2.</_>
        <_>
          13 15 10 5 2.</_></rects>
      <tilted>0</tilted></_>
    <_>
      <rects>
        <_>
          3 11 22 8 -1.</_>
        <_>
          3 11 11 4 2.</_>
        <_>
          14 15 11 4 2.</_></rects>
      <tilted>0</tilted></_>
    <_>
      <rects>
        <_>
          3 11 18 10 -1.</_>
        <_>
          3 16 18 5 2.</_></rects>
      <tilted>0</tilted></_>
    <_>
      <rects>
        <_>
          3 12 4 20 -1.</_>
        <_>
          3 12 2 10 2.</_>
        <_>
          5 22 2 10 2.</_></rects>
      <tilted>0</tilted></_>
    <_>
      <rects>
        <_>
          3 13 10 2 -1.</_>
        <_>
          3 13 5 2 2.</_></rects>
      <tilted>1</tilted></_>
    <_>
      <rects>
        <_>
          3 13 20 6 -1.</_>
        <_>
          3 13 10 3 2.</_>
        <_>
          13 16 10 3 2.</_></rects>
      <tilted>0</tilted></_>
    <_>
      <rects>
        <_>
          3 14 20 4 -1.</_>
        <_>
          3 14 10 2 2.</_>
        <_>
          13 16 10 2 2.</_></rects>
      <tilted>0</tilted></_>
    <_>
      <rects>
        <_>
          3 22 2 3 -1.</_>
        <_>
          2 23 2 1 3.</_></rects>
      <tilted>1</tilted></_>
    <_>
      <rects>
        <_>
          4 0 10 2 -1.</_>
        <_>
          4 0 5 1 2.</_>
        <_>
          9 1 5 1 2.</_></rects>
      <tilted>0</tilted></_>
    <_>
      <rects>
        <_>
          4 0 10 4 -1.</_>
        <_>
          4 0 5 4 2.</_></rects>
      <tilted>1</tilted></_>
    <_>
      <rects>
        <_>
          4 1 3 2 -1.</_>
        <_>
          5 2 1 2 3.</_></rects>
      <tilted>1</tilted></_>
    <_>
      <rects>
        <_>
          4 5 3 3 -1.</_>
        <_>
          5 6 1 3 3.</_></rects>
      <tilted>1</tilted></_>
    <_>
      <rects>
        <_>
          4 6 12 5 -1.</_>
        <_>
          8 6 4 5 3.</_></rects>
      <tilted>0</tilted></_>
    <_>
      <rects>
        <_>
          4 7 8 4 -1.</_>
        <_>
          8 7 4 4 2.</_></rects>
      <tilted>0</tilted></_>
    <_>
      <rects>
        <_>
          4 7 16 8 -1.</_>
        <_>
          4 11 16 4 2.</_></rects>
      <tilted>0</tilted></_>
    <_>
      <rects>
        <_>
          4 13 18 6 -1.</_>
        <_>
          4 13 9 3 2.</_>
        <_>
          13 16 9 3 2.</_></rects>
      <tilted>0</tilted></_>
    <_>
      <rects>
        <_>
          4 15 15 5 -1.</_>
        <_>
          9 15 5 5 3.</_></rects>
      <tilted>0</tilted></_>
    <_>
      <rects>
        <_>
          4 16 18 3 -1.</_>
        <_>
          10 16 6 3 3.</_></rects>
      <tilted>0</tilted></_>
    <_>
      <rects>
        <_>
          4 16 10 9 -1.</_>
        <_>
          4 19 10 3 3.</_></rects>
      <tilted>0</tilted></_>
    <_>
      <rects>
        <_>
          4 17 2 2 -1.</_>
        <_>
          4 18 2 1 2.</_></rects>
      <tilted>0</tilted></_>
    <_>
      <rects>
        <_>
          4 20 3 4 -1.</_>
        <_>
          3 21 3 2 2.</_></rects>
      <tilted>1</tilted></_>
    <_>
      <rects>
        <_>
          4 20 6 4 -1.</_>
        <_>
          3 21 6 2 2.</_></rects>
      <tilted>1</tilted></_>
    <_>
      <rects>
        <_>
          4 27 3 2 -1.</_>
        <_>
          4 27 3 1 2.</_></rects>
      <tilted>1</tilted></_>
    <_>
      <rects>
        <_>
          4 28 1 3 -1.</_>
        <_>
          4 29 1 1 3.</_></rects>
      <tilted>0</tilted></_>
    <_>
      <rects>
        <_>
          4 30 2 2 -1.</_>
        <_>
          4 30 1 1 2.</_>
        <_>
          5 31 1 1 2.</_></rects>
      <tilted>0</tilted></_>
    <_>
      <rects>
        <_>
          4 30 4 2 -1.</_>
        <_>
          4 30 2 1 2.</_>
        <_>
          6 31 2 1 2.</_></rects>
      <tilted>0</tilted></_>
    <_>
      <rects>
        <_>
          5 0 13 8 -1.</_>
        <_>
          5 2 13 4 2.</_></rects>
      <tilted>0</tilted></_>
    <_>
      <rects>
        <_>
          5 0 14 4 -1.</_>
        <_>
          5 2 14 2 2.</_></rects>
      <tilted>0</tilted></_>
    <_>
      <rects>
        <_>
          5 3 3 4 -1.</_>
        <_>
          6 4 1 4 3.</_></rects>
      <tilted>1</tilted></_>
    <_>
      <rects>
        <_>
          5 3 3 5 -1.</_>
        <_>
          6 4 1 5 3.</_></rects>
      <tilted>1</tilted></_>
    <_>
      <rects>
        <_>
          5 4 15 15 -1.</_>
        <_>
          10 4 5 15 3.</_></rects>
      <tilted>0</tilted></_>
    <_>
      <rects>
        <_>
          5 12 12 9 -1.</_>
        <_>
          9 15 4 3 9.</_></rects>
      <tilted>0</tilted></_>
    <_>
      <rects>
        <_>
          5 12 16 6 -1.</_>
        <_>
          5 12 8 3 2.</_>
        <_>
          13 15 8 3 2.</_></rects>
      <tilted>0</tilted></_>
    <_>
      <rects>
        <_>
          5 12 16 8 -1.</_>
        <_>
          5 12 8 4 2.</_>
        <_>
          13 16 8 4 2.</_></rects>
      <tilted>0</tilted></_>
    <_>
      <rects>
        <_>
          5 14 4 10 -1.</_>
        <_>
          5 14 2 5 2.</_>
        <_>
          7 19 2 5 2.</_></rects>
      <tilted>0</tilted></_>
    <_>
      <rects>
        <_>
          5 17 6 12 -1.</_>
        <_>
          5 20 6 6 2.</_></rects>
      <tilted>0</tilted></_>
    <_>
      <rects>
        <_>
          5 18 15 2 -1.</_>
        <_>
          5 19 15 1 2.</_></rects>
      <tilted>0</tilted></_>
    <_>
      <rects>
        <_>
          5 28 12 4 -1.</_>
        <_>
          5 29 12 2 2.</_></rects>
      <tilted>0</tilted></_>
    <_>
      <rects>
        <_>
          5 29 1 3 -1.</_>
        <_>
          5 30 1 1 3.</_></rects>
      <tilted>0</tilted></_>
    <_>
      <rects>
        <_>
          6 0 4 2 -1.</_>
        <_>
          6 0 2 2 2.</_></rects>
      <tilted>1</tilted></_>
    <_>
      <rects>
        <_>
          6 0 6 6 -1.</_>
        <_>
          8 2 2 6 3.</_></rects>
      <tilted>1</tilted></_>
    <_>
      <rects>
        <_>
          6 0 12 12 -1.</_>
        <_>
          10 0 4 12 3.</_></rects>
      <tilted>0</tilted></_>
    <_>
      <rects>
        <_>
          6 0 9 4 -1.</_>
        <_>
          6 1 9 2 2.</_></rects>
      <tilted>0</tilted></_>
    <_>
      <rects>
        <_>
          6 0 11 9 -1.</_>
        <_>
          6 3 11 3 3.</_></rects>
      <tilted>0</tilted></_>
    <_>
      <rects>
        <_>
          6 2 12 18 -1.</_>
        <_>
          6 2 6 9 2.</_>
        <_>
          12 11 6 9 2.</_></rects>
      <tilted>0</tilted></_>
    <_>
      <rects>
        <_>
          6 2 14 28 -1.</_>
        <_>
          6 9 14 14 2.</_></rects>
      <tilted>0</tilted></_>
    <_>
      <rects>
        <_>
          6 2 17 28 -1.</_>
        <_>
          6 9 17 14 2.</_></rects>
      <tilted>0</tilted></_>
    <_>
      <rects>
        <_>
          6 8 6 2 -1.</_>
        <_>
          6 9 6 1 2.</_></rects>
      <tilted>0</tilted></_>
    <_>
      <rects>
        <_>
          6 12 15 9 -1.</_>
        <_>
          11 15 5 3 9.</_></rects>
      <tilted>0</tilted></_>
    <_>
      <rects>
        <_>
          6 12 18 3 -1.</_>
        <_>
          12 13 6 1 9.</_></rects>
      <tilted>0</tilted></_>
    <_>
      <rects>
        <_>
          6 12 11 16 -1.</_>
        <_>
          6 20 11 8 2.</_></rects>
      <tilted>0</tilted></_>
    <_>
      <rects>
        <_>
          6 12 13 14 -1.</_>
        <_>
          6 19 13 7 2.</_></rects>
      <tilted>0</tilted></_>
    <_>
      <rects>
        <_>
          6 13 6 5 -1.</_>
        <_>
          8 13 2 5 3.</_></rects>
      <tilted>0</tilted></_>
    <_>
      <rects>
        <_>
          6 13 14 6 -1.</_>
        <_>
          6 13 7 3 2.</_>
        <_>
          13 16 7 3 2.</_></rects>
      <tilted>0</tilted></_>
    <_>
      <rects>
        <_>
          6 13 10 14 -1.</_>
        <_>
          6 20 10 7 2.</_></rects>
      <tilted>0</tilted></_>
    <_>
      <rects>
        <_>
          6 15 15 6 -1.</_>
        <_>
          11 17 5 2 9.</_></rects>
      <tilted>0</tilted></_>
    <_>
      <rects>
        <_>
          6 26 12 4 -1.</_>
        <_>
          6 27 12 2 2.</_></rects>
      <tilted>0</tilted></_>
    <_>
      <rects>
        <_>
          6 28 11 2 -1.</_>
        <_>
          6 29 11 1 2.</_></rects>
      <tilted>0</tilted></_>
    <_>
      <rects>
        <_>
          7 0 3 7 -1.</_>
        <_>
          8 1 1 7 3.</_></rects>
      <tilted>1</tilted></_>
    <_>
      <rects>
        <_>
          7 0 6 7 -1.</_>
        <_>
          9 2 2 7 3.</_></rects>
      <tilted>1</tilted></_>
    <_>
      <rects>
        <_>
          7 0 5 6 -1.</_>
        <_>
          5 2 5 2 3.</_></rects>
      <tilted>1</tilted></_>
    <_>
      <rects>
        <_>
          7 0 12 6 -1.</_>
        <_>
          7 2 12 2 3.</_></rects>
      <tilted>0</tilted></_>
    <_>
      <rects>
        <_>
          7 2 4 3 -1.</_>
        <_>
          6 3 4 1 3.</_></rects>
      <tilted>1</tilted></_>
    <_>
      <rects>
        <_>
          7 2 16 4 -1.</_>
        <_>
          7 2 8 2 2.</_>
        <_>
          15 4 8 2 2.</_></rects>
      <tilted>0</tilted></_>
    <_>
      <rects>
        <_>
          7 3 12 16 -1.</_>
        <_>
          7 3 6 8 2.</_>
        <_>
          13 11 6 8 2.</_></rects>
      <tilted>0</tilted></_>
    <_>
      <rects>
        <_>
          7 4 12 2 -1.</_>
        <_>
          11 8 4 2 3.</_></rects>
      <tilted>1</tilted></_>
    <_>
      <rects>
        <_>
          7 5 18 21 -1.</_>
        <_>
          13 12 6 7 9.</_></rects>
      <tilted>0</tilted></_>
    <_>
      <rects>
        <_>
          7 10 11 21 -1.</_>
        <_>
          7 17 11 7 3.</_></rects>
      <tilted>0</tilted></_>
    <_>
      <rects>
        <_>
          7 12 11 14 -1.</_>
        <_>
          7 19 11 7 2.</_></rects>
      <tilted>0</tilted></_>
    <_>
      <rects>
        <_>
          7 13 12 6 -1.</_>
        <_>
          7 13 6 3 2.</_>
        <_>
          13 16 6 3 2.</_></rects>
      <tilted>0</tilted></_>
    <_>
      <rects>
        <_>
          7 13 10 18 -1.</_>
        <_>
          7 19 10 6 3.</_></rects>
      <tilted>0</tilted></_>
    <_>
      <rects>
        <_>
          7 13 11 18 -1.</_>
        <_>
          7 19 11 6 3.</_></rects>
      <tilted>0</tilted></_>
    <_>
      <rects>
        <_>
          7 15 9 3 -1.</_>
        <_>
          10 16 3 1 9.</_></rects>
      <tilted>0</tilted></_>
    <_>
      <rects>
        <_>
          7 15 10 16 -1.</_>
        <_>
          7 19 10 8 2.</_></rects>
      <tilted>0</tilted></_>
    <_>
      <rects>
        <_>
          7 25 10 6 -1.</_>
        <_>
          7 27 10 2 3.</_></rects>
      <tilted>0</tilted></_>
    <_>
      <rects>
        <_>
          7 29 15 3 -1.</_>
        <_>
          7 30 15 1 3.</_></rects>
      <tilted>0</tilted></_>
    <_>
      <rects>
        <_>
          8 0 2 8 -1.</_>
        <_>
          8 0 1 8 2.</_></rects>
      <tilted>1</tilted></_>
    <_>
      <rects>
        <_>
          8 0 7 4 -1.</_>
        <_>
          8 1 7 2 2.</_></rects>
      <tilted>0</tilted></_>
    <_>
      <rects>
        <_>
          8 0 8 2 -1.</_>
        <_>
          8 1 8 1 2.</_></rects>
      <tilted>0</tilted></_>
    <_>
      <rects>
        <_>
          8 1 9 21 -1.</_>
        <_>
          11 8 3 7 9.</_></rects>
      <tilted>0</tilted></_>
    <_>
      <rects>
        <_>
          8 3 8 9 -1.</_>
        <_>
          10 3 4 9 2.</_></rects>
      <tilted>0</tilted></_>
    <_>
      <rects>
        <_>
          8 6 2 4 -1.</_>
        <_>
          7 7 2 2 2.</_></rects>
      <tilted>1</tilted></_>
    <_>
      <rects>
        <_>
          8 8 7 6 -1.</_>
        <_>
          8 10 7 2 3.</_></rects>
      <tilted>0</tilted></_>
    <_>
      <rects>
        <_>
          8 10 9 12 -1.</_>
        <_>
          8 13 9 6 2.</_></rects>
      <tilted>0</tilted></_>
    <_>
      <rects>
        <_>
          8 11 6 6 -1.</_>
        <_>
          6 13 6 2 3.</_></rects>
      <tilted>1</tilted></_>
    <_>
      <rects>
        <_>
          8 11 9 6 -1.</_>
        <_>
          8 14 9 3 2.</_></rects>
      <tilted>0</tilted></_>
    <_>
      <rects>
        <_>
          8 11 10 21 -1.</_>
        <_>
          8 18 10 7 3.</_></rects>
      <tilted>0</tilted></_>
    <_>
      <rects>
        <_>
          8 12 8 7 -1.</_>
        <_>
          10 12 4 7 2.</_></rects>
      <tilted>0</tilted></_>
    <_>
      <rects>
        <_>
          8 13 4 4 -1.</_>
        <_>
          10 13 2 4 2.</_></rects>
      <tilted>0</tilted></_>
    <_>
      <rects>
        <_>
          8 13 9 3 -1.</_>
        <_>
          11 14 3 1 9.</_></rects>
      <tilted>0</tilted></_>
    <_>
      <rects>
        <_>
          8 16 10 12 -1.</_>
        <_>
          8 22 10 6 2.</_></rects>
      <tilted>0</tilted></_>
    <_>
      <rects>
        <_>
          8 17 11 4 -1.</_>
        <_>
          8 19 11 2 2.</_></rects>
      <tilted>0</tilted></_>
    <_>
      <rects>
        <_>
          8 22 4 4 -1.</_>
        <_>
          8 22 2 4 2.</_></rects>
      <tilted>1</tilted></_>
    <_>
      <rects>
        <_>
          9 0 5 6 -1.</_>
        <_>
          9 0 5 3 2.</_></rects>
      <tilted>1</tilted></_>
    <_>
      <rects>
        <_>
          9 0 7 2 -1.</_>
        <_>
          9 1 7 1 2.</_></rects>
      <tilted>0</tilted></_>
    <_>
      <rects>
        <_>
          9 1 6 22 -1.</_>
        <_>
          9 1 3 11 2.</_>
        <_>
          12 12 3 11 2.</_></rects>
      <tilted>0</tilted></_>
    <_>
      <rects>
        <_>
          9 2 12 12 -1.</_>
        <_>
          9 8 12 6 2.</_></rects>
      <tilted>0</tilted></_>
    <_>
      <rects>
        <_>
          9 8 6 18 -1.</_>
        <_>
          9 14 6 6 3.</_></rects>
      <tilted>0</tilted></_>
    <_>
      <rects>
        <_>
          9 9 2 2 -1.</_>
        <_>
          10 9 1 2 2.</_></rects>
      <tilted>0</tilted></_>
    <_>
      <rects>
        <_>
          9 9 8 14 -1.</_>
        <_>
          9 16 8 7 2.</_></rects>
      <tilted>0</tilted></_>
    <_>
      <rects>
        <_>
          9 10 8 21 -1.</_>
        <_>
          9 17 8 7 3.</_></rects>
      <tilted>0</tilted></_>
    <_>
      <rects>
        <_>
          9 14 4 4 -1.</_>
        <_>
          11 14 2 4 2.</_></rects>
      <tilted>0</tilted></_>
    <_>
      <rects>
        <_>
          9 14 4 10 -1.</_>
        <_>
          9 14 2 5 2.</_>
        <_>
          11 19 2 5 2.</_></rects>
      <tilted>0</tilted></_>
    <_>
      <rects>
        <_>
          9 14 16 9 -1.</_>
        <_>
          13 14 8 9 2.</_></rects>
      <tilted>0</tilted></_>
    <_>
      <rects>
        <_>
          9 16 4 1 -1.</_>
        <_>
          10 16 2 1 2.</_></rects>
      <tilted>0</tilted></_>
    <_>
      <rects>
        <_>
          9 17 8 6 -1.</_>
        <_>
          9 19 8 2 3.</_></rects>
      <tilted>0</tilted></_>
    <_>
      <rects>
        <_>
          9 25 6 4 -1.</_>
        <_>
          9 26 6 2 2.</_></rects>
      <tilted>0</tilted></_>
    <_>
      <rects>
        <_>
          9 28 7 2 -1.</_>
        <_>
          9 29 7 1 2.</_></rects>
      <tilted>0</tilted></_>
    <_>
      <rects>
        <_>
          10 1 8 10 -1.</_>
        <_>
          10 1 4 10 2.</_></rects>
      <tilted>1</tilted></_>
    <_>
      <rects>
        <_>
          10 2 10 10 -1.</_>
        <_>
          10 2 5 10 2.</_></rects>
      <tilted>1</tilted></_>
    <_>
      <rects>
        <_>
          10 3 8 7 -1.</_>
        <_>
          10 3 4 7 2.</_></rects>
      <tilted>1</tilted></_>
    <_>
      <rects>
        <_>
          10 7 15 12 -1.</_>
        <_>
          15 11 5 4 9.</_></rects>
      <tilted>0</tilted></_>
    <_>
      <rects>
        <_>
          10 7 7 8 -1.</_>
        <_>
          10 9 7 4 2.</_></rects>
      <tilted>0</tilted></_>
    <_>
      <rects>
        <_>
          10 8 4 16 -1.</_>
        <_>
          10 12 4 8 2.</_></rects>
      <tilted>0</tilted></_>
    <_>
      <rects>
        <_>
          10 13 8 6 -1.</_>
        <_>
          14 13 4 6 2.</_></rects>
      <tilted>0</tilted></_>
    <_>
      <rects>
        <_>
          10 14 10 16 -1.</_>
        <_>
          10 18 10 8 2.</_></rects>
      <tilted>0</tilted></_>
    <_>
      <rects>
        <_>
          10 16 4 2 -1.</_>
        <_>
          10 17 4 1 2.</_></rects>
      <tilted>0</tilted></_>
    <_>
      <rects>
        <_>
          10 17 14 12 -1.</_>
        <_>
          17 17 7 12 2.</_></rects>
      <tilted>0</tilted></_>
    <_>
      <rects>
        <_>
          10 20 5 4 -1.</_>
        <_>
          10 21 5 2 2.</_></rects>
      <tilted>0</tilted></_>
    <_>
      <rects>
        <_>
          11 1 14 12 -1.</_>
        <_>
          11 1 7 6 2.</_>
        <_>
          18 7 7 6 2.</_></rects>
      <tilted>0</tilted></_>
    <_>
      <rects>
        <_>
          11 2 14 10 -1.</_>
        <_>
          11 2 7 5 2.</_>
        <_>
          18 7 7 5 2.</_></rects>
      <tilted>0</tilted></_>
    <_>
      <rects>
        <_>
          11 3 6 16 -1.</_>
        <_>
          11 3 3 8 2.</_>
        <_>
          14 11 3 8 2.</_></rects>
      <tilted>0</tilted></_>
    <_>
      <rects>
        <_>
          11 4 8 6 -1.</_>
        <_>
          13 4 4 6 2.</_></rects>
      <tilted>0</tilted></_>
    <_>
      <rects>
        <_>
          11 6 8 2 -1.</_>
        <_>
          15 6 4 2 2.</_></rects>
      <tilted>0</tilted></_>
    <_>
      <rects>
        <_>
          11 6 6 9 -1.</_>
        <_>
          11 9 6 3 3.</_></rects>
      <tilted>0</tilted></_>
    <_>
      <rects>
        <_>
          11 7 4 3 -1.</_>
        <_>
          12 7 2 3 2.</_></rects>
      <tilted>0</tilted></_>
    <_>
      <rects>
        <_>
          11 14 9 3 -1.</_>
        <_>
          14 14 3 3 3.</_></rects>
      <tilted>0</tilted></_>
    <_>
      <rects>
        <_>
          11 15 2 2 -1.</_>
        <_>
          12 15 1 2 2.</_></rects>
      <tilted>0</tilted></_>
    <_>
      <rects>
        <_>
          11 16 3 12 -1.</_>
        <_>
          11 19 3 6 2.</_></rects>
      <tilted>0</tilted></_>
    <_>
      <rects>
        <_>
          11 17 3 4 -1.</_>
        <_>
          11 18 3 2 2.</_></rects>
      <tilted>0</tilted></_>
    <_>
      <rects>
        <_>
          11 17 4 4 -1.</_>
        <_>
          11 19 4 2 2.</_></rects>
      <tilted>0</tilted></_>
    <_>
      <rects>
        <_>
          11 20 8 6 -1.</_>
        <_>
          13 20 4 6 2.</_></rects>
      <tilted>0</tilted></_>
    <_>
      <rects>
        <_>
          12 2 6 10 -1.</_>
        <_>
          12 7 6 5 2.</_></rects>
      <tilted>0</tilted></_>
    <_>
      <rects>
        <_>
          12 6 7 3 -1.</_>
        <_>
          12 7 7 1 3.</_></rects>
      <tilted>0</tilted></_>
    <_>
      <rects>
        <_>
          12 7 3 2 -1.</_>
        <_>
          12 8 3 1 2.</_></rects>
      <tilted>0</tilted></_>
    <_>
      <rects>
        <_>
          12 7 10 8 -1.</_>
        <_>
          12 7 5 8 2.</_></rects>
      <tilted>1</tilted></_>
    <_>
      <rects>
        <_>
          12 8 6 11 -1.</_>
        <_>
          15 8 3 11 2.</_></rects>
      <tilted>0</tilted></_>
    <_>
      <rects>
        <_>
          12 8 10 1 -1.</_>
        <_>
          17 8 5 1 2.</_></rects>
      <tilted>0</tilted></_>
    <_>
      <rects>
        <_>
          12 9 1 4 -1.</_>
        <_>
          12 10 1 2 2.</_></rects>
      <tilted>0</tilted></_>
    <_>
      <rects>
        <_>
          12 10 6 11 -1.</_>
        <_>
          15 10 3 11 2.</_></rects>
      <tilted>0</tilted></_>
    <_>
      <rects>
        <_>
          12 13 4 4 -1.</_>
        <_>
          14 13 2 4 2.</_></rects>
      <tilted>0</tilted></_>
    <_>
      <rects>
        <_>
          12 16 2 16 -1.</_>
        <_>
          12 20 2 8 2.</_></rects>
      <tilted>0</tilted></_>
    <_>
      <rects>
        <_>
          12 20 4 6 -1.</_>
        <_>
          12 20 2 6 2.</_></rects>
      <tilted>1</tilted></_>
    <_>
      <rects>
        <_>
          12 23 12 9 -1.</_>
        <_>
          16 23 4 9 3.</_></rects>
      <tilted>0</tilted></_>
    <_>
      <rects>
        <_>
          13 0 8 2 -1.</_>
        <_>
          13 0 4 1 2.</_>
        <_>
          17 1 4 1 2.</_></rects>
      <tilted>0</tilted></_>
    <_>
      <rects>
        <_>
          13 1 12 12 -1.</_>
        <_>
          13 1 6 6 2.</_>
        <_>
          19 7 6 6 2.</_></rects>
      <tilted>0</tilted></_>
    <_>
      <rects>
        <_>
          13 2 5 4 -1.</_>
        <_>
          13 2 5 2 2.</_></rects>
      <tilted>1</tilted></_>
    <_>
      <rects>
        <_>
          13 3 3 2 -1.</_>
        <_>
          14 4 1 2 3.</_></rects>
      <tilted>1</tilted></_>
    <_>
      <rects>
        <_>
          13 4 12 1 -1.</_>
        <_>
          16 4 6 1 2.</_></rects>
      <tilted>0</tilted></_>
    <_>
      <rects>
        <_>
          13 5 12 21 -1.</_>
        <_>
          13 12 12 7 3.</_></rects>
      <tilted>0</tilted></_>
    <_>
      <rects>
        <_>
          13 14 9 9 -1.</_>
        <_>
          13 17 9 3 3.</_></rects>
      <tilted>0</tilted></_>
    <_>
      <rects>
        <_>
          13 16 6 12 -1.</_>
        <_>
          16 16 3 12 2.</_></rects>
      <tilted>0</tilted></_>
    <_>
      <rects>
        <_>
          13 16 8 8 -1.</_>
        <_>
          13 20 8 4 2.</_></rects>
      <tilted>0</tilted></_>
    <_>
      <rects>
        <_>
          13 20 5 10 -1.</_>
        <_>
          13 25 5 5 2.</_></rects>
      <tilted>0</tilted></_>
    <_>
      <rects>
        <_>
          14 3 4 14 -1.</_>
        <_>
          14 3 2 14 2.</_></rects>
      <tilted>1</tilted></_>
    <_>
      <rects>
        <_>
          14 5 6 10 -1.</_>
        <_>
          17 5 3 10 2.</_></rects>
      <tilted>0</tilted></_>
    <_>
      <rects>
        <_>
          14 7 5 2 -1.</_>
        <_>
          14 8 5 1 2.</_></rects>
      <tilted>0</tilted></_>
    <_>
      <rects>
        <_>
          14 9 3 8 -1.</_>
        <_>
          14 9 3 4 2.</_></rects>
      <tilted>1</tilted></_>
    <_>
      <rects>
        <_>
          14 16 3 6 -1.</_>
        <_>
          14 19 3 3 2.</_></rects>
      <tilted>0</tilted></_>
    <_>
      <rects>
        <_>
          15 0 7 4 -1.</_>
        <_>
          15 2 7 2 2.</_></rects>
      <tilted>0</tilted></_>
    <_>
      <rects>
        <_>
          15 2 4 24 -1.</_>
        <_>
          15 8 4 12 2.</_></rects>
      <tilted>0</tilted></_>
    <_>
      <rects>
        <_>
          15 5 4 21 -1.</_>
        <_>
          16 5 2 21 2.</_></rects>
      <tilted>0</tilted></_>
    <_>
      <rects>
        <_>
          15 7 4 4 -1.</_>
        <_>
          15 7 2 4 2.</_></rects>
      <tilted>1</tilted></_>
    <_>
      <rects>
        <_>
          15 9 3 3 -1.</_>
        <_>
          16 10 1 1 9.</_></rects>
      <tilted>0</tilted></_>
    <_>
      <rects>
        <_>
          15 9 1 6 -1.</_>
        <_>
          13 11 1 2 3.</_></rects>
      <tilted>1</tilted></_>
    <_>
      <rects>
        <_>
          15 16 2 1 -1.</_>
        <_>
          15 16 1 1 2.</_></rects>
      <tilted>1</tilted></_>
    <_>
      <rects>
        <_>
          15 16 2 12 -1.</_>
        <_>
          15 20 2 4 3.</_></rects>
      <tilted>0</tilted></_>
    <_>
      <rects>
        <_>
          15 17 2 1 -1.</_>
        <_>
          15 17 1 1 2.</_></rects>
      <tilted>1</tilted></_>
    <_>
      <rects>
        <_>
          16 0 9 8 -1.</_>
        <_>
          16 0 9 4 2.</_></rects>
      <tilted>1</tilted></_>
    <_>
      <rects>
        <_>
          16 1 4 24 -1.</_>
        <_>
          17 1 2 24 2.</_></rects>
      <tilted>0</tilted></_>
    <_>
      <rects>
        <_>
          16 7 4 12 -1.</_>
        <_>
          16 7 2 6 2.</_>
        <_>
          18 13 2 6 2.</_></rects>
      <tilted>0</tilted></_>
    <_>
      <rects>
        <_>
          16 16 2 2 -1.</_>
        <_>
          16 16 1 2 2.</_></rects>
      <tilted>1</tilted></_>
    <_>
      <rects>
        <_>
          17 0 4 12 -1.</_>
        <_>
          17 3 4 6 2.</_></rects>
      <tilted>0</tilted></_>
    <_>
      <rects>
        <_>
          17 2 4 4 -1.</_>
        <_>
          17 2 2 2 2.</_>
        <_>
          19 4 2 2 2.</_></rects>
      <tilted>0</tilted></_>
    <_>
      <rects>
        <_>
          17 2 8 6 -1.</_>
        <_>
          17 2 8 3 2.</_></rects>
      <tilted>1</tilted></_>
    <_>
      <rects>
        <_>
          17 8 3 12 -1.</_>
        <_>
          17 14 3 6 2.</_></rects>
      <tilted>0</tilted></_>
    <_>
      <rects>
        <_>
          17 9 8 12 -1.</_>
        <_>
          21 9 4 12 2.</_></rects>
      <tilted>0</tilted></_>
    <_>
      <rects>
        <_>
          17 10 4 5 -1.</_>
        <_>
          17 10 2 5 2.</_></rects>
      <tilted>1</tilted></_>
    <_>
      <rects>
        <_>
          17 10 6 12 -1.</_>
        <_>
          20 10 3 12 2.</_></rects>
      <tilted>0</tilted></_>
    <_>
      <rects>
        <_>
          17 10 7 12 -1.</_>
        <_>
          14 13 7 6 2.</_></rects>
      <tilted>1</tilted></_>
    <_>
      <rects>
        <_>
          17 13 2 10 -1.</_>
        <_>
          17 13 2 5 2.</_></rects>
      <tilted>1</tilted></_>
    <_>
      <rects>
        <_>
          18 3 4 12 -1.</_>
        <_>
          18 3 2 6 2.</_>
        <_>
          20 9 2 6 2.</_></rects>
      <tilted>0</tilted></_>
    <_>
      <rects>
        <_>
          18 3 6 14 -1.</_>
        <_>
          18 3 3 7 2.</_>
        <_>
          21 10 3 7 2.</_></rects>
      <tilted>0</tilted></_>
    <_>
      <rects>
        <_>
          18 13 6 4 -1.</_>
        <_>
          20 15 2 4 3.</_></rects>
      <tilted>1</tilted></_>
    <_>
      <rects>
        <_>
          18 13 6 7 -1.</_>
        <_>
          20 15 2 7 3.</_></rects>
      <tilted>1</tilted></_>
    <_>
      <rects>
        <_>
          19 3 6 16 -1.</_>
        <_>
          19 3 3 8 2.</_>
        <_>
          22 11 3 8 2.</_></rects>
      <tilted>0</tilted></_>
    <_>
      <rects>
        <_>
          19 11 2 10 -1.</_>
        <_>
          20 11 1 10 2.</_></rects>
      <tilted>0</tilted></_>
    <_>
      <rects>
        <_>
          19 22 2 6 -1.</_>
        <_>
          19 22 2 3 2.</_></rects>
      <tilted>1</tilted></_>
    <_>
      <rects>
        <_>
          19 29 3 3 -1.</_>
        <_>
          20 30 1 1 9.</_></rects>
      <tilted>0</tilted></_>
    <_>
      <rects>
        <_>
          20 0 4 6 -1.</_>
        <_>
          18 2 4 2 3.</_></rects>
      <tilted>1</tilted></_>
    <_>
      <rects>
        <_>
          20 9 2 4 -1.</_>
        <_>
          20 11 2 2 2.</_></rects>
      <tilted>0</tilted></_>
    <_>
      <rects>
        <_>
          20 9 5 12 -1.</_>
        <_>
          17 12 5 6 2.</_></rects>
      <tilted>1</tilted></_>
    <_>
      <rects>
        <_>
          20 28 1 4 -1.</_>
        <_>
          20 30 1 2 2.</_></rects>
      <tilted>0</tilted></_>
    <_>
      <rects>
        <_>
          20 29 1 2 -1.</_>
        <_>
          20 30 1 1 2.</_></rects>
      <tilted>0</tilted></_>
    <_>
      <rects>
        <_>
          21 15 4 9 -1.</_>
        <_>
          22 15 2 9 2.</_></rects>
      <tilted>0</tilted></_>
    <_>
      <rects>
        <_>
          21 15 4 8 -1.</_>
        <_>
          21 15 2 8 2.</_></rects>
      <tilted>1</tilted></_>
    <_>
      <rects>
        <_>
          21 16 2 9 -1.</_>
        <_>
          18 19 2 3 3.</_></rects>
      <tilted>1</tilted></_>
    <_>
      <rects>
        <_>
          21 17 4 6 -1.</_>
        <_>
          23 17 2 6 2.</_></rects>
      <tilted>0</tilted></_>
    <_>
      <rects>
        <_>
          21 21 4 4 -1.</_>
        <_>
          22 22 2 4 2.</_></rects>
      <tilted>1</tilted></_>
    <_>
      <rects>
        <_>
          21 21 3 7 -1.</_>
        <_>
          22 22 1 7 3.</_></rects>
      <tilted>1</tilted></_>
    <_>
      <rects>
        <_>
          21 22 4 2 -1.</_>
        <_>
          22 23 2 2 2.</_></rects>
      <tilted>1</tilted></_>
    <_>
      <rects>
        <_>
          21 22 4 5 -1.</_>
        <_>
          22 23 2 5 2.</_></rects>
      <tilted>1</tilted></_>
    <_>
      <rects>
        <_>
          22 2 3 3 -1.</_>
        <_>
          21 3 3 1 3.</_></rects>
      <tilted>1</tilted></_>
    <_>
      <rects>
        <_>
          22 6 3 4 -1.</_>
        <_>
          23 6 1 4 3.</_></rects>
      <tilted>0</tilted></_>
    <_>
      <rects>
        <_>
          22 21 3 2 -1.</_>
        <_>
          23 22 1 2 3.</_></rects>
      <tilted>1</tilted></_>
    <_>
      <rects>
        <_>
          22 21 3 6 -1.</_>
        <_>
          23 22 1 6 3.</_></rects>
      <tilted>1</tilted></_>
    <_>
      <rects>
        <_>
          22 21 3 8 -1.</_>
        <_>
          23 22 1 8 3.</_></rects>
      <tilted>1</tilted></_>
    <_>
      <rects>
        <_>
          22 22 3 3 -1.</_>
        <_>
          23 22 1 3 3.</_></rects>
      <tilted>0</tilted></_>
    <_>
      <rects>
        <_>
          22 23 3 2 -1.</_>
        <_>
          23 23 1 2 3.</_></rects>
      <tilted>0</tilted></_>
    <_>
      <rects>
        <_>
          23 5 1 16 -1.</_>
        <_>
          23 5 1 8 2.</_></rects>
      <tilted>1</tilted></_>
    <_>
      <rects>
        <_>
          23 5 2 23 -1.</_>
        <_>
          24 5 1 23 2.</_></rects>
      <tilted>0</tilted></_>
    <_>
      <rects>
        <_>
          23 16 2 8 -1.</_>
        <_>
          23 16 1 4 2.</_>
        <_>
          24 20 1 4 2.</_></rects>
      <tilted>0</tilted></_>
    <_>
      <rects>
        <_>
          23 19 2 2 -1.</_>
        <_>
          23 19 1 1 2.</_>
        <_>
          24 20 1 1 2.</_></rects>
      <tilted>0</tilted></_></features></cascade>
</opencv_storage>
