<?xml version="1.0"?>
<opencv_storage>
<stage4>
  <maxWeakCount>6</maxWeakCount>
  <stageThreshold>-1.7052536010742188e+00</stageThreshold>
  <weakClassifiers>
    <_>
      <internalNodes>
        1 2 69439 3.3260995149612427e-01 0 -1 68911
        3.8670420646667480e-02 -2 -3 230901 6.2923752702772617e-03</internalNodes>
      <leafValues>
        -6.8803900480270386e-01 3.5667395591735840e-01
        -5.7653063535690308e-01 8.4715700149536133e-01</leafValues></_>
    <_>
      <internalNodes>
        1 2 445466 -4.0352985262870789e-02 0 -1 240650
        8.6488217115402222e-02 -2 -3 20537 -5.2318796515464783e-03</internalNodes>
      <leafValues>
        -1.5781545639038086e-01 8.4336906671524048e-01
        4.1525924205780029e-01 -5.6776404380798340e-01</leafValues></_>
    <_>
      <internalNodes>
        1 2 183653 -3.6028646863996983e-03 0 -1 349759
        -1.1988227925030515e-05 -2 -3 235999 3.9467341266572475e-03</internalNodes>
      <leafValues>
        6.3093060255050659e-01 -3.8299649953842163e-01
        -6.4195650815963745e-01 2.9919731616973877e-01</leafValues></_>
    <_>
      <internalNodes>
        1 2 262519 -3.1771333306096494e-04 0 -1 255698
        -3.9824075996875763e-02 -2 -3 4454 6.7807242274284363e-02</internalNodes>
      <leafValues>
        -8.8536453247070312e-01 4.6293479204177856e-01
        -5.6034570932388306e-01 4.3947753310203552e-01</leafValues></_>
    <_>
      <internalNodes>
        1 2 63162 -1.9515916705131531e-02 0 -1 428072
        4.0797945111989975e-03 -2 -3 11507 2.7085003256797791e-01</internalNodes>
      <leafValues>
        8.9911448955535889e-01 -9.6670836210250854e-01
        -5.2091109752655029e-01 3.0781793594360352e-01</leafValues></_>
    <_>
      <internalNodes>
        1 2 285243 7.5058417860418558e-04 0 -1 236930
        4.0491903200745583e-03 -2 -3 332327 -1.6860256437212229e-03</internalNodes>
      <leafValues>
        -8.3840072154998779e-01 -8.4777250885963440e-03
        -6.2940502166748047e-01 4.2520797252655029e-01</leafValues></_></weakClassifiers></stage4>
</opencv_storage>
